{"layers":[{"0":{},"1":{},"2":{},"3":{},"4":{},"5":{},"6":{},"7":{},"8":{},"9":{},"10":{},"11":{},"12":{},"13":{},"14":{},"15":{},"16":{},"17":{},"18":{},"19":{},"20":{},"21":{},"22":{},"23":{},"24":{},"25":{},"26":{},"27":{},"28":{},"29":{},"30":{},"31":{},"32":{},"33":{},"34":{},"35":{},"36":{},"37":{},"38":{},"39":{},"40":{},"41":{},"42":{},"43":{},"44":{},"45":{},"46":{},"47":{},"48":{},"49":{},"50":{},"51":{},"52":{},"53":{},"54":{},"55":{},"56":{},"57":{},"58":{},"59":{},"60":{},"61":{},"62":{},"63":{},"64":{},"65":{},"66":{},"67":{},"68":{},"69":{},"70":{},"71":{},"72":{},"73":{},"74":{},"75":{},"76":{},"77":{},"78":{},"79":{},"80":{},"81":{},"82":{},"83":{},"84":{},"85":{},"86":{},"87":{},"88":{},"89":{},"90":{},"91":{},"92":{}},{"0":{"bias":-0.14733560366086784,"weights":{"0":-0.28628405708754734,"1":-0.008902408128140962,"2":-0.14246651267043248,"3":0.11906648488256234,"4":-0.021560357686433263,"5":-0.10164850310572357,"6":0.11798271675672631,"7":-0.1274441185744889,"8":-0.1984706493568192,"9":0.04586199482371622,"10":0.07383374043389068,"11":-0.08194606538457617,"12":-0.1225123597827937,"13":0.08312760913485852,"14":-0.14454834550966705,"15":0.15757867585217403,"16":0.10588121155261242,"17":0.13243608173765906,"18":0.034348233117650846,"19":0.19307453645081896,"20":-0.010927929757308979,"21":0.05841532466633878,"22":0.07563315867424288,"23":0.11014741181927414,"24":0.17877292780849446,"25":0.0015107803366677978,"26":-0.13428003927679616,"27":0.10025598755748323,"28":-0.2807965547730463,"29":-0.14926754210664564,"30":-0.14212942005115184,"31":-0.24346966515535853,"32":0.1219748020533143,"33":-0.12288601211889343,"34":-0.09917764344748922,"35":0.010216413402360708,"36":-0.1516114062753587,"37":-0.2341472234273495,"38":0.03305010363130476,"39":0.21159685306252696,"40":0.1303427813341227,"41":0.11055254720203894,"42":0.020188268076763178,"43":-0.04820781298497124,"44":-0.1503859289204203,"45":0.09954027151362994,"46":0.02808126166563118,"47":0.15757884384764625,"48":0.07634863610408497,"49":-0.05428455695589323,"50":0.007679750621305523,"51":-0.21815160110685197,"52":0.15412705214740938,"53":0.24308283205689682,"54":-0.06374051342443254,"55":0.0940726373480861,"56":-0.07674555165376337,"57":0.21960366089686176,"58":0.14856789486613028,"59":-0.04880620637025171,"60":-0.05927236281744224,"61":0.14208275000875237,"62":0.2129241589907727,"63":-0.014466616427648167,"64":0.15503027605596928,"65":-0.13720019348309379,"66":0.14320356832549253,"67":-0.1046125427922386,"68":0.21760292158389796,"69":0.12983063001097886,"70":-0.12015058433389306,"71":-0.012360310740813776,"72":0.11484231667084281,"73":-0.12231751466957398,"74":0.020964457742498287,"75":-0.12135745738297016,"76":0.03939828751140758,"77":0.055180773072090704,"78":0.22437293147618054,"79":0.236078293540968,"80":-0.06539797145891033,"81":0.06370292209032023,"82":0.16217746874135217,"83":-0.14583339181978183,"84":0.00366945540972911,"85":0.10409059199856696,"86":0.05677053882812911,"87":-0.04433999556469446,"88":-0.08789196698305851,"89":0.11359610467236414,"90":0.21718624128294725,"91":-0.07099031964670066,"92":-0.1612039607983292}},"1":{"bias":-0.00496039135588156,"weights":{"0":-0.09262391724137309,"1":-0.25611097605184946,"2":-0.29379812333554206,"3":-0.21694198129960596,"4":-0.03601706012333708,"5":-0.2578665801189958,"6":0.09039776528927107,"7":-0.10026159649217832,"8":-0.22266544118470907,"9":-0.003749251520526083,"10":-0.14758044838946416,"11":-0.008005727743027533,"12":-0.13133739404176561,"13":-0.19011987034041994,"14":-0.1660154035819923,"15":-0.17044759638635207,"16":0.03627651081032338,"17":-0.1076422852708742,"18":0.02190792574373819,"19":0.16683713594020838,"20":0.009154502460023181,"21":0.24701969765585716,"22":-0.07601257273150008,"23":0.1199404028035369,"24":-0.019656553822513984,"25":-0.018990803256291475,"26":-0.0013938720845558714,"27":0.38179448820638506,"28":-0.1664629002732761,"29":-0.20991733270992297,"30":0.21823403166622976,"31":0.061393427104739065,"32":0.1497360551983209,"33":0.22727765165492994,"34":-0.062114644995810764,"35":-0.10927297611492615,"36":0.044670852271335534,"37":0.051739500005792645,"38":0.09172448892465476,"39":0.309961524373004,"40":0.1900544975550927,"41":0.12498987959453715,"42":0.11811775934163413,"43":-0.2573905669252883,"44":-0.20662125833137793,"45":-0.2102033621828236,"46":-0.08103305020226054,"47":-0.21820849652308874,"48":-0.2536432393183154,"49":0.15641512663318244,"50":-0.1433716407726466,"51":-0.03716430420661442,"52":-0.011849048968480623,"53":0.10947328735511765,"54":0.06593504141597495,"55":0.24415089663765815,"56":0.1997642588291384,"57":-0.029188040095597476,"58":-0.0457103093002061,"59":0.03869075793253643,"60":-0.010621713401146794,"61":0.10392055453172913,"62":0.06256052616139159,"63":0.011991891004572357,"64":0.08904682205598384,"65":0.1461105815666159,"66":-0.10477606288799376,"67":0.004885725574867549,"68":0.13820179074149336,"69":-0.004825948624392788,"70":0.11656142386893593,"71":0.06934491942623817,"72":-0.04344335859773567,"73":-0.09814235637174475,"74":-0.12152133303346732,"75":0.061639883576153624,"76":0.11394933283524536,"77":0.04564410222001773,"78":-0.11437355678920766,"79":0.0060681734551546185,"80":0.002902870555601555,"81":-0.0319258027087564,"82":0.2502515091403014,"83":-0.01602688927596765,"84":0.09400721392779758,"85":0.17032916231780598,"86":0.0011810779261373738,"87":0.07698225891707403,"88":0.06082485330906907,"89":0.07094628585106615,"90":0.1373379817387154,"91":-0.05188780656174544,"92":-0.004682749164097406}},"2":{"bias":-0.19980979936161952,"weights":{"0":0.346731923678538,"1":0.2832572138954545,"2":0.2349937019301183,"3":0.024772337070240135,"4":0.0971304807194376,"5":0.36732592668572994,"6":0.015494598097973544,"7":0.052558546564084895,"8":0.3899650540508824,"9":0.1789098479016793,"10":0.2349529282718108,"11":0.31919484383053565,"12":0.2809490211957313,"13":0.023179343761394314,"14":0.2392116750810226,"15":0.17299476344635614,"16":0.16710319930554723,"17":0.22239108595335025,"18":0.26951657265819406,"19":0.09924042154183495,"20":-0.2680838392687048,"21":0.22657108538035786,"22":-0.04306810649460043,"23":0.06773054301835855,"24":-0.08079336816869988,"25":-0.15155912547415093,"26":-0.16196729400361273,"27":-0.055136417481202536,"28":0.09948490422970885,"29":0.02834084994758331,"30":-0.12639210492480335,"31":-0.09696400111228011,"32":0.033665298359980535,"33":-0.1452772455774578,"34":0.0016080317806539673,"35":0.11325380929555127,"36":0.05395101521198558,"37":-0.1123271185023165,"38":0.14500312937990614,"39":-0.06960288387192906,"40":0.2369081276659408,"41":-0.0029733227599120123,"42":-0.19986560939867137,"43":0.010326879971025165,"44":0.11548672140328585,"45":-0.02481283562340063,"46":-0.11639717960976856,"47":-0.3610906351749934,"48":0.0331246283067518,"49":0.006320994620905929,"50":-0.20600985429135205,"51":-0.2227156822463181,"52":-0.28918402893942613,"53":-0.206115925535569,"54":0.0076230239606997615,"55":-0.16213133053978007,"56":0.004776333191102434,"57":-0.3013875148694775,"58":-0.19077989295926112,"59":-0.315052284912835,"60":-0.08367780118291486,"61":-0.23220424808962944,"62":-0.07494695426077273,"63":-0.14362404651798008,"64":0.1095440164815254,"65":0.013958040012983017,"66":-0.1482715908585229,"67":-0.2655333451640656,"68":-0.2180005531031225,"69":-0.07510371315298149,"70":-0.19655611941095857,"71":-0.07864068607312516,"72":-0.13742868662204782,"73":0.07465022286041739,"74":-0.050962372854749326,"75":0.12696419825013658,"76":-0.13056375944605658,"77":-0.0014797899075248435,"78":0.11727487668642417,"79":0.0024214788842340236,"80":0.19232883263312775,"81":0.21801051810901,"82":0.1046172307415178,"83":-0.05208097536955681,"84":0.04068762568283756,"85":0.12733546600434095,"86":0.18917500335671347,"87":0.09334278127336064,"88":-0.04098685580957743,"89":0.18616692084867062,"90":0.09862742629219051,"91":0.1401340885273187,"92":-0.08208079195755805}},"3":{"bias":-0.029545231880404043,"weights":{"0":0.1764144130794563,"1":-0.006731275551441763,"2":-0.05477823804392545,"3":0.08152765876338972,"4":-0.12231449936440755,"5":-0.12423836300304361,"6":-0.09212871773354198,"7":0.007429067110509008,"8":-0.1065843764218958,"9":0.16843406358467145,"10":0.05494918795450536,"11":-0.07190176628864199,"12":0.0789208588661155,"13":-0.1546140886369585,"14":-0.03920059825413908,"15":-0.1695472107952465,"16":-0.12093581623598894,"17":0.1641648468613551,"18":0.07513825889304405,"19":-0.1504517313579075,"20":0.2062048796298414,"21":0.11525937903118617,"22":0.02128256652389633,"23":0.1159976427426578,"24":-0.1028865368979271,"25":0.1816367223541504,"26":0.25522046118471925,"27":-0.21910517859624828,"28":0.26537556713104615,"29":0.05110521909081012,"30":-0.094121004006516,"31":-0.0021999330478981753,"32":-0.20636502782851457,"33":-0.004942576181524961,"34":-0.11479195246960856,"35":-0.2179826605245197,"36":-0.17346184805780565,"37":-0.0846214674950273,"38":0.09579613583710535,"39":-0.324401842057069,"40":-0.10710531226694256,"41":0.037222565370504154,"42":0.0022804677848445374,"43":0.1388588307047157,"44":0.04299982707697101,"45":0.2763152608390771,"46":0.21895903667724248,"47":0.1088632134353722,"48":0.032600564128663766,"49":0.3673972127617889,"50":0.02786062402850669,"51":0.369872700175978,"52":-0.011211347729996018,"53":-0.08332361401762484,"54":0.0339509164767603,"55":-0.16748214600165912,"56":0.04539432603994056,"57":-0.2830623044393374,"58":-0.2503371937741818,"59":0.048495325746927505,"60":-0.2599274268143541,"61":-0.11662396237642121,"62":-0.07532689745662825,"63":-0.03455672728249957,"64":-0.07459942170218731,"65":-0.013806026887055482,"66":-0.099297865841662,"67":0.1249014370738773,"68":-0.04046382230472994,"69":0.07501034343867993,"70":-0.22791128972900065,"71":-0.18055442726110033,"72":-0.1773771242911809,"73":-0.10182469753938511,"74":-0.02297331244727592,"75":0.0353721251316036,"76":0.10822731187987572,"77":-0.03652568140765161,"78":0.09292493677363149,"79":0.08237801312391817,"80":-0.05047220262949605,"81":-0.2118460902547904,"82":0.015942720858069335,"83":0.0011984847402345936,"84":-0.14423312124291734,"85":0.16239769660637735,"86":-0.07146657393390785,"87":0.097069735639491,"88":0.0843046524208973,"89":0.0029822117183719373,"90":0.07696586013620049,"91":0.08086114360072999,"92":0.00034577961812324}},"4":{"bias":0.002622557869764365,"weights":{"0":-0.1630945894638072,"1":-0.04219520503945488,"2":0.07658601605311396,"3":-0.08857048510159501,"4":0.0896194770758531,"5":-0.22930415421163095,"6":-0.12190392215879736,"7":-0.20280084121603087,"8":-0.22692026073889274,"9":-0.32950121724454645,"10":0.0801989546889538,"11":-0.35902223298915314,"12":-0.09717536104871002,"13":-0.20903051874346879,"14":0.045429777567971244,"15":-0.21604194341190167,"16":-0.18015320523154252,"17":-0.06959394146233236,"18":0.02558876962236709,"19":0.15198232438195325,"20":0.15921615103971196,"21":0.004044637533324367,"22":0.003304601579026637,"23":-0.1349012568848857,"24":-0.18634910403670846,"25":-0.13789593040823792,"26":-0.2029726681285885,"27":0.18522935058420084,"28":-0.2363458556913655,"29":-0.1141774351245951,"30":0.05119987962767428,"31":-0.04296950807475925,"32":0.21629285136195278,"33":0.11864753045293515,"34":0.1277330480739323,"35":0.13932630875117327,"36":0.08004406889897206,"37":0.12397510215871561,"38":0.04100067987778925,"39":0.17992045796038347,"40":0.21298941485779463,"41":0.2646290422782537,"42":-0.13964056282907217,"43":-0.05649621202904478,"44":-0.23588898051155055,"45":-0.00000904210141128207,"46":0.020560371487065795,"47":-0.24062108917521063,"48":0.09314312111013284,"49":-0.1215870017765031,"50":-0.23199482069129232,"51":-0.045203524968108436,"52":0.06089304329100767,"53":0.18615359814224675,"54":0.08255385119403777,"55":-0.07829693372244197,"56":0.16068303351520855,"57":0.03495651869558819,"58":0.023299849123063886,"59":0.052770304041690454,"60":0.04145724455627678,"61":-0.07863066777043597,"62":0.18794502278244782,"63":0.03983185955401333,"64":0.09588331114977346,"65":-0.05959592535805415,"66":0.054384646922536084,"67":-0.08670452433455057,"68":-0.040543663799715274,"69":0.022629225356213832,"70":0.13155106134758374,"71":0.22908895337546406,"72":0.18651292484830914,"73":-0.06554162664380461,"74":-0.028998512952508115,"75":-0.06499559097036887,"76":0.06715852384844952,"77":0.16333339645355643,"78":-0.13867339861143047,"79":-0.06204730899624688,"80":0.08920056165655929,"81":-0.14283385762277473,"82":-0.19515103731714625,"83":-0.12157525837604875,"84":0.017201467819153295,"85":0.10246243067512985,"86":0.031815385967683484,"87":0.10166951633197181,"88":0.022402472130186923,"89":-0.2198684730515795,"90":-0.1608395005704809,"91":-0.051878548949019616,"92":0.04089311716708945}},"5":{"bias":0.03916147305787433,"weights":{"0":0.11378311372284802,"1":-0.12388426744714728,"2":0.176833492086508,"3":-0.11204749449654688,"4":0.03410386018085042,"5":0.32826713647856337,"6":0.2588409655399119,"7":0.08530813235755205,"8":0.18975681235927988,"9":0.23903789615286444,"10":0.03766898133125909,"11":-0.022391911929663687,"12":0.09548028486578017,"13":0.04572554018620335,"14":0.15817722426461203,"15":-0.10133694000884479,"16":0.023084703890229506,"17":0.011908678737470191,"18":0.11082562548577696,"19":0.016917576488074154,"20":-0.12001473222374928,"21":0.11323907975646501,"22":-0.14300294501942695,"23":0.022853046931308785,"24":-0.031960801696799684,"25":-0.1521406338784933,"26":0.0534012417082011,"27":-0.04719644035776765,"28":-0.052008492258834235,"29":-0.09989633376231141,"30":-0.07580716442699799,"31":0.11882057052676648,"32":-0.07157663676224031,"33":-0.10796171761729752,"34":0.14612279350677745,"35":0.20949499723372575,"36":0.011889124725621356,"37":-0.0899690737611092,"38":0.22135541933570915,"39":-0.25737937157439117,"40":0.1215739415566725,"41":-0.05293724413393704,"42":-0.11314169644617021,"43":0.0033555238990212316,"44":0.22910419492695164,"45":0.11369260642240833,"46":-0.046283319704555057,"47":-0.10282592534641743,"48":0.21038249762331684,"49":-0.01000282896324855,"50":-0.0875240598555734,"51":0.04299498417995702,"52":-0.1765260132901301,"53":-0.06788055480869254,"54":-0.13958641813889405,"55":0.017779219781280078,"56":-0.11837987392125218,"57":-0.18740350950347762,"58":-0.10260872814909415,"59":0.07067549631862309,"60":0.07386802815253173,"61":0.00825504365726043,"62":0.10877374739383805,"63":0.04837304070585242,"64":-0.22170105499554094,"65":0.11597741849072717,"66":-0.11865018944938611,"67":-0.014192740193509653,"68":0.09585769203442795,"69":-0.12174392816104604,"70":0.0743020254947575,"71":-0.21757334007241044,"72":0.03935224936012066,"73":-0.19291432701971054,"74":0.060316779096204046,"75":-0.22363797871834143,"76":-0.09571367172121292,"77":-0.06032908322858574,"78":0.12415637601948393,"79":-0.02658228591226783,"80":-0.0817927172992552,"81":-0.10025731242599491,"82":0.09385701531133651,"83":-0.19563834103642114,"84":-0.2522438462417387,"85":0.13610159087011797,"86":-0.05815063241619748,"87":0.08355479325106092,"88":-0.18045996617493107,"89":-0.003985758574315915,"90":-0.21768946788024726,"91":0.09634841887222162,"92":0.07513143344365175}},"6":{"bias":0.0590570444683911,"weights":{"0":0.12247912416567518,"1":0.2504522911100069,"2":0.2930732464084649,"3":0.10644376009168133,"4":0.33252295308634927,"5":0.005795060997174938,"6":0.037482692326589344,"7":0.06667517558082622,"8":-0.07010821784066006,"9":0.021332764561349266,"10":0.2663673757964582,"11":-0.03246668925938494,"12":0.3149251111255821,"13":-0.06884367235096682,"14":-0.1599524404556092,"15":-0.11116039817402809,"16":0.18100373424308772,"17":0.20178999699281316,"18":0.014927954412468669,"19":0.13382636236327727,"20":-0.0017669108915109057,"21":-0.22898988352303182,"22":0.06615556906527086,"23":-0.051712506165552376,"24":-0.10884522577307751,"25":-0.020582494343751055,"26":0.06416915963843481,"27":0.019869555447391784,"28":-0.5514423649703852,"29":0.032146082910807276,"30":-0.07280591831659018,"31":-0.1659808356497333,"32":-0.08335457843619318,"33":-0.041968888943370364,"34":-0.2546504031105618,"35":-0.20765731836943188,"36":-0.21641058023637894,"37":-0.15385050365368996,"38":-0.11942116605622007,"39":-0.15004313329349991,"40":-0.18447075918537437,"41":-0.07582018689638004,"42":-0.09452510974518576,"43":0.04847276176817014,"44":-0.12909817523524142,"45":-0.15465237670489687,"46":-0.004947109199552186,"47":-0.20784880434190578,"48":-0.010397034649972301,"49":-0.19118290929319956,"50":0.07014532177818304,"51":-0.09369444020181585,"52":-0.011480803278899642,"53":0.04765999389386717,"54":-0.033913868436174714,"55":0.11753030849508893,"56":0.1304424483195484,"57":0.07120258561657397,"58":0.19344729208395106,"59":0.006362958292669212,"60":0.2494267978954901,"61":0.25252832630982186,"62":-0.10088418204905644,"63":-0.13098720103020092,"64":0.10486143454671931,"65":-0.1002120050045221,"66":0.004708854806574109,"67":0.11557016177207509,"68":0.2257947095198718,"69":-0.07459547047054275,"70":0.06291053234362919,"71":0.03530662146153933,"72":-0.07918475312239968,"73":-0.05869916943715298,"74":0.038615521648627846,"75":-0.009987069558960275,"76":0.02572530430639936,"77":-0.16705387291412133,"78":-0.06892829769509695,"79":-0.13913678293020698,"80":-0.18623659661436062,"81":-0.24871224977254872,"82":-0.2055743132407403,"83":-0.08959134238506469,"84":-0.2895291732056884,"85":-0.061461695822261714,"86":-0.1072608581880293,"87":-0.012203362081657305,"88":-0.006867344797018372,"89":-0.17242486298203982,"90":-0.02003326531743866,"91":-0.09174575222625111,"92":-0.13339389872664867}},"7":{"bias":0.13939736371663344,"weights":{"0":0.13727843804710138,"1":-0.00818402371970833,"2":-0.13603759126308126,"3":0.07787645614372633,"4":0.13197034047315956,"5":-0.028842600266628268,"6":0.18310066179763326,"7":-0.19753175106465795,"8":0.1582433989996164,"9":-0.2039505129913493,"10":-0.03291563000421935,"11":-0.18665602071372311,"12":0.127166298684323,"13":0.13444447501427528,"14":-0.17890988305140054,"15":0.1609887690474032,"16":-0.17796312656194604,"17":-0.11573552743783438,"18":-0.04667422034952218,"19":-0.10938065082869837,"20":-0.17753318983412805,"21":0.2069270900740314,"22":-0.1453761325285873,"23":0.20428101848835264,"24":0.0961599038821205,"25":-0.20467622331620675,"26":0.03869770042871153,"27":0.09591159124583419,"28":-0.023481329716482556,"29":0.02164320125756198,"30":-0.030568386760489924,"31":0.22044579429042396,"32":0.051229560200332556,"33":0.046612168517394637,"34":0.07544013527412667,"35":0.20104098497339687,"36":0.15372138276012515,"37":0.19932312102069052,"38":-0.12286621019336545,"39":0.22993141530660227,"40":-0.02999683427039358,"41":-0.03169180738842883,"42":-0.10662546460372468,"43":-0.05304769110000951,"44":-0.1214578024880977,"45":-0.05979320831573131,"46":0.11727450288829264,"47":-0.039543757836383954,"48":-0.18372304914895166,"49":-0.020251690942579968,"50":-0.1453965208520176,"51":0.020501677267360525,"52":-0.08963123034884322,"53":-0.17931961435924856,"54":0.06050200969233694,"55":-0.14620149890547893,"56":-0.0851317838381419,"57":-0.18101403614324083,"58":0.19728536281254727,"59":-0.154239798069677,"60":-0.09566277067215122,"61":-0.17536330374608414,"62":-0.08823307339306763,"63":0.14964429105174085,"64":-0.1255637440415497,"65":0.17430713722170274,"66":-0.013258232251746062,"67":0.1884032445535207,"68":-0.0677100709024952,"69":-0.12479244993474645,"70":-0.06464256172827679,"71":0.020772992066829917,"72":0.08878113379579214,"73":0.09153431624851258,"74":-0.027876170770994888,"75":-0.13899669971863135,"76":-0.07026446143968655,"77":0.09803434818813493,"78":-0.02576751202490024,"79":-0.2038076717398025,"80":-0.18584865798786618,"81":-0.07477333113586557,"82":-0.15018980437001775,"83":0.09288916332987797,"84":-0.15262921416349906,"85":-0.06323829474595351,"86":0.06208769660707224,"87":-0.089751774764021,"88":0.07966518509078442,"89":0.1611270144167177,"90":-0.20133725711788159,"91":0.004134054469092488,"92":-0.16643394465685102}},"8":{"bias":-0.05155837661777667,"weights":{"0":-0.21297879348707027,"1":-0.15440657162323904,"2":-0.22560711865683802,"3":0.006669423896913359,"4":-0.19982145273966584,"5":-0.31793405381382855,"6":-0.2869504554027721,"7":-0.015125437356197027,"8":-0.21299314384662593,"9":-0.20110610437521653,"10":-0.2420382043715382,"11":-0.1334264564635477,"12":0.021708641623995936,"13":-0.010903854747957254,"14":-0.08958719482342833,"15":-0.09975561636724044,"16":0.008580701905748663,"17":-0.16848354509776975,"18":-0.14146830626613172,"19":0.019627138531607947,"20":0.08275560718339797,"21":-0.07175821868138015,"22":-0.10279294224595673,"23":0.16339495112694208,"24":0.04941193693065567,"25":0.000026738426853290033,"26":-0.019996577722619105,"27":0.1839400110987969,"28":-0.19971526093424588,"29":0.017490370494612058,"30":0.18843383106233386,"31":0.1576718274598963,"32":-0.14585881052376404,"33":0.1957341569024822,"34":0.10226958015105092,"35":0.07195582297374856,"36":0.11933557413098939,"37":-0.017318566966047076,"38":0.09696350691804667,"39":0.15318439586402519,"40":0.09996114988118546,"41":0.007319664388453786,"42":-0.1747215123360435,"43":0.12074166064771942,"44":0.08359170818339659,"45":0.07530934605032483,"46":-0.06632151467199261,"47":-0.14946478745811792,"48":0.005340158340785617,"49":-0.25283713035817984,"50":0.03637232184915948,"51":-0.08422126038189398,"52":0.15093350080515375,"53":0.20341035266503715,"54":0.24491900702166247,"55":-0.011194448195414838,"56":0.28213636658641833,"57":0.3058132402253398,"58":0.17648067444698978,"59":-0.04032219227159756,"60":0.15635218998158618,"61":0.08088472787393598,"62":0.13693080157573903,"63":0.035950206210320274,"64":0.1179938017747867,"65":0.010163044619423545,"66":-0.010666555459604548,"67":0.11189361611720747,"68":0.24691639165361834,"69":0.054003679909521776,"70":0.025672698262070713,"71":0.11165031070611811,"72":0.16855492088321117,"73":0.04129889345283045,"74":0.1526464675611083,"75":0.0838713235297931,"76":0.15967397508642764,"77":0.07237972891887487,"78":-0.16822398611154127,"79":-0.18263433311153104,"80":0.07266666448689779,"81":-0.25869083011869143,"82":-0.11246620185990347,"83":-0.16536931841554015,"84":-0.21084865051380622,"85":-0.052928846745741345,"86":-0.12620830037811678,"87":-0.10358802674504326,"88":-0.1736599823338046,"89":0.08126349832415243,"90":-0.11571112665675636,"91":-0.1574344505546742,"92":0.03070375228344412}},"9":{"bias":-0.20848239587699627,"weights":{"0":-0.14668781177893814,"1":-0.09878388273056742,"2":-0.08908387782869204,"3":-0.17836746061446782,"4":-0.20712056345522173,"5":-0.05572191121437108,"6":-0.22934216163450183,"7":-0.07691735471548634,"8":0.09281609012537348,"9":-0.04166404754517685,"10":-0.14589844214852393,"11":-0.006074473014358851,"12":-0.050008589543287074,"13":0.151507493332868,"14":-0.13693515036404252,"15":-0.09791930989121683,"16":-0.029565013265273696,"17":-0.06555053906675105,"18":-0.014855005033424453,"19":-0.19462147759412243,"20":0.10251133884335231,"21":-0.08266090715481467,"22":0.09723097552088143,"23":0.12756810278398004,"24":0.08582884486689595,"25":0.1423505968525216,"26":-0.1069397054604996,"27":0.09492742558004076,"28":0.025099142499793163,"29":-0.03910499376712737,"30":0.10264819691403382,"31":-0.35826063169082667,"32":-0.25481558722352776,"33":-0.04097678953800019,"34":-0.005150621578268175,"35":-0.264284143649357,"36":0.03435397359568705,"37":-0.06039204977657342,"38":-0.094045908141169,"39":0.014526976499433204,"40":0.10343524814477308,"41":-0.17236059066593495,"42":-0.12060438109513062,"43":-0.06714243149906714,"44":-0.08307696866572606,"45":0.09026534839730524,"46":0.06024563404292636,"47":-0.11967052462723356,"48":-0.03175464659886878,"49":0.21514868425531458,"50":-0.07857562117061097,"51":-0.058159638018616726,"52":0.12354545651860704,"53":-0.09917566814775661,"54":0.003633827949200165,"55":0.03706311968334081,"56":0.26115635610119015,"57":0.19323256179638837,"58":0.13516435609076222,"59":0.02224170496205574,"60":-0.0612804282353986,"61":0.16380077119839592,"62":-0.06942740792711868,"63":0.21489199004886309,"64":-0.014677773005454113,"65":0.16560043236439229,"66":0.1709219640276898,"67":0.06489000982888256,"68":-0.023656556808677502,"69":0.13697447940297552,"70":-0.0704480271323475,"71":0.09955186258466256,"72":0.2086194067662055,"73":-0.14720969869633677,"74":0.1575172390771327,"75":0.26376704776393906,"76":0.19047722037927217,"77":-0.17011440230665556,"78":0.12645678949589173,"79":-0.07431897125257585,"80":0.19775449663317493,"81":0.4033238138359705,"82":0.24829068086355843,"83":0.14733441115857002,"84":0.11856117572083781,"85":0.17628013039997625,"86":0.2815952214163958,"87":0.17130692780263873,"88":-0.02753193041913454,"89":0.2530285785255981,"90":-0.03272908494790374,"91":0.20092470496069978,"92":0.09481923913566258}},"10":{"bias":-0.15428583601798665,"weights":{"0":-0.053075636355600045,"1":-0.11834865274401597,"2":-0.020223992487619247,"3":0.011892859565956333,"4":0.13706849610956776,"5":-0.13977471408472472,"6":0.025730985790491784,"7":-0.08806674009621132,"8":-0.1711937797187403,"9":-0.1555028288068842,"10":-0.202460913981095,"11":0.01591960028689919,"12":-0.16803147006116342,"13":-0.02781873288633123,"14":-0.20681681670208207,"15":0.10296517821799084,"16":-0.004276171210863272,"17":0.15513879970638228,"18":-0.17547675306726243,"19":0.15188575395150566,"20":0.18285151484853324,"21":-0.05743548812514984,"22":-0.06750163144098632,"23":0.1753796737300558,"24":0.0895552250724,"25":0.062035445865159626,"26":-0.024455195841990164,"27":0.18114336538194395,"28":-0.034597057918167924,"29":0.15401114828099918,"30":0.11831825193257098,"31":0.2659397582616964,"32":0.08273302961836176,"33":-0.04243005109101383,"34":0.15144762926323693,"35":0.16773530160774633,"36":-0.11472211205465206,"37":-0.1302922278623244,"38":0.14676017749819506,"39":-0.031101268225283932,"40":-0.12283689866847367,"41":0.19844651669638588,"42":-0.033343269435986436,"43":-0.012561804155179952,"44":-0.004992270903190187,"45":0.0477589828087416,"46":0.07325170232978863,"47":0.09246503968922556,"48":0.08833807721998103,"49":-0.1585722168739193,"50":-0.10486135948058838,"51":-0.08336503666527677,"52":0.02207098980518258,"53":-0.015898001090866292,"54":0.014847914103973186,"55":0.10617187297599766,"56":-0.1577679058086068,"57":0.0036165660166352673,"58":0.10467010278363609,"59":0.08700679948183157,"60":0.08275604998394259,"61":0.08036328256735227,"62":-0.027394394672037827,"63":-0.1544553786603802,"64":0.186858262685972,"65":0.16210420091173128,"66":0.07404042715938243,"67":0.09469623462983227,"68":0.11513582854476444,"69":0.16851246817072377,"70":0.016417278430726143,"71":-0.17505962823985843,"72":0.14490859797136493,"73":0.1780329190024217,"74":-0.11223621026059953,"75":-0.22496601549306716,"76":-0.14108969177632794,"77":0.021654710227933454,"78":-0.04930444073146234,"79":0.09707955898501575,"80":-0.05521727092725258,"81":0.09083443573291947,"82":-0.11052198874855101,"83":-0.17637707827859211,"84":0.020228403833825345,"85":-0.023549039729007123,"86":-0.12615774109722092,"87":0.10094280660788868,"88":0.09088961525067793,"89":0.087525203908042,"90":0.09112494289048836,"91":-0.13324964524862914,"92":-0.21019733482935699}},"11":{"bias":-0.3162129029636396,"weights":{"0":-0.12474348545033064,"1":0.013863730517234399,"2":0.22222333832224397,"3":-0.07337647549908916,"4":-0.01545740796839255,"5":0.11680225737718436,"6":-0.04224023429247612,"7":-0.07241865920806113,"8":-0.01245364433079575,"9":0.2954829161869345,"10":-0.10439181471237997,"11":0.23277544558912108,"12":0.11490279836132646,"13":-0.1336489578171882,"14":0.06834301549277097,"15":0.0970801620839164,"16":-0.05488399019110396,"17":-0.017547685547854998,"18":-0.08277590794315631,"19":-0.13529230468935696,"20":-0.1008497564287692,"21":0.11546401432904169,"22":-0.06528414654840323,"23":-0.13550596579168497,"24":0.13667341659160293,"25":-0.07964229273900686,"26":0.27235338186030983,"27":0.047634702681447746,"28":0.6209759606785364,"29":0.2190195768886963,"30":0.037768394182304085,"31":-0.06351941557930403,"32":-0.09036195210333159,"33":-0.05663430833637405,"34":0.0736897578633993,"35":0.0656020935918251,"36":0.2203658034894701,"37":-0.2113828078498473,"38":-0.20514755189395328,"39":-0.0035987748089631915,"40":0.03575162127536028,"41":-0.14961603402465562,"42":0.21287662553941833,"43":0.1449674967081216,"44":0.16855540620761852,"45":0.2462984640701259,"46":0.1368383223575029,"47":0.3548703223548062,"48":0.20358361603649516,"49":0.36045074777790703,"50":0.07040739918096926,"51":0.3250609760859423,"52":0.007846986284528368,"53":-0.33126480244703643,"54":-0.020339735677730515,"55":-0.194333279160027,"56":-0.06455527341729744,"57":-0.09442863605098181,"58":-0.21342309949682095,"59":-0.18357355407289902,"60":-0.3669922425249226,"61":0.03257554489307774,"62":-0.2632189057786156,"63":-0.0987061334569086,"64":-0.18377455968067133,"65":-0.27719805575508105,"66":-0.265340884783923,"67":0.04312272239503244,"68":0.024547236885269157,"69":-0.057441928375830426,"70":-0.003564914592506213,"71":-0.2965573134310068,"72":-0.03877339992792649,"73":-0.21882019431445987,"74":-0.04583810467781487,"75":0.11542350556644199,"76":-0.07817971458727044,"77":0.00953009933909087,"78":-0.08517946504438802,"79":-0.09892093701656433,"80":0.18941950407547734,"81":-0.016279049601454976,"82":-0.0157703860936008,"83":0.002806089279617151,"84":0.12309009613574588,"85":0.22415101562039402,"86":0.2606982010740718,"87":0.1677834565868056,"88":-0.0023782626507822093,"89":-0.1153672536301527,"90":0.06188860142252068,"91":0.11014063699180963,"92":0.09475714426486513}},"12":{"bias":-0.13043302815160832,"weights":{"0":0.14771084141882423,"1":0.13957944264894187,"2":-0.015625989598293217,"3":-0.07994884716368025,"4":0.23532500764822614,"5":-0.10917487202587035,"6":-0.05146129849835263,"7":-0.04300275887405182,"8":0.08086068875646961,"9":0.018484267552515025,"10":0.14529991680345394,"11":-0.009722359128510508,"12":0.12550478368761048,"13":-0.06317940700196478,"14":0.15382511595125367,"15":0.02123756887317164,"16":-0.10031671304626898,"17":0.15955858451373492,"18":0.0654506115207126,"19":-0.032830710335673446,"20":-0.27854098423097146,"21":-0.11260111794437143,"22":0.2012481750601798,"23":0.17781369647417275,"24":-0.002911171442836684,"25":-0.07611602104469092,"26":-0.006406369948084748,"27":0.09320193088256325,"28":-0.1057942153935822,"29":-0.12248729338950627,"30":0.02378866964567311,"31":-0.29675889761102087,"32":-0.2742544641268067,"33":0.026625426168178205,"34":-0.12582438673897045,"35":-0.21129307465840266,"36":0.09193554257171617,"37":-0.2390463618143416,"38":0.019602677429542838,"39":-0.11052785160647628,"40":0.01809432482257973,"41":-0.19819576637103506,"42":-0.038197114034096175,"43":-0.04623348878529415,"44":-0.1740647717630909,"45":-0.19609344558419006,"46":-0.13951156647203147,"47":0.005419611610201295,"48":0.03827797051679494,"49":0.02144321935763919,"50":0.06863496337157877,"51":-0.1304162193471951,"52":-0.2744662658293557,"53":0.1633353779201935,"54":0.14950177611540835,"55":0.06589239376552519,"56":0.14262846225963058,"57":0.10132970941897652,"58":-0.10283440731863579,"59":-0.025192123073406205,"60":-0.13128977859748256,"61":0.036342616162797624,"62":0.039911532131242815,"63":-0.09930250603340045,"64":0.058139638105486696,"65":0.13735768097369772,"66":-0.058799661479770206,"67":-0.1604018097964758,"68":-0.16120035905029398,"69":0.19632362294798453,"70":0.08408736890302526,"71":0.02665526674077103,"72":-0.05512607791481163,"73":-0.06369403699000228,"74":0.05930852896961378,"75":0.2711485099132698,"76":0.004380024387791691,"77":-0.1372071141482884,"78":0.16384996480743946,"79":0.16231573294090693,"80":-0.09817710389135884,"81":0.1451302062076547,"82":0.11210108567410532,"83":0.0895778615826048,"84":0.11181059377561564,"85":0.14911375329718166,"86":0.19476612565348653,"87":0.05789129867570794,"88":0.25921144917128996,"89":0.07681657661302374,"90":0.11476975553763594,"91":0.044865455324868,"92":0.23961869626070206}},"13":{"bias":-0.09142652595494051,"weights":{"0":0.0943299906059191,"1":0.09707926171778339,"2":0.05433723767547433,"3":0.1072138661171039,"4":-0.17787972644555144,"5":0.16228064699142222,"6":-0.04501312567645504,"7":-0.05040981236571206,"8":-0.2210551154982455,"9":-0.3701785475115402,"10":0.19504428940561205,"11":0.020792032298206763,"12":0.041761958607830496,"13":0.14687283450691946,"14":-0.13463443740044898,"15":-0.15925970488337443,"16":0.12568168314747588,"17":0.13648385580323844,"18":-0.11025286318435115,"19":-0.014936295924235777,"20":0.060923802292546514,"21":0.051096166325072793,"22":-0.09908617117383148,"23":0.21647800290088953,"24":0.1570384997802906,"25":0.06318572199333256,"26":-0.25248689416805126,"27":0.17050317088420483,"28":-0.49519493049117197,"29":0.08414985557065285,"30":0.11275090649236094,"31":0.33035815218096565,"32":0.07166022473199894,"33":0.034358891671575374,"34":0.24141564286542821,"35":0.13515816236499703,"36":-0.07288536668066754,"37":0.12423957875011861,"38":0.18371927406285996,"39":0.21241592017824754,"40":0.10171806536079223,"41":0.012348916300274166,"42":-0.2516771771446067,"43":0.12503575981356133,"44":-0.13527601535897515,"45":-0.2019092747046292,"46":-0.218180675879748,"47":-0.03865659280449759,"48":0.08650204659606554,"49":-0.19156744349347915,"50":-0.14387244963361345,"51":-0.08713453521518501,"52":0.08019992652774084,"53":0.02408507468900054,"54":-0.08656493117148112,"55":0.21050169042623784,"56":0.040030627591443296,"57":0.1424079035201431,"58":-0.11524236393478368,"59":0.13837072346375928,"60":0.052226478040626446,"61":0.016421175740306306,"62":0.1695810987847906,"63":0.0437669967215083,"64":0.19528314571150585,"65":0.03222396677334094,"66":0.03404629485419696,"67":0.032285350475305535,"68":0.10294865792237191,"69":0.12918796402901792,"70":-0.15295842321859332,"71":-0.09079730149147786,"72":0.17568852222534298,"73":0.012793812993192153,"74":0.09660306593363215,"75":0.0023168506280244346,"76":0.13975095099869292,"77":0.12669127651073195,"78":-0.05355415313408486,"79":-0.1484074392107743,"80":0.1180554143723206,"81":-0.18185692790709043,"82":0.06775570981151308,"83":-0.08010084349575196,"84":-0.09758526062557915,"85":0.03391540480827092,"86":-0.06041308747889749,"87":-0.10612812256691087,"88":0.06600925960654767,"89":0.032140295293100876,"90":-0.09229373896961177,"91":0.051797022203703746,"92":-0.14379084257376643}},"14":{"bias":-0.02709941531687643,"weights":{"0":0.3798807004540331,"1":0.03172230335729916,"2":0.4007430900198934,"3":0.2966670844025066,"4":0.21431298913005617,"5":0.35524626984449403,"6":0.005333436809456275,"7":0.021213515091765712,"8":0.3470229524404022,"9":0.11246453907242238,"10":0.20814069927664935,"11":0.18824926315649074,"12":0.374644878135095,"13":0.21349395209658018,"14":-0.09807199731075658,"15":0.2096414305397799,"16":-0.06728583452796269,"17":0.07209467661073914,"18":-0.12492960425122307,"19":0.11857739455724195,"20":-0.06334558540897858,"21":-0.056993828750724194,"22":0.010237245868672694,"23":-0.10579027228007926,"24":0.19553531377039973,"25":-0.25588970521213034,"26":0.13000543220569302,"27":-0.3221999804934212,"28":-0.3157434855384673,"29":0.02593706673281284,"30":-0.07113869385294792,"31":0.0416649669054795,"32":0.056131900513902315,"33":0.08992002007692833,"34":0.061175782219069476,"35":-0.12260720276469418,"36":-0.047443107481232046,"37":0.09791840658135366,"38":-0.03248979704337513,"39":-0.19542073362799744,"40":-0.1460222018785558,"41":-0.16697460664769642,"42":0.05590919718691155,"43":0.11680458963099084,"44":-0.0014235389791016687,"45":-0.14566334358675098,"46":-0.22247642721447314,"47":-0.4062030909355995,"48":-0.2648327217618837,"49":0.08720493685377345,"50":-0.24726493807743988,"51":-0.04326052591631497,"52":-0.21396642797940327,"53":-0.14844566876716356,"54":-0.06193462673964832,"55":-0.3155249422976772,"56":0.014898377298494307,"57":-0.27921667462460664,"58":0.018062044681112846,"59":-0.05240120764991129,"60":0.059237910447934194,"61":0.07169555044168766,"62":-0.1580540079080219,"63":-0.159246404867599,"64":-0.20196878679980315,"65":0.059577325042319766,"66":-0.10132699455720204,"67":-0.2317256698796514,"68":-0.1789423270008472,"69":-0.17466884970247468,"70":-0.10549740859017681,"71":0.12606347373504165,"72":0.1025906248279388,"73":0.030909475564598846,"74":-0.009239118247228926,"75":0.08451882743695856,"76":-0.11422036584471791,"77":-0.10832210577718683,"78":-0.02685406386526314,"79":0.12035312765873232,"80":-0.07159245063369465,"81":-0.154258167073966,"82":0.02187985364464206,"83":0.059428650226071994,"84":0.021293255965348583,"85":-0.12738352886273602,"86":0.18315540208975012,"87":-0.16109499306481095,"88":0.16668048726221069,"89":0.15735044499942646,"90":0.11623012218132515,"91":-0.17861250935291173,"92":0.06260442266706896}},"15":{"bias":-0.12978865926873234,"weights":{"0":-0.19639834784111254,"1":-0.06278486445446979,"2":-0.18358664158480018,"3":-0.13961800056505852,"4":-0.23299819688797044,"5":-0.1087788623710444,"6":0.06030727658908721,"7":-0.14272563826442672,"8":-0.11353048942935007,"9":-0.32702739313047324,"10":-0.06996877745791545,"11":-0.4035755384184078,"12":-0.16107697316427633,"13":-0.1343901889335131,"14":0.02723098153948937,"15":-0.044916004645055484,"16":-0.13569576115688262,"17":-0.04262209616704989,"18":0.1551586062552209,"19":0.14089404460785862,"20":0.037202044008402206,"21":-0.11635812931037087,"22":-0.10208786276752099,"23":-0.1097656875933408,"24":-0.12598025582247024,"25":0.12666453219645574,"26":-0.06430566548360328,"27":0.1689857627024751,"28":0.12097075584821268,"29":0.24116969754171655,"30":-0.0899346361698977,"31":0.3846130200945088,"32":0.07793575614142972,"33":0.1241397289769633,"34":0.2649510868604713,"35":-0.08895567122025703,"36":0.035868153881688555,"37":0.18750507699783414,"38":0.2321650822732243,"39":0.29834242803459615,"40":-0.05315939583806694,"41":0.14987370435382685,"42":-0.12490047561393704,"43":0.10245221091765505,"44":0.06963966587552864,"45":-0.10437971501799494,"46":0.18804916443473038,"47":0.023508411610034318,"48":0.24795076842579936,"49":0.11837040481683232,"50":0.13961181792386296,"51":0.07621228273949145,"52":0.07462300029651793,"53":0.23772334561231762,"54":0.14876736007739128,"55":0.21680482530180106,"56":0.0798666580741696,"57":0.1947087596677175,"58":-0.009246917655696652,"59":0.19410650323749543,"60":0.019264795963120137,"61":-0.061563264123276236,"62":0.1740488202922213,"63":-0.11695925574948107,"64":0.019051977224723814,"65":-0.1252028629491368,"66":0.18550141342619003,"67":-0.025193552597294316,"68":0.0018182683740602884,"69":0.031078029375721624,"70":-0.03143336530444957,"71":-0.08860264803158652,"72":0.09628694657920087,"73":-0.1606114868078541,"74":-0.05799446281826148,"75":-0.14916080243532623,"76":-0.207865912024764,"77":-0.023119587141094806,"78":-0.24432533282425237,"79":-0.03252020093741026,"80":0.12870825007614292,"81":-0.13510179755862192,"82":-0.13763526582318703,"83":-0.189358952089084,"84":0.06879589099645957,"85":-0.24982408475817225,"86":0.0578019497311201,"87":-0.0009158830508960239,"88":0.03416625538528657,"89":0.0791681823938767,"90":0.06793666255401622,"91":-0.021619320260943063,"92":-0.0968175439855599}},"16":{"bias":-0.12640475045940225,"weights":{"0":-0.09284740752034862,"1":-0.05651591752707588,"2":0.13412779348629492,"3":0.1863392152987943,"4":0.26118461243332525,"5":0.07716489768107047,"6":0.17141140714697237,"7":-0.012624511319930646,"8":-0.18702265606762258,"9":0.20014611579116565,"10":0.00913289983284886,"11":-0.039289924287508916,"12":0.006741150051358949,"13":-0.1522819262007935,"14":0.02440614256294651,"15":-0.1607454241567128,"16":-0.0396375408076554,"17":0.1844581855498004,"18":-0.10698331950931106,"19":0.04587104219261157,"20":0.07079022503317585,"21":-0.03000865687603553,"22":0.13594073392103287,"23":-0.16203636294342497,"24":0.047451414692960235,"25":-0.05970432696820562,"26":-0.0276936386322069,"27":-0.1000648600702302,"28":0.18140499561009513,"29":0.3132867379012809,"30":0.06919543620853025,"31":0.24530874210731818,"32":-0.04579150682630071,"33":0.07495430655541838,"34":-0.08210223722322738,"35":0.1494408280344118,"36":0.011540613435126471,"37":-0.014896731190846432,"38":-0.11277347496974093,"39":-0.14918479154154632,"40":0.009061978071626673,"41":-0.0978015192344009,"42":0.13857173660421848,"43":0.29317656312677354,"44":0.13694448334926876,"45":0.1378720476244104,"46":0.03646026797225609,"47":-0.0432789722137638,"48":0.14114664454116077,"49":-0.13680254557656074,"50":0.06669270201453746,"51":0.145193544193259,"52":0.04699960253446274,"53":-0.2525106290611256,"54":-0.16694691196008374,"55":-0.16344179394047223,"56":0.046417422134547276,"57":-0.04748186636814055,"58":-0.1732596594053138,"59":-0.2218434214222617,"60":0.10051985404549367,"61":-0.1098655837540731,"62":0.035605592190066,"63":0.005654023853756428,"64":-0.19361884769761678,"65":-0.11266755656285038,"66":0.1370064934601762,"67":-0.14106120031060082,"68":-0.0898644251518027,"69":0.06574001905210862,"70":-0.1624244436643367,"71":-0.036392744936402925,"72":-0.057203167395364955,"73":-0.2221396523164159,"74":0.07181809294364182,"75":-0.07532287658654742,"76":0.05825254428847904,"77":0.008833727179471418,"78":-0.23962178123047997,"79":-0.16007119466433042,"80":-0.17749813851039312,"81":-0.09548105663098334,"82":-0.1585827794232875,"83":-0.09684454755942316,"84":-0.010260087951958388,"85":-0.05262526837291831,"86":-0.2652405880385768,"87":0.10934230522280719,"88":-0.26742563607057745,"89":-0.2782970954251986,"90":-0.0430291057108156,"91":-0.24042657235561585,"92":-0.07295742681659925}},"17":{"bias":-0.25732983883439564,"weights":{"0":0.05630152367514704,"1":0.181288878993222,"2":-0.14596801132860598,"3":0.11255249212670843,"4":0.0731950098481175,"5":-0.0022254787465015484,"6":-0.08592104827944938,"7":-0.09862462482161997,"8":0.2102321163200413,"9":0.02568388132315614,"10":-0.0022332036075137828,"11":0.06461570980309297,"12":-0.2651429495501442,"13":0.030078891111821996,"14":-0.15828753640461032,"15":0.13199834009010883,"16":0.044630274630027306,"17":-0.1505628271203866,"18":0.3020367722646528,"19":-0.15479242300470458,"20":-0.16365600066289296,"21":0.12706889283486356,"22":-0.21678128182161413,"23":0.10019480544427288,"24":0.0738394385142405,"25":0.024105140570655725,"26":0.16943991543139905,"27":0.010485145621172516,"28":0.3175685445983244,"29":0.03753138889004804,"30":0.04090392487720521,"31":-0.04814747562430363,"32":0.10099730110483505,"33":0.17983116279959946,"34":-0.13468761465801057,"35":0.008282480502948011,"36":0.28281262305002935,"37":0.0597938345313988,"38":0.007511977098306517,"39":-0.017323336486342766,"40":0.21844761907763002,"41":-0.013695810872937536,"42":-0.0822925026043003,"43":-0.01736573675959337,"44":0.21467850770945687,"45":-0.12593539110686763,"46":0.11456241493818527,"47":0.18445460977781042,"48":-0.01883538274656918,"49":0.29517405690188225,"50":-0.0058501211647482895,"51":0.049160421024178697,"52":-0.003845657777275343,"53":-0.1926099937448537,"54":-0.08247824931123891,"55":-0.194711971343066,"56":0.080904874152824,"57":-0.04525003595081555,"58":-0.005586120845527112,"59":-0.21916557181621116,"60":-0.11716973861163767,"61":-0.07388774420653939,"62":-0.021619350443336953,"63":-0.18762149316208618,"64":-0.24023006231846686,"65":-0.1656331850961476,"66":0.02410046395597026,"67":0.016820273949845015,"68":-0.018032536831215203,"69":0.11570064942513712,"70":-0.23373896554446566,"71":-0.20344818066203388,"72":-0.26318280684343637,"73":0.10718056615835002,"74":-0.012307459812786501,"75":-0.008531969194326338,"76":0.16329501269257268,"77":0.19972648764384626,"78":0.21967558054372746,"79":-0.0013576021913518828,"80":-0.01617811292487302,"81":0.3505415987722092,"82":-0.12212651851237465,"83":0.29136130113349396,"84":-0.09619143641922472,"85":0.2676769953021343,"86":0.1529684805690407,"87":0.16807829704285326,"88":-0.05485356493570328,"89":0.18776639630915093,"90":0.19014454820908605,"91":0.14335726276200528,"92":0.08829672149819502}},"18":{"bias":0.08402309629337454,"weights":{"0":-0.3757370924200839,"1":-0.2539717033874339,"2":-0.24780817162175314,"3":-0.2099856353676534,"4":-0.2233993210780494,"5":-0.06267892733574995,"6":-0.06679371507127049,"7":-0.12591512709144315,"8":-0.19328500291336945,"9":-0.17271268563201156,"10":-0.3686278430194583,"11":-0.25282143419782915,"12":-0.05369309224465868,"13":-0.012890293408129635,"14":0.055880882187654225,"15":-0.13638557113400793,"16":-0.22660258226249635,"17":-0.1504025033985567,"18":0.1268626129922386,"19":0.10881497064596882,"20":0.020262105341094887,"21":-0.10860419197908609,"22":-0.08143987122222769,"23":0.13597334535458244,"24":-0.11146303701219186,"25":0.10427245002171472,"26":0.10083214524316918,"27":0.3151347696412567,"28":0.062139654819972294,"29":0.06921952632607778,"30":-0.18825798555244663,"31":0.13296294171351095,"32":0.02355098489224011,"33":-0.17356457754934543,"34":0.09545254384565179,"35":-0.1452968222824488,"36":0.09649495371547212,"37":0.1144677398959922,"38":-0.0039201301300867625,"39":0.010235010682518484,"40":0.07712424283257202,"41":0.051257831913797715,"42":0.1231590210645989,"43":0.2198739082451702,"44":0.15043905421070533,"45":0.02204303031100576,"46":0.0778767225658989,"47":0.3427548987816144,"48":0.0979950444846208,"49":0.1919041590454799,"50":0.05506865189199694,"51":0.16331106396970904,"52":0.05537431589684922,"53":-0.11589818640175646,"54":-0.130937920277681,"55":0.2157082746692286,"56":0.13222500656619282,"57":0.2285094540438068,"58":0.1895221745927125,"59":-0.010400997847141826,"60":0.12540910214537296,"61":0.07163905181411213,"62":0.0356205533527456,"63":-0.1417576450188991,"64":0.15323071185182452,"65":-0.16222915966291018,"66":0.005983293315812292,"67":0.0762727993576099,"68":-0.13207369434799138,"69":-0.006107432273916054,"70":0.11014697220085866,"71":-0.04893060813436583,"72":0.1453926073973536,"73":0.11650009285463407,"74":0.04792769687544048,"75":-0.07814032754063066,"76":-0.11401287409059666,"77":-0.013498765490903402,"78":-0.0021073819172169562,"79":0.21107692290400693,"80":0.028508473117322176,"81":0.21536517089315513,"82":-0.15730404999653969,"83":0.18677929126629736,"84":0.0804121290670833,"85":0.008857444834283678,"86":-0.08549080359673188,"87":0.2402500408576743,"88":-0.07545419028208801,"89":0.07332385619690016,"90":0.15927820329839734,"91":-0.11687045382987096,"92":0.08924593836470554}},"19":{"bias":-0.12797358507497564,"weights":{"0":0.09535414717091635,"1":-0.043769807791771295,"2":0.2714603253651657,"3":0.06541381382071927,"4":0.1446402204428303,"5":0.22269613299059002,"6":0.08036062849365898,"7":0.13710632261064587,"8":0.008058680882292777,"9":0.0618695829929698,"10":0.20950574646614584,"11":0.4343298516098102,"12":-0.08589328174065525,"13":0.18080759387382328,"14":0.13509713587910493,"15":-0.07561625583257943,"16":0.07767584138079743,"17":0.07135411627416499,"18":0.06412721269405723,"19":-0.173472337332703,"20":-0.4387483196044566,"21":-0.012474429868751722,"22":-0.10208668550850873,"23":0.024200888782668545,"24":0.049770963028524136,"25":-0.2224174923461599,"26":0.13740774864457858,"27":0.12847661584216508,"28":-0.27641410809179223,"29":0.04674698048154787,"30":0.08437702899489392,"31":0.25222676378626957,"32":-0.16105490766710112,"33":0.15912228690846714,"34":0.09485136635361918,"35":-0.12999144970737714,"36":0.027086919595277592,"37":-0.08103111419246334,"38":0.1985654340252212,"39":-0.12714794802406618,"40":0.269445394650089,"41":0.03528179223368447,"42":-0.052503488475527306,"43":-0.0027540403195394983,"44":-0.20686386881825922,"45":-0.024851783888801156,"46":-0.3207150632743801,"47":-0.015358115506244371,"48":-0.14719686087144757,"49":0.07252963575682535,"50":-0.23950853333370473,"51":-0.24901911112328046,"52":-0.15657843920861741,"53":-0.22271943216607648,"54":-0.14818464903724904,"55":-0.011446031275703013,"56":0.11269166732306946,"57":-0.19516316288699526,"58":-0.19392988753377316,"59":0.13830860272478157,"60":0.14398581951424927,"61":-0.009276834251536028,"62":0.06837973963288063,"63":0.159506770481394,"64":0.16941642428327947,"65":0.014838819595351186,"66":0.11282302697895331,"67":0.0886205279282181,"68":-0.2093655275583299,"69":-0.14125866978557525,"70":0.1080918222659686,"71":-0.04739575762181777,"72":0.10020026474824585,"73":-0.1501853144486238,"74":0.061241789789535477,"75":0.12514770914088186,"76":-0.08988033509844442,"77":0.13267754147543312,"78":0.03798546820952224,"79":0.047084674067944816,"80":0.04542838585399382,"81":0.19390544367444137,"82":0.08381195500081925,"83":0.2463465862930271,"84":0.13398993589884198,"85":0.1702824443929191,"86":0.06875992950165924,"87":0.167569553842061,"88":0.14945870257820473,"89":-0.07790677752707167,"90":0.044396294327621474,"91":-0.08378872474284856,"92":0.28170208364937177}},"20":{"bias":0.13014032263022335,"weights":{"0":-0.3671441753545911,"1":-0.016724450515650236,"2":-0.256149464116004,"3":-0.09352059267529617,"4":-0.35629207495647863,"5":-0.20712482897534262,"6":-0.18558426564827663,"7":-0.0824204873682346,"8":-0.27261443136692914,"9":-0.29039651520775633,"10":-0.1582308938667063,"11":-0.2089744219022184,"12":-0.19439982201663925,"13":0.13417838319697106,"14":-0.25359071059085025,"15":0.07024962967738152,"16":-0.09615406177044838,"17":-0.06636796465103499,"18":-0.0788142994161664,"19":0.037641838518875724,"20":-0.015675902914433965,"21":0.08882416889825229,"22":-0.07094433488348204,"23":0.08983533753189099,"24":-0.17231192938137058,"25":0.1625157843003597,"26":-0.20136785946696023,"27":0.07912318659965668,"28":-0.26648817732766356,"29":-0.25092016076143814,"30":-0.11243759795901197,"31":-0.34416156420520627,"32":-0.16802572339361407,"33":-0.10715221107323972,"34":-0.2847906777313221,"35":0.015153040837482826,"36":-0.2365724723944932,"37":0.009024183788127598,"38":-0.11769603720118997,"39":0.1304709237529493,"40":-0.20569599203238928,"41":-0.054148904300517095,"42":-0.15013753299034285,"43":-0.07687447610982812,"44":0.028126151513781096,"45":-0.23843987632400618,"46":-0.30180326884466946,"47":-0.2999574764778413,"48":-0.2709268677250103,"49":-0.2073856805772185,"50":-0.15478368076294635,"51":-0.05649857771688306,"52":-0.04693054182381733,"53":0.094362880854477,"54":0.10344307470805082,"55":0.027591717722347493,"56":0.17210381973792008,"57":0.33897793787691427,"58":0.08509542165694604,"59":0.1948555248140012,"60":0.25104485781535996,"61":0.06628836194307242,"62":0.2848381016441769,"63":0.34634833598821385,"64":0.06263255975226267,"65":0.2325247744357267,"66":0.17235210890681876,"67":0.09122786347928095,"68":0.2532076766934093,"69":0.09877681825111509,"70":0.10894546467997364,"71":0.051982576741957776,"72":0.13975027715472563,"73":0.23287822969713007,"74":0.006044983567046176,"75":-0.17396561574230063,"76":-0.13268069421543877,"77":-0.037609833437183854,"78":0.13355766815235562,"79":0.09785622646964358,"80":-0.0096974523932155,"81":0.06112304400328094,"82":0.05737583285230478,"83":0.02913658527557699,"84":-0.010208018474569454,"85":-0.10427438316131972,"86":-0.19144161986597402,"87":0.12764563405015525,"88":-0.12589760112384027,"89":-0.09334572799318851,"90":0.06416154066719436,"91":0.05911814430347756,"92":0.003035335078150775}},"21":{"bias":0.19336968393092233,"weights":{"0":0.16319206504677033,"1":0.08229705250809194,"2":0.16517420961304238,"3":0.07491073848246455,"4":0.2084159082047956,"5":0.09859760986833499,"6":0.1788404788434204,"7":-0.038277527865753364,"8":0.2190804083967079,"9":-0.092572667311459,"10":0.06963066557974225,"11":0.03246521410120402,"12":0.305758126437451,"13":0.0022573066185398206,"14":0.04239607791086887,"15":0.1690243526613964,"16":0.10756282327855925,"17":0.044001299723788356,"18":0.0386869417750886,"19":0.2061734023619784,"20":-0.04985532186542595,"21":-0.09582141614085506,"22":-0.07399238724614268,"23":-0.10867240244905241,"24":-0.053295962751946147,"25":-0.02841642726810696,"26":-0.13471298866506357,"27":0.03493548823617015,"28":-0.2574283104383054,"29":-0.1964300184126393,"30":-0.14733216255034537,"31":-0.06684697541003898,"32":0.03658307452131607,"33":-0.08268426591311868,"34":0.14593902405276404,"35":0.12634258186022904,"36":-0.15663357716802465,"37":0.14751037841113956,"38":-0.09642383769354082,"39":0.04616458900858953,"40":0.12288299803241956,"41":0.05344247342984905,"42":-0.026718823012395955,"43":0.13902043223732788,"44":0.03479588121036442,"45":-0.007420440545183559,"46":-0.21395911129291753,"47":-0.33779612743665166,"48":-0.02245766433947389,"49":-0.2183512873667465,"50":-0.21614986016026425,"51":-0.12775501616434182,"52":-0.20538707959964142,"53":0.1032900917475192,"54":-0.12097631627019971,"55":-0.0068087059243650844,"56":0.14540202991210013,"57":0.101407129014586,"58":-0.08595530204884216,"59":-0.04244941894364522,"60":0.06659941959026762,"61":0.0030926922126696572,"62":0.21056316113867704,"63":-0.16106580687985633,"64":-0.10360839532722999,"65":0.06373647782865337,"66":-0.013013329030295648,"67":0.14661496238112012,"68":-0.128697340112798,"69":-0.1555428180595111,"70":0.028893270459756325,"71":-0.07515240901484041,"72":0.008410463227035878,"73":0.17097152460398632,"74":0.05520246745010963,"75":-0.051170984713961365,"76":0.08805028873315734,"77":-0.20290071528629305,"78":-0.14005084436430854,"79":-0.191524894902356,"80":0.05718997707586127,"81":-0.0014076746232598901,"82":0.08779644406346954,"83":-0.2415720533812633,"84":-0.22733268824441918,"85":-0.20483083448037076,"86":-0.20973815405609675,"87":0.022344693723776066,"88":-0.11512352805487953,"89":0.054720689165990676,"90":-0.26800928800671603,"91":0.08233000771394648,"92":-0.27142200083251944}},"22":{"bias":-0.09838841197762163,"weights":{"0":-0.05223979257838726,"1":-0.0901597955108666,"2":0.1902158276651793,"3":0.16159388317918644,"4":-0.039099854297599726,"5":-0.0029313869429546916,"6":0.17617489293184513,"7":-0.01715453348697114,"8":0.21015508820194817,"9":0.2555813967616479,"10":0.09177556178697131,"11":0.01427604918406893,"12":0.18675814761951412,"13":-0.05771670551267993,"14":0.09262166168237966,"15":0.028708649744889767,"16":-0.04903899116776164,"17":-0.17341723844043097,"18":0.11440876685484258,"19":-0.07338736769021405,"20":-0.35205052761283023,"21":0.05586043163665879,"22":-0.1888796880276229,"23":0.13131799849260198,"24":-0.06064936824832174,"25":-0.23750805742391445,"26":-0.05860664885007257,"27":0.11406862958809519,"28":0.11584793815902117,"29":-0.011614661409842164,"30":0.16097398512550176,"31":0.00980989032242217,"32":-0.05606482944437706,"33":0.03604873595028532,"34":-0.04839366796571446,"35":0.12178574894257697,"36":0.22885799810710863,"37":0.07924012471374568,"38":-0.13386820494568363,"39":-0.10053944883308238,"40":-0.062387283951038694,"41":0.14625361845376117,"42":0.19327011574765476,"43":-0.075718897581323,"44":-0.2079335319182996,"45":-0.1452278329837073,"46":-0.027087577246972274,"47":-0.034245046707255034,"48":-0.21751782982185439,"49":-0.14038749174688558,"50":-0.08657373555563291,"51":-0.22741932683385535,"52":0.05039186848350055,"53":0.040538533421048725,"54":-0.028374033979879813,"55":-0.14109453413837592,"56":-0.13559017100456114,"57":-0.016866301290892085,"58":0.04591340107438001,"59":-0.21288335260349034,"60":-0.06430546715215282,"61":0.14944870679196293,"62":-0.17776075234535155,"63":-0.11383451112551263,"64":-0.20013713643584313,"65":0.0696631985870321,"66":-0.1459063245423195,"67":0.05250812897942718,"68":-0.14944821543803027,"69":-0.22249687101620658,"70":0.14950836081386404,"71":0.02226105657387298,"72":-0.06436711629057586,"73":0.04712914948599215,"74":-0.14555383000937364,"75":0.2868348491347587,"76":0.17286541369002692,"77":-0.03996952931202603,"78":0.20782306111129645,"79":0.23328288642590156,"80":-0.07304156752340421,"81":0.2246432671516555,"82":0.1188074891080784,"83":-0.09591821785862198,"84":0.08965994850498846,"85":-0.03968430164081491,"86":-0.07351642391389845,"87":0.226220210549177,"88":0.12590815448015183,"89":0.2508308136751906,"90":-0.058277332004514924,"91":0.13711170863344302,"92":-0.01073597507545492}},"23":{"bias":0.13827133135626019,"weights":{"0":0.33624062287180384,"1":0.12159964892588557,"2":0.29032100336438016,"3":0.21566555839797433,"4":0.21087869303848739,"5":0.40211321482975787,"6":0.28305410767575445,"7":0.3101482220593829,"8":0.03332566507636375,"9":0.29680305330986495,"10":0.105502537816812,"11":-0.004401018527556661,"12":0.16085830534317763,"13":0.24016952762418586,"14":-0.03446189234802136,"15":0.06227161350045155,"16":0.22176048412628627,"17":-0.0017832325234862672,"18":-0.37363914000524817,"19":-0.00534644990351557,"20":0.013295692295339836,"21":0.04839984095122569,"22":-0.009058163450835927,"23":-0.038704293029688315,"24":0.036077868059700015,"25":0.15656171408896113,"26":0.0758306185470531,"27":-0.4611772874677258,"28":-0.11833794953438169,"29":-0.08959266953689653,"30":-0.15359525983938416,"31":-0.08490667224455736,"32":-0.24242322999890237,"33":0.14208093820479473,"34":-0.23370919974653176,"35":-0.09922368788280207,"36":-0.004863951773004041,"37":-0.06712275321673492,"38":0.020452919374504594,"39":-0.29557523107556133,"40":-0.0035284412809156855,"41":0.10997443482068078,"42":-0.2545913106040872,"43":0.1240775262061612,"44":-0.0638457146864878,"45":0.18654805019153836,"46":-0.10086884148327209,"47":-0.2502121119430211,"48":-0.1325934308027073,"49":-0.07458049939257966,"50":-0.06670240908656545,"51":-0.09171600617561775,"52":0.0418123414646909,"53":0.013832778857330074,"54":-0.2540909762306912,"55":-0.06312728709753336,"56":-0.3160648501421641,"57":-0.0834515100240925,"58":0.028270028266578626,"59":0.0036086406799949932,"60":-0.04602727899071168,"61":-0.2211269130103624,"62":-0.033064904164659854,"63":-0.20520744359263782,"64":0.0729310975516912,"65":0.05807244375737362,"66":-0.010959571983624596,"67":0.05942508013817791,"68":-0.11141169816273108,"69":-0.13797022126085656,"70":0.14800329402363152,"71":0.010921155116916388,"72":-0.12458538222925541,"73":-0.2106429015947284,"74":0.11493243956795154,"75":-0.012767061715067288,"76":-0.10983256022965801,"77":0.12881394705581645,"78":-0.277547993100094,"79":0.05870001987038817,"80":0.08908927620166834,"81":-0.17382857837435467,"82":-0.15704251889492185,"83":-0.09336137688179741,"84":-0.1387117318977475,"85":-0.25002374385142884,"86":-0.18870658916361885,"87":-0.03832436553514532,"88":-0.11724940939385552,"89":-0.1559103138504419,"90":-0.1745299400449967,"91":-0.05798971587868904,"92":-0.061482871027188156}},"24":{"bias":0.05407841510803598,"weights":{"0":0.10943167626747621,"1":0.1258992509993376,"2":0.16047991995648273,"3":0.02467009560685193,"4":-0.13126064614940913,"5":0.238929488927782,"6":-0.012723238602229257,"7":0.026339111548676554,"8":-0.11549519112541048,"9":-0.08480107434449029,"10":0.06843028384921568,"11":0.08441540007177055,"12":0.21395401171095318,"13":0.09417043854467667,"14":0.04901420492865195,"15":0.03254338333078921,"16":0.03997260364978358,"17":0.12633179543264014,"18":-0.08915391446907267,"19":-0.07120441972116556,"20":-0.11883050523477347,"21":-0.19171199443981235,"22":0.18200657822976612,"23":0.044275919162211144,"24":0.06451093545619434,"25":-0.0845445193936749,"26":-0.19842926110516157,"27":0.16872913420038682,"28":-0.1284272367953918,"29":0.02781763164181509,"30":0.03486391123776337,"31":-0.142114330554987,"32":-0.2854582633299824,"33":-0.10227491850773339,"34":-0.2823483434541568,"35":-0.10289151036032722,"36":-0.048679194378256206,"37":-0.1493924904714324,"38":-0.009805790592579007,"39":-0.17104504554321073,"40":-0.11660745341481749,"41":-0.07872032060959762,"42":-0.06709745540393611,"43":0.10171726017420202,"44":0.04360751290779848,"45":-0.19303293995029358,"46":-0.08533064714102584,"47":0.05334562963084576,"48":0.04972697952927528,"49":-0.07431137152619685,"50":-0.2559698327857463,"51":-0.14324725950925246,"52":-0.05099924658417381,"53":0.06070264331571976,"54":0.01085503239533754,"55":-0.09860807107934569,"56":0.01888194276823877,"57":-0.05906099438409157,"58":-0.0794877710923736,"59":0.14222983823311855,"60":0.1519794628878677,"61":0.19724668062912482,"62":-0.009128459092472774,"63":0.04295671391624826,"64":0.060153251402008154,"65":0.07589593460836036,"66":-0.070149403811195,"67":0.0911606939856609,"68":-0.15109439915614262,"69":0.14423035922162875,"70":-0.04679713095940111,"71":0.2192283146801273,"72":-0.040444006529332326,"73":-0.16289963414096145,"74":0.01934559691439073,"75":0.021083923371623972,"76":0.04951137015293634,"77":-0.01938686956809727,"78":-0.12178891144672838,"79":0.08559432612147025,"80":0.0009114805818122005,"81":-0.05170104154704328,"82":0.07529088732919413,"83":-0.04798957551645166,"84":0.07241547692101212,"85":0.19824971323737606,"86":0.09428011324987225,"87":0.09803302993185255,"88":-0.1649484185895737,"89":0.20423280172471991,"90":0.16529873654019095,"91":0.03658616603777029,"92":-0.16187135945854428}},"25":{"bias":0.07582553229541729,"weights":{"0":0.23575433573605398,"1":-0.038046952005299686,"2":0.012068614451355653,"3":0.0695193016853423,"4":0.1690671210069158,"5":-0.003397959381136259,"6":0.23807824688877205,"7":0.1263224703521979,"8":-0.053175065784362784,"9":0.06270170502625286,"10":0.1332732843597549,"11":0.02249097930857558,"12":0.07435298014069804,"13":0.13315734095704013,"14":0.1452440351988063,"15":0.22620253025052092,"16":0.22790661266837173,"17":0.17724985827317205,"18":-0.15104675743525106,"19":-0.08946799593117499,"20":0.1304802442670748,"21":-0.17896779722852912,"22":-0.09682845148811331,"23":0.173240172209116,"24":-0.09730957125560524,"25":-0.04982511275592136,"26":-0.24453738073357806,"27":-0.2101343683679737,"28":-0.46638991993113116,"29":0.17413103115157316,"30":-0.06509482932070228,"31":-0.10219798544133542,"32":-0.10860192501764218,"33":-0.06694781481499551,"34":0.08516727244745588,"35":0.09229895580454667,"36":0.03238582960120712,"37":-0.09053911168018149,"38":-0.23832038206329997,"39":0.027667748515538562,"40":-0.2746882038090793,"41":-0.2397224435097624,"42":-0.12709260139955664,"43":-0.20757535164881585,"44":-0.08472719542055007,"45":-0.12846486603485185,"46":-0.03887595975098058,"47":-0.34054918643491827,"48":-0.2312946357757141,"49":-0.3341978502269354,"50":-0.08447839535388176,"51":-0.027626652035277748,"52":-0.1897554776032918,"53":0.13704526287744442,"54":0.06594395592173007,"55":-0.1670375824718443,"56":0.09717224630019934,"57":0.16373308211569826,"58":0.17552960384897354,"59":-0.03813893802442756,"60":0.21051143993912663,"61":0.1899219553563194,"62":0.07371494465828057,"63":0.2233831675065976,"64":-0.04538562381527867,"65":-0.09018213501008539,"66":0.060868691416451105,"67":0.19283250295591867,"68":-0.007009927345782157,"69":0.13865353899424085,"70":-0.15582370518883903,"71":0.09130981372169783,"72":-0.028716709730216842,"73":0.129133385088784,"74":0.030319024701579822,"75":-0.252711566719792,"76":0.11004762506913401,"77":0.12892428144008694,"78":-0.05336121240559063,"79":0.08296921693661256,"80":-0.026138088845516074,"81":-0.26424283173463653,"82":-0.12799045610131538,"83":-0.2866334814259907,"84":-0.11327765473082334,"85":-0.019006436889126194,"86":-0.02760124009558269,"87":-0.03928884641695349,"88":-0.04060125266701109,"89":-0.1784128412358013,"90":-0.23297329737714068,"91":-0.01982146927651924,"92":0.0341926178187053}},"26":{"bias":0.17846518408418915,"weights":{"0":0.1185882282299964,"1":0.06090651171675903,"2":0.08213017307264373,"3":-0.14000837878511677,"4":-0.04189517008748619,"5":0.08431113042647627,"6":-0.022870328303183245,"7":-0.045644517644252224,"8":0.02194913782183737,"9":0.0784929136057771,"10":-0.0924071174483485,"11":-0.11723926021925311,"12":-0.008857912175605552,"13":0.08522796486703432,"14":0.1947875349551763,"15":0.0005803562912308012,"16":0.18097697632302176,"17":-0.07176486920028378,"18":-0.2883303306995616,"19":-0.05919870717176259,"20":0.3298880545087226,"21":-0.1982376954976853,"22":0.0360117199138921,"23":0.12429340986267302,"24":-0.06583102431885694,"25":0.06119316303380278,"26":0.06268576323451631,"27":-0.3115300556542047,"28":-0.006654195486365014,"29":0.037325311944582246,"30":-0.11671340794162798,"31":-0.09921778738224674,"32":0.030675399729534328,"33":-0.1665378748057293,"34":-0.2700342168428233,"35":0.06865421212408933,"36":-0.20518832003409546,"37":-0.08053017794716014,"38":-0.1149284687362692,"39":-0.19770502252609515,"40":-0.3579371569123016,"41":-0.19633858559445766,"42":-0.07271785145243345,"43":0.04640231557681739,"44":0.04402145885588838,"45":-0.16398376226254863,"46":0.20459311828210458,"47":-0.13322242732553508,"48":0.015413369671722053,"49":0.06601784888580263,"50":-0.0537842954038617,"51":0.16983066253848653,"52":0.058988706420157175,"53":0.07054847899289995,"54":0.007249325006420677,"55":0.12502308840603174,"56":0.0744599868076298,"57":-0.08699774161072438,"58":0.037789372974321674,"59":-0.1319542280398235,"60":0.10343584092482884,"61":0.18948226499862045,"62":0.0383439398261095,"63":0.1779610966973791,"64":0.2163870146309215,"65":-0.08553986883405815,"66":0.13920033187900213,"67":0.04795984890065244,"68":0.15501679526242373,"69":0.053871064290415396,"70":0.23602365107012155,"71":0.23693940190961701,"72":0.24006408929319448,"73":0.09591199316319754,"74":-0.08031155705044214,"75":0.09412171934593719,"76":0.15610127267730375,"77":0.019827522391881697,"78":-0.07220230335924828,"79":-0.23890487438082333,"80":0.07579499899955307,"81":0.036093524496927536,"82":-0.02296819055239042,"83":-0.2601813990840156,"84":-0.22499255827757425,"85":-0.12994332324640587,"86":-0.09147046570899862,"87":0.10114920571394424,"88":0.07371135254270585,"89":-0.10859082850821604,"90":-0.19824355969589655,"91":-0.042952063435447885,"92":-0.2202784226886502}},"27":{"bias":0.005053349612864353,"weights":{"0":0.07793720444659474,"1":0.12080955400279192,"2":-0.0699857477205319,"3":-0.005439868072723164,"4":0.13329751798321252,"5":-0.1100366060826151,"6":0.0490767939795586,"7":-0.20216502753653112,"8":-0.014513399903337859,"9":-0.11158277448911418,"10":-0.09263618336216074,"11":-0.023661938916005494,"12":0.22232664427379634,"13":0.16180259913912876,"14":0.11610877932539058,"15":-0.09984736829820615,"16":0.14913949104918806,"17":0.08725965878898169,"18":-0.15934131518866948,"19":0.07415140734559518,"20":0.041234087873975554,"21":-0.2814258476598247,"22":0.12383312708328899,"23":0.0359690890946421,"24":-0.024235720692010347,"25":0.09477909848125185,"26":0.18984218935415278,"27":-0.08290105868914392,"28":0.1526937189412017,"29":0.0818346098874754,"30":-0.008944197340313858,"31":-0.21333408426391348,"32":-0.04932132757293156,"33":-0.0585340140238155,"34":-0.062023522006970686,"35":-0.09943344025468258,"36":-0.06697473258304856,"37":0.10519449690647467,"38":-0.23201391223082396,"39":-0.2851034016542931,"40":-0.1632519712962055,"41":-0.2379507692951685,"42":0.13838531701266288,"43":-0.06776369384330688,"44":0.04930792886517959,"45":0.16231911146948622,"46":0.12218665328257364,"47":-0.0328894213929044,"48":0.022754723284937044,"49":0.13623820839375386,"50":0.15961439454588663,"51":-0.03789761772372522,"52":0.21112619480266315,"53":0.051679152805663306,"54":0.014800144722038708,"55":-0.16623576786019464,"56":0.12694831467737927,"57":-0.0791587399653929,"58":-0.14705284781321898,"59":0.0328431685098042,"60":-0.17774793878306633,"61":-0.14263505666205556,"62":-0.19439795074629784,"63":-0.02382903957995907,"64":-0.1064135257229877,"65":0.015238053688681776,"66":-0.14846603502786748,"67":-0.08704826790832103,"68":-0.10164473677779096,"69":-0.11120545122247569,"70":0.04074954387253213,"71":0.053782947333324234,"72":0.03201078243384376,"73":0.07617043082117836,"74":-0.13209107577917634,"75":-0.2055822734318826,"76":-0.14219071466367203,"77":-0.016253032969449722,"78":-0.07060927335905286,"79":-0.18776668525524232,"80":0.09857185092141342,"81":-0.3113410292408038,"82":-0.22035653949881812,"83":-0.2385595232037,"84":-0.029478167429555703,"85":-0.23975825370487958,"86":0.011640065403855893,"87":-0.0953865501149728,"88":-0.2704946003586396,"89":0.042046934557156544,"90":0.09688698325808404,"91":-0.2377056417895665,"92":-0.1891919464126362}},"28":{"bias":-0.10316581323494188,"weights":{"0":0.37514445684671816,"1":0.20404455429431353,"2":0.29167899913352746,"3":0.1830645536071189,"4":0.21560008481867615,"5":0.3504017395914504,"6":0.26014655727517466,"7":0.1073771186029946,"8":0.1701010342778067,"9":0.0717874111705073,"10":0.2759821924369293,"11":0.3099524987832177,"12":0.3387951405499331,"13":-0.07941302068535244,"14":0.1716283022693626,"15":0.00854867155763578,"16":0.11225167789084031,"17":0.04382946185570764,"18":0.02047747833171059,"19":0.031115226694439654,"20":-0.22099543331998173,"21":-0.11288133466593502,"22":0.09777878242747108,"23":-0.06834523766717376,"24":0.04896375468890652,"25":-0.023215339199987,"26":0.09737286747758349,"27":-0.26062661954632543,"28":-0.31142200470164005,"29":0.00033531915751001994,"30":-0.044375245724287464,"31":-0.16561610180523864,"32":-0.04534525028279902,"33":-0.21968075758895741,"34":-0.08111079279415137,"35":-0.08071883666888341,"36":-0.046116455504625564,"37":0.0722165870992004,"38":-0.24323143846574463,"39":-0.19786014790966744,"40":-0.0666021335915991,"41":-0.14750731999025093,"42":-0.25540107953792496,"43":-0.060985817130396545,"44":-0.09977826641536044,"45":0.08321298955119735,"46":-0.19402729436039298,"47":-0.07569870084777344,"48":-0.06215892957527296,"49":-0.1978699055719407,"50":-0.023305578892058365,"51":0.10181250578512466,"52":-0.13358408902544994,"53":-0.24499973794778052,"54":-0.08295036119293096,"55":-0.29305537013205596,"56":-0.18824946650681085,"57":0.06524224015468735,"58":-0.08302658140364211,"59":-0.14727227136249949,"60":0.03583933217186825,"61":-0.20605102616991341,"62":-0.1956540597225753,"63":0.0538527403877091,"64":0.08080446015702696,"65":0.08266759029607444,"66":-0.19045069644571103,"67":0.12532930883013313,"68":0.04173515898709697,"69":0.002868450878117957,"70":-0.19644876156893126,"71":-0.01134644608456869,"72":-0.011163532474642265,"73":0.14161818487236802,"74":-0.09815689918627356,"75":0.1252101832288345,"76":0.1829469083755614,"77":-0.198198872960833,"78":-0.05594357394412391,"79":-0.05161372053763685,"80":-0.06528502130319616,"81":-0.02272024105659817,"82":-0.20415786300018757,"83":-0.1964947381573062,"84":-0.19832362166696166,"85":-0.22369579296846606,"86":0.01705735808177151,"87":0.12687666746069698,"88":-0.1369945995911266,"89":-0.04427760657016054,"90":-0.20851611278342078,"91":-0.08232332161277085,"92":0.05490434636828577}},"29":{"bias":-0.15080700787980475,"weights":{"0":-0.10483503072118193,"1":0.20654883987359107,"2":-0.08075361457476792,"3":-0.09235348587673231,"4":-0.02416701439551674,"5":0.038773307215611987,"6":-0.10037002974383746,"7":-0.020879919213539835,"8":0.02487601601786907,"9":0.3406879389716526,"10":-0.05681071484582763,"11":0.06018301084569254,"12":0.11676835231006123,"13":0.12230498612870341,"14":0.0441719826576011,"15":0.043973698740728255,"16":0.1677064151063887,"17":-0.1479677776232627,"18":0.09441713685229228,"19":0.16132958474940848,"20":-0.11048940345393532,"21":-0.07824324131457008,"22":-0.006323686130384622,"23":0.12470324959571033,"24":0.1308456370603258,"25":-0.032240234341576884,"26":0.12107803460397043,"27":-0.1426352322617472,"28":0.13636585027714604,"29":0.07565136333128841,"30":-0.0245363497536176,"31":-0.3404348260742396,"32":0.06811263440393918,"33":-0.10656808446141353,"34":-0.01695457303181915,"35":-0.27147475538706206,"36":0.10757549766675831,"37":-0.10409051035215337,"38":-0.026179694348839027,"39":-0.0002793358818124318,"40":0.06353458271773714,"41":-0.2815836430528454,"42":-0.11831444845986974,"43":-0.047652074665883754,"44":-0.1518707681527224,"45":-0.05405232636596422,"46":0.048324886320293914,"47":-0.06477925366914841,"48":0.1425525349822708,"49":0.20860544113342128,"50":0.10076478696562335,"51":-0.18112917345432575,"52":0.11759389146561665,"53":-0.022444866407256337,"54":0.05692793363482672,"55":0.11750560891063315,"56":0.1335438606953574,"57":-0.11087221696614441,"58":0.10751208540264112,"59":-0.16845550954413455,"60":0.1156345334542696,"61":-0.15176859123640038,"62":-0.009051861210503184,"63":0.04879244680072855,"64":-0.21473819903079644,"65":-0.16295148719180988,"66":0.16244880642065243,"67":0.03561753319810464,"68":-0.10667464173124257,"69":-0.18679501289048536,"70":-0.1066211674667307,"71":0.04591169610489683,"72":-0.02984683172546259,"73":0.08759420328274893,"74":-0.16404584945774198,"75":0.2285852812540359,"76":0.059902665307775924,"77":0.21146103321176382,"78":0.04657063760403316,"79":0.18440429195201186,"80":-0.07251034689216862,"81":0.015418475440564136,"82":-0.12813568149842258,"83":0.16345486913266832,"84":0.11550055314213424,"85":0.043946161247769885,"86":0.2770601302116402,"87":-0.04266168960521339,"88":-0.08882703630880186,"89":0.11096032039444141,"90":0.04519554492219935,"91":0.049187736289973034,"92":0.016127912795960167}},"30":{"bias":-0.2009060278608363,"weights":{"0":-0.14610228386785876,"1":0.16308307816042836,"2":-0.16536928997396283,"3":-0.10782338897073214,"4":-0.10646833229492496,"5":-0.07836046145209027,"6":0.039695584428104655,"7":0.11672943482760657,"8":-0.18428462718099442,"9":0.010254545912921685,"10":-0.0418094460744889,"11":-0.17274822011033866,"12":-0.06353965017200566,"13":-0.19018216416778158,"14":-0.13413618833822147,"15":-0.0508540213235589,"16":0.13607362633686024,"17":-0.016447213296092056,"18":-0.18043867095847257,"19":0.09183716762058276,"20":0.2849306132336201,"21":0.10031847808243172,"22":-0.09366955689860279,"23":0.14060153878530807,"24":0.16178994027516902,"25":0.07707857078264707,"26":0.22380486649795311,"27":-0.3090374941202347,"28":0.433699227640155,"29":0.02836469267030327,"30":0.12626593306903178,"31":0.1425465363335222,"32":0.18610931154300625,"33":0.17004324072957616,"34":0.12190414159842655,"35":-0.10347321406824203,"36":0.09444815432454465,"37":0.09014883575883292,"38":-0.08132311975074406,"39":-0.2941221831490081,"40":-0.053499100545648125,"41":0.05331229416078264,"42":-0.04937679025012859,"43":-0.04080973677644645,"44":0.0833888250111118,"45":0.1424474707041934,"46":0.1093971101251897,"47":0.32024148501409716,"48":0.01551418327421597,"49":-0.0751169812168477,"50":0.34026935107502726,"51":0.07350351164428555,"52":0.253725240393316,"53":-0.23766944204068985,"54":0.02376882915814024,"55":0.14033083952637843,"56":-0.24396290005790552,"57":0.10338988847272096,"58":0.13073287404973458,"59":-0.2269253276853509,"60":-0.09514148850601685,"61":-0.1270997503212883,"62":0.04695698840354674,"63":-0.2451245332404665,"64":-0.09665236853550575,"65":-0.08300175137242306,"66":0.045745006417666156,"67":0.11664831002870908,"68":-0.1756411620027197,"69":-0.07592420767061593,"70":-0.16889616300777663,"71":-0.020734351487253583,"72":-0.10857357800626756,"73":-0.0683603125749754,"74":-0.046004184281052185,"75":-0.03350951637394068,"76":0.01767127723867187,"77":-0.21201305574509396,"78":0.08906799809971978,"79":-0.18142575954015122,"80":-0.1650324068656437,"81":-0.2527025927703474,"82":-0.19433511168781803,"83":-0.21755581148612588,"84":-0.049177098063757974,"85":-0.17867721977500112,"86":-0.0581519881992757,"87":-0.0891982253214788,"88":-0.205301616365079,"89":-0.21474139039971457,"90":0.0665045333907175,"91":-0.04572731630351683,"92":0.10016836583050405}},"31":{"bias":0.09376984950022109,"weights":{"0":0.05473075452729036,"1":0.02822363005373295,"2":0.1531831662393515,"3":0.14789007120245126,"4":-0.17979981403841414,"5":-0.005392969184114109,"6":-0.18941122677939962,"7":0.08189834882851998,"8":-0.1661689434767082,"9":-0.1287740748038368,"10":-0.024232215168709846,"11":0.040182626720974404,"12":0.024935510390374407,"13":0.057286719014211,"14":0.18435748715885286,"15":-0.036120649338722964,"16":0.001952224062899152,"17":-0.07650995519567731,"18":-0.19228483515858602,"19":-0.0005686447547312231,"20":0.3418936579634704,"21":-0.06399555076025137,"22":-0.021430079372775353,"23":0.10187979674800426,"24":-0.06447286673413485,"25":0.047149353904595924,"26":0.087430253282313,"27":-0.18726312279989724,"28":-0.25308459821197,"29":0.039641318528838884,"30":-0.14511046545059472,"31":-0.015409093460232478,"32":0.08857178949125288,"33":-0.18061012532840506,"34":0.1249495666411807,"35":-0.13399589385644456,"36":-0.27239034497911424,"37":0.11192106928104056,"38":-0.06060055435005386,"39":-0.20746277506038707,"40":-0.2540876726098189,"41":-0.19173011971700404,"42":-0.12745029701743682,"43":-0.029145262862230275,"44":-0.1878243887545676,"45":-0.02151029253664116,"46":-0.1484304689299443,"47":-0.03793632337386461,"48":-0.04997941974606775,"49":-0.14258296505766083,"50":-0.12202151831204779,"51":0.0016317589509846533,"52":-0.026209605981973524,"53":0.0023905813706186284,"54":0.11247192122917553,"55":-0.07292238227294616,"56":0.10911315182917808,"57":0.08292592298486996,"58":-0.061249331178655705,"59":0.11014273899528583,"60":0.18120681731874022,"61":0.1845194187731818,"62":0.24933261788864006,"63":-0.12343348297254898,"64":0.25859415344571407,"65":0.1399119256367991,"66":-0.030555606108595108,"67":0.10468675012756185,"68":0.13060458022140387,"69":0.06121190158546714,"70":0.0028695883570659456,"71":-0.06810677639717423,"72":0.05458005118422322,"73":0.06070644261279432,"74":0.08944753473194755,"75":-0.2883887703721034,"76":0.00747531761263245,"77":-0.16872003434987534,"78":-0.04190211461294869,"79":-0.25739473015194164,"80":-0.20641306365084328,"81":-0.2799866696910567,"82":0.02415011907128998,"83":0.08115935149364396,"84":-0.014045530468612401,"85":-0.013577682900407175,"86":0.04694473495374914,"87":-0.30277935382692106,"88":-0.0247243974064527,"89":-0.27684598058128757,"90":-0.29811019942410316,"91":-0.2644313733717666,"92":0.01168611699801024}},"32":{"bias":-0.20323087854343394,"weights":{"0":0.08669056777084312,"1":-0.06456457144271391,"2":-0.06720264110845922,"3":0.14329525569444387,"4":0.13015040636489256,"5":0.31045608213440445,"6":0.14252510764456008,"7":0.07397293377849841,"8":0.12559136316121,"9":0.26609559626423473,"10":-0.0854404072330737,"11":0.20789788316962793,"12":-0.10500256921345345,"13":0.0002389713283866038,"14":0.08810421516440996,"15":0.03781545699906028,"16":0.145491547175815,"17":0.044174163546494796,"18":0.36772930831704015,"19":-0.09115002328772535,"20":-0.09987828248269025,"21":-0.00817706023263493,"22":-0.09384549894028654,"23":0.11828953414880747,"24":0.018554378646228886,"25":0.007727112681569589,"26":0.15577846408247276,"27":-0.060829704882800796,"28":0.01853505150311332,"29":0.08701898308449921,"30":0.3024146101476868,"31":0.21570457620322678,"32":0.3119912550747387,"33":0.06924006965553617,"34":0.10865384307786308,"35":0.17036892784842478,"36":0.26066100314337126,"37":-0.00045839848084008823,"38":-0.08044653775767342,"39":0.09490879069357133,"40":0.15775643215516347,"41":-0.03719844451543915,"42":-0.11015348373920697,"43":-0.025808716624355552,"44":-0.17505727525620662,"45":0.010490020504747125,"46":0.06557576268773758,"47":-0.024160010698766228,"48":0.1219908436757816,"49":0.15377450211358423,"50":0.12805662808495938,"51":-0.1295043838596752,"52":-0.17434971568249194,"53":-0.21593226678424488,"54":-0.1959046193412868,"55":-0.06101470333065858,"56":-0.21838469705506242,"57":-0.23454265114837666,"58":-0.27827436641138886,"59":-0.2690870549270427,"60":-0.29088404753270836,"61":-0.25282062512590314,"62":0.000999870750137813,"63":0.047537100146949854,"64":-0.055762409287486894,"65":-0.07539799254386921,"66":-0.015342938049144222,"67":-0.11044822586186902,"68":-0.07484926941297393,"69":-0.20008566148561674,"70":-0.2436339749677498,"71":-0.10314116065211112,"72":0.001876928490673178,"73":-0.24475853156862826,"74":-0.20407426959779806,"75":0.22917092222823976,"76":0.13378183007321698,"77":0.06637829939245797,"78":0.13760742528721118,"79":0.1790963969342825,"80":0.07517382974060835,"81":0.259681364864733,"82":-0.1485239682889992,"83":-0.056392741946241845,"84":0.24865905366264163,"85":0.15397060064055249,"86":0.23961647981779532,"87":0.21747670007709496,"88":0.1524384424121083,"89":0.019453199346715407,"90":-0.05262865550339626,"91":0.021380005522059757,"92":-0.04656973548486012}},"33":{"bias":-0.09769059914320942,"weights":{"0":0.27661294114492946,"1":-0.08604765512758115,"2":0.12662085882975851,"3":-0.029673418798726002,"4":0.32407840916162517,"5":0.0769479855396883,"6":0.17770628941756691,"7":0.1467963532116299,"8":-0.04566359494127949,"9":0.1704480474417139,"10":0.10454331138189732,"11":0.010021001109795123,"12":-0.00609147870014299,"13":0.02598427524101009,"14":0.08096817269310864,"15":-0.10329902373775132,"16":0.13536010490242478,"17":0.20029319138427867,"18":-0.21024999539602846,"19":0.21837494841278993,"20":0.10778141665027424,"21":0.04273843066931194,"22":-0.07577808731452942,"23":0.1186629113919501,"24":0.14404215495634942,"25":0.021543099527775184,"26":0.12278304754537332,"27":-0.22266031566091565,"28":-0.3537146603807677,"29":0.19011545617200745,"30":-0.014681627092448718,"31":0.17650282345391655,"32":-0.04529183007900968,"33":0.1362095284136132,"34":0.14045480809163827,"35":0.026910016071875684,"36":0.08647487017602952,"37":0.028267790709302826,"38":0.19737363358101231,"39":-0.14889578083410734,"40":0.1286636777391895,"41":-0.07034936549962917,"42":-0.09767201697024411,"43":-0.1544605934842837,"44":0.08841140749391964,"45":-0.21175347974126119,"46":-0.033474667199662474,"47":-0.07282325985741227,"48":-0.12060948936775427,"49":-0.23827639310070786,"50":-0.18387149746605827,"51":0.0724295011853297,"52":-0.19825788424745444,"53":0.11002854676152082,"54":-0.07980158138174374,"55":-0.07191642288255215,"56":0.022821455498632584,"57":0.07817206460696884,"58":0.128420641881634,"59":-0.07854911635644919,"60":-0.006097365445209845,"61":0.1487856365474509,"62":0.12838264254162532,"63":0.01321295693508697,"64":-0.11447862235143318,"65":0.02144789071192473,"66":0.09232536260454151,"67":0.046937768445662525,"68":0.09751125032708548,"69":-0.1409932530795409,"70":-0.07793240812217583,"71":0.11496086448680386,"72":0.007829829464927033,"73":0.0044964574865996,"74":-0.0977581060295333,"75":-0.20052022627411242,"76":0.0279987903342096,"77":-0.045210528822472396,"78":-0.20257016600080444,"79":-0.08309497019163732,"80":-0.14171328962873275,"81":-0.13625758367940152,"82":-0.01895952976554262,"83":-0.19167260552952461,"84":0.09262606722504152,"85":-0.07114918570760949,"86":-0.12754305272954636,"87":0.10315462957317524,"88":0.10493506906428553,"89":-0.09091054107535469,"90":0.08343772004794416,"91":0.016460367060841592,"92":-0.23416771795127603}},"34":{"bias":-0.09611590197279257,"weights":{"0":0.2939175059074304,"1":0.07743062624373474,"2":0.21326300566730297,"3":-0.0693800066307223,"4":0.2534177483477456,"5":0.3580184319979169,"6":-0.03040538742814575,"7":0.293386271077194,"8":0.02851293684976148,"9":0.3621718736614297,"10":0.16374304430196968,"11":0.31486361182104966,"12":0.042559533199737466,"13":-0.05714835500589735,"14":-0.10593629613943602,"15":0.10034069022430155,"16":0.20705606166278798,"17":0.22915559865550775,"18":0.12968693421095354,"19":0.021530217786339893,"20":-0.3187332708994038,"21":-0.22106150998562457,"22":0.08490664858928468,"23":-0.10782458946639602,"24":0.0413357710984233,"25":-0.08744294400128295,"26":0.10079629814335171,"27":0.09064006868490253,"28":0.05159962784401266,"29":0.13587362420898588,"30":-0.2414462347423126,"31":-0.379828923721017,"32":-0.0153365325825898,"33":-0.13298588235439074,"34":0.021373346368988633,"35":-0.14032889693032932,"36":-0.06089189846771438,"37":-0.2795736568772285,"38":0.05631542096525867,"39":-0.1809721251082863,"40":-0.13419670836282846,"41":0.08516072342209269,"42":0.016765781939623067,"43":-0.07262314515387276,"44":-0.04422908863515949,"45":-0.2184910105455907,"46":-0.0901837653728788,"47":0.0006204949557020733,"48":-0.11041168792077122,"49":-0.04692612465555849,"50":-0.21265296002462275,"51":-0.02600162399888782,"52":-0.25074554667843857,"53":0.0013203958056113281,"54":-0.19627359098128347,"55":-0.012184267248312298,"56":-0.1941331278809508,"57":-0.23066841674976316,"58":-0.09169282491911326,"59":-0.12903313587050713,"60":-0.08938480645621216,"61":-0.2273850715302054,"62":-0.11664583934167677,"63":0.046358676994392216,"64":-0.1951971424134902,"65":0.06286897164694714,"66":0.12092796548443203,"67":0.12314824261551509,"68":-0.08281506631057657,"69":0.09636508786587009,"70":0.13790313937270138,"71":0.09396009469696107,"72":-0.2508365194996322,"73":0.00534640564517529,"74":0.052788741146383,"75":-0.016092892277142473,"76":0.040285410145345604,"77":0.10071351704065344,"78":0.041407493536084354,"79":-0.08622458701283604,"80":-0.07717924755411808,"81":0.32274315915738006,"82":0.23540979554423033,"83":0.07716284594158761,"84":0.1495645766281114,"85":0.23788540743413344,"86":0.17863027258970382,"87":-0.09050417494900428,"88":0.27719677616322663,"89":-0.004603853032077684,"90":0.1595603282556755,"91":0.20785388670614358,"92":0.22295804125706747}},"35":{"bias":0.16749064481950812,"weights":{"0":-0.25386785766499337,"1":-0.03256853779531497,"2":-0.13264606015846175,"3":-0.04482852872813736,"4":-0.42122889313267065,"5":-0.421617597018495,"6":-0.17927527427551346,"7":-0.3003998400175637,"8":-0.18309374057810926,"9":-0.19166349154978432,"10":-0.08898588277453348,"11":-0.4568280533074332,"12":-0.07487397292688458,"13":-0.014564339403020467,"14":-0.18510580691046585,"15":-0.2202203891265697,"16":-0.05901634413514327,"17":0.05760897563213272,"18":-0.12224861789236158,"19":0.0765754255531489,"20":0.352788531161558,"21":-0.33350445464946915,"22":-0.0977522845374655,"23":0.039220340428774036,"24":-0.13542852711102263,"25":0.15295827801413717,"26":0.03358431901181008,"27":0.1538540260213212,"28":-0.32460999824769776,"29":0.0690166866151357,"30":-0.2750476182669622,"31":-0.021031552123832786,"32":-0.11393809261291776,"33":-0.1348557769866598,"34":0.041301364634268777,"35":-0.2187764341368162,"36":-0.19795166554581647,"37":-0.14115452560459768,"38":-0.14461684672042047,"39":-0.05399416682289653,"40":-0.25875930873418607,"41":-0.16381908707135331,"42":-0.23734899135197907,"43":-0.1068935755768701,"44":0.09828865210472264,"45":-0.22408317504864697,"46":-0.07940986685376122,"47":-0.07260969029630802,"48":0.06008746818762143,"49":0.06727762735412446,"50":0.038947678903695306,"51":0.10527042981778792,"52":0.1400942048692632,"53":0.33620761814079253,"54":0.31571652169241615,"55":0.13123747831490606,"56":0.3129183133064302,"57":0.3286312281556657,"58":0.101469312769806,"59":0.14728569508211328,"60":0.15383530308744223,"61":0.1241007443187285,"62":-0.04410468364025253,"63":0.14842904788112474,"64":0.2392975829164867,"65":0.24438260990134011,"66":0.04432869332539079,"67":0.1438766019068547,"68":0.2200232329203783,"69":0.2456160864283935,"70":0.025567883360312644,"71":0.09015069671901978,"72":0.09457425221500389,"73":0.17988383505072808,"74":-0.05078048700038223,"75":0.07043725865064905,"76":0.023066244424504508,"77":-0.05370425956386843,"78":-0.23060620268334758,"79":-0.041409658591543726,"80":-0.24422074730992324,"81":-0.3010132917001417,"82":-0.024992388204779163,"83":-0.1316473257038902,"84":-0.23565346872954274,"85":-0.09739206294942948,"86":0.04721411018300651,"87":-0.1847988841232397,"88":-0.11746043580070899,"89":-0.19609096961765987,"90":-0.25216868384392827,"91":-0.15159737540524826,"92":0.027490934287284927}},"36":{"bias":-0.05908380487377553,"weights":{"0":0.0703578618267073,"1":-0.24555123141529614,"2":-0.10901577880497783,"3":-0.20783448836811716,"4":0.06842227262389187,"5":-0.06751676330606732,"6":-0.08512275756218397,"7":-0.007656493592069704,"8":-0.13208600346426366,"9":0.19534352079885248,"10":-0.22702826141794608,"11":-0.10711316999836284,"12":0.0002832823075551921,"13":-0.048343430255723484,"14":-0.17284867226577005,"15":-0.043735745252584335,"16":0.09897741656713172,"17":0.12345909539139296,"18":0.3067769990744853,"19":0.1065216532311151,"20":-0.004077033250118111,"21":-0.06621927941522009,"22":-0.09478189969932796,"23":-0.08979110395218137,"24":-0.06950129703925835,"25":0.04610356420233316,"26":0.018052760378313194,"27":0.04676457725981495,"28":0.36959523804113453,"29":-0.18144574830129234,"30":0.12354154118171988,"31":0.1103647160232293,"32":0.037513163489009724,"33":0.009935512646558483,"34":0.007863275686861553,"35":0.16927602698445332,"36":0.11332424639496419,"37":-0.17304677726531992,"38":0.1552427297941601,"39":-0.0902427788995242,"40":0.04575747066377548,"41":-0.10487516341256543,"42":0.27091190193868886,"43":0.17539342439159547,"44":-0.06651710675823594,"45":-0.16393540166468526,"46":0.17341950782659135,"47":0.026051360655571724,"48":0.01643294655334335,"49":0.17099111306778017,"50":0.06366447974455045,"51":0.05111570642893082,"52":0.13842489260418564,"53":-0.12402858890567824,"54":-0.08060910358989333,"55":-0.21397750029284787,"56":-0.06286564967705076,"57":0.14520916350859614,"58":-0.21206584676451265,"59":-0.18073849293825658,"60":0.1422182158289603,"61":-0.05197009200704054,"62":-0.007335337850234998,"63":0.100157244672007,"64":-0.2132942808606696,"65":0.15876606171644442,"66":0.11347465241245507,"67":-0.05256525518671181,"68":-0.11043003627114797,"69":0.09834189202520141,"70":-0.12928704008012365,"71":-0.09161510118564872,"72":0.11863182859117569,"73":-0.05516777906906117,"74":0.0899311658983459,"75":0.038377430184137355,"76":-0.16559887738764253,"77":0.03007638876788648,"78":0.11552094606530253,"79":0.15568227127958825,"80":0.07490048729115296,"81":0.10318938753250975,"82":-0.04398825655162906,"83":-0.09233386254309173,"84":0.25882315954405744,"85":-0.06790252121025674,"86":0.23773764254173033,"87":0.23176649353964154,"88":0.12121320445792874,"89":0.2843104507324663,"90":0.0753056972682476,"91":0.13610448801687364,"92":0.21209825016122819}},"37":{"bias":-0.0721408302472703,"weights":{"0":0.3099776897078508,"1":0.032180470739563365,"2":0.12429101488040892,"3":0.12902134756492595,"4":0.16219818060437804,"5":0.14452848280709887,"6":0.24766064292214307,"7":0.25705275504050035,"8":0.30079567060552925,"9":-0.032127977460524246,"10":0.005537315120576342,"11":0.11143362028319184,"12":0.12366381922862578,"13":0.09331786759263236,"14":-0.053267898329626126,"15":0.15827448766846597,"16":-0.1252799431208312,"17":0.10339510884782033,"18":0.02297077268163949,"19":0.09866978158786463,"20":-0.2839874318459102,"21":0.16907731247214708,"22":-0.054997169143006196,"23":-0.002959197845205603,"24":0.07355445048137454,"25":-0.15194766777520732,"26":0.0939775717674383,"27":-0.08557084815820457,"28":-0.2507420036989385,"29":-0.18104742038474514,"30":0.15731112517754148,"31":0.1756606847842848,"32":0.08989981215448085,"33":0.002333198489568851,"34":-0.19156740382886034,"35":-0.15465480919387636,"36":-0.06636588125946555,"37":0.0879154974284465,"38":-0.12523337268485404,"39":-0.177266469643958,"40":-0.0628416639257963,"41":-0.10475135261073229,"42":-0.22398418919521698,"43":-0.18879999345948154,"44":-0.19979518425023204,"45":0.05385327594378196,"46":0.023864725483213133,"47":-0.1879749709713129,"48":0.05288851943930322,"49":-0.06963194013243484,"50":-0.20331778780718987,"51":-0.29934090254376494,"52":-0.06719107079368272,"53":0.020550612125084758,"54":-0.2103734193086535,"55":0.14002032024052427,"56":-0.05266467883670613,"57":0.021181395205859613,"58":-0.057483162485452044,"59":0.00212525365811286,"60":0.05348935530287733,"61":-0.0875364920806754,"62":0.04253563842279543,"63":-0.1450071019989658,"64":-0.0739029083266803,"65":0.017723542963929802,"66":0.111421180795193,"67":-0.2063149984050074,"68":-0.09924096489999253,"69":-0.11453055786015671,"70":0.018604376097030327,"71":-0.1267115100623049,"72":-0.008186802355884974,"73":0.12137754771616457,"74":-0.029275702101387142,"75":0.02905544800582873,"76":-0.18173050517056524,"77":-0.013833436837610567,"78":0.07425048371107619,"79":0.09538723146068874,"80":0.11049945685624309,"81":-0.02812909297766416,"82":-0.052527804424016666,"83":0.031183882346610115,"84":-0.08383110201524742,"85":0.016131454658467475,"86":0.02455657056196008,"87":0.10226235450239858,"88":0.14205498250426096,"89":-0.1932769692313456,"90":-0.03136982816084268,"91":-0.03331770247994232,"92":0.12897531192949463}},"38":{"bias":-0.10243497539001661,"weights":{"0":0.00003927426114591125,"1":0.022770079451512597,"2":-0.12187009583412174,"3":-0.024720325601071735,"4":-0.09005685491935135,"5":-0.16204506713655695,"6":0.10387821820487773,"7":-0.20554941385686856,"8":-0.06069920290802941,"9":-0.3541941483386657,"10":-0.11260903171939558,"11":-0.28256860307051807,"12":0.031021210187189223,"13":0.07200230380751069,"14":-0.183814858886233,"15":-0.11327653549354322,"16":0.16010225673207296,"17":0.1209027459776665,"18":-0.10072632074846745,"19":-0.010913589190692519,"20":0.19360475774955838,"21":0.11417241297002846,"22":0.19058469117802088,"23":0.16145003061108773,"24":-0.14222060938412104,"25":0.010252967121724176,"26":-0.12957114960884494,"27":0.18166039588674077,"28":-0.14686297922567856,"29":-0.035282680047991066,"30":-0.11646632648082304,"31":-0.2861130784667934,"32":0.102498955806049,"33":0.07407411394019509,"34":-0.0684905724051223,"35":-0.03222303925214677,"36":-0.15946350740177592,"37":-0.139469594166806,"38":0.03180092066617524,"39":0.10471394739543491,"40":-0.10305078589638937,"41":0.07800363173474267,"42":0.11033787838765316,"43":-0.18291350931473987,"44":0.02896638140171197,"45":0.08306197066445034,"46":-0.24819389020692778,"47":0.07718193782624827,"48":-0.21565758066033053,"49":-0.2588537755296463,"50":-0.13904378087742228,"51":-0.14501852683370128,"52":0.1186907029075599,"53":0.14155527009262092,"54":0.23356626330129554,"55":0.2665264050415391,"56":0.2951627876596388,"57":0.23107384933844072,"58":0.1496974716950406,"59":0.021548284935176645,"60":0.11936957729949031,"61":0.25522994674104577,"62":0.0034357068533574574,"63":-0.08851163699958009,"64":0.04798082839373943,"65":0.21832118285796107,"66":0.022695083574214812,"67":0.10786861153978307,"68":0.0761289801656128,"69":0.18924137117655804,"70":0.009979105082204454,"71":0.011966603832123338,"72":0.26429888402452806,"73":-0.03900057352521437,"74":0.15804670206573643,"75":0.14638705248168263,"76":-0.11232091321061344,"77":0.018042195595361542,"78":0.1586068108010521,"79":0.09418998657548962,"80":0.08435446717044874,"81":0.07141007697749413,"82":-0.02470583563888356,"83":0.20208250627279659,"84":0.19919899194500748,"85":-0.06425033903240006,"86":0.04798003497916162,"87":0.03233703594297255,"88":0.1072102652342264,"89":0.0728855140037163,"90":0.023416430143801896,"91":0.013635272373683695,"92":-0.13877626253640638}},"39":{"bias":-0.11511824742644633,"weights":{"0":0.21245258452971097,"1":0.050882534101689074,"2":-0.03801302662341677,"3":-0.07688716023764434,"4":0.021096668526969543,"5":0.06697320311595047,"6":-0.0599909850810319,"7":-0.02434001068098191,"8":0.07514116738421231,"9":0.08588810850854134,"10":-0.07711478099357938,"11":0.11021452369609568,"12":0.06098360749576537,"13":-0.1720437392402016,"14":-0.05122930828347177,"15":-0.0788846275866965,"16":-0.16820433802475449,"17":0.08612962211755966,"18":-0.06703950472253688,"19":-0.0808976922722392,"20":0.10456471092662885,"21":0.0042347364981217,"22":0.07315553014038613,"23":-0.11332285471887074,"24":0.05405814658417928,"25":-0.18415593619155793,"26":-0.08756184362917734,"27":0.039863670896421066,"28":0.05245073450940248,"29":-0.06460845704713608,"30":-0.14238402601749856,"31":0.07099956446287578,"32":0.1859273889099628,"33":0.17798150968083992,"34":0.08609236817546138,"35":-0.06619001594212985,"36":0.036101977248869654,"37":-0.1339967227266131,"38":0.15912787830155922,"39":0.12541342026674726,"40":0.20822368473658406,"41":0.1606756470601326,"42":0.17140494441482565,"43":-0.07082346217133564,"44":-0.17360040501674226,"45":-0.0018601160698120034,"46":0.08843498285317952,"47":-0.05897482670577112,"48":-0.014746255942950915,"49":-0.0866036057904705,"50":0.03881799725495761,"51":0.02608038456827533,"52":0.17870202333417673,"53":-0.003373560588041496,"54":0.05997879764455445,"55":-0.1948124649811815,"56":0.04419435742293382,"57":0.12071298376367218,"58":-0.022085219610190877,"59":-0.008369329886795908,"60":-0.032355405076306805,"61":0.17262983380117258,"62":0.1601137863301877,"63":-0.025077747710895874,"64":-0.14475787554766636,"65":0.03553052543591008,"66":0.15795824426184912,"67":-0.034708385244369325,"68":-0.1534961757798996,"69":-0.14440607720410512,"70":0.029885111321818224,"71":0.11931654841942345,"72":0.07939368342852858,"73":-0.07494722350912955,"74":0.12434177271203548,"75":0.12453750558958757,"76":-0.10160418953340183,"77":-0.030753498015777953,"78":-0.19868587100162555,"79":0.007613757420476939,"80":-0.0340992888432336,"81":-0.17230114666315688,"82":-0.0775803103061922,"83":0.11041871170312606,"84":-0.03693866651037803,"85":0.022150611817143465,"86":0.15305100579338865,"87":0.01785312853838346,"88":0.04187865391858301,"89":0.05521534175212981,"90":-0.1974821577825207,"91":-0.025602503885860675,"92":0.04283255136135653}},"40":{"bias":0.05752402886861969,"weights":{"0":0.033074126337538465,"1":0.008624418129186283,"2":0.18446633214413072,"3":-0.10832099603440208,"4":0.18004470651593557,"5":-0.01819970377408406,"6":-0.03254801513786904,"7":-0.14274577294213683,"8":0.12514760082614027,"9":-0.02419525560794695,"10":-0.004624871791434496,"11":0.21846084608704253,"12":0.12715261125084157,"13":0.05561131015644631,"14":-0.1060800014423042,"15":-0.05022299047782392,"16":-0.12921374757716303,"17":-0.17615017238559033,"18":0.20733244312398302,"19":-0.10677432439702475,"20":0.05025589332996672,"21":-0.00503022340701805,"22":0.07615330505678668,"23":0.07170076634633236,"24":-0.15012747445615307,"25":0.03703153642997169,"26":-0.10675670100593426,"27":-0.005330634488828219,"28":-0.09429442872821808,"29":-0.2745007380140082,"30":0.07950795744289645,"31":-0.317463549433435,"32":-0.10105914559920984,"33":-0.012916323459924562,"34":-0.22224687830227444,"35":-0.19541415494227476,"36":0.12324837292095278,"37":-0.17315215987795443,"38":-0.15333426334555575,"39":0.022782612475586633,"40":0.16299680211502615,"41":-0.23191648832096767,"42":-0.14348919156135417,"43":-0.1292065414291351,"44":-0.21046055804336244,"45":-0.22383613434305114,"46":-0.09456908284192872,"47":-0.16799900433125117,"48":-0.20084742922036058,"49":-0.25115993310093176,"50":-0.07378266128612863,"51":0.04716806865752526,"52":-0.24485295392774975,"53":0.11101094119158017,"54":0.10105580309865089,"55":-0.1537152940989176,"56":-0.1401037668655843,"57":0.20319794948379022,"58":-0.047306398811691235,"59":-0.08716014673176165,"60":0.07396298234637344,"61":0.25359208614683154,"62":-0.02294958579804461,"63":0.03683152241443884,"64":-0.040854203082159334,"65":0.007291726122461342,"66":-0.13238031930675667,"67":-0.017271909180389303,"68":0.11269774501544937,"69":0.23264756477181084,"70":-0.07892109384874223,"71":0.019703405686329792,"72":-0.04074970833645367,"73":0.2092941111633739,"74":0.03102478909155136,"75":-0.08712417347500649,"76":-0.17020874225209937,"77":0.1355564475861379,"78":0.1722238733435719,"79":-0.12727623946429328,"80":0.23205077726813417,"81":0.25532524400971524,"82":0.051721754148758764,"83":0.14557850089006433,"84":0.11140761257615601,"85":0.23379323661252452,"86":-0.055398527772740375,"87":-0.0832534943956897,"88":-0.06167307791733912,"89":0.12107120276085535,"90":-0.06589978632811326,"91":0.2389860744190722,"92":-0.008113574986464575}},"41":{"bias":-0.03659220563260637,"weights":{"0":-0.03088276559292241,"1":0.07389664757007997,"2":0.1373652996788072,"3":-0.11745931082655593,"4":0.13500994382589912,"5":-0.1905467682114312,"6":-0.184739075421258,"7":0.16412951471065848,"8":0.22636896343876317,"9":0.05656542139246096,"10":0.1936044971758506,"11":0.0237207037867908,"12":-0.08607477855321857,"13":0.18121131685144032,"14":-0.12360538736742467,"15":-0.10653200148318245,"16":0.06613863184028913,"17":-0.08983944945345304,"18":0.09319172859057996,"19":0.14565958273310342,"20":-0.17600546461977015,"21":-0.2314271476578706,"22":-0.1757690476434145,"23":-0.04742380778351832,"24":-0.12927223655772882,"25":0.1330405585680504,