{"layers":[{"0":{},"1":{},"2":{},"3":{},"4":{},"5":{},"6":{},"7":{},"8":{},"9":{},"10":{},"11":{},"12":{},"13":{},"14":{},"15":{},"16":{},"17":{},"18":{},"19":{},"20":{},"21":{},"22":{},"23":{},"24":{},"25":{},"26":{},"27":{},"28":{},"29":{},"30":{},"31":{},"32":{},"33":{},"34":{},"35":{},"36":{},"37":{},"38":{},"39":{},"40":{},"41":{},"42":{},"43":{},"44":{},"45":{},"46":{},"47":{},"48":{},"49":{},"50":{},"51":{},"52":{},"53":{},"54":{},"55":{},"56":{},"57":{},"58":{},"59":{},"60":{},"61":{},"62":{},"63":{},"64":{},"65":{},"66":{},"67":{},"68":{},"69":{},"70":{},"71":{},"72":{},"73":{},"74":{},"75":{},"76":{},"77":{},"78":{},"79":{},"80":{},"81":{},"82":{},"83":{},"84":{},"85":{},"86":{},"87":{},"88":{},"89":{},"90":{},"91":{},"92":{},"93":{},"94":{},"95":{},"96":{},"97":{},"98":{},"99":{},"100":{},"101":{},"102":{},"103":{},"104":{},"105":{},"106":{},"107":{},"108":{},"109":{},"110":{},"111":{},"112":{},"113":{},"114":{},"115":{},"116":{},"117":{},"118":{},"119":{},"120":{},"121":{},"122":{},"123":{},"124":{},"125":{},"126":{},"127":{},"128":{},"129":{},"130":{},"131":{},"132":{},"133":{},"134":{},"135":{},"136":{},"137":{},"138":{},"139":{},"140":{},"141":{},"142":{},"143":{},"144":{},"145":{},"146":{},"147":{},"148":{},"149":{},"150":{},"151":{},"152":{},"153":{},"154":{},"155":{},"156":{},"157":{},"158":{},"159":{},"160":{},"161":{},"162":{},"163":{},"164":{},"165":{},"166":{},"167":{},"168":{},"169":{},"170":{},"171":{},"172":{},"173":{},"174":{},"175":{},"176":{},"177":{},"178":{},"179":{},"180":{},"181":{},"182":{},"183":{},"184":{},"185":{},"186":{},"187":{},"188":{},"189":{},"190":{},"191":{},"192":{},"193":{},"194":{},"195":{},"196":{},"197":{},"198":{},"199":{},"200":{},"201":{},"202":{},"203":{},"204":{},"205":{},"206":{},"207":{},"208":{},"209":{},"210":{},"211":{},"212":{},"213":{},"214":{},"215":{},"216":{},"217":{},"218":{},"219":{},"220":{},"221":{},"222":{},"223":{},"224":{},"225":{},"226":{},"227":{},"228":{},"229":{},"230":{},"231":{},"232":{},"233":{},"234":{},"235":{},"236":{},"237":{},"238":{},"239":{},"240":{},"241":{},"242":{},"243":{},"244":{},"245":{},"246":{},"247":{},"248":{},"249":{},"250":{},"251":{},"252":{},"253":{},"254":{},"255":{},"256":{},"257":{},"258":{},"259":{},"260":{},"261":{},"262":{},"263":{},"264":{},"265":{},"266":{},"267":{},"268":{},"269":{},"270":{},"271":{},"272":{},"273":{},"274":{},"275":{},"276":{},"277":{},"278":{},"279":{},"280":{},"281":{},"282":{},"283":{},"284":{},"285":{},"286":{},"287":{},"288":{},"289":{},"290":{},"291":{},"292":{},"293":{},"294":{},"295":{},"296":{},"297":{},"298":{},"299":{},"300":{},"301":{},"302":{},"303":{},"304":{},"305":{},"306":{},"307":{},"308":{},"309":{},"310":{},"311":{},"312":{},"313":{},"314":{},"315":{},"316":{},"317":{},"318":{},"319":{},"320":{},"321":{},"322":{},"323":{},"324":{},"325":{},"326":{},"327":{},"328":{},"329":{},"330":{},"331":{},"332":{},"333":{},"334":{},"335":{},"336":{},"337":{},"338":{},"339":{},"340":{},"341":{},"342":{},"343":{},"344":{},"345":{},"346":{},"347":{},"348":{},"349":{},"350":{},"351":{},"352":{},"353":{},"354":{},"355":{},"356":{},"357":{},"358":{},"359":{},"360":{},"361":{},"362":{},"363":{},"364":{},"365":{},"366":{},"367":{},"368":{}},{"0":{"bias":0.02936090932631722,"weights":{"0":-0.09325421699030592,"1":-0.05016355794540031,"2":0.1986086978895058,"3":0.06512795866647876,"4":0.048067421233967206,"5":0.15536505253145308,"6":-0.1717346679703573,"7":-0.24905786003313665,"8":0.06858304502363224,"9":0.22939721746706232,"10":0.07093004593804514,"11":0.16765548707155395,"12":-0.11683832232100609,"13":0.17577304096756233,"14":-0.09840380485666816,"15":0.07425821791938812,"16":-0.12783262472239168,"17":-0.15606779651000066,"18":0.057546042838343116,"19":0.07796738202903165,"20":0.19567645486368745,"21":-0.03475585168290591,"22":0.17143183614669957,"23":-0.19752868711642294,"24":-0.0980918003268032,"25":-0.01576830450668052,"26":-0.1433005058991948,"27":-0.022299563289446222,"28":0.027530218213517352,"29":0.018591976779753935,"30":-0.17314979756923635,"31":-0.07088325491725132,"32":-0.23169654043632348,"33":-0.17441803665393,"34":-0.22650998021391794,"35":0.06573189282657046,"36":-0.11736459977956192,"37":-0.17537625889146094,"38":-0.1014959287935639,"39":-0.1800523061480548,"40":0.08860004603374338,"41":-0.03251536952381378,"42":-0.012005745793582212,"43":-0.1976508875053283,"44":0.11984960879529412,"45":-0.13335809232336965,"46":-0.11409018249969072,"47":0.013495505615597982,"48":0.11773638130851177,"49":-0.13027333158059928,"50":-0.17097694416207737,"51":-0.18983494005625168,"52":-0.190763359707511,"53":-0.21674730899251696,"54":-0.10826053738401972,"55":-0.22682166867478099,"56":-0.22266752851604885,"57":-0.19427001804044655,"58":-0.03784128295212873,"59":-0.20258337863551126,"60":0.11020371725168994,"61":-0.0391742943155452,"62":-0.04926959919273128,"63":-0.0809110477975006,"64":-0.2844935935002624,"65":0.0862258300828462,"66":0.14656204696391117,"67":-0.08472543280922999,"68":0.08593278966227905,"69":0.09085773228912308,"70":-0.1543850420895442,"71":-0.12916052861397767,"72":0.06544596378466083,"73":0.0810664951459204,"74":-0.17537314538842178,"75":0.04136782864091466,"76":0.16320550918665439,"77":0.20089796780085395,"78":0.07921342829241235,"79":0.0987197672471567,"80":-0.03445609318314026,"81":0.0758358336436595,"82":-0.11571566074571782,"83":0.19907104177053916,"84":-0.05475514026711256,"85":-0.1974473776201774,"86":0.09947275384365992,"87":-0.1080984115758541,"88":0.16097703172847624,"89":0.02354034364221607,"90":0.006988312455256351,"91":0.031117032645648177,"92":-0.0077590919093270625,"93":-0.01004326121363818,"94":0.009775874031417303,"95":0.002391291276022738,"96":0.04447953402081797,"97":0.16064479234834494,"98":0.16914232101994295,"99":-0.19532309445194296,"100":-0.11495931362134532,"101":-0.13862840025224465,"102":0.1919260957412,"103":-0.07547851976361557,"104":-0.01840277056044066,"105":0.09371076017288854,"106":-0.22050912162456116,"107":0.011981122749116226,"108":-0.06960186521298806,"109":-0.023815587689053626,"110":0.009539040909379574,"111":-0.0777223495400577,"112":-0.004141639985783469,"113":-0.1732564211396543,"114":0.08346014696178115,"115":0.1785415488963522,"116":0.1110386922656789,"117":-0.03502396927415213,"118":0.09417663944788111,"119":0.07200529605939329,"120":-0.12590927666805773,"121":-0.1371123043771477,"122":-0.12645268648751112,"123":0.08436405420482174,"124":0.08934789148722888,"125":-0.07822736890304532,"126":-0.02719587871493463,"127":0.13947256971275573,"128":-0.031128362991665593,"129":-0.07863566188775632,"130":-0.12691324335513052,"131":0.14824902784709576,"132":-0.16100772959348048,"133":0.14555655839947856,"134":0.11419376447913654,"135":-0.09817113073029188,"136":-0.11731552322276091,"137":-0.14255784161574062,"138":-0.1705505200472645,"139":-0.07592957420951979,"140":0.021950568278330033,"141":-0.0336813923605013,"142":-0.053864469262560666,"143":-0.1404931606195189,"144":-0.09810338138402949,"145":0.195512394817034,"146":-0.07772178977676233,"147":0.00047397254917888175,"148":0.0682753828829382,"149":-0.17563989101972477,"150":0.08551987824412573,"151":0.17136334690054,"152":0.16818403346414407,"153":0.09945290507547416,"154":0.23889032212087283,"155":-0.00460780626997598,"156":0.05159912400241034,"157":0.21270566109945888,"158":0.07561092724820273,"159":0.20406899875486778,"160":0.1327074922601205,"161":0.20596876423642652,"162":-0.09845664579058881,"163":0.12410130317623873,"164":-0.09924781973154216,"165":-0.1493238122138969,"166":0.05550052196344465,"167":-0.06776681444875102,"168":0.1368672380369472,"169":-0.07999109570362843,"170":-0.1785762442851743,"171":0.13272616191345438,"172":-0.043044461795702246,"173":-0.16252601293494212,"174":-0.14720291921862264,"175":-0.05010052914290354,"176":-0.20035329180749586,"177":-0.14538384184807454,"178":-0.013377153358828432,"179":0.05335612520252124,"180":-0.05999896353516683,"181":0.14859618883518463,"182":0.15678649039237594,"183":0.06913062174183479,"184":0.024840922634256208,"185":-0.021517256100138996,"186":0.16876395614636838,"187":-0.06803561403194827,"188":-0.01259390232111737,"189":0.021312599383267888,"190":-0.22339211818456395,"191":0.08903146175840901,"192":-0.17779376237661218,"193":-0.06420995141699491,"194":-0.007078577876644004,"195":-0.02730439377759127,"196":0.028610160720053242,"197":-0.16260472979337723,"198":0.1878940085527335,"199":0.1626143287351676,"200":0.08153047457505559,"201":-0.10414825068919355,"202":-0.14428474123010263,"203":-0.012863403001098658,"204":-0.0736918797527503,"205":0.03986649821304408,"206":-0.023718824120317516,"207":0.1619253955998134,"208":-0.03699973487083542,"209":-0.06819475321049973,"210":-0.09831254831303322,"211":-0.14505427884385538,"212":0.15928287172828334,"213":-0.003990654350993323,"214":-0.047541834544893344,"215":-0.08628886704002399,"216":-0.11878744608866769,"217":0.02933849321533415,"218":-0.001823101305694793,"219":0.05728274014827662,"220":-0.18992024112907033,"221":0.06319406880418252,"222":0.15624623649091737,"223":0.18649543025753582,"224":0.0518816174662099,"225":0.019585582807745305,"226":0.0947810484742167,"227":-0.06382842967811027,"228":-0.1892653746975856,"229":0.18014647349100182,"230":-0.05048412490574472,"231":-0.18718126842667132,"232":0.17829284093789008,"233":0.1814828122517978,"234":-0.08217805586646938,"235":0.045544279676070006,"236":-0.19535972223548764,"237":-0.12614609187985446,"238":0.13105541917134847,"239":-0.04586714521667234,"240":0.040697817540069285,"241":0.09532382770727452,"242":-0.1975908621668313,"243":0.18832591893972947,"244":0.03325195820499342,"245":-0.06192875054052126,"246":-0.03991520931741074,"247":0.08615689890941063,"248":0.1876268587168308,"249":0.03573347601880841,"250":0.03191607321876345,"251":0.14279344687001003,"252":0.1915786651763144,"253":0.017384850264037074,"254":-0.0390310666203721,"255":0.08302798146803601,"256":-0.04737065667442232,"257":0.0881214576905373,"258":-0.17226033740940572,"259":-0.14851686186198657,"260":0.08323729319596437,"261":-0.0756578416315993,"262":0.08302032339357243,"263":0.13626826488337307,"264":0.06469573834057045,"265":0.07185926492335497,"266":-0.1612142310479278,"267":-0.013842160324775985,"268":-0.10492649248839138,"269":-0.2243607161336422,"270":0.09879696039669861,"271":-0.10132561466920342,"272":-0.124430038420694,"273":0.04290656583079989,"274":-0.08054221836714587,"275":0.05313691804894047,"276":-0.07025963734779224,"277":-0.15428896936536493,"278":-0.07627249553197628,"279":-0.015662674123868046,"280":-0.04540509377701445,"281":0.044998822386071606,"282":0.03325232668610501,"283":-0.20727236985072517,"284":0.13183873714479258,"285":-0.031448192690862325,"286":0.14853409957274402,"287":0.1502484116780948,"288":0.016394847541187148,"289":-0.19081167807880012,"290":0.16025043474994236,"291":0.15563854318252154,"292":0.1525234363402347,"293":-0.004364369275866154,"294":-0.20987564987357318,"295":0.13704240615763882,"296":-0.11461628820628877,"297":-0.1563544985471816,"298":-0.19751230525533486,"299":0.06382295993974194,"300":-0.1366302249570695,"301":0.022890411412851926,"302":0.09717246244246953,"303":-0.09830921325532126,"304":0.16296045934903713,"305":0.1714239617723735,"306":0.0030258073255140542,"307":-0.13360883660495015,"308":0.20092730209845505,"309":0.06893144134938956,"310":-0.018409561088423818,"311":-0.20116150480383183,"312":0.12163673185988175,"313":0.08489187499401489,"314":0.18722922591177318,"315":-0.15090284250160096,"316":0.12168406113437627,"317":0.0845074861746615,"318":0.10353198321867843,"319":0.14300170103240495,"320":0.12521885199517635,"321":0.22691063392108207,"322":-0.03843505935837623,"323":0.06050981064640913,"324":0.2073748595799811,"325":-0.008755998740655144,"326":-0.16236433610133807,"327":-0.14660482612590067,"328":0.0738264464190089,"329":0.056688766381651094,"330":0.07343660610380501,"331":0.20311997116234293,"332":-0.18696996474794295,"333":0.09007458380083357,"334":0.23124153953762616,"335":0.03412443411812204,"336":0.15576381409325182,"337":0.1920385318854637,"338":0.047795872161604774,"339":0.1955667995793576,"340":0.014261033755030808,"341":-0.08764534395867549,"342":-0.05997380983014556,"343":-0.1685545640752589,"344":0.07101649859746197,"345":0.20177209251550707,"346":0.03354386502390531,"347":-0.18079837466551127,"348":0.03255952311923713,"349":0.2064628656647842,"350":0.1448464007653862,"351":-0.038463442750896915,"352":0.1800027104113721,"353":-0.021044352510375397,"354":0.13673827571136266,"355":-0.16833383440163902,"356":-0.15573056173838967,"357":0.18315587063885314,"358":0.11632962913508602,"359":0.01956892121647552,"360":0.07260437039493918,"361":-0.1634895264640432,"362":-0.22152778589372274,"363":0.15939340022173884,"364":0.13273200265144364,"365":-0.0876875042815383,"366":0.15844843379424722,"367":0.009653130614012153,"368":0.20836279765628674}},"1":{"bias":0.074535412861927,"weights":{"0":-0.08883116033201524,"1":-0.0842140667009313,"2":-0.08460436706886203,"3":0.11191323402645524,"4":0.1628354492198885,"5":-0.08046723699144062,"6":0.18044313744618995,"7":-0.14900108916397703,"8":-0.09904792094284663,"9":0.26266673712724187,"10":-0.05678493616932641,"11":0.1717240444184888,"12":-0.12478745984395516,"13":0.20261878523305807,"14":0.0885316447275026,"15":-0.10756125663511773,"16":0.08859359562785188,"17":0.021604358027749054,"18":-0.15385919991542793,"19":-0.17647942414821086,"20":0.03883067183512992,"21":-0.08409501481003173,"22":-0.13916842795775197,"23":-0.1079624013449443,"24":-0.1079507192051294,"25":0.14324657497026042,"26":-0.08019750334055985,"27":-0.18656759998064987,"28":0.09032864346148753,"29":-0.10598151670636333,"30":0.12387619864260033,"31":0.1474748044144355,"32":0.05275983059148347,"33":0.06777396078819208,"34":-0.03462705148307201,"35":-0.197527946806739,"36":0.012240704363813155,"37":0.10814497169971746,"38":0.023922496775579054,"39":0.07168868489425323,"40":-0.05025651955890906,"41":-0.15678219514139088,"42":-0.1806655122253449,"43":-0.15582743771826113,"44":-0.12170933451232603,"45":0.02705386188371219,"46":-0.07932463211838173,"47":-0.13901487062317822,"48":-0.02651977903861081,"49":-0.04750966622223289,"50":-0.1390893940073999,"51":-0.1047816890746411,"52":0.07666518417247137,"53":0.15915492357442135,"54":-0.20463389583885203,"55":-0.013038074706536463,"56":-0.2279166627012812,"57":-0.006119855377258069,"58":-0.18265007592301985,"59":-0.1938641144286266,"60":0.007394432213755533,"61":-0.22731675908619906,"62":0.04001960482593863,"63":-0.007958178429116341,"64":-0.05827976644834182,"65":0.11962690707702098,"66":-0.18624763358360233,"67":0.11537083946462987,"68":0.018240002442570312,"69":0.15775311077148674,"70":0.11127038119612051,"71":-0.16007987190067346,"72":-0.019417443025372124,"73":0.031150160968651135,"74":-0.10414399094877409,"75":0.07621517926480463,"76":0.02421443116951177,"77":-0.06765015880597658,"78":0.17941960776250843,"79":-0.04166746121011726,"80":0.10137943980169796,"81":0.0775853738684533,"82":0.19063259819001066,"83":0.0896146084748184,"84":-0.02999804668485656,"85":-0.04577983287457828,"86":-0.048998169738092096,"87":0.1108808359423081,"88":0.06881795582033154,"89":-0.1249813339155035,"90":0.1055513599817974,"91":0.06547962565432708,"92":0.1971324842382795,"93":-0.1703303671654185,"94":0.06037374476726173,"95":0.03646299089557388,"96":-0.06049387089592292,"97":-0.17553623549544103,"98":-0.05213243983468667,"99":0.0035765780052189576,"100":-0.012074001644771574,"101":-0.15490528453117108,"102":-0.15066297618396163,"103":0.007318639894340076,"104":0.09280284087386431,"105":0.04153249690127713,"106":-0.061865592249007346,"107":0.002135831023951811,"108":0.017216049419175546,"109":-0.07341728218306805,"110":-0.20032211011094386,"111":-0.11836806762532039,"112":0.007534496948688063,"113":0.19111808791608048,"114":-0.04112887815229044,"115":-0.1307314158276951,"116":0.11473695754434651,"117":-0.018777266537266534,"118":0.10823852806700576,"119":-0.03603137129365736,"120":0.046688678060751394,"121":0.08107233113111736,"122":-0.05091670286728069,"123":0.13121637661744281,"124":-0.017646736845548835,"125":0.11126818445787999,"126":-0.1342311740070748,"127":0.009428544456169858,"128":-0.01124715508682459,"129":-0.05109231733544863,"130":-0.15149241336791072,"131":-0.06645368800958709,"132":-0.16792482027202085,"133":0.14479200263902806,"134":0.04859551097430674,"135":0.12856830071692718,"136":-0.113287777621401,"137":0.0572451562179292,"138":-0.13602080673072298,"139":-0.1905812997428703,"140":-0.09695617858297081,"141":0.09607410400188285,"142":0.0988804760347518,"143":-0.12484840342151446,"144":0.02414513816253931,"145":-0.14264801819699874,"146":-0.336199408764139,"147":0.10740557545684272,"148":0.21729777181493984,"149":0.156919707154984,"150":0.0636202533509087,"151":-0.06255382853221582,"152":0.17711638713744243,"153":-0.13947816797348972,"154":0.0039044396178945224,"155":-0.04547405438843235,"156":0.1333911151410943,"157":-0.12414177573012207,"158":-0.15375484283988128,"159":-0.05037698198750356,"160":-0.09711763453688635,"161":0.017360375111677148,"162":-0.18535973080485063,"163":0.1949739054583705,"164":0.21936804125952908,"165":-0.12482000932693305,"166":-0.01993216813619019,"167":0.08090192137058437,"168":0.09985208571001977,"169":-0.12805499341710852,"170":-0.08486274330549184,"171":0.09958902773401193,"172":0.012976668302554627,"173":-0.04040193600041355,"174":0.12447242266554638,"175":0.17699289462587597,"176":0.011611335850030517,"177":-0.14941583053860236,"178":0.1398966443327475,"179":-0.15564478060751488,"180":-0.14843356580826406,"181":-0.07836466713115353,"182":0.11846225376643171,"183":-0.05923873097025441,"184":-0.0032380134022464463,"185":0.15834320081024708,"186":-0.03959183202682669,"187":-0.041535044623652526,"188":0.09492198981439115,"189":-0.0455057536861669,"190":-0.20035730776344074,"191":0.18827043484817216,"192":-0.05706351600044739,"193":0.09607050308901599,"194":-0.12970176815308007,"195":-0.1427926280125499,"196":0.18807284158039478,"197":-0.04121534009454776,"198":-0.08975668901779307,"199":-0.12043522324031057,"200":0.15104724737109723,"201":-0.20783282685882298,"202":-0.09701211136787762,"203":-0.14748933105153864,"204":-0.1450451492163634,"205":-0.04328882990266599,"206":-0.07634422902026894,"207":-0.1851074529278613,"208":0.05809355682646029,"209":-0.0456646973783342,"210":-0.046016641872027364,"211":0.21130219772399023,"212":0.18863578133295933,"213":-0.02281642185533437,"214":0.2028050577927966,"215":-0.06341039420708328,"216":0.11621245372783388,"217":-0.005201372815399538,"218":-0.14044752234890878,"219":-0.003267704804054446,"220":0.1475962190508253,"221":0.024750924590537442,"222":0.06940249088175884,"223":-0.048719590467807716,"224":0.20484894807537868,"225":-0.0751229802552641,"226":0.016358023946182427,"227":0.18054121970082906,"228":-0.11987902869889563,"229":-0.00906670287330028,"230":0.01747050007656086,"231":0.09209282052695097,"232":-0.12672459657789586,"233":-0.08463297120469913,"234":0.1649674556938641,"235":0.16601815028026165,"236":0.021028600893569695,"237":0.16742995819229647,"238":0.05447613431273766,"239":-0.08443276047212164,"240":0.03628193318978531,"241":-0.007757344293072163,"242":-0.04187870150679,"243":-0.09567707638204594,"244":-0.08997655105152326,"245":0.03916397933119584,"246":-0.05413711836750381,"247":-0.15333138585015288,"248":-0.074772019852474,"249":-0.08523946021595803,"250":-0.15803069939328251,"251":0.19728411378405153,"252":0.032810928409866165,"253":-0.07058981117041363,"254":-0.10717259646573248,"255":0.14437335810431035,"256":0.014888494085067604,"257":0.1479440010501688,"258":0.1691661999868753,"259":-0.06792024846684491,"260":0.013605349691174683,"261":-0.14875203273759713,"262":-0.16076969061006285,"263":0.07637082672032301,"264":-0.09200111922294747,"265":-0.09554319637790258,"266":0.11284798269778364,"267":-0.15918743140873584,"268":-0.07534747868476889,"269":-0.00834024480853322,"270":0.0950759513941206,"271":-0.22086102743942007,"272":-0.08584748405770436,"273":-0.03255392505867373,"274":-0.1732356212165851,"275":0.09803843428461888,"276":-0.20773352516071975,"277":-0.12948885797446302,"278":-0.22165752877295242,"279":-0.2376653488613052,"280":-0.04695424833474725,"281":-0.01259053439691163,"282":-0.16264229697732482,"283":0.1025007233560719,"284":-0.12762546392738677,"285":0.132386715958309,"286":-0.14348672941946883,"287":0.08557133333204177,"288":-0.0424986246808081,"289":0.16969114953980585,"290":-0.21268716287224979,"291":-0.09370654609061521,"292":0.04074169254989747,"293":0.004413072136495091,"294":0.10117509660741111,"295":-0.10071496189133253,"296":-0.12237696316295905,"297":0.014563073574739184,"298":-0.008492906030407163,"299":0.02305722517237433,"300":0.003085593498472119,"301":0.06278879698741995,"302":-0.13284178686936404,"303":0.05440325117744494,"304":-0.17595890968859493,"305":0.11402992014035045,"306":0.032920588929132195,"307":0.05377032785423743,"308":0.18309773840171437,"309":0.06722456392662407,"310":0.19548570074934404,"311":0.008251737535114378,"312":-0.1474277504628058,"313":0.01316492152771509,"314":-0.013289776263582607,"315":-0.18289497852563583,"316":0.015360717773738168,"317":-0.12639559060616817,"318":0.15298452063768606,"319":-0.18383695861889918,"320":-0.13965982548974346,"321":0.1857942884631065,"322":0.015103312497616855,"323":-0.06449635525790026,"324":-0.019829104660695443,"325":-0.002683374075427807,"326":0.1538398447292427,"327":0.012721505268494597,"328":-0.14137627452497165,"329":-0.16394712885991455,"330":-0.05434019026951557,"331":-0.09778957648341371,"332":0.005645707126690644,"333":0.073095258095717,"334":0.21545110724878827,"335":0.20111016627325126,"336":0.07597167205078546,"337":-0.01633802106508477,"338":0.1204828695424284,"339":0.043488276408076364,"340":-0.0071411073119023085,"341":-0.16659551436224926,"342":0.0925833144684847,"343":0.04236416009238695,"344":0.020071326102848917,"345":-0.05820348323531311,"346":0.04097030829482446,"347":0.054021583734282015,"348":0.015391366754515448,"349":0.10846953180298595,"350":-0.14840596064972925,"351":-0.06885457627816836,"352":0.09614518461359316,"353":0.14669993470478024,"354":-0.060600473562610696,"355":0.11517076559045829,"356":-0.0009933309547149455,"357":-0.06626196940592705,"358":-0.15739996742951382,"359":0.1074589010908628,"360":0.055206298891827245,"361":-0.05440976132024698,"362":-0.13140180766835585,"363":0.1467851912773486,"364":-0.10957205085102055,"365":-0.00812584757102896,"366":-0.14613810338612762,"367":0.041145119990541,"368":0.11805251331535284}},"2":{"bias":-0.04512257467989235,"weights":{"0":0.0016688176269821916,"1":-0.07823252818841349,"2":0.06973312228887013,"3":-0.10055538019586564,"4":-0.170333212864791,"5":-0.09974673940381645,"6":-0.22510938093817803,"7":0.08618051990244759,"8":-0.2364148677824673,"9":-0.2084787589543331,"10":0.01510907109261969,"11":0.014142696791668677,"12":0.010499703535679245,"13":-0.11238693689652204,"14":0.04214881803944897,"15":-0.16022333829719182,"16":-0.15287054396103025,"17":0.02557064754685271,"18":0.13185457372690657,"19":-0.1061697525605178,"20":-0.07668201209792683,"21":-0.09766426391603684,"22":0.10795388419507072,"23":0.11809176591961927,"24":-0.044838233494656925,"25":0.12110274043416162,"26":-0.06694986470281201,"27":0.13427850930679522,"28":0.18033280839192375,"29":-0.01516515998953324,"30":0.007160884189892108,"31":0.015091618892472472,"32":-0.10559881218892482,"33":0.2640320678424111,"34":0.11761609642845976,"35":0.06620179951164415,"36":0.13555732931031914,"37":0.1549411192801694,"38":-0.21587005292446287,"39":-0.21821470118294203,"40":0.016541099459727367,"41":0.11599851532007824,"42":0.11635721624151665,"43":0.1720321328596865,"44":-0.07718741605885382,"45":0.13276799984386142,"46":0.1252779192915789,"47":0.1151029142809829,"48":0.022158113529442438,"49":0.09656425491680744,"50":0.14041096725299043,"51":-0.09059650344821098,"52":-0.04635419088213778,"53":0.19693289017676105,"54":-0.02555685781630832,"55":0.1228802954305956,"56":0.05372799626893145,"57":0.03861763211685219,"58":0.02829727644119614,"59":-0.18918711213331582,"60":0.14504621316393213,"61":-0.08188754342546396,"62":-0.057994393043766315,"63":-0.07035710041999352,"64":0.2389767089660485,"65":-0.1556733468195126,"66":0.1040989836446818,"67":-0.00985886741424827,"68":0.03456605978080433,"69":-0.18776684371735197,"70":-0.11813161398036207,"71":0.09737128301457924,"72":-0.10668466825017106,"73":-0.1259197192308268,"74":-0.15143727458927564,"75":-0.15387072487860895,"76":0.016652930741329123,"77":0.09434196698808688,"78":-0.07384390223391722,"79":0.11654493130706577,"80":-0.20640532961844957,"81":0.11426793663044091,"82":0.19419811430672962,"83":0.1928903217449527,"84":0.09303498407133728,"85":0.1251968829397063,"86":-0.03365546275310158,"87":-0.034088181282883816,"88":-0.12940018487152566,"89":0.09975804560012089,"90":-0.1387304933533751,"91":0.1105673474784827,"92":0.18241223716294164,"93":0.1600052710378811,"94":-0.011357446964344094,"95":-0.13608526001397256,"96":-0.14492801102166708,"97":0.02917268814801086,"98":-0.05030120213493788,"99":0.0170883135409392,"100":-0.07469494352447635,"101":-0.0906922837527914,"102":0.16470211893295103,"103":-0.0720221077858175,"104":0.08510807676055772,"105":0.024944476548194257,"106":0.1710774662216848,"107":0.05961722457594776,"108":0.2482273363536658,"109":-0.042651560452504136,"110":0.005114448061491808,"111":0.23491888570710648,"112":0.10879554472373897,"113":-0.04809131255254451,"114":0.15074972932141822,"115":0.0709498376547059,"116":0.0044412273809923755,"117":-0.08954539005824622,"118":-0.17522134943151857,"119":-0.1699662294038868,"120":0.13122202846684272,"121":-0.06619846066560511,"122":0.14784239591423973,"123":0.032149096368727946,"124":0.10425970165378921,"125":-0.07863976860351708,"126":-0.1333715998238954,"127":-0.06057586564325574,"128":-0.17843923195748654,"129":0.20781522819506795,"130":0.08009815157582918,"131":0.13714460517449328,"132":0.1870272552521034,"133":0.1462490615132539,"134":-0.04848756152026468,"135":0.20651677040574953,"136":0.12014336475972473,"137":0.0729846320853868,"138":0.04747444389665642,"139":0.11644362035466425,"140":-0.071674452257677,"141":0.042301802750756366,"142":0.04523021841268073,"143":-0.1298286889212038,"144":-0.14394251547632594,"145":-0.13159374387132503,"146":-0.15515346101668642,"147":0.11718267512157159,"148":-0.08121059566170015,"149":0.0512255270227935,"150":-0.12869230423490544,"151":-0.16538517353067703,"152":-0.13505578616955352,"153":0.055502057620871896,"154":0.06276879172481645,"155":-0.10371768593511452,"156":-0.027022772091110522,"157":0.09698895432467493,"158":-0.15862465788686173,"159":-0.08063948927115579,"160":-0.1153149393409916,"161":0.0874240835997694,"162":-0.03581805945690496,"163":0.10019872226461105,"164":-0.053363908098573755,"165":0.06604413239291307,"166":-0.1400658319018579,"167":0.06417644891820737,"168":-0.10751544567411575,"169":0.1775076585165483,"170":0.08042054941943627,"171":-0.1821187311008024,"172":-0.1481513856044888,"173":-0.04900808838174529,"174":0.09749772087405112,"175":0.07510037111861118,"176":0.021309998712947194,"177":-0.12080022847033153,"178":-0.11149234390385725,"179":0.044500047970269366,"180":0.0352183671282959,"181":0.19175707899886013,"182":-0.023509910631850817,"183":-0.02509653708633705,"184":-0.12088357855690612,"185":0.0791367920618028,"186":0.0602082521905655,"187":-0.16297056449579145,"188":0.11719094775751823,"189":-0.09280381116910691,"190":0.014139251002932745,"191":-0.15144626827795762,"192":0.13957389556200184,"193":-0.09599661893117148,"194":-0.022479488994623292,"195":-0.17179736680472682,"196":0.15888308767603182,"197":0.016775233795287052,"198":0.08058850922313229,"199":-0.14553272824868463,"200":0.019879901035818392,"201":-0.004801739702457477,"202":0.1827330863609969,"203":0.1324640007987019,"204":-0.045235339744811226,"205":0.054775458607593114,"206":0.11868401814792023,"207":0.13755592584026036,"208":-0.15801655829609154,"209":-0.13040806430678525,"210":-0.025567531218751747,"211":0.08445921782320943,"212":0.0015685956161747491,"213":0.19795064941224202,"214":0.013422479500598614,"215":0.045445605339614274,"216":0.1475075124960632,"217":0.20025140022035326,"218":-0.09160731546891762,"219":0.1572831555624697,"220":0.013352018112080909,"221":-0.05498980514079314,"222":-0.027498355323584744,"223":0.1715301361404068,"224":-0.1243200904734337,"225":-0.009071947512170758,"226":-0.025416035645702204,"227":0.08618326343795603,"228":0.18676537853628694,"229":0.04362504675330345,"230":-0.028627757438290782,"231":0.1415208896964138,"232":-0.09164506018449466,"233":0.06240660853202846,"234":-0.07410959183023323,"235":0.1320818561810828,"236":0.1603095791404252,"237":-0.10760610322775913,"238":0.08553779818192225,"239":-0.046567586109871384,"240":-0.17126646425723063,"241":0.15796214323445615,"242":0.02283894479497143,"243":0.06648292921217859,"244":-0.14576661915697214,"245":-0.14501934270313174,"246":0.15569601844582892,"247":0.11015716922391934,"248":-0.12938402841363958,"249":-0.024893636102499166,"250":-0.219425922200798,"251":-0.07587000048407244,"252":-0.1153783637326303,"253":-0.15406841193505233,"254":0.03527007150257706,"255":-0.05934505240681541,"256":-0.1408481383878976,"257":-0.10803717963242013,"258":-0.03983480719148747,"259":0.16412120377727762,"260":-0.010045584496402629,"261":-0.025853919667430416,"262":-0.13389607938357526,"263":-0.1417416394970053,"264":-0.17418037348993004,"265":0.14361441145530052,"266":-0.03427569114625589,"267":0.004356699911234378,"268":0.003034982062689728,"269":-0.04006342036704096,"270":-0.07031986992621822,"271":-0.04181276759636474,"272":-0.09466853215068896,"273":0.12559446804674027,"274":0.08190454455745733,"275":-0.1907666637754059,"276":0.03791497432640913,"277":-0.1664695139186371,"278":-0.15755394099631861,"279":0.04261281702649861,"280":0.19336082494768064,"281":0.14356829678159433,"282":0.19862089272791555,"283":0.20700532759703738,"284":-0.099732941168331,"285":0.15549779249960807,"286":0.0934345727154982,"287":-0.1764638746292592,"288":0.0011891627978427247,"289":0.17867084401305497,"290":0.12642457323492218,"291":-0.08930920517724425,"292":0.0634468804850172,"293":-0.15134049683280013,"294":-0.12792173610982616,"295":0.14607918044795945,"296":0.16169879336463922,"297":0.13749954822615634,"298":0.08533057687691631,"299":-0.0002545237135854792,"300":-0.0012336129640560056,"301":-0.12094231266222373,"302":-0.16185891256499993,"303":0.09998697412572415,"304":0.005910305015405586,"305":0.0655142162922891,"306":-0.058056982031102024,"307":0.1151378742341777,"308":0.19240188403948236,"309":0.16324670167745628,"310":0.08150453683071682,"311":0.09601284242071204,"312":-0.06716982967011031,"313":-0.19299563157750702,"314":0.043277691810288746,"315":0.028435255863939794,"316":-0.1285499264103313,"317":0.23963538141900548,"318":0.050625511048904656,"319":0.022405938456120725,"320":0.21176244642733888,"321":0.024799918082102045,"322":0.08660212909629812,"323":-0.15997177543291616,"324":0.15021958895397086,"325":-0.05473972016005739,"326":0.16661944740363172,"327":-0.1539066263981656,"328":0.05140901808724578,"329":0.0412146224440436,"330":-0.12884659377340685,"331":0.1970578352045376,"332":-0.1462661827998523,"333":0.13433772152709375,"334":0.08836124690888467,"335":-0.05778189429346761,"336":0.02701937142914527,"337":0.12081431662296632,"338":-0.08805725969439458,"339":-0.09589824295381863,"340":-0.1021133168160926,"341":-0.13590419307204696,"342":-0.060286349190575655,"343":-0.019068047820217364,"344":0.18436950073065517,"345":-0.02749926571527483,"346":-0.12422333678243257,"347":-0.005953440838028801,"348":0.12237954223112536,"349":-0.032218617489209754,"350":-0.16420245119301471,"351":-0.18036542251098947,"352":0.1951134328880349,"353":0.09455297477920546,"354":0.13171321518527757,"355":-0.08121153668461158,"356":-0.06851537328927465,"357":0.11064387186738642,"358":-0.07865713645130762,"359":-0.009043167163740788,"360":-0.006160656332307759,"361":0.14314546708741482,"362":-0.06338019136314571,"363":-0.20455613738882852,"364":0.10678252762855756,"365":0.07027230767667322,"366":-0.1818396043361884,"367":-0.00552425939121569,"368":0.1511172136211691}},"3":{"bias":-0.09780596709284291,"weights":{"0":0.17452946826097987,"1":0.001797289796182447,"2":-0.06242333820395999,"3":0.3089736697584281,"4":0.15675984980283894,"5":0.23724375815139984,"6":0.10439142178594142,"7":-0.01791571054774569,"8":0.20114806979224076,"9":0.3002386115314069,"10":0.09597773151887419,"11":0.13363267791588246,"12":0.19843135753554184,"13":0.006073128645559251,"14":0.11512272894530183,"15":0.1214389450202195,"16":0.09690268091252298,"17":0.05875731352046616,"18":-0.11100232983555572,"19":-0.19121814008888177,"20":0.05249419132118716,"21":-0.11591724308728804,"22":0.07674313387168462,"23":0.19417785599557377,"24":0.10264649833582219,"25":-0.17419278203768526,"26":0.07441561215194005,"27":0.13041487556549877,"28":-0.23363267287890432,"29":-0.16080373449479607,"30":0.09854913285483165,"31":-0.09292236834679646,"32":0.10397763238015542,"33":-0.027442860243936114,"34":0.10399821994150818,"35":0.20780775311676228,"36":0.0019220529801154704,"37":0.12489478332176347,"38":0.08971577813546479,"39":0.03249784754345304,"40":0.02351470223004972,"41":0.15705273444739296,"42":0.011706523633153965,"43":-0.005072126511433325,"44":0.019996577595337572,"45":-0.08170151896299951,"46":-0.07282829001693802,"47":-0.033863606068902444,"48":0.033702261494575066,"49":0.1278460985540401,"50":-0.12689272911406682,"51":-0.125197057037068,"52":0.20969885730469717,"53":0.19895778315413054,"54":0.05501620701836633,"55":0.01720378873526625,"56":0.11497549341739186,"57":-0.1961406948254229,"58":0.0813132749079006,"59":0.0800809728706389,"60":0.13370560043410235,"61":-0.051619902766973404,"62":0.16628870337924515,"63":-0.12051129903045484,"64":-0.2466154861955176,"65":0.015943035382931806,"66":0.13268678259543087,"67":-0.14853973057573175,"68":-0.022872192890244288,"69":-0.13205053367050745,"70":0.034557401699544195,"71":0.029234555743197763,"72":0.07240427269930858,"73":-0.1034560602945234,"74":-0.038372460680663585,"75":-0.17212489016792284,"76":-0.14460379529405348,"77":-0.21376983225307447,"78":-0.15414361191311188,"79":0.17965554559422853,"80":-0.03400400396879858,"81":-0.092077284771784,"82":-0.05051441172253862,"83":-0.12365136593255954,"84":-0.19554514928479147,"85":-0.1420060123351816,"86":0.023883629936396686,"87":-0.06703331876605684,"88":0.06765274600179877,"89":0.08190797832393916,"90":0.08942468993083448,"91":-0.13848362016688004,"92":0.18932167763140242,"93":0.16378838580886734,"94":0.07105818699810722,"95":-0.10710787944739451,"96":0.1195673516370198,"97":0.11547815910845678,"98":0.04641311190383911,"99":-0.1721302143971861,"100":-0.1956747347655548,"101":-0.02489497257095027,"102":-0.2590821826916052,"103":-0.2045072079467063,"104":0.13183073941429274,"105":-0.045904026339919045,"106":-0.12660596298678167,"107":-0.15270218768629112,"108":-0.05405134900690985,"109":-0.29912070010179725,"110":0.04081660655312671,"111":0.07755540897137521,"112":-0.1293275399311551,"113":-0.0027487087206217444,"114":-0.2866559318217259,"115":-0.2040050526739528,"116":0.026338259752161513,"117":0.01636057657887615,"118":0.044946665541246135,"119":0.03507304905093292,"120":-0.20457155176758468,"121":-0.14612331967183845,"122":-0.07504510293381148,"123":0.14399323112213946,"124":-0.09465141632350331,"125":-0.10383969368290176,"126":-0.001983480631443468,"127":0.010154955604086949,"128":-0.07054187149671293,"129":-0.10167806824078908,"130":0.018135323544222454,"131":-0.03657025985497004,"132":-0.18016667221145452,"133":-0.136753030853949,"134":-0.16651728370709837,"135":0.09171066958822373,"136":-0.09268468151262507,"137":-0.06296054728058507,"138":-0.10612605880622973,"139":-0.2526978228681155,"140":0.13944584048381645,"141":0.07211760420621585,"142":-0.07748387987079378,"143":0.14680620423403404,"144":0.05559121939802256,"145":-0.12394527253513035,"146":-0.16967333793989983,"147":0.14592455937186574,"148":-0.0800739699296058,"149":-0.06635141334949839,"150":0.12690211986838976,"151":0.21378241377072016,"152":-0.16840057955099658,"153":0.12147334881472721,"154":0.20955134209441534,"155":0.05081575276697774,"156":0.09072182202792545,"157":-0.07662529032812651,"158":-0.01803776265409798,"159":-0.02963600361482117,"160":0.205278569163859,"161":-0.013894171604406534,"162":0.21378867635780519,"163":0.046898486276280967,"164":0.1895428771750091,"165":0.15755601622527668,"166":0.008667461237881527,"167":-0.05117046704323968,"168":-0.1344755930227545,"169":-0.11222554262014192,"170":-0.08794511431034902,"171":0.09709728411384139,"172":0.16069686399241748,"173":0.01047083762446811,"174":0.15274457057567578,"175":-0.17051693065865128,"176":0.11436770802964533,"177":0.011124979442579903,"178":-0.1047588144567359,"179":0.1500278644714429,"180":0.054549720721119126,"181":-0.037854615899025036,"182":0.14697352084176238,"183":-0.14150044405613843,"184":0.17637563753227622,"185":0.07612655720774979,"186":-0.013135130757349659,"187":-0.0005784555994312744,"188":0.1273670081526951,"189":-0.02210929860808607,"190":0.18319336575802722,"191":-0.03518392255967973,"192":0.15167420437893706,"193":-0.059075000276871605,"194":0.027918853117991593,"195":0.15584436746179944,"196":-0.09452178796763627,"197":-0.19526907262116247,"198":-0.004189011598998331,"199":-0.16109676729451347,"200":0.06601706118319053,"201":0.12599303161696151,"202":0.17970127272338085,"203":-0.1853243368325967,"204":0.14076799000114013,"205":-0.1092733284194014,"206":0.05999838980679483,"207":-0.18628253633202502,"208":-0.031969371173477895,"209":0.22510154174330124,"210":0.1724082983013332,"211":-0.02594881321677157,"212":-0.06771391266431262,"213":-0.11210088401200473,"214":0.13873666419419692,"215":-0.1313227616047389,"216":0.11240388017099501,"217":0.09458036307752926,"218":0.15677249550943456,"219":0.11030735876156073,"220":-0.11144602239354669,"221":0.06380668777716805,"222":0.157776788657196,"223":0.11382966538255751,"224":-0.14003444416300864,"225":-0.14652103050540005,"226":-0.05938601944046981,"227":-0.09218357947193094,"228":0.03107870466761678,"229":0.07631440184536434,"230":-0.19860617370838538,"231":0.06317764145930291,"232":0.1553959040192823,"233":0.029930270851306645,"234":0.16160313088704395,"235":-0.029425451218286994,"236":0.13314780228397718,"237":-0.030209277392688864,"238":-0.04296906736659326,"239":0.10765723373588805,"240":0.09119124390619615,"241":-0.06770495871634544,"242":0.021006131430945117,"243":0.025050532775964026,"244":0.05346775946802,"245":0.06810684867146678,"246":0.14757005393620573,"247":0.19152511307098288,"248":0.16647143006418244,"249":0.06457707718836574,"250":0.2046186832152133,"251":-0.08077647638470388,"252":-0.19506262760618523,"253":-0.08819539320782904,"254":-0.19058624517961784,"255":0.12019166778314397,"256":-0.1279516440437701,"257":-0.03942862772481428,"258":-0.09062747706556579,"259":0.11006993035587272,"260":-0.06883567851848792,"261":0.1589044198288299,"262":0.16169592385886605,"263":0.05160057615396436,"264":0.10910296526278299,"265":0.04887893367234463,"266":0.13714990800843152,"267":0.15188572666629513,"268":-0.10943573557090414,"269":0.00335429020554472,"270":-0.052559427378361154,"271":0.10030500902185839,"272":-0.15584074823706331,"273":-0.15669275843388322,"274":-0.15450183105912238,"275":0.05717187234395275,"276":-0.0019258083886590427,"277":0.1841185964123085,"278":0.15956274050606545,"279":0.05032118749030638,"280":-0.04161853128484634,"281":-0.14832015804953586,"282":-0.028676592908826713,"283":-0.08308617401831882,"284":0.02259455477347955,"285":0.19401931901260316,"286":-0.03272830782612982,"287":-0.06469186883783663,"288":0.15733140933515982,"289":-0.04908742547077911,"290":0.07900035526300742,"291":0.00895149225993357,"292":-0.1690815723955239,"293":0.11135293767881332,"294":0.04926372659110652,"295":0.13541665920836488,"296":-0.19775554418827085,"297":-0.02534185508852448,"298":0.0471831308063589,"299":0.15665173221288037,"300":0.020545406339204243,"301":-0.0433415532534593,"302":-0.031367248262768904,"303":-0.016588345756541563,"304":0.15909607862140807,"305":0.16753803635795908,"306":-0.0060991151785928215,"307":-0.03189044467927706,"308":-0.2152617947571177,"309":-0.0912089853469412,"310":0.05595634636435812,"311":0.09933664795149422,"312":0.18276754730067882,"313":0.03495239096289013,"314":-0.17691832427288404,"315":-0.017926378032519726,"316":-0.015355084468259806,"317":0.06563623829341744,"318":-0.16830978751170927,"319":0.06451287395960928,"320":-0.24685681468498477,"321":-0.1680533820363058,"322":-0.1738780823537348,"323":0.03307281879211253,"324":-0.209188600195853,"325":-0.1844938405817371,"326":0.025279328195693552,"327":-0.18631749474402232,"328":-0.16035819277825325,"329":-0.02093962381732126,"330":-0.19513892662497312,"331":-0.0970298262787175,"332":0.008452470511866208,"333":0.15823505634219018,"334":0.08892201548448583,"335":0.17694763438946978,"336":0.13946299225601358,"337":-0.07356154374711914,"338":0.14023546358206404,"339":0.1739104634657314,"340":-0.08909915519473399,"341":0.0969843813783173,"342":-0.010314884662741301,"343":0.16184530479613762,"344":0.15062400372294307,"345":-0.03509930945857016,"346":0.18208184720521411,"347":0.17843895600763096,"348":0.11044542825793717,"349":0.08842012223929978,"350":-0.08180069811481609,"351":0.029686294234128597,"352":0.20566437498806364,"353":-0.11239592227249828,"354":0.08410181501838802,"355":0.17597359816511207,"356":0.04193364637330764,"357":-0.027778713413149556,"358":-0.08782291369862938,"359":0.12466986835661195,"360":-0.07960076639582205,"361":0.08304785817871142,"362":0.20853040499555778,"363":-0.04733526174525515,"364":-0.25645052757521514,"365":-0.12616659647868725,"366":-0.17096361708326077,"367":-0.019828569457686216,"368":0.13286159739615194}},"4":{"bias":-0.15620377902393884,"weights":{"0":-0.05755336809527905,"1":0.0936884578330602,"2":0.08611875515011988,"3":-0.2099737238732203,"4":-0.1743745028190468,"5":0.014498519286982774,"6":-0.023178227429033676,"7":-0.0642633100178602,"8":-0.18662847617000222,"9":-0.18854171914468554,"10":-0.12824205923214088,"11":0.06820690037222715,"12":0.12216850122662753,"13":0.02115698804669376,"14":-0.17819690229442806,"15":-0.09916103947022305,"16":0.1114208061086245,"17":-0.09482290218988204,"18":0.16020295760393402,"19":-0.014950271103292313,"20":0.15211874721909022,"21":-0.12310732963703713,"22":0.07299522290964225,"23":0.14785555459161867,"24":-0.03310832405690885,"25":0.2036441644304123,"26":0.16762219056446406,"27":-0.10804658966420481,"28":-0.030867345485268337,"29":0.10078208399514854,"30":-0.034187325035602824,"31":0.2169449609383026,"32":0.07068635633889947,"33":-0.10118870887663758,"34":-0.12219239471651731,"35":0.026416702128286285,"36":0.10111150202207818,"37":-0.2001452841825581,"38":0.07172854418844661,"39":-0.25067346259631634,"40":0.05605164332620062,"41":0.19110726649155677,"42":0.016558678510113754,"43":-0.16252946791543824,"44":0.14158325875893613,"45":0.016659214668493752,"46":0.15896347272000336,"47":0.11375747035921172,"48":-0.13677669469548284,"49":-0.1090526923973527,"50":-0.018221247238262243,"51":-0.002887097210587863,"52":-0.20700939765925686,"53":-0.028342160834276722,"54":0.09564386935912217,"55":-0.1982752025251355,"56":-0.0715663937714838,"57":-0.20733176788383142,"58":-0.049168595032452626,"59":0.05095761507872284,"60":-0.035484912700478925,"61":-0.157133202658511,"62":0.009278517970302604,"63":0.03452497977284262,"64":-0.015501300852485151,"65":-0.06018977056412475,"66":-0.09113468960615478,"67":0.13257069421919082,"68":-0.13186054241219194,"69":0.18861102704487964,"70":0.01722831803717805,"71":-0.12160323294091337,"72":-0.0853657529031851,"73":-0.17891675386774436,"74":-0.12367266790711466,"75":-0.13498630833258318,"76":-0.02472550556719138,"77":0.17702800717355952,"78":0.19681654777518026,"79":0.16254942171370895,"80":-0.20550250603958023,"81":0.08248571948614704,"82":0.08227305019195459,"83":0.1588424169050049,"84":0.01922666207607832,"85":-0.10243394601362331,"86":-0.17804312747389053,"87":0.09734173063908932,"88":0.13640502197229112,"89":0.15176937010925065,"90":-0.03625054717393615,"91":0.23043000941742323,"92":-0.043148524231075756,"93":-0.06489159865982308,"94":-0.12514393883206074,"95":0.10541975847256038,"96":0.14128510822385468,"97":-0.015090311141772068,"98":0.1646857324204816,"99":0.013764837303128831,"100":-0.0365894421131469,"101":0.15667303302806485,"102":0.1965069604889141,"103":0.20805333880381158,"104":0.0703416405446684,"105":-0.1225534865290261,"106":0.02505276708906606,"107":0.02957421643128918,"108":0.09861360087302753,"109":0.2269935099310101,"110":-0.006995054896757139,"111":-0.04164608332721814,"112":0.038283574306435426,"113":0.2268055468722577,"114":0.11457666067853385,"115":-0.11305836727651884,"116":0.17326901066154546,"117":-0.10671485535214743,"118":-0.1441703299767906,"119":0.1042066805856594,"120":0.23307473661837516,"121":0.20557239735089397,"122":0.14165171981375818,"123":0.030888103056051382,"124":0.1792476132684566,"125":0.1518144853361336,"126":0.0874482996226414,"127":0.029568542411433786,"128":-0.17278724453692357,"129":-0.06982754490054181,"130":-0.05625718597376178,"131":-0.06773595333476005,"132":0.15196487996811117,"133":-0.0777882150808484,"134":0.14876031200021222,"135":0.2169783777142675,"136":-0.0012505646628196213,"137":0.1323537464527034,"138":-0.08543005094459714,"139":0.10603606322430442,"140":0.021760246079220964,"141":0.22304788642318962,"142":0.18501282439185315,"143":-0.1548151180686221,"144":-0.09422746573670178,"145":0.03138124828243599,"146":0.0883636560564196,"147":0.20321852889351572,"148":0.017163959568792395,"149":-0.17128657352670243,"150":0.01086453700679047,"151":-0.0003279034601219813,"152":-0.03793726472335595,"153":0.012450149600471952,"154":0.11206640009775497,"155":0.07983242653613279,"156":-0.21416797899376075,"157":0.08899271397153533,"158":-0.2100565031292048,"159":0.12080576356944452,"160":-0.16978300491803952,"161":-0.08307569569256927,"162":-0.25560738251018705,"163":-0.09827561994583395,"164":0.06183196703889107,"165":0.15280188097529113,"166":0.10583687260056923,"167":-0.07483950819720135,"168":-0.08237282013184248,"169":-0.18798919925541643,"170":0.0060139710787115415,"171":-0.0816349935794907,"172":-0.12333983149578846,"173":0.13884168763186816,"174":-0.11165080997013412,"175":-0.16137845118187272,"176":-0.025504555295591928,"177":-0.17745933759931234,"178":-0.20026087011926913,"179":-0.0862403002696157,"180":-0.12234709050032536,"181":-0.1430479676695077,"182":0.02619343073201626,"183":0.07691553525594,"184":0.017976999728837335,"185":0.04695808822997143,"186":0.17935235650542386,"187":-0.05199516430363051,"188":0.10762493838538154,"189":-0.06398077126957924,"190":-0.1144598035077041,"191":-0.1977539704821316,"192":-0.10521432686165148,"193":0.11013841439877423,"194":-0.15711565624977455,"195":-0.05536291831390471,"196":0.008667320046844925,"197":-0.031194153269040344,"198":0.05744136206590734,"199":-0.05761144001265014,"200":0.020638653198050656,"201":-0.23344900581449757,"202":0.02478882321215148,"203":0.18698324624483656,"204":0.14920599756108074,"205":0.1446804981309839,"206":-0.046170029432209,"207":-0.0368182752925608,"208":0.14207924536676725,"209":0.16150900194980966,"210":0.11076506717924421,"211":-0.08073068558014602,"212":-0.1706913522221648,"213":0.049009949157229914,"214":-0.14896341357623458,"215":-0.16516337521220473,"216":0.07924173258755583,"217":-0.18717523872052755,"218":-0.12500018265881954,"219":0.06139001141196426,"220":0.09362687431742817,"221":0.05354260062593722,"222":-0.08997403425928126,"223":-0.12864242454153002,"224":-0.14914473650530327,"225":-0.08111168124634326,"226":0.1218342543162559,"227":0.17114877777145665,"228":0.15918445331263023,"229":0.1793351113108971,"230":0.11087136850988287,"231":0.006841974566543303,"232":-0.004610837450722266,"233":0.12676157978843425,"234":-0.15688575601793675,"235":0.12425551326274344,"236":-0.014873538029159614,"237":-0.14717335607587273,"238":0.13146720746760293,"239":0.06548196873288306,"240":0.1383905189860288,"241":-0.02009238529058681,"242":-0.04334842635607577,"243":-0.07714328391971634,"244":0.1613034779391821,"245":-0.14160437568143405,"246":0.0938687353311434,"247":-0.14675002039633286,"248":-0.004602195916704822,"249":-0.03265653980923019,"250":-0.159897201586484,"251":-0.13464563192794335,"252":-0.014634135884445214,"253":-0.01603936679649744,"254":0.006931919189720523,"255":0.01984309381808265,"256":-0.04035675112391794,"257":0.06547943149593743,"258":-0.11340616141876503,"259":0.03440310060469397,"260":-0.18042920776938176,"261":-0.08627522272558086,"262":0.08297080120345039,"263":0.1435445460559327,"264":0.08210245201592727,"265":-0.10830031452502055,"266":0.01717460576312944,"267":-0.2750579373759295,"268":0.14851798641093097,"269":-0.05556488106805043,"270":0.15526900098660004,"271":0.12383863984707999,"272":0.10084939832017695,"273":-0.09086457833375404,"274":0.026662936682169947,"275":-0.0906761110683652,"276":-0.12136232822256343,"277":-0.18326772307144837,"278":-0.08462659528860549,"279":0.0319932707655647,"280":-0.18829405751140918,"281":-0.18829653901484503,"282":-0.026098649497579802,"283":0.1403295369662576,"284":0.014040683540842473,"285":-0.014824096612889782,"286":-0.06859249886333195,"287":-0.10254872804291898,"288":-0.1928638718549144,"289":-0.2245366718346568,"290":-0.05555524624209751,"291":0.13095898608757145,"292":0.21293666336055658,"293":0.14918340021763016,"294":-0.10841893391039364,"295":-0.0816818003426683,"296":-0.11407103096369256,"297":-0.1278431474316396,"298":-0.02275281390249525,"299":-0.19843578197385728,"300":-0.02485770484508787,"301":0.11160494847847026,"302":0.19417621475468366,"303":-0.019394477266531592,"304":0.08528195582146249,"305":0.09057324601464084,"306":0.1732263140992125,"307":-0.16845645478169355,"308":-0.061433844204314116,"309":-0.1488900244031247,"310":0.0782339504427148,"311":-0.17599418810662598,"312":-0.15707628595446457,"313":0.19745391952856478,"314":0.08335041181151276,"315":0.24458385647506986,"316":0.1704506872311046,"317":0.15312825599694826,"318":-0.10961891298511985,"319":-0.09198876120397904,"320":0.21619881521040846,"321":-0.09325245892810549,"322":0.19794794451275116,"323":0.1910043487475494,"324":0.14385025862658038,"325":0.15860280898898438,"326":0.16737553015036016,"327":-0.10662408482809838,"328":0.23389288238622674,"329":0.12929567286413754,"330":-0.1630316738969639,"331":0.02837795367470454,"332":0.01632943446229835,"333":-0.21174931301626482,"334":-0.17804940988173057,"335":0.06801350403870139,"336":-0.1071873741687104,"337":0.1436941508994205,"338":0.06791382097239529,"339":0.1731853391446744,"340":0.1438567775956339,"341":0.042691071324292236,"342":-0.05519425600230562,"343":-0.06814239654270993,"344":-0.1854076843787474,"345":-0.13107305981276568,"346":-0.17959979466908166,"347":-0.11292049866081443,"348":0.003022327429842424,"349":0.021252295045943736,"350":0.08311345915830604,"351":0.07674301876288825,"352":-0.1665375087147784,"353":0.1535490830182464,"354":-0.012768049770623693,"355":-0.0051419149422612925,"356":0.060898145187160066,"357":-0.0717628421411249,"358":-0.05594911538788347,"359":-0.00507270145031965,"360":0.10656009550371491,"361":-0.25043362860010443,"362":0.12401975100872278,"363":-0.04513081507343103,"364":-0.045166730700075076,"365":-0.1499112093989127,"366":0.1337076663869805,"367":0.11125178366961203,"368":-0.12754287083595506}},"5":{"bias":-0.04581667110027674,"weights":{"0":0.26867402652792416,"1":0.043809276721879814,"2":0.10372951734479671,"3":-0.2644731332945347,"4":-0.24727095144433026,"5":-0.09018034760998046,"6":-0.052117055192776894,"7":-0.1807272081933307,"8":0.08734902120802536,"9":0.030686420468073444,"10":0.0975341692373971,"11":0.10568365210386624,"12":0.11943244211240749,"13":-0.24641341730292865,"14":0.06508134263027238,"15":0.08837100580998491,"16":0.16916326277306992,"17":0.20148350210342295,"18":0.016735534183224186,"19":0.0214567655010333,"20":-0.04024900386858704,"21":0.08857690809186074,"22":0.12216902690787323,"23":0.18054226733897868,"24":-0.06973576128618215,"25":-0.055443774727312246,"26":0.05108124947535575,"27":-0.08517663669204081,"28":0.09263321024509674,"29":-0.18725550604989938,"30":-0.00833448557008806,"31":-0.16542058459472225,"32":0.11404413703206721,"33":-0.23533828735056167,"34":0.17977515897746016,"35":0.2345321489460172,"36":-0.14732418487532528,"37":-0.09702486089286454,"38":-0.036455541140029336,"39":0.1398839433107025,"40":0.0843781192771265,"41":0.11695316102980745,"42":0.10886108706774228,"43":-0.13862941181828858,"44":0.15032625744491215,"45":0.017656285199300573,"46":0.07837951266934799,"47":-0.0005566550548055376,"48":-0.139870725549952,"49":0.14110073080352095,"50":-0.3153459896578986,"51":-0.0297374732147734,"52":-0.047450667128057664,"53":-0.02721648445279836,"54":-0.20048282478546148,"55":-0.011845293414374654,"56":-0.12124725932081445,"57":-0.014920375167792254,"58":0.06425253475057255,"59":0.18012258964220337,"60":0.17286549896240602,"61":0.0886418299690818,"62":0.0333655149127193,"63":-0.07732993426248119,"64":0.14593821046356173,"65":0.20813828917707383,"66":0.00906146350028776,"67":0.15855612862119128,"68":0.1663426798966726,"69":-0.16957951172971897,"70":0.2247629673828433,"71":-0.07200925360986839,"72":-0.06926708937813295,"73":-0.013665505170056226,"74":0.029908504438346663,"75":0.01151021507520589,"76":0.126645635248688,"77":0.08952677316834882,"78":0.037146551620200766,"79":-0.04421900047704556,"80":0.04280818691219398,"81":-0.06337652097734765,"82":0.002391699342832386,"83":0.15717884460873938,"84":0.2065837751710554,"85":-0.12239996872062114,"86":0.07192757994536814,"87":-0.13894073431753626,"88":0.16030185549389245,"89":0.13948883824256933,"90":0.14897611111255007,"91":0.2204869918122,"92":0.17834102083030048,"93":-0.12590925016026672,"94":-0.06784661620145196,"95":-0.08113640171489438,"96":0.2049021136992838,"97":0.1806629430500387,"98":0.10108548972627508,"99":-0.047607475473855555,"100":-0.13470609450187435,"101":-0.029954385608531826,"102":0.039844037424405315,"103":0.08195254020943808,"104":-0.00003271054779739443,"105":-0.05125099453857659,"106":0.16039502380197082,"107":0.14667272712189788,"108":0.01127718574971547,"109":0.11794607441517861,"110":-0.05643042010619538,"111":0.1510584028439569,"112":-0.002551173496857056,"113":-0.06833457401876077,"114":0.10145069915947537,"115":-0.10871852244979652,"116":-0.20985386283753127,"117":0.06452254897859801,"118":-0.17361324682881044,"119":0.10346339048847997,"120":-0.0965726705872804,"121":-0.13039887449562246,"122":0.04700588729146433,"123":0.016683022840854708,"124":0.08814279992182193,"125":-0.04329391076221286,"126":0.0028079458446838615,"127":-0.13714324503119138,"128":-0.03160820110164899,"129":0.00021041727817775027,"130":-0.02669711881441474,"131":-0.025641299009231715,"132":-0.03876070873301518,"133":-0.011875355739621122,"134":0.13607935794767181,"135":0.07381134660502217,"136":-0.006524324348802312,"137":0.10983638166717755,"138":0.12800436566633244,"139":0.09595250281231255,"140":0.07907017519303983,"141":0.07915850351819537,"142":-0.02020576943917494,"143":-0.18212530191039322,"144":-0.09130354927876978,"145":-0.06635606779255453,"146":-0.04675245560834308,"147":0.07413270012078317,"148":-0.00850657875329539,"149":0.17005084004409124,"150":0.025477837400576357,"151":-0.07846092714855694,"152":-0.11565360268536595,"153":0.15989677978975803,"154":0.25669163156966823,"155":-0.020522114911370123,"156":-0.04199592436793769,"157":0.038838632433508775,"158":-0.20080795024699727,"159":-0.030759394562121626,"160":0.1804421489738097,"161":0.025483096299824863,"162":-0.007031128928782522,"163":0.14547972046417232,"164":0.10627547223655308,"165":-0.07811384393859758,"166":-0.12089516956723698,"167":0.054086760461732004,"168":-0.11746703977295472,"169":-0.18844932759867328,"170":0.08118145042635062,"171":-0.08802908933009031,"172":-0.0193037097651202,"173":0.0890538827105279,"174":0.16336885374422705,"175":-0.1523859309180571,"176":0.1596111405442635,"177":-0.20685953437132418,"178":-0.2177640279252293,"179":0.18319167538038486,"180":0.039215750039690134,"181":-0.026470551324575084,"182":0.1163057043044614,"183":0.10511154456534648,"184":-0.009980348211403004,"185":0.036409217413299666,"186":-0.1361069958094178,"187":0.1813997215213007,"188":0.11842453453476114,"189":0.057450523825432726,"190":-0.12134340559318882,"191":0.14950360850606073,"192":-0.06964958566129383,"193":0.034697931072038585,"194":-0.02084268866631074,"195":0.0971001448766755,"196":-0.011369991374543859,"197":0.052910158786228095,"198":-0.14849260020841185,"199":-0.02828099947050587,"200":0.1762443488453905,"201":0.14291787054373198,"202":0.1272180660954735,"203":0.0806209251041484,"204":-0.03506199624818824,"205":0.1593025319696884,"206":-0.1407858323982622,"207":-0.11488935498607154,"208":0.0290209141636715,"209":-0.009094267177730151,"210":0.07517716534827994,"211":0.05368811375509001,"212":-0.05313471291622841,"213":0.10770029371711054,"214":-0.14541964676391114,"215":0.02623667055254032,"216":-0.07642531892210223,"217":0.20556698004668164,"218":0.15114715487732402,"219":0.07369334501112049,"220":0.13331256237729347,"221":-0.13238288593268302,"222":0.16050770928160565,"223":0.19682184709563275,"224":-0.004274552166252423,"225":0.18934593745733583,"226":-0.09214502087110804,"227":0.02149360338598957,"228":0.018516041365314016,"229":0.00447083947666656,"230":-0.0834590208243095,"231":-0.11608996041106162,"232":0.04135883125195637,"233":0.1426740674303508,"234":-0.14451699263885814,"235":-0.09199523419539328,"236":0.0316031282896439,"237":-0.0005421259207969807,"238":-0.18335484310921682,"239":-0.10709765542163356,"240":0.20169724594610194,"241":0.19197799697795265,"242":0.1302276706551679,"243":-0.025613523635387523,"244":0.014575533085129882,"245":0.1071152518613167,"246":0.06320797909041596,"247":-0.0023641890365395167,"248":-0.1445139935649412,"249":0.17204339702254173,"250":0.011790680752829184,"251":0.17454251665458415,"252":0.08564942902470683,"253":-0.012158912944146836,"254":0.009580859631022872,"255":-0.17948143954861653,"256":-0.008197093856759305,"257":-0.08822808135546505,"258":-0.05606463112104093,"259":-0.042761006199417036,"260":0.027447000455275188,"261":0.1291966572478749,"262":-0.029099045427214008,"263":0.018967377329546727,"264":-0.19166317347856232,"265":-0.20589567694494246,"266":0.06529418089519558,"267":-0.18987054273815435,"268":0.14830918323537462,"269":0.1317707597417126,"270":-0.1573563480518482,"271":-0.06293642013169007,"272":-0.08851335554369451,"273":0.08586425059212113,"274":-0.07696118004867725,"275":0.022964542431045246,"276":-0.17566172332928096,"277":0.05430076362426142,"278":-0.004108308606948637,"279":-0.22148906694653148,"280":0.07488239055467558,"281":-0.21370949631320157,"282":0.14112506193451274,"283":-0.04882079116415006,"284":0.14218952954521602,"285":-0.0919759092185992,"286":0.0605308262581828,"287":-0.15644339238325694,"288":-0.07856924575557757,"289":-0.1415319432563067,"290":-0.05836031572505075,"291":0.06042572549679272,"292":0.13405800454983502,"293":-0.11052613831123635,"294":0.16784618280505398,"295":0.03758281607089316,"296":0.19976670731155394,"297":0.002968791868209655,"298":0.12529803110376664,"299":-0.14848631084164896,"300":-0.07348904393317648,"301":-0.055539514736769706,"302":0.021509620949476723,"303":0.14165198969789655,"304":-0.17366308428485594,"305":-0.0433900805273474,"306":-0.0653360683508937,"307":-0.14075086072934814,"308":0.20162705528205338,"309":0.09325384639076002,"310":-0.040858405451553094,"311":-0.15041037542435456,"312":-0.12234450339456883,"313":-0.11890942705752762,"314":-0.08567900867169077,"315":-0.13004469723925194,"316":0.16183599745694546,"317":-0.007004090876796943,"318":-0.12421964101325163,"319":-0.10756757560286613,"320":-0.18836312699618601,"321":0.07141513748879258,"322":-0.08773251280704883,"323":-0.09374266678490131,"324":-0.1453651708971594,"325":-0.11141617309268288,"326":0.0946357474719219,"327":0.1442967033504869,"328":-0.028627055753273,"329":0.13130140217867356,"330":0.18363560792702907,"331":0.09458812361401726,"332":-0.17100903633490297,"333":0.12578212801405708,"334":0.15073694065502033,"335":0.04646399310561174,"336":0.13597279319596098,"337":-0.1061325060092304,"338":-0.1196226737825573,"339":0.14825061990613747,"340":-0.03755099147594634,"341":-0.006206761957095919,"342":-0.02996970424298357,"343":-0.031251978117378114,"344":0.04432464644871573,"345":0.16449402075231304,"346":-0.1258860138506566,"347":0.04328749057573461,"348":0.10400015356920343,"349":-0.15055369745724642,"350":0.13741739335613481,"351":0.005906146088112107,"352":0.06616690236936638,"353":-0.14436371322835484,"354":-0.032579118062043486,"355":-0.17498322835362037,"356":-0.15303089444788665,"357":-0.16205971192455795,"358":-0.11796349795873136,"359":0.050943971434513895,"360":0.0945732333398631,"361":-0.030573649162793263,"362":0.03491949718559343,"363":-0.10308307902130028,"364":0.006244790627252884,"365":0.024147057286750314,"366":-0.017542637035096904,"367":0.06829771741751117,"368":0.17916882203546677}},"6":{"bias":0.06479895457345329,"weights":{"0":0.04713195701169408,"1":0.1898534977346583,"2":-0.12662920741209116,"3":-0.40907215048638,"4":-0.19725598186861948,"5":-0.2793487749526389,"6":-0.19510750593198112,"7":-0.06415746232367248,"8":-0.06258260588325089,"9":-0.018738999694893288,"10":-0.15621655654654346,"11":0.10348119587041922,"12":-0.16049731210984758,"13":-0.25972129348612566,"14":0.032819707461207964,"15":0.05531749558860021,"16":-0.21244154280406385,"17":0.08179155948893473,"18":-0.1020715503974531,"19":0.15476368812658572,"20":0.12413242401489365,"21":0.18049401174852459,"22":-0.02756101675086257,"23":-0.19002882457094755,"24":0.1951373493756688,"25":0.09352857916972754,"26":-0.06970451264075897,"27":-0.17750761893600303,"28":-0.15067110052742005,"29":0.14429185103911002,"30":0.15425202256065984,"31":0.02926465383108685,"32":0.07761445938297931,"33":-0.03249145383100683,"34":-0.04578644749720449,"35":-0.14967802894582669,"36":0.018152882336800517,"37":0.1313500397578673,"38":-0.07082692660527111,"39":0.06340320071846373,"40":-0.1687533390794652,"41":-0.13663519667904536,"42":0.04105235456147286,"43":-0.025671802941248087,"44":-0.06277522242894705,"45":-0.18204228758354163,"46":-0.08873750623965253,"47":-0.14490397710733952,"48":0.10883313337448404,"49":0.09830887515442438,"50":0.19189809779965897,"51":0.06660857080376145,"52":0.039328895453795545,"53":0.2051238296434177,"54":0.12913570657257925,"55":0.182697536845356,"56":-0.043429383580845096,"57":-0.06873558846159225,"58":-0.03918685065973517,"59":0.06931309782244592,"60":0.17399646148629236,"61":0.08038893918682433,"62":-0.03913851745579004,"63":-0.03989583985088475,"64":-0.009793522418617319,"65":-0.11776327956161516,"66":-0.0482322091666783,"67":0.1357351295391306,"68":0.18413213653000032,"69":0.039770473832884,"70":0.13242476365000475,"71":0.04996275283537886,"72":0.05444236010432031,"73":0.09122238947890059,"74":-0.02204971595909634,"75":-0.20574596931561737,"76":-0.01352497981612247,"77":-0.17016743652067529,"78":0.04653443892109872,"79":0.12628820213922815,"80":0.02888194985982683,"81":0.013609035632769587,"82":-0.012768717210110234,"83":0.013005091091102924,"84":0.14428398709030296,"85":0.17039944752420538,"86":0.09023091450123882,"87":-0.04374458238495146,"88":-0.10768402097617495,"89":-0.02968919133150171,"90":0.16357885643823544,"91":-0.0372283906639289,"92":-0.1810454264567986,"93":0.08981718315011737,"94":0.16443079777131864,"95":0.11800466808104099,"96":0.2201469657617189,"97":0.06383429429215641,"98":0.0762248645023742,"99":0.09489729562438054,"100":0.12879383354143753,"101":0.13517297875695355,"102":0.13256857187750484,"103":-0.15536466445534705,"104":-0.0057480817903877495,"105":-0.1424766143587132,"106":-0.015899828148874664,"107":-0.036827334694898926,"108":-0.002690913675107117,"109":0.1528324057062971,"110":0.1801207498361401,"111":0.09847095947821115,"112":-0.07536021760833206,"113":-0.11458804433020932,"114":0.1557474026748097,"115":0.1549736914155283,"116":0.177565319162418,"117":-0.10616894133857462,"118":-0.22716341160528766,"119":0.1682945276688372,"120":-0.018584429914416275,"121":0.19872347679836952,"122":0.1078587742942051,"123":0.1582994513605642,"124":0.08402725689085883,"125":0.08084162329615002,"126":-0.06618255783884591,"127":-0.04138433210072319,"128":0.024266971385420295,"129":0.05661960639419209,"130":0.027474847272074415,"131":-0.18015699786921516,"132":-0.1076821305104371,"133":0.17366063527069964,"134":-0.09911597290627895,"135":-0.17490450423075043,"136":-0.060451314880838825,"137":-0.051313658301920424,"138":-0.09561214493661281,"139":-0.13519794139791472,"140":0.07255364071788503,"141":0.09272401550537226,"142":-0.15685204137126735,"143":0.04310921160317996,"144":0.10845036457908207,"145":0.07705630976395479,"146":0.016093192166293877,"147":-0.013478609643998081,"148":-0.18071107955717058,"149":-0.031821175175421955,"150":-0.10439049640781314,"151":-0.1918866817915199,"152":0.15477256654583552,"153":0.0395172567501737,"154":-0.020045556987951154,"155":-0.20961537870913308,"156":0.07240988753752599,"157":0.12893488822270022,"158":0.13498003144288193,"159":-0.1864556573340787,"160":0.15933516029480266,"161":-0.20895103223213946,"162":0.19884895823417928,"163":-0.005039779053429437,"164":-0.17601641332846912,"165":-0.22741089557582572,"166":-0.03160379046862905,"167":0.1623387762932971,"168":0.026622626670700623,"169":-0.22757244316230996,"170":0.03404876922515533,"171":0.007459810000848096,"172":0.1451701517039858,"173":0.11100162072579127,"174":-0.05891519249523901,"175":-0.047245030348978645,"176":0.12643961182190702,"177":0.06363647816205632,"178":0.09181617555862227,"179":-0.058561330888601236,"180":-0.01907103786421852,"181":0.08200107368563724,"182":0.19217218198096356,"183":-0.002228198038862915,"184":0.06474634907496725,"185":-0.023546591871297387,"186":-0.0777258440493805,"187":-0.0589955363349098,"188":-0.03914574554385833,"189":0.1415647831421765,"190":0.030879023756630264,"191":-0.025382297324771295,"192":0.09734487769504462,"193":-0.03434036407027505,"194":-0.1736984810296337,"195":-0.1582567665212706,"196":-0.035050765733593975,"197":-0.07022912606226647,"198":-0.06486368623946055,"199":0.09304986223015087,"200":-0.171943555654633,"201":0.11506877019087605,"202":0.10583948280318843,"203":0.21368612500197787,"204":-0.019530818242626174,"205":0.19468677729962341,"206":0.17792806215962148,"207":0.15232834246775712,"208":0.05146157886962296,"209":0.021786655647827502,"210":0.1740152449966649,"211":0.0014187899401659789,"212":-0.042089833403939576,"213":0.12378413023494023,"214":-0.07426548980376665,"215":0.055092968602680696,"216":-0.034920174282523954,"217":0.08700699905212388,"218":0.04228814801656799,"219":-0.03616387679220676,"220":0.05925861473892322,"221":0.04633710060693896,"222":-0.07132283576472152,"223":0.1681450669301768,"224":0.02106781521241693,"225":0.11265073314996,"226":0.04001148923982409,"227":0.06548009325749823,"228":-0.08542903110772136,"229":-0.10432654887608726,"230":0.05233506733219115,"231":0.17372631006118425,"232":-0.05272945457578493,"233":-0.17653453427387242,"234":0.18879221187739964,"235":0.01556289500301201,"236":0.11760401693313796,"237":0.0071523884923140515,"238":0.002569081840596327,"239":0.13913923520861082,"240":0.10474213944761347,"241":-0.06943287497816039,"242":-0.0988681383545939,"243":-0.1481245516174455,"244":-0.17758472512711596,"245":0.03142151336312464,"246":0.1475967458442906,"247":-0.016084264002322584,"248":-0.10658477382106597,"249":-0.03672563685865738,"250":-0.20786295122476622,"251":-0.20556709993473143,"252":0.1572626679261769,"253":-0.18959383355293782,"254":-0.1141080500557201,"255":-0.13776751162155665,"256":0.06703687455706824,"257":0.1463142036948688,"258":-0.11708079640114336,"259":-0.14466123732250663,"260":0.009815320901566664,"261":0.060576598705684485,"262":0.12051046958046448,"263":-0.051881655485656895,"264":0.06748077787246873,"265":-0.17237642802750688,"266":0.062030236045245,"267":-0.13750850702130898,"268":0.07933525366632604,"269":0.16514563168330396,"270":0.16487155579399213,"271":-0.033783707397295464,"272":0.14021027006943496,"273":-0.1008092970008534,"274":0.13203846400434482,"275":0.18168749516039154,"276":-0.1170253223671814,"277":0.09042616018604478,"278":-0.11187543673585908,"279":0.12929421056191498,"280":-0.1117340927585072,"281":-0.11691416618940206,"282":-0.04687534001685009,"283":0.021781692173065532,"284":-0.09616508467923367,"285":-0.05973514943420857,"286":0.01810334643133982,"287":0.056762329032962536,"288":-0.17505703111490864,"289":0.20109980397003205,"290":-0.1292874077895715,"291":-0.055589853496845115,"292":0.015928823529277013,"293":0.06945576801997531,"294":0.08458122696790195,"295":0.006750771056859285,"296":-0.14498752857682604,"297":0.11071431730916388,"298":0.14750778895165587,"299":0.05148058252091376,"300":-0.013436282583517633,"301":0.09140562984744303,"302":-0.030616528934602944,"303":0.024658673426681373,"304":0.10317489442276855,"305":-0.11856053803168924,"306":0.04714802372361271,"307":0.03416975155985991,"308":-0.10633996688880376,"309":0.09180341299232148,"310":-0.06872706971291463,"311":-0.1277398292287416,"312":0.07113011129508288,"313":0.011063943534327877,"314":0.14930102442916146,"315":0.19545899431282085,"316":0.2074758990741599,"317":-0.021699873805139568,"318":-0.04956350532658728,"319":-0.11280636767955743,"320":-0.08605889386106202,"321":-0.04694249407032519,"322":0.003763083042731781,"323":-0.03592262064449819,"324":0.028867430705206868,"325":-0.14410355996107174,"326":-0.19180766664022256,"327":-0.06070661906054525,"328":0.058146439240121625,"329":-0.1031280426460901,"330":0.0650434526377622,"331":-0.11085156022088577,"332":-0.046526398322275626,"333":0.08840902474067398,"334":0.1459428357906669,"335":0.19680600534790638,"336":-0.14232714176737926,"337":0.13985692193489052,"338":0.1466212247007069,"339":-0.03106709967657488,"340":-0.06761772551623851,"341":0.13113758380113263,"342":0.03767339729806395,"343":-0.14990902031157852,"344":-0.02428829788376844,"345":-0.12335320660835083,"346":0.17120384466561173,"347":0.06878311933407866,"348":0.025853213469150142,"349":-0.14543102312636516,"350":-0.017372227984224338,"351":0.047176167071734526,"352":0.013858121823905402,"353":0.08599358668544713,"354":-0.14606442564026662,"355":-0.19142844068155368,"356":0.17924064734526113,"357":0.171779346554669,"358":0.19033384304656778,"359":-0.12411480962061108,"360":-0.1657704758705605,"361":0.04637986141936744,"362":-0.11975759397089478,"363":0.05449733042562863,"364":0.09887127455905831,"365":0.14258158197729537,"366":0.05054980725949286,"367":-0.14544860517297542,"368":0.0408654641827023}},"7":{"bias":-0.24811750438873192,"weights":{"0":0.12626355577729848,"1":-0.09264014074524239,"2":0.1646608825043495,"3":0.19214136127479758,"4":0.1751845112629773,"5":0.1867518700892555,"6":-0.06785105048450449,"7":0.037112402519008235,"8":-0.0633740111132006,"9":-0.058964018222012936,"10":-0.11096342447522488,"11":-0.13657159868794863,"12":-0.13160093491668876,"13":0.07716803013446305,"14":0.07857873850441566,"15":0.1338533560631678,"16":0.18454356556713625,"17":-0.0526664040963665,"18":0.042200869965804515,"19":0.06203692578335712,"20":-0.08199531760285823,"21":-0.05349256797651831,"22":-0.08806811816228906,"23":-0.06721812506933318,"24":0.03524636649746138,"25":0.05543487326039565,"26":-0.09027725898912571,"27":0.17975003788645155,"28":-0.06327275265339004,"29":0.051254567412714565,"30":-0.034684988412071384,"31":-0.19695561304889522,"32":-0.01839433514180676,"33":-0.3010573352218504,"34":-0.1772866130234151,"35":-0.06374850449641441,"36":0.16492127108078813,"37":-0.03053028108330343,"38":0.06755784430173348,"39":-0.029781748063124235,"40":-0.05503600826382549,"41":0.006378502377855402,"42":0.12376418747060303,"43":0.008998735935421956,"44":0.08260608261090989,"45":0.1011497759554843,"46":-0.09024107220542808,"47":-0.06698515951574069,"48":0.01329526801028584,"49":-0.042010759124092745,"50":-0.03435117776896893,"51":0.07146824173822494,"52":-0.01857436665665745,"53":-0.05159057360066861,"54":-0.15031172309987528,"55":0.03228344382529476,"56":-0.12687049921502694,"57":-0.04921986018232051,"58":0.07618049972977871,"59":-0.07186346147793685,"60":0.08544833734689002,"61":-0.16708742977596064,"62":-0.04457822071124995,"63":0.05829149943787843,"64":-0.036461407371812214,"65":0.15978182920758774,"66":0.13208016034871578,"67":-0.08119926702699101,"68":-0.1797477118332872,"69":0.13014311356644725,"70":-0.0007925280928264948,"71":-0.17585535949909326,"72":-0.10811956560068668,"73":0.15760851282938704,"74":-0.1445573200286669,"75":0.03222600052846962,"76":0.18081129569647553,"77":-0.1799203938917612,"78":0.12554780259771178,"79":0.09511632919725362,"80":0.04625242154523331,"81":0.18306234268249844,"82":-0.11939523777575407,"83":0.015290831942024793,"84":0.050625817416686716,"85":0.1964989725336701,"86":-0.17583301677658156,"87":-0.10107533460431573,"88":0.025101512791187105,"89":0.0937628639553566,"90":0.14118670234812153,"91":-0.012578437755436902,"92":0.0002764566591840226,"93":0.1654538070954502,"94":0.1822839882843082,"95":0.19882373489364896,"96":0.08883121558312161,"97":0.00760330858563092,"98":0.019989447015633852,"99":-0.15450975051033203,"100":0.0762225614388272,"101":0.04720405919307217,"102":-0.03533402495108055,"103":-0.1171726852270985,"104":0.1495585222154554,"105":0.07718415105474397,"106":-0.013317245486223718,"107":0.13140451729904412,"108":-0.18189764145823326,"109":-0.03554119761955432,"110":-0.20613759970105625,"111":-0.216652599401194,"112":-0.017093542858811858,"113":-0.09546792600052438,"114":0.06997551819512143,"115":-0.04229971027504856,"116":0.12602619914583402,"117":-0.18228194947079257,"118":0.015591635405810142,"119":0.04781368278910277,"120":-0.21385065144670984,"121":-0.10243472840269316,"122":-0.06667728107890872,"123":0.08223478507492148,"124":0.12767774865788248,"125":-0.09376030344521404,"126":0.10720416389300512,"127":-0.06511805218161627,"128":0.048228223418242795,"129":-0.16850529575518391,"130":-0.08115169085596242,"131":-0.14187879081037397,"132":-0.015028614554828724,"133":-0.17526616574213866,"134":-0.11058351915369298,"135":0.16754469876328545,"136":0.0602204778196723,"137":-0.03042347217827864,"138":-0.06346097343819469,"139":-0.2007561671608075,"140":0.08943180256652461,"141":-0.016466108471337292,"142":0.107923625811461,"143":0.14992778831810444,"144":0.09469094832602046,"145":-0.08813126817095891,"146":-0.1771851683655131,"147":-0.18362929645353768,"148":-0.10060745753577444,"149":-0.07569002487360926,"150":0.1990646956822569,"151":0.13892002367095446,"152":0.07486972661982072,"153":-0.09878432925715472,"154":0.1724028909931522,"155":0.19909707857730105,"156":0.08244414587226838,"157":-0.00679648728064518,"158":0.0230280924307131,"159":0.17840003092235965,"160":-0.02141654414168362,"161":0.08230589238372972,"162":0.0995209924342998,"163":-0.05789622047668159,"164":-0.08926820728761448,"165":0.08506609487886076,"166":-0.17321168751229432,"167":-0.018785281061152397,"168":0.10812734259593829,"169":-0.11147154336217245,"170":0.17986619259211697,"171":0.09378404634686119,"172":-0.1344285421027284,"173":0.1086755524084206,"174":0.036339304839060886,"175":-0.09846913489462782,"176":-0.06426545682905595,"177":0.15652896507350875,"178":0.04055617913598907,"179":-0.11304117950292228,"180":-0.18221811697429785,"181":0.04397614861361509,"182":-0.16525235451149492,"183":-0.018065422080338372,"184":-0.09712172463949227,"185":0.18499634728504816,"186":0.06789519825232025,"187":0.15910165856236755,"188":-0.027777903420969557,"189":0.04465801480013012,"190":-0.014136588079212087,"191":-0.14825491164604437,"192":0.021693424568877212,"193":-0.17538658874932056,"194":-0.12428714649261512,"195":0.1883604986458325,"196":0.14640858435205822,"197":-0.15725790474511428,"198":0.19311088092347203,"199":0.15632850756146202,"200":0.18217053751942858,"201":-0.05181193974712977,"202":0.19429981832674653,"203":-0.12086703688136699,"204":-0.00019291726263566479,"205":0.1284279968636195,"206":0.09340711427866318,"207":-0.060910221262873716,"208":-0.18134716818713836,"209":0.20786704273158835,"210":-0.12397580039120237,"211":-0.16610501088069943,"212":-0.15823253614633617,"213":-0.04914882900713721,"214":0.03119138584531947,"215":0.204245011633053,"216":-0.05928120147109939,"217":0.017816724942025547,"218":0.16164539713567336,"219":-0.14707487812377043,"220":-0.06314357938423862,"221":0.1743066747840312,"222":-0.025324158872092745,"223":-0.17761873444155588,"224":-0.13115680129005158,"225":0.0339429634188616,"226":0.0036131733334961447,"227":0.09650349719554534,"228":0.11679308922813088,"229":0.16754967090233944,"230":0.016903875330961996,"231":-0.17659932983169607,"232":-0.07011218188355599,"233":0.1346766226815834,"234":-0.026743903967665475,"235":-0.05521389397107134,"236":0.11594265837530253,"237":0.149708000396106,"238":-0.021848197817496293,"239":0.18836022532251817,"240":0.09481733564017869,"241":-0.10837856853532962,"242":0.07692485556348339,"243":0.03405267101009036,"244":-0.1624903150043527,"245":0.09581504315213317,"246":0.10249100825556544,"247":-0.19610968239716473,"248":0.005006577638341871,"249":0.20479351055638392,"250":0.056178692250688146,"251":-0.08136292007780226,"252":0.0006297067930317796,"253":0.015238806508101558,"254":-0.1116120338620041,"255":0.12665654802456267,"256":0.18749718319771186,"257":0.1957758185800836,"258":-0.04135960594190537,"259":0.20858303653336446,"260":0.13037341799030105,"261":-0.18378321111894189,"262":-0.04793333646924082,"263":0.1067567591179252,"264":-0.020859298594466204,"265":0.0047184276599365445,"266":0.17635890886610647,"267":-0.11292717706083671,"268":0.08652710533085137,"269":0.03386415329828438,"270":-0.04798450985250369,"271":0.11573873431726585,"272":0.14663390822429542,"273":0.05420612582268444,"274":-0.15350326225207636,"275":0.11045141812632617,"276":-0.10920496066775484,"277":0.07261584387104485,"278":-0.2013832996158604,"279":0.04023479289314474,"280":0.11395763731304318,"281":0.0024003833739806254,"282":0.0006529500534086181,"283":-0.01328894275562794,"284":0.15321789908668798,"285":-0.12538059253446587,"286":-0.17347333427157033,"287":-0.10914815035599705,"288":-0.1354292025692314,"289":-0.020968880114050847,"290":-0.054332657248583126,"291":-0.10375491864418245,"292":0.09752319793171518,"293":-0.07855425845654646,"294":0.09163786311945851,"295":-0.09389960222133209,"296":-0.09051001360765781,"297":-0.06602097623166175,"298":0.022680816198460168,"299":0.009729575571791925,"300":-0.0946730065052387,"301":0.14225311224132708,"302":-0.07490602759454276,"303":-0.1408936081408651,"304":-0.11912858571125577,"305":0.01741866920873044,"306":0.06616344383290379,"307":0.0025252180211434968,"308":0.024630555794076157,"309":-0.05247189634344384,"310":0.13572828972416737,"311":-0.13785262314915905,"312":-0.055555802985026034,"313":0.050296480518331146,"314":0.16443600504814487,"315":-0.07884001472143165,"316":0.022452547817753042,"317":-0.0496209796173752,"318":-0.1688603332691848,"319":0.07237527364829975,"320":0.06590183863799913,"321":-0.1325933250446886,"322":0.11990353931696768,"323":0.015136820680220552,"324":0.09003029555711374,"325":-0.10995992410431242,"326":-0.012909969979113539,"327":0.14896877579930828,"328":-0.1277432942678546,"329":0.11799036443043735,"330":-0.08879606865384083,"331":-0.1998290000515846,"332":0.09950994099774933,"333":0.017993000971112602,"334":0.019984103761245924,"335":0.09358378161336578,"336":0.10984505505892875,"337":-0.032355463601451306,"338":0.05077816406114987,"339":-0.10829462560254786,"340":-0.11896349701111639,"341":-0.09154344831802232,"342":0.18910430652870244,"343":0.20990237333702913,"344":-0.14558503886017912,"345":-0.18297807028354912,"346":-0.10132531151362828,"347":0.127372298691752,"348":0.11061220177511719,"349":0.018529477148988963,"350":0.04573774689652533,"351":0.05453158124155592,"352":0.01165785937906257,"353":0.20409701590065482,"354":0.014295221242503197,"355":-0.13596554261671237,"356":0.039241308665899644,"357":0.14293155779201544,"358":-0.11802516204331509,"359":0.1064939705558119,"360":0.043268984783036084,"361":-0.08434294649040901,"362":-0.08653460865465032,"363":0.199573429351313,"364":0.0116146780161773,"365":-0.058628125112851204,"366":0.054292412003702224,"367":0.1386025275834155,"368":0.08236316826021715}},"8":{"bias":0.07200724133576987,"weights":{"0":0.0844118414712084,"1":0.031019398596417423,"2":0.039114933570096815,"3":-0.2786317845626409,"4":-0.08248627943517971,"5":-0.005404482177606028,"6":0.08140330852555723,"7":-0.14722156773975395,"8":0.03571427177473053,"9":-0.16135766695882486,"10":-0.20731146995733676,"11":0.09270782904575096,"12":0.14014898930212724,"13":-0.07394403410155603,"14":-0.07785238040574043,"15":-0.14108289185796058,"16":0.039213187451117404,"17":0.1190996657414409,"18":-0.023979652499368752,"19":-0.16384554991424563,"20":-0.11311426935749538,"21":-0.13999701265429756,"22":-0.04960473671284623,"23":-0.059159372394587816,"24":-0.07356725676636973,"25":0.11291139839022171,"26":0.13525353754073505,"27":0.1573858660842487,"28":0.019064645511145707,"29":0.144045294515262,"30":0.13471071537313373,"31":0.1139360162384593,"32":-0.003789399600439411,"33":0.06251231616320249,"34":0.1997454947188994,"35":-0.13756737237875716,"36":-0.15613448283778184,"37":-0.14568158736169323,"38":-0.2577674723612786,"39":-0.09863717542649537,"40":-0.13517211350526628,"41":-0.1332797304006351,"42":0.12239211214366738,"43":-0.1296762506662161,"44":0.032796348916282775,"45":0.09818568449376298,"46":0.06167951528846809,"47":0.04345729174028658,"48":-0.022428511684452476,"49":0.18218670516266067,"50":0.07884209308148675,"51":-0.0917304112484629,"52":0.08696741996040933,"53":0.058975080813471796,"54":-0.17396344998153185,"55":0.15282787333348227,"56":0.14631501612685327,"57":-0.11317098662458622,"58":0.07651875590994456,"59":0.15592672031100474,"60":-0.12688232060467514,"61":-0.1059549653697443,"62":0.04616143191927178,"63":-0.049500111896724826,"64":-0.15498783676938052,"65":0.048994073629997886,"66":0.2085309068682404,"67":0.2143007875224959,"68":-0.08661983536297747,"69":0.12048799858117906,"70":-0.057029807107894,"71":0.16424646303841606,"72":0.06921621523671509,"73":0.052626065055340225,"74":0.04596715575669275,"75":-0.052489172395381735,"76":0.17131644239759639,"77":-0.08346214816041342,"78":-0.03890008799273025,"79":0.1242029620103584,"80":0.07818578407880314,"81":0.011694763896671234,"82":0.06235700188980628,"83":0.039581843672235856,"84":-0.10811437649811592,"85":0.15386483130727566,"86":-0.12019268986749844,"87":0.07787700018680621,"88":-0.14567064035340255,"89":-0.1555063861453678,"90":0.1006403205048478,"91":0.20677196705673112,"92":0.11165458290450678,"93":0.12224591724720194,"94":0.061225282077595665,"95":0.07892416589604348,"96":-0.0910330829251653,"97":0.17882254889204094,"98":-0.15761392460773327,"99":-0.1304409614756987,"100":-0.0005802507626082096,"101":-0.07839497995204701,"102":0.043966928323753256,"103":0.11032508424008762,"104":0.17918304161209755,"105":-0.09870929528991433,"106":0.22422672503516328,"107":0.11110369376607099,"108":-0.03966649513260793,"109":0.08796894286048398,"110":0.11139774773285478,"111":0.1746131845133781,"112":0.14796449224431793,"113":-0.006275063291522176,"114":0.17595360689515788,"115":0.14015767373052992,"116":-0.05125403431034879,"117":0.16696912602609995,"118":0.11051335371818076,"119":-0.10209360995236727,"120":0.1492113145081763,"121":-0.08123621671593004,"122":-0.1432239351156921,"123":0.04106379094324972,"124":0.21213867130391661,"125":-0.06254381195103854,"126":0.16114967543925585,"127":0.07528228751384089,"128":-0.05642840134999268,"129":-0.15009182036921495,"130":-0.032343601837918214,"131":0.09122845522518291,"132":-0.16141314114707123,"133":0.17274698725557147,"134":-0.13801041199112557,"135":-0.013789254525082204,"136":0.136667010577251,"137":-0.01922214051096914,"138":-0.19872094972245544,"139":0.1038062883045817,"140":0.022447723739694617,"141":-0.18019289840468955,"142":0.12850865660381536,"143":-0.0687595199735464,"144":-0.13761588806148534,"145":-0.049359848811834875,"146":0.17306466600956086,"147":-0.0924763459585686,"148":0.06824215324250751,"149":-0.12480183772889676,"150":0.1948936546202283,"151":-0.0222243026585473,"152":0.009357377629259447,"153":0.014646916973433911,"154":-0.0819159969130415,"155":-0.1829315008062872,"156":-0.11227136909597524,"157":0.13176022085045339,"158":-0.11494917476794496,"159":-0.12917989418131617,"160":-0.1486083720464248,"161":0.18200959643579137,"162":-0.03341292020215874,"163":0.14852524974943096,"164":0.15050879626474087,"165":0.011685405151809524,"166":-0.14883278713282394,"167":0.14020522597712923,"168":-0.17580331706558297,"169":-0.035630731399040425,"170":-0.18205451006824033,"171":0.01199726599043265,"172":-0.15276376570801076,"173":-0.034512576143911365,"174":-0.031218471695148346,"175":-0.16008167964087625,"176":0.08323039720711373,"177":0.03204026224723228,"178":-0.04971011612427694,"179":0.1512838124270316,"180":-0.13653913513205132,"181":-0.18613729614065885,"182":-0.13361497978029516,"183":0.12255531080926253,"184":0.11290080777350599,"185":-0.09554018897419694,"186":0.04652575624400274,"187":0.09545582654238678,"188":-0.09985214233303429,"189":-0.19910130780807658,"190":0.22565459280792785,"191":0.030771057043706796,"192":-0.012695396106981581,"193":0.03524215826982461,"194":0.07575671646616734,"195":0.1499720170113922,"196":-0.03162374845620965,"197":0.12884444177868745,"198":0.05752597803701543,"199":-0.15281926287472125,"200":0.0892681506034853,"201":-0.04363674820518226,"202":0.16017232843121162,"203":-0.145334445944854,"204":-0.05154496044808637,"205":0.05019790737235504,"206":0.0508846414546585,"207":0.1483708712346201,"208":0.11484557198098963,"209":-0.03718201917863301,"210":-0.04172713797347291,"211":0.08274534023779044,"212":-0.04410951429597254,"213":0.14750828827754753,"214":0.04089633547712724,"215":-0.13914969773661237,"216":0.18134832718461727,"217":-0.010468432449948162,"218":0.024281772865859835,"219":-0.1548406270144844,"220":0.09879341827349374,"221":0.09538577254033463,"222":-0.158249640255548,"223":0.13715129768528936,"224":0.0875811887021437,"225":0.12717362126978776,"226":0.1187561648607076,"227":-0.04695715758098365,"228":-0.1764336887819907,"229":-0.11867475310583347,"230":-0.18360874758485388,"231":0.141747787088146,"232":0.10278908465906135,"233":-0.18386445636390197,"234":0.07705626934624478,"235":0.07250616329887123,"236":-0.18451078358375056,"237":-0.1433425541678946,"238":-0.12916137459737678,"239":0.18187709268271396,"240":-0.06208175602431705,"241":0.035314580351126,"242":-0.1029622990719582,"243":0.14936875331484745,"244":0.109850802728457,"245":0.12191869679386315,"246":0.03800504418717052,"247":-0.0808309565459063,"248":-0.036349187502594436,"249":-0.0944104698070117,"250":-0.03745089897288573,"251":0.1605821738857224,"252":-0.10823639097404701,"253":0.041925678567321274,"254":-0.07264056653036498,"255":0.033474717424694884,"256":-0.05025678058595541,"257":0.08860223548737153,"258":0.06297371953115206,"259":-0.061734424055175104,"260":0.16240740769636383,"261":0.07765833135614576,"262":-0.20537049185159273,"263":0.03735819135681891,"264":-0.1219040282546333,"265":-0.0014875052264546197,"266":0.1603145837955101,"267":-0.09485147731548155,"268":0.12641749884257392,"269":0.0437015055742559,"270":0.11946668704934103,"271":0.15842391801855107,"272":-0.12590437273753702,"273":-0.02550589291555029,"274":0.019386881336365496,"275":0.10009238544036653,"276":0.0683301113140311,"277":-0.10350770453920113,"278":0.13356700516658057,"279":0.16948949616963685,"280":-0.03335631748673545,"281":0.06743926001516311,"282":0.19268450638703208,"283":0.17322894742927844,"284":0.23197991830070672,"285":-0.16007161253385963,"286":0.11594392512384133,"287":-0.16951123919526936,"288":0.16388537334450512,"289":-0.043452135851875934,"290":0.027350945154847556,"291":0.07037770219345088,"292":0.24032465446926035,"293":0.10976951431270231,"294":0.03693645643731692,"295":-0.11939690721965457,"296":-0.07593591256456302,"297":-0.09519668412837883,"298":0.03493515877116778,"299":-0.11384518118054276,"300":0.10470550224335415,"301":-0.0338396795718641,"302":0.19685588318709119,"303":0.022647633099315556,"304":-0.15881912198024598,"305":0.17436447564873722,"306":0.11561989027567282,"307":0.18190107843176714,"308":0.13626018011035032,"309":0.08510617705487418,"310":0.056238679026841105,"311":-0.14248685676757603,"312":-0.05414306296424561,"313":-0.18965425340323336,"314":-0.14578765548661354,"315":0.048104407248850956,"316":0.14360442185825334,"317":-0.08597109795980909,"318":0.1283153075177125,"319":-0.07565652532104529,"320":0.043559504951293224,"321":0.0015591763626274934,"322":-0.06019054032181989,"323":0.09180459864883166,"324":-0.07887817346496212,"325":0.18723169853183566,"326":0.0827043137158656,"327":0.1253419050501762,"328":-0.186396993805878,"329":-0.0007509679335942284,"330":-0.03774221628872194,"331":0.06360763895908124,"332":0.06295251831776032,"333":-0.14411617855258635,"334":-0.01541743029278236,"335":0.04307887251115713,"336":0.005905572391051497,"337":-0.12290883880674505,"338":-0.09918270183343092,"339":-0.038558574947203376,"340":0.08401780156465088,"341":-0.010245717410115625,"342":-0.0045321157989163885,"343":0.08384789147396648,"344":0.017275999818141093,"345":0.1796944875600365,"346":-0.18925150641072744,"347":-0.1874062204737523,"348":-0.012706174707735083,"349":-0.02432777170809879,"350":-0.11156845698010787,"351":0.19249860960474383,"352":-0.08306932497266445,"353":0.0911186688725998,"354":-0.01609776122339522,"355":0.16694271049382953,"356":-0.14337490277008913,"357":-0.10428364258469035,"358":0.005244500986885376,"359":-0.12907982790600261,"360":-0.14858774557772983,"361":0.01807962843654006,"362":-0.007927440785550322,"363":-0.06557751447326009,"364":-0.030514356116432904,"365":0.19998007086816855,"366":0.09895095405093754,"367":0.024899896849117607,"368":0.1769556942591493}},"9":{"bias":-0.030716188326592418,"weights":{"0":-0.3088563319917031,"1":0.09089314388040794,"2":0.004309384052185797,"3":0.30927433408532545,"4":0.25313291786389575,"5":-0.07729399844509793,"6":0.012535472316893939,"7":-0.04181886502915334,"8":0.01728409032047986,"9":0.06766997564550246,"10":0.15327519763888606,"11":0.08308835023830004,"12":0.04872365866512124,"13":0.22879967721223127,"14":-0.08406509652365186,"15":0.007618869515303474,"16":0.20778744328016466,"17":-0.12236798392420194,"18":0.15282508791019447,"19":0.18031769177956483,"20":-0.035416501822501986,"21":-0.010148511410874946,"22":0.04882278931812984,"23":0.135689974023068,"24":0.013362880124105286,"25":-0.13535137319526536,"26":0.10625501757629754,"27":0.15982456557297442,"28":0.1606746224120674,"29":-0.19298422840346427,"30":0.08394623181733732,"31":-0.14248981560825136,"32":0.027549292799309507,"33":-0.16925033485256408,"34":-0.029073590768518905,"35":0.14184482307692053,"36":0.2135814522436493,"37":-0.08043198729023035,"38":0.0028360718778442768,"39":-0.003917780505894865,"40":0.09346839078825407,"41":-0.15917745599455885,"42":-0.10362182754839491,"43":0.15151245939365723,"44":-0.10661052895859671,"45":0.11717626858563586,"46":0.056843281506571086,"47":-0.14375019507385434,"48":0.057595641502561634,"49":0.05934130067428652,"50":-0.039837887171904625,"51":-0.15149440132975803,"52":-0.25798538728680015,"53":0.13120991129524773,"54":-0.10467462521604863,"55":-0.12600623787188164,"56":0.033821569255952394,"57":-0.07056862367039624,"58":-0.25202928763348437,"59":-0.12143541034382858,"60":0.11970588726227581,"61":0.04522685946528653,"62":-0.013137642718917507,"63":-0.20417624083919694,"64":0.2503152432717932,"65":0.14580082271406428,"66":-0.05710820583942121,"67":-0.09643641019202101,"68":-0.14538795209469488,"69":0.02037238055447197,"70":-0.11171044863235134,"71":0.037016345317127934,"72":-0.12431602730289998,"73":0.20399037095793368,"74":0.14775204876906556,"75":0.10971314688495157,"76":0.03802783343170525,"77":0.0593477188353439,"78":0.16677733658904215,"79":0.02426391754831591,"80":0.036765108991705084,"81":0.025740162959921212,"82":-0.05236899856230489,"83":-0.1314509177821022,"84":0.21403972131269824,"85":0.13040055755311145,"86":0.017695238992794037,"87":0.17825491842398777,"88":-0.04675359335279543,"89":-0.08267075603252917,"90":-0.09691143282633319,"91":0.1725221123652863,"92":-0.11382693267344435,"93":0.027338453201692803,"94":-0.16105512488153467,"95":0.1351976060425381,"96":0.016002830766879736,"97":-0.10472991985636704,"98":-0.13216937376286514,"99":0.03175068794318639,"100":0.03801128371867906,"101":-0.058941999845445986,"102":-0.008981600609240047,"103":-0.028803105997262234,"104":-0.043859738751872185,"105":-0.02816541968451138,"106":-0.05019681039577087,"107":-0.024683024041304995,"108":0.1518366712289363,"109":0.05531438130895968,"110":0.0659215645310179,"111":-0.11922645024188272,"112":-0.08815501403293809,"113":-0.03057193619897548,"114":-0.07030187068546369,"115":0.04740296782899445,"116":0.13893977205719915,"117":-0.05229492226047305,"118":-0.10360331510441562,"119":-0.17901424481508957,"120":0.01580196686733912,"121":0.1960561923750433,"122":0.024250798458313513,"123":0.10078987639587642,"124":0.16550283501164717,"125":0.13145389030301055,"126":-0.10114943862480376,"127":0.0381986158031232,"128":-0.139270237420499,"129":0.012233257567615702,"130":-0.06950031214580588,"131":0.07992328690498188,"132":-0.1472919616255529,"133":-0.0633718869501876,"134":0.06421783606431514,"135":-0.07328399737078689,"136":-0.148647279826749,"137":0.020345964562290993,"138":-0.13192044823096172,"139":0.07839767494374869,"140":-0.025642120136032228,"141":0.16059805481635078,"142":0.15563141034093084,"143":-0.13726795586604687,"144":0.14444282373478975,"145":0.19950822075457536,"146":-0.3330521937826074,"147":-0.09184591633845524,"148":-0.08411346663143437,"149":-0.07390962740524212,"150":0.08999390662683147,"151":-0.11146161712956425,"152":0.15505820490766617,"153":0.12566804189786673,"154":-0.2447672273522337,"155":-0.0619743657418742,"156":0.01482486449444814,"157":0.1866812323372402,"158":0.0024673268536525394,"159":0.08968116032929081,"160":-0.17780155309927387,"161":-0.08313520589314045,"162":0.07129033098129554,"163":-0.08891893784312999,"164":-0.04308042792978026,"165":-0.010895589499083905,"166":-0.05173876341997931,"167":0.15190224291951196,"168":0.07363446204104837,"169":0.0741908398435947,"170":-0.10376587845750734,"171":-0.02371513199298309,"172":-0.038936214623072174,"173":-0.02632154491667938,"174":0.08413806931899036,"175":0.030427348986651895,"176":0.005857078286736821,"177":0.07958501673701435,"178":-0.17399237315854055,"179":0.2175895625086861,"180":-0.0598709208228375,"181":0.048126501421946924,"182":-0.11804504531737384,"183":-0.15043527669433523,"184":0.07671195975962614,"185":-0.18147774710925885,"186":-0.10135220241325452,"187":0.030329621135387452,"188":-0.020742618628674048,"189":-0.016605876061353164,"190":-0.32596964405207385,"191":0.1452478789400935,"192":-0.10185854271620437,"193":0.1251612738073636,"194":0.12680971096102728,"195":0.13699426371558082,"196":-0.06315718310592104,"197":0.07341501840711934,"198":-0.02834667237796243,"199":-0.06135457464324666,"200":-0.12118527127453528,"201":-0.15784638177552632,"202":-0.025973627437596597,"203":-0.056867740592469754,"204":0.0582829876145137,"205":-0.051393905407796245,"206":0.04134231299720062,"207":0.119529286938426,"208":-0.19893918105312872,"209":-0.1518291126136305,"210":-0.08967857456940583,"211":0.06582697724760114,"212":-0.07844623688073045,"213":0.0689383478129945,"214":-0.08343322828652479,"215":-0.1750423392117859,"216":-0.1885618759430278,"217":-0.1949789368929783,"218":0.1932293527097072,"219":-0.07783680423820487,"220":-0.13312619779692395,"221":0.042426846575025566,"222":0.08174171795093596,"223":0.05166158354768207,"224":0.055922502655467325,"225":0.028276955362548057,"226":-0.0975313738450993,"227":-0.1199958086278467,"228":-0.06252651862566218,"229":-0.17252821210493932,"230":0.0994120725636901,"231":0.02929512971252989,"232":0.18872304530305703,"233":-0.06555015079208674,"234":0.027329132024228438,"235":-0.19406079015136918,"236":-0.11570891261931772,"237":0.10500757748677222,"238":0.19743693154648184,"239":-0.012902605285248236,"240":-0.11713947297352825,"241":0.1847185310771241,"242":-0.061303011593992596,"243":-0.10949025506537463,"244":-0.1454702250298356,"245":-0.09225194907698414,"246":0.05198028082227798,"247":-0.12981976649350754,"248":0.19177018269227236,"249":-0.027544690555269095,"250":0.08266116975700075,"251":0.056337454106785305,"252":-0.1826374004615504,"253":0.10896806398946395,"254":-0.10414310644335804,"255":0.15627047632211027,"256":-0.1192448058963645,"257":-0.0160387475857907,"258":-0.10147059056546444,"259":0.009384602448061758,"260":0.006765522801494275,"261":0.035934970117047695,"262":-0.03210350086769803,"263":0.03556069145552959,"264":0.1121074745708885,"265":0.013139588052650787,"266":-0.20041462035786822,"267":-0.280491231993774,"268":0.08815560131482064,"269":0.08600911762078359,"270":0.13500090221365435,"271":-0.056270325985174306,"272":0.02428655897736454,"273":0.005242233542694324,"274":-0.2089365077289664,"275":-0.21632805476185132,"276":-0.002367179145673569,"277":-0.12974461837866275,"278":0.028546619999920152,"279":-0.048893232793220665,"280":-0.07755915779149429,"281":-0.1738621724021831,"282":-0.21442084925531002,"283":-0.1825644964621957,"284":-0.08800309102064786,"285":0.0021610759556949526,"286":-0.16073865666312215,"287":0.16687051212318377,"288":-0.06351786958202613,"289":-0.027640466071587433,"290":0.04499859735167094,"291":0.1392408403742729,"292":-0.13777408566549895,"293":0.016121358806793194,"294":-0.10713944435000049,"295":-0.17315746221145747,"296":-0.11331427530748002,"297":-0.0013442458974910587,"298":0.0016749599836249193,"299":0.13175083846459396,"300":0.1635741136973309,"301":0.0430190638193052,"302":-0.0784542704330154,"303":-0.11906625572199582,"304":-0.05932952806022214,"305":0.1807694076718544,"306":0.09923030500848064,"307":0.18890317003885698,"308":0.20761898373733464,"309":-0.09129967004076156,"310":0.16614412594364814,"311":-0.1332803916718085,"312":-0.18739212925375545,"313":0.0512463531400208,"314":0.033316187198499894,"315":0.15749251076834495,"316":0.159743461967314,"317":-0.10146328077374839,"318":0.0729860570233855,"319":-0.1540999720837597,"320":0.19864359956203848,"321":-0.016149651293150886,"322":0.09465357830096502,"323":-0.08090434580125463,"324":-0.11827410373965652,"325":0.014842321661320504,"326":0.1543297504198383,"327":-0.138312524237345,"328":-0.14279272576898214,"329":-0.03457888412257001,"330":-0.17640366995240378,"331":-0.18326431068369933,"332":-0.031084355545783048,"333":-0.015838969499419254,"334":-0.24893303608889106,"335":0.09833994670625884,"336":-0.07591390987760815,"337":0.11804675149836483,"338":0.019130948654659488,"339":-0.2017909576331945,"340":-0.14677078972858318,"341":-0.02259465855719288,"342":0.052998509401867885,"343":-0.0889736708121836,"344":0.011485755972950387,"345":0.16607287255656653,"346":-0.0690236037726679,"347":-0.08890109603856353,"348":0.014002741560562955,"349":0.01640258050967521,"350":0.14771907109646962,"351":-0.08410738942822225,"352":0.048734089658263834,"353":0.17675120427942312,"354":-0.07370958749733172,"355":0.04529900045511267,"356":0.08640240010197552,"357":0.034336682568133596,