{"layers":[{"0":{},"1":{},"2":{},"3":{},"4":{},"5":{},"6":{},"7":{},"8":{},"9":{},"10":{},"11":{},"12":{},"13":{},"14":{},"15":{},"16":{},"17":{},"18":{},"19":{},"20":{},"21":{},"22":{},"23":{},"24":{},"25":{},"26":{},"27":{},"28":{},"29":{},"30":{},"31":{},"32":{},"33":{},"34":{},"35":{},"36":{},"37":{},"38":{},"39":{},"40":{},"41":{},"42":{},"43":{},"44":{},"45":{},"46":{},"47":{},"48":{},"49":{},"50":{},"51":{},"52":{},"53":{},"54":{},"55":{},"56":{},"57":{},"58":{},"59":{},"60":{},"61":{},"62":{},"63":{},"64":{},"65":{},"66":{},"67":{},"68":{},"69":{},"70":{},"71":{},"72":{},"73":{},"74":{},"75":{},"76":{},"77":{},"78":{},"79":{},"80":{},"81":{},"82":{},"83":{},"84":{},"85":{},"86":{},"87":{},"88":{},"89":{},"90":{},"91":{},"92":{},"93":{}},{"0":{"bias":-0.009273600060759328,"weights":{"0":0.050152612935573375,"1":0.24231836510404428,"2":0.12380707458389134,"3":0.2368562089563633,"4":-0.02508278914393671,"5":0.2651574275866805,"6":-0.02396586313727178,"7":0.16981941162108438,"8":0.08670053539929184,"9":0.044699518649709634,"10":-0.02017697428385323,"11":0.28579062674373445,"12":0.13133454331192335,"13":0.25425401207947534,"14":-0.028383163661473355,"15":0.20115142187332408,"16":0.10199377625572396,"17":-0.11915837671408473,"18":0.10303761448457609,"19":-0.1941351911023509,"20":-0.050373242035697215,"21":0.21587139243226486,"22":-0.09223940340197234,"23":-0.17754960801086977,"24":-0.17999772852938933,"25":0.08773646562346728,"26":-0.0593404333312425,"27":-0.1860288479840314,"28":-0.20193631216661495,"29":-0.11410526363053095,"30":-0.059855167674106605,"31":-0.12005053258239788,"32":-0.35309538894760195,"33":-0.29230063945728196,"34":-0.05918283079301557,"35":-0.05777035718645378,"36":-0.07456215296087217,"37":-0.11412429181686329,"38":-0.2885282141533653,"39":-0.11537476550459279,"40":-0.2989631120310027,"41":-0.08705313157925793,"42":0.07222592929573597,"43":0.13016988622861284,"44":0.1772286615862775,"45":0.14921643313779667,"46":-0.1414797727915806,"47":0.08463853999454178,"48":-0.17766661142000137,"49":0.09689478556913902,"50":-0.0998395860343922,"51":-0.08735474065350995,"52":-0.08393229651525191,"53":0.22678044962747226,"54":0.17426030008676288,"55":-0.12801659556830852,"56":-0.06383702910340701,"57":0.015820411152891553,"58":0.157094043355451,"59":0.009531895830327616,"60":0.13797531731018065,"61":-0.022603384826519985,"62":-0.006637172050526351,"63":0.07550928672076467,"64":0.010918512889139318,"65":0.007172098532120455,"66":-0.02576562563298037,"67":-0.08686325349682435,"68":0.11568028853310221,"69":0.06948055337762242,"70":0.04251961594672135,"71":-0.1639717796027902,"72":-0.1252259254361481,"73":0.17559537211965565,"74":0.1547027849359146,"75":-0.027775759655553227,"76":-0.1739397576103045,"77":-0.10577629423712989,"78":-0.17506132416161607,"79":0.12057846534399363,"80":0.09100282774388638,"81":0.09521277597753568,"82":-0.2692587667334265,"83":-0.10323334830503869,"84":-0.02457125762900011,"85":0.02794325542222257,"86":-0.13024347682272241,"87":-0.2696453122727311,"88":-0.19027231397772504,"89":0.0051184379285123295,"90":0.09190304215671878,"91":-0.1240903486963411,"92":-0.1938895086139251,"93":-0.09597350136372143}},"1":{"bias":-0.17344082083172058,"weights":{"0":-0.587275417948059,"1":0.21828992201943392,"2":0.1667952509186854,"3":0.1550101119848304,"4":0.011081275199462155,"5":0.27435875797626486,"6":0.3858992095694362,"7":0.08805066486191035,"8":0.09837514044553085,"9":0.1876057592643421,"10":0.0533582186367026,"11":0.06985352033310653,"12":-0.15028888073121588,"13":0.2877327751313069,"14":0.09944319010497313,"15":-0.027843604849060618,"16":0.122451971849082,"17":0.01842794635769235,"18":0.11156539537895137,"19":-0.11892459094706954,"20":-0.007324497636672678,"21":0.25960874292288855,"22":0.025877697439556487,"23":0.1841667269118874,"24":-0.08063424177536929,"25":-0.14571682090342253,"26":0.27207186262826527,"27":0.04840713255687904,"28":-0.023897533056570223,"29":0.14609656982449498,"30":0.24879489107835032,"31":0.11278834520765751,"32":0.2640077278199619,"33":-0.054259531120135436,"34":0.06357035768348808,"35":-0.03259948700767041,"36":0.09713040966752129,"37":-0.06201721451178678,"38":-0.10403762825773166,"39":0.22806155515502274,"40":-0.0610961611575563,"41":-0.007822925051156355,"42":0.1778883162477556,"43":0.20758408016581179,"44":0.003482361113965235,"45":0.2618503705163874,"46":0.1982553952061084,"47":0.2337634359430749,"48":0.3198733393065602,"49":0.291202667496026,"50":0.2244520819538288,"51":0.2285382024460578,"52":0.24925230879951676,"53":0.029404865349782264,"54":-0.09017546660534893,"55":0.0894410387790623,"56":0.08234061469740307,"57":0.08865072183798994,"58":-0.04713404864744377,"59":-0.04579505861511391,"60":-0.047521204450967997,"61":0.19215906986105058,"62":-0.09145676691849487,"63":0.09554528246833234,"64":-0.14666781487569425,"65":0.09368407356399484,"66":-0.19269147836781417,"67":-0.08631319278790801,"68":0.20689494809879677,"69":0.16995948322147614,"70":0.20933380362280446,"71":-0.017805547706576285,"72":-0.03090420440476734,"73":0.16123083743125133,"74":-0.050586900206335536,"75":0.19488284277216794,"76":-0.1628908439214137,"77":-0.04737679242741662,"78":-0.08210010244691553,"79":-0.13213220693886038,"80":-0.2533624005484321,"81":-0.17080675251710836,"82":-0.21935254683841182,"83":-0.2498994660430362,"84":-0.20813541707527022,"85":-0.2515366310217589,"86":0.012701540272779314,"87":-0.11195741467551687,"88":-0.17399917582519064,"89":-0.24764485781094142,"90":-0.16752767200469482,"91":-0.0816628882676642,"92":-0.27210624715375026,"93":-0.2528942064084713}},"2":{"bias":-0.03783067213009569,"weights":{"0":0.5141753732311263,"1":0.04108580129438987,"2":-0.2180501464993946,"3":0.009084608135637443,"4":0.07466578892428775,"5":-0.023299842943223528,"6":-0.11547742281055502,"7":-0.11718676240366606,"8":0.12938788342551302,"9":-0.19908940172455433,"10":-0.12581658954277078,"11":0.054427011649020036,"12":-0.13817018881988224,"13":-0.2505079751305504,"14":0.030469268804454365,"15":0.1513908066249202,"16":-0.040614322720439126,"17":-0.1481309709384027,"18":-0.10581168075442697,"19":0.001399716984367756,"20":-0.14795290412724627,"21":0.17680308135299064,"22":-0.06636923165968561,"23":0.1507773153713338,"24":-0.15694334769705562,"25":-0.16879591273712466,"26":-0.07687518125312039,"27":0.022679414222201384,"28":-0.1721927610361295,"29":0.23548280845313183,"30":0.06477375421964358,"31":0.05511033194868261,"32":-0.203818734894464,"33":-0.2907930668245094,"34":-0.03173133927919165,"35":-0.2624957970501353,"36":-0.0013115217533091021,"37":-0.20346246583896704,"38":-0.058239246456916145,"39":-0.1718090682867912,"40":-0.16223475984529476,"41":-0.25082413351671196,"42":-0.21159184978569506,"43":0.05998076962957527,"44":0.28465082489905286,"45":0.2514455669979696,"46":0.18866355266645593,"47":0.1028072820869516,"48":0.08719286216721384,"49":0.24481944618492238,"50":0.23720981697417248,"51":0.3261136705234701,"52":0.1859053181164898,"53":-0.13188382817266261,"54":-0.3265186638118742,"55":-0.1694220408725669,"56":-0.060040121362549534,"57":-0.18956789640244365,"58":-0.10159392554947527,"59":-0.3518336594209835,"60":-0.2089482590983044,"61":-0.13616678902974136,"62":-0.09206212025963639,"63":0.021446898987701243,"64":-0.30821120720697154,"65":-0.1945370836369896,"66":-0.17901464476909645,"67":-0.1653812366971036,"68":-0.2253674348569541,"69":-0.059988904139494585,"70":-0.1888266083618881,"71":-0.19434197863968855,"72":-0.2348126966400136,"73":-0.11699599163171387,"74":-0.05074856368576221,"75":-0.024412879053450177,"76":-0.09456170924762683,"77":0.010423967943774232,"78":0.17505726312208536,"79":0.09278830841813836,"80":-0.15607789076152787,"81":0.053155475459889974,"82":-0.05294644510787398,"83":-0.09699197807015954,"84":0.014598375442107226,"85":-0.15039149329192872,"86":-0.17217501077838335,"87":0.135137029114944,"88":-0.13044236283873883,"89":0.12163316533482343,"90":-0.19746740251212766,"91":0.11138479467817176,"92":-0.1565187840013421,"93":-0.09573484372522637}},"3":{"bias":0.09914028103406039,"weights":{"0":-0.021847013041613992,"1":-0.26051793446577576,"2":-0.22093807027162507,"3":-0.2844184800210159,"4":-0.12457947723389656,"5":-0.22699490883315823,"6":-0.22204098884589996,"7":0.0003081275037490156,"8":-0.04519367271590539,"9":-0.22431834133021464,"10":-0.08571127342694697,"11":-0.15132192250450985,"12":-0.5490407879562703,"13":-0.03257980225293223,"14":-0.12752868445138868,"15":-0.17577058887222982,"16":0.033819649483062694,"17":-0.011793684532683424,"18":0.0739781561734357,"19":0.07990797730582413,"20":0.06848197716627323,"21":0.05526157312035615,"22":0.0035183161470660855,"23":-0.10318025546172922,"24":-0.16239559937821263,"25":-0.16309132726587644,"26":0.14176109484727326,"27":0.1333621746237113,"28":0.09303899579075116,"29":0.3510887453434605,"30":-0.04907640664545885,"31":0.16095163303934484,"32":0.1605454341162863,"33":-0.056113132106066964,"34":0.2317179292874299,"35":0.05009575331623386,"36":0.19585307345395853,"37":0.008811974054456375,"38":0.1368981370575492,"39":-0.010142035538876288,"40":-0.015040042930714256,"41":0.18129008450183573,"42":-0.03964852532650084,"43":0.18014419682323973,"44":0.19220002048720997,"45":0.2507744885701807,"46":0.09009635779605157,"47":0.18509330795936316,"48":-0.028959399833442177,"49":0.31363652610813436,"50":0.199074695181533,"51":0.01343291333089016,"52":0.2003985409575542,"53":-0.002911112606475882,"54":-0.07573330635485559,"55":0.18057245823026702,"56":-0.11247349375078344,"57":-0.0029798149046815258,"58":0.08919243736570467,"59":-0.19321870676837202,"60":-0.12558961745535605,"61":-0.2503083172311694,"62":-0.07554123758590932,"63":-0.12662060331513764,"64":-0.1116715602190378,"65":0.09074181549242233,"66":0.11533386470046736,"67":-0.038910452370567915,"68":0.029557074734426862,"69":0.022526706776039292,"70":0.01806928599975147,"71":-0.1703933763553526,"72":-0.13920089806071537,"73":0.07563236564365856,"74":0.07726831594111779,"75":0.04734466377785102,"76":-0.17144518193589298,"77":-0.0364587171134265,"78":0.15113429552179813,"79":-0.2119103670856761,"80":-0.21042627081589502,"81":0.03245859545644979,"82":-0.23064086549354032,"83":-0.233637916760577,"84":-0.11861355112363461,"85":-0.12089823880551848,"86":0.04767741680958252,"87":-0.07203125832046606,"88":0.10691351666040518,"89":-0.035304683620024105,"90":0.1129128266742492,"91":-0.08323988526265562,"92":-0.1847880625976087,"93":-0.0033054718551966053}},"4":{"bias":-0.046196960957356904,"weights":{"0":0.22112009169335844,"1":0.21485358908703403,"2":0.009925476244476594,"3":0.2703247321720561,"4":0.18232508645409623,"5":0.3420470544683887,"6":0.08328747031285845,"7":0.042542167195253944,"8":0.20413889194831464,"9":0.3166504111170602,"10":-0.047372074869322496,"11":0.06385671201515397,"12":0.09794455618721093,"13":0.21506742239320648,"14":-0.07840091638641254,"15":0.02064306975204853,"16":0.053925567494225043,"17":0.21591589673974515,"18":0.10153329707626461,"19":0.03661576865852531,"20":0.20685482908760902,"21":-0.04824374832484323,"22":0.03166398875526023,"23":0.08237199956241134,"24":-0.12638024165811299,"25":-0.002934443294234112,"26":-0.04174544479228924,"27":-0.027427800279385538,"28":-0.21833077657860026,"29":-0.49234958683431906,"30":-0.23719067245925313,"31":0.06544036213150473,"32":0.24986799169887397,"33":-0.025143718010906764,"34":-0.004605205687060813,"35":0.05336524039573428,"36":0.1729896847906197,"37":0.1267979828761039,"38":0.01912817177210943,"39":-0.13259932628952278,"40":-0.1549280640729999,"41":0.0692445232709338,"42":0.0753105651498296,"43":-0.057436745763456816,"44":-0.23279871012590625,"45":-0.20974357195550294,"46":-0.28264876939075884,"47":-0.0024919694027053267,"48":-0.33824770064791154,"49":-0.13526497028466636,"50":-0.11462908608853725,"51":-0.3064941032479068,"52":-0.3035572018458581,"53":-0.319057318510082,"54":0.04719243788108744,"55":-0.2528693122327937,"56":-0.1812772361062582,"57":-0.15257350746450823,"58":-0.028325984539298094,"59":0.0028617665253354895,"60":-0.04197337295611256,"61":-0.13141723469980174,"62":0.07311357687190381,"63":-0.00005631165393882553,"64":-0.057163167996757684,"65":0.16583957443560443,"66":0.0921311431004454,"67":0.03227406820192113,"68":0.158062394511507,"69":-0.0305765308726371,"70":0.15723509739356745,"71":-0.20967326057645305,"72":-0.21180149465730722,"73":0.05772174023947639,"74":-0.036910134698849996,"75":0.03477586268569541,"76":-0.08840004595361207,"77":-0.06016751011338453,"78":-0.1941544796567259,"79":0.09181366825216317,"80":-0.004772203587887976,"81":-0.11652331736087151,"82":-0.22409085383817978,"83":-0.032265422353625964,"84":0.07632066633149419,"85":-0.059760846514112335,"86":-0.24848506719082905,"87":0.10936714831337856,"88":-0.011480180666147935,"89":-0.15336480081273,"90":-0.12177526145537253,"91":0.01612160441266387,"92":-0.003648937911517908,"93":-0.24839808825041648}},"5":{"bias":0.016554411784281204,"weights":{"0":0.6930481503296205,"1":-0.44916034071308747,"2":0.004426872024192519,"3":-0.46861177253089376,"4":-0.11307004374743591,"5":-0.31525505106111495,"6":-0.4716029971317462,"7":-0.11531115681576855,"8":-0.32571826478733507,"9":-0.21083620948527845,"10":-0.32456861145918225,"11":-0.3990556435022966,"12":-0.2574015782620102,"13":-0.41427745714853015,"14":0.06496964572165911,"15":-0.12109685183708324,"16":-0.2537099330927751,"17":-0.09754863391340737,"18":-0.144559763882018,"19":0.33984011015267074,"20":0.08277096645584277,"21":-0.08511066019376567,"22":0.22477295977272027,"23":-0.016036035981420744,"24":-0.054433150606122166,"25":0.03262023911304751,"26":-0.2112593870020911,"27":-0.10061947676778141,"28":0.14020697004761645,"29":0.1728781849271119,"30":-0.09060373913570918,"31":0.1997715458588401,"32":0.10460841274606235,"33":0.16279635866310677,"34":0.18658176329614762,"35":-0.112571464093742,"36":-0.12941121853059773,"37":0.30924865081899783,"38":0.2409565763711053,"39":0.2508282459387254,"40":0.19278249936385444,"41":0.11524846419499138,"42":0.14687876459667956,"43":0.07352530542578395,"44":-0.22531937185736778,"45":0.07391711938748409,"46":-0.06863102201555384,"47":-0.17654632187547625,"48":0.24857590104361557,"49":-0.1036541079062417,"50":0.16554887629738782,"51":0.12444914990199189,"52":-0.07681575218011404,"53":0.013078500224274281,"54":-0.055249017767678224,"55":0.017075985865716757,"56":-0.09072885881368513,"57":-0.12124949506186081,"58":0.03558857918761843,"59":0.1617736993345065,"60":0.16496230169570927,"61":0.07339219655421285,"62":-0.04360491908597782,"63":-0.1421756862526625,"64":0.08132773236716224,"65":0.03309382825425379,"66":0.03190533882164694,"67":-0.14181685440450545,"68":-0.17608510014971848,"69":-0.050174775738194115,"70":-0.008525746429732356,"71":0.06555751512127604,"72":0.11085743363883223,"73":0.06317566835797929,"74":0.0036056750356061136,"75":-0.09889536133047135,"76":-0.04230476593299546,"77":0.17830986041356453,"78":-0.10348843914245691,"79":0.02893018034813374,"80":0.07449326328361909,"81":0.16711712574635948,"82":0.2971017323337822,"83":0.2305156002335206,"84":0.046352543924068686,"85":0.14012083917416696,"86":0.15510190596031764,"87":0.01199878201043839,"88":0.21303638289821425,"89":0.044124962915230465,"90":0.1287386299720311,"91":-0.055896858182956796,"92":0.15740837521723022,"93":0.2791190484649962}},"6":{"bias":-0.14418886781605386,"weights":{"0":0.052998766017888076,"1":-0.32551046425356256,"2":0.08475262874259995,"3":-0.25800723587615254,"4":0.007393578998857471,"5":-0.03855049877661549,"6":-0.04925460417299014,"7":-0.1755419730593493,"8":0.020062583131507945,"9":-0.22619191682596027,"10":-0.1473145693242658,"11":-0.059229013293612756,"12":0.09973833953064802,"13":-0.2642652995738298,"14":0.15601616380109773,"15":-0.12526260074038487,"16":0.0685143845561741,"17":0.15896748440169772,"18":-0.22770449782870245,"19":0.33571328310861526,"20":0.08618374685598292,"21":-0.14891988056816718,"22":0.13438931397980167,"23":-0.025922587503720035,"24":-0.1649814136636483,"25":-0.14429456517355624,"26":-0.07720194188745985,"27":0.013065716066048769,"28":0.30218167696720505,"29":0.29641132519950214,"30":0.007819188583010134,"31":-0.11303432412250489,"32":0.14735565773361486,"33":0.22110480902787216,"34":-0.08059771068704086,"35":-0.10379045296776856,"36":-0.019309524214074447,"37":0.29044577746161315,"38":-0.012899477152654378,"39":-0.05594507025013978,"40":0.19096333852268912,"41":0.26688402701189745,"42":0.15013853390966567,"43":0.047893476254350136,"44":-0.07797714757705385,"45":0.12949927687305396,"46":-0.06614572032342952,"47":0.0009896755488469958,"48":0.3317375660516929,"49":0.008686324245367999,"50":0.3128914998251314,"51":0.006640847622375111,"52":0.1815224021152249,"53":0.03345477252053045,"54":-0.02276803541289604,"55":0.13562233687811323,"56":0.15519771448575684,"57":-0.043115954924177705,"58":-0.18849281961660067,"59":0.11631317563447956,"60":-0.16166688859372141,"61":-0.1949022364538926,"62":-0.02191934126434392,"63":-0.16993409448392097,"64":0.05826147481987636,"65":-0.04615424680287989,"66":-0.012944964562135631,"67":-0.08846696440041749,"68":-0.15513515828610666,"69":0.16059500793707385,"70":-0.16949340297259863,"71":-0.17761437034780195,"72":-0.08537709621053902,"73":0.1613731529730428,"74":0.04513826402677921,"75":-0.21022074377787228,"76":0.2942003240591454,"77":0.0055349948467297815,"78":0.12178704568579266,"79":0.12764317773941816,"80":0.1150249785450046,"81":0.25336896801339487,"82":-0.016910980684268512,"83":-0.03515736926772582,"84":0.2132914842319094,"85":0.15274425215164353,"86":0.16831139024409364,"87":0.017595387633671696,"88":-0.09346851543577922,"89":0.19126576104527648,"90":-0.008078899299916703,"91":0.045971983579079154,"92":0.22175528146894152,"93":0.14567432136298678}},"7":{"bias":-0.02606283070968806,"weights":{"0":-0.2785224706668306,"1":0.09512749144618927,"2":0.2407659610323378,"3":0.3696244481372352,"4":-0.041047542513302365,"5":0.3006487024186205,"6":0.32435405043303833,"7":-0.004553978365484391,"8":0.10311935670452407,"9":0.20129683195874606,"10":0.14602357033916896,"11":0.22823574017365228,"12":0.038479410313148645,"13":0.3901920952634468,"14":-0.1172519131093219,"15":-0.052213605464424634,"16":0.1859375888900056,"17":0.18722995512681967,"18":0.14662652748141214,"19":-0.1943631842719661,"20":0.15557413021792482,"21":-0.026592897930228104,"22":0.07927304274641869,"23":0.11833906720594384,"24":-0.0299720478246272,"25":-0.021262413197437588,"26":0.23013791139160528,"27":0.1321523074069189,"28":-0.2534636457406054,"29":0.1757949811997544,"30":-0.0216491016022715,"31":-0.03337606064675776,"32":0.061497290420790246,"33":-0.09073909758831596,"34":0.10314589075566884,"35":-0.15609419286235593,"36":-0.15484598613666228,"37":-0.2888888816812825,"38":0.1362888561178081,"39":0.012830672407542282,"40":-0.2316902553845742,"41":-0.24168591925114763,"42":-0.14431123301341817,"43":-0.11627226674354453,"44":0.14141207476394643,"45":0.09093484931856241,"46":0.014744432855595898,"47":0.1905091599369363,"48":0.09947017794937305,"49":0.11656006312853795,"50":-0.06042924567882742,"51":-0.05110676176087421,"52":0.0947533117171968,"53":0.027154997577770755,"54":-0.018937415297961935,"55":0.08654893240119606,"56":0.017000092385802502,"57":-0.015402047720337635,"58":0.04249241530343754,"59":0.06823282469623988,"60":-0.01282057336361775,"61":0.058640370596053794,"62":0.07080251995267589,"63":-0.2308562306585601,"64":-0.07380973035814531,"65":-0.19157135690316518,"66":-0.041550867468325585,"67":0.07955523809894771,"68":-0.146126927736005,"69":-0.07868703320063274,"70":-0.02505446848498079,"71":-0.17633145086064209,"72":-0.0019027874766519835,"73":-0.08080427014522154,"74":0.1487523346848491,"75":-0.18639492785048703,"76":-0.1455335060294733,"77":-0.011292518319983309,"78":-0.21784745683646564,"79":-0.13381211533392745,"80":-0.036513724954780995,"81":-0.26797406123797307,"82":-0.2025849542697985,"83":-0.15323555972103772,"84":-0.10008776824884033,"85":0.05733088832001968,"86":-0.3150938901145573,"87":-0.09184998027259333,"88":-0.10938683265979793,"89":-0.2625845672185112,"90":-0.08660646123341459,"91":-0.05909513933915998,"92":-0.2941650483694625,"93":-0.08338358188821815}},"8":{"bias":-0.08842682588166087,"weights":{"0":0.34504400911263994,"1":-0.07201046753434777,"2":0.12801576636677664,"3":0.21398408441375627,"4":-0.02881667798512882,"5":0.01121001350914676,"6":-0.08793493297099214,"7":-0.06837177244055602,"8":0.04332291694322861,"9":0.05327647844371593,"10":-0.08358512282983635,"11":-0.03744705595651108,"12":0.03603619405052099,"13":0.08419267674531188,"14":0.03944460346506975,"15":-0.12376286245180683,"16":0.012686643239326247,"17":-0.10396184040054113,"18":0.20010962451932537,"19":-0.0787387624808484,"20":0.13101168144322597,"21":0.11932405493483178,"22":0.126372388065983,"23":0.023276566204543353,"24":0.06631762195562883,"25":0.21333294944391248,"26":0.0038749559907964174,"27":-0.20442191787603375,"28":-0.11355793116029114,"29":-0.3238586210976687,"30":-0.21797059255934206,"31":-0.1225510250091988,"32":0.15411191303062202,"33":0.028777721481153703,"34":-0.13699520877544794,"35":0.07040518955556656,"36":0.16154522900191357,"37":0.014896870108926437,"38":0.041759702116232714,"39":-0.08775515214024156,"40":-0.11552630436963472,"41":0.04694219278472908,"42":-0.074438664231939,"43":-0.24839484882693627,"44":-0.2588654471858441,"45":-0.24275292207480528,"46":0.05042830816046884,"47":-0.19247121831566671,"48":-0.453553409483777,"49":-0.041560612827845365,"50":-0.17598184497950994,"51":-0.3522795872020063,"52":-0.09255607209015523,"53":0.07157812018125456,"54":0.05559396544664971,"55":-0.14961110525845261,"56":0.2434586300573801,"57":0.19844127416972396,"58":0.11330188852331394,"59":0.20108418183798968,"60":0.11200034246998417,"61":0.11337369312564846,"62":0.041774957066738935,"63":-0.036652022607813375,"64":0.08259967274860822,"65":0.017338319701255638,"66":0.018520662766692,"67":0.017214506392547745,"68":-0.00987633175685444,"69":-0.04554513297796677,"70":0.17237561490186099,"71":-0.11686743081253115,"72":0.16783549425499972,"73":0.14524516645068072,"74":-0.12543841416575738,"75":0.01639707439131957,"76":-0.1576219296546883,"77":-0.18607020153454848,"78":-0.12954438862611806,"79":-0.15470511579006851,"80":-0.057717768898808475,"81":0.11928330781005901,"82":-0.24834619795807966,"83":-0.20853209622086,"84":-0.04642847662194301,"85":-0.09855214982022358,"86":-0.07404952497898878,"87":-0.1020056231172355,"88":0.1005807666073297,"89":-0.18762841811331285,"90":-0.19075171242575276,"91":0.10760224472592109,"92":-0.0866270130731904,"93":-0.03959352827179824}},"9":{"bias":0.013148661565802142,"weights":{"0":-0.3647548976539852,"1":0.0766200446033065,"2":0.009480193958384566,"3":-0.01307625204058381,"4":0.01397065562863694,"5":-0.042050909549153165,"6":0.23316116930880496,"7":0.23336784612172895,"8":0.08321264504000904,"9":0.30692202690645004,"10":0.10042169822641084,"11":0.3156138411382014,"12":0.31732250866205935,"13":0.18221469036916488,"14":0.1178722403984091,"15":0.24320543759655527,"16":-0.10702679859978546,"17":0.015960948049526604,"18":-0.14629734510019138,"19":0.07650763137609494,"20":-0.024379124443800203,"21":-0.055062317873715565,"22":-0.21412350448826645,"23":-0.15003041657071187,"24":-0.053092520349236325,"25":0.07219151609416931,"26":0.04400972127281861,"27":0.044856825028292954,"28":-0.016583184362392908,"29":-0.22928609110258663,"30":-0.06329526375367862,"31":-0.24629346811922911,"32":-0.10130871182470214,"33":-0.19458396635287759,"34":-0.19431694199980606,"35":-0.21301157884639846,"36":-0.024047142514596172,"37":0.011025872603298957,"38":-0.13858108086525583,"39":-0.29917815410309717,"40":-0.04397164358237307,"41":0.14521699123720355,"42":-0.17184552856736554,"43":-0.08685373338451695,"44":0.0433112752505894,"45":-0.25143838000206936,"46":-0.2080238980315176,"47":-0.12480582042591015,"48":-0.08800750745352662,"49":-0.20581801787372359,"50":-0.1761952098311659,"51":-0.03971304017856163,"52":-0.11219647486591863,"53":-0.02527681636025941,"54":0.043989809687682326,"55":0.09919600680615463,"56":0.17486878884108586,"57":0.14257102892468443,"58":0.05791758287825453,"59":0.2265374709465837,"60":0.10914274672141912,"61":0.15211459515258383,"62":0.2479891353069735,"63":0.07107191950203971,"64":-0.0006918661871402332,"65":0.13441153596486144,"66":0.09882194274517525,"67":-0.06898440005889435,"68":0.25908384566889076,"69":-0.05037689184002035,"70":0.05338191137841431,"71":0.006847225641903702,"72":0.15581190415497326,"73":-0.09018307698476338,"74":-0.09117397808654379,"75":0.1314602403040936,"76":0.23930319039482675,"77":-0.1650377307407815,"78":-0.10983578133068884,"79":0.034835922233366054,"80":-0.03299976949208924,"81":0.12368317815994173,"82":0.20349071612244643,"83":0.02185067406297847,"84":0.16515554003157748,"85":-0.06143814076945139,"86":-0.13502253739402909,"87":0.21860453724634954,"88":-0.027424673148186147,"89":-0.006489933737255002,"90":0.0537121306668389,"91":-0.09307296011911056,"92":-0.1404472017883323,"93":0.13808715040918945}},"10":{"bias":0.07928638890573793,"weights":{"0":0.019077160117578137,"1":-0.21300177570608667,"2":0.02400578042886825,"3":-0.1961642003328032,"4":-0.19564617066340728,"5":-0.3119830070339301,"6":-0.18203601232104724,"7":-0.2405530993739094,"8":-0.30931042062480474,"9":-0.11028200288860938,"10":-0.2810848975322502,"11":-0.14225783125393812,"12":-0.2652020859237076,"13":-0.2818619934193067,"14":-0.13412838988941686,"15":-0.20031789077755377,"16":-0.19246341446279122,"17":0.014572168300235453,"18":0.0771744566998703,"19":-0.17190362471790982,"20":-0.03142310123563835,"21":0.4749187085043253,"22":-0.18931347105347174,"23":-0.1712270294829362,"24":-0.16925591249818303,"25":-0.18814665776446995,"26":0.11681663446481716,"27":0.002406951889123232,"28":-0.049034876732972715,"29":-0.10678237586314714,"30":0.12326118847777322,"31":-0.18629528808014514,"32":-0.06995389525608915,"33":-0.09234419003501247,"34":-0.027372930743384007,"35":-0.23346767468150764,"36":-0.1365991160369704,"37":-0.1545257401260269,"38":-0.2963900912241885,"39":-0.25467613894806773,"40":0.12096904642703514,"41":-0.21046218135718972,"42":0.03154331444961689,"43":0.17695505351889093,"44":-0.07103894343162175,"45":0.02901510197972159,"46":-0.033487681551473296,"47":-0.08452861809114622,"48":0.17921700261355802,"49":-0.1071661498875054,"50":-0.14753901179514842,"51":0.25764894741134103,"52":-0.12747654937442854,"53":0.1130982189700259,"54":0.21423402660964527,"55":0.2873106248582068,"56":0.389673833076065,"57":0.33703243038875424,"58":0.09183952888216323,"59":0.12614984233880328,"60":0.17449390937438855,"61":0.2735995255423301,"62":0.0868913637831715,"63":0.17870310438046202,"64":0.2830103616921497,"65":-0.05566739707213929,"66":0.2545010179452614,"67":0.15201105497232975,"68":0.04191980768872106,"69":-0.011979575930538165,"70":0.13920598516807792,"71":0.15052922059281534,"72":0.15059933541164092,"73":0.027550730562770506,"74":0.33932653871496277,"75":0.29629595711772927,"76":-0.27737443977812987,"77":0.16372559046165838,"78":-0.1350993326638723,"79":-0.1607189179075404,"80":-0.20192602767644643,"81":-0.04534752362356233,"82":-0.21842527513153967,"83":-0.07723993626650832,"84":0.07656694270578288,"85":-0.028120533048629083,"86":-0.26203182442467643,"87":0.010090144992972243,"88":0.09091435536326856,"89":-0.12262488146826496,"90":-0.2705659547293621,"91":-0.05479440496452953,"92":-0.2555446894926231,"93":-0.033040569726736066}},"11":{"bias":-0.00947351950980916,"weights":{"0":-0.08011055544917967,"1":-0.2749730383681879,"2":0.0006671936674223989,"3":-0.2579492871400529,"4":-0.1838521146139044,"5":-0.2338359213653297,"6":-0.11515263179087823,"7":-0.11687744866048412,"8":-0.09685101986403863,"9":-0.12587144405953057,"10":-0.34047317742485816,"11":-0.015262940255104085,"12":-0.16185136394054725,"13":-0.22496442163942293,"14":-0.24167775053937493,"15":0.1285358188561636,"16":0.05426850396135089,"17":-0.2334498382529695,"18":0.06472670079093613,"19":0.15182652892201434,"20":-0.15989709499938543,"21":0.08429141131869687,"22":0.20106779988579906,"23":-0.004082932695676246,"24":-0.15556272066131868,"25":-0.004869100302468592,"26":0.05451089883235623,"27":-0.026762586324398277,"28":0.2827912082234641,"29":-0.07188473485421949,"30":0.024480249768440217,"31":0.06811168964928589,"32":0.3017117462162386,"33":0.1587594128338298,"34":-0.006919667168974049,"35":0.1920243597390572,"36":0.21392304358135592,"37":0.2204023248822108,"38":0.15259614761624998,"39":-0.04230936572348304,"40":0.1278368220704825,"41":-0.01711107292105714,"42":0.09244307042416117,"43":-0.006100680719654091,"44":0.08210970638975935,"45":-0.04017681631246284,"46":-0.16014373039306626,"47":-0.017365012249378062,"48":0.05859627197910765,"49":0.19422587127022176,"50":0.006872019632319783,"51":-0.028688657121971425,"52":-0.007934499491286683,"53":-0.03227233439310204,"54":-0.05249878768169915,"55":-0.045742279477721165,"56":0.04101079357708777,"57":0.17994610496200653,"58":0.038681642410036375,"59":0.03579132274173003,"60":0.1265868452981489,"61":0.16059680743075946,"62":-0.12448525992084483,"63":0.003515953619196907,"64":-0.06760736967424949,"65":-0.05173453412002315,"66":0.1346554505409655,"67":0.13267583830215873,"68":-0.06702996273759974,"69":-0.08654993066517157,"70":0.19109605235136315,"71":-0.02825666186647775,"72":0.004799061162359907,"73":0.20195535017830527,"74":0.16479855442365646,"75":-0.08900207024899214,"76":-0.12752018202780593,"77":-0.14413300613566518,"78":0.04378037201124833,"79":-0.0041762032579114195,"80":-0.03709944812263145,"81":-0.1595133062867526,"82":-0.055352867876278404,"83":-0.04479476933539751,"84":0.014443380673101991,"85":-0.10652659671555359,"86":0.07152793700901261,"87":0.005169607745640151,"88":0.06890916922820484,"89":-0.12787935310863058,"90":0.1095690654235022,"91":-0.11528022382746639,"92":-0.11368274379751467,"93":0.14150653316175482}},"12":{"bias":-0.083334295781614,"weights":{"0":0.5565676139510305,"1":-0.1247343672844771,"2":0.13133955975486536,"3":0.013430082819063672,"4":-0.16380170886921408,"5":-0.264855932605872,"6":-0.00017177899496118428,"7":0.1157887043923648,"8":-0.06541740126092067,"9":0.13469983286853443,"10":0.2706162533430443,"11":-0.21846586141964405,"12":0.15339240777995983,"13":-0.21543021081803887,"14":0.17794103251847582,"15":0.06364741648109122,"16":0.11583053803138356,"17":0.06083069380520191,"18":0.12879255022458846,"19":-0.08318627706774062,"20":-0.038151311975492194,"21":-0.11635743081187984,"22":-0.10178304752640219,"23":-0.16635371272476962,"24":-0.17840181903934738,"25":-0.10457065342752447,"26":-0.19428483551140835,"27":0.31398632294780443,"28":-0.31017193247045954,"29":0.6108666387254212,"30":0.18681204941859214,"31":-0.09533064331818009,"32":-0.4359546771240566,"33":-0.15078611466431052,"34":0.01188639173004728,"35":-0.2803289478948522,"36":-0.018091511163582902,"37":0.1317894655151088,"38":-0.23734521397472458,"39":-0.08793114646340645,"40":-0.16769098752618122,"41":-0.16833634144588774,"42":-0.062136317174125856,"43":0.2663756767148161,"44":0.0032678904513177847,"45":0.17081182122595234,"46":0.2402112391018287,"47":-0.02527812166495782,"48":0.3535665214869928,"49":0.06831750213128142,"50":0.19030797615279355,"51":0.31870815085370896,"52":0.12780209761387018,"53":-0.004817382009980621,"54":-0.06746298577110865,"55":-0.29870723362231266,"56":-0.33693058059200626,"57":-0.36465193898541237,"58":-0.174022648697288,"59":-0.33221850954959403,"60":-0.3782996595596008,"61":-0.36235509517655445,"62":-0.3341228003050174,"63":-0.3311752817362261,"64":-0.18208085581221378,"65":-0.09968505176406857,"66":-0.16714673558629034,"67":-0.22895371582505614,"68":0.08814859393816744,"69":0.06393320011376977,"70":-0.22261426994956937,"71":-0.26984060481023875,"72":-0.00213496592466368,"73":-0.22271031647501685,"74":-0.2942288774703795,"75":-0.1094644546029646,"76":0.10811385931748685,"77":-0.07346351135055194,"78":0.18657532825582443,"79":0.2671169268584019,"80":0.15251004191985518,"81":0.12575717545346093,"82":0.022007962618446845,"83":0.10769572271255894,"84":0.011914875525723697,"85":0.27383391689101827,"86":-0.059442296858708214,"87":0.12809803709263687,"88":0.22958129068403021,"89":0.1545974169368282,"90":0.0560068662499498,"91":0.24477353369090704,"92":0.25406602674633316,"93":-0.04439716932853195}},"13":{"bias":-0.07219915741455854,"weights":{"0":-0.009054741981254662,"1":0.11548103269796402,"2":-0.08023105882747807,"3":-0.1566606578847447,"4":-0.10145554588588716,"5":-0.12107499747684597,"6":-0.10330726943047275,"7":-0.14607973725306694,"8":0.19806856751313537,"9":0.2142021835778633,"10":-0.1118323803608351,"11":0.12114723111175758,"12":0.272178122563752,"13":-0.05325154222795644,"14":0.08085671582092496,"15":0.10904182536910156,"16":0.13229595468864028,"17":-0.003783275870923634,"18":0.1452561531969495,"19":0.23840226352249524,"20":-0.12093307159065328,"21":-0.33698127839540104,"22":0.18932999724473912,"23":0.08761035321410969,"24":-0.09091721080873053,"25":-0.0000353480454588592,"26":-0.2448887043858156,"27":0.11559849039950515,"28":0.04096996259099048,"29":0.11084418129319273,"30":-0.12104093396323692,"31":-0.005614150552336253,"32":0.1939999648693692,"33":0.11863312017210732,"34":-0.012306145897619282,"35":0.192212924341871,"36":0.1544094620845561,"37":0.010873314454871526,"38":-0.03391256557247297,"39":-0.14738441325750398,"40":0.1336239019032555,"41":0.12237975901315588,"42":0.10206170415659795,"43":0.1878293859385333,"44":0.12088119425889608,"45":0.021760084103617686,"46":0.08066432807681796,"47":0.15790053314940725,"48":0.12315263056347074,"49":0.01243345516373922,"50":0.161337983824084,"51":-0.1875958766438054,"52":0.09682954436531548,"53":0.018685074062340167,"54":-0.04326727071764953,"55":-0.00792292249152018,"56":-0.1290002062371658,"57":-0.15602230087959984,"58":-0.1386145597689149,"59":-0.17360309980062394,"60":-0.09192030875567055,"61":0.05341155448144174,"62":-0.07223407155336839,"63":-0.08476979890327631,"64":-0.18843547197078672,"65":-0.12418579115721808,"66":-0.12385670462840641,"67":-0.07580581301558671,"68":-0.08335234926683012,"69":-0.24363792807262846,"70":0.14356455139758212,"71":0.12734061511464773,"72":0.1278418654462672,"73":0.02519721617716912,"74":0.06665531089143949,"75":-0.21285251488563398,"76":0.24677436215247278,"77":-0.011396887379610973,"78":0.11773506206812755,"79":-0.09340828726544659,"80":0.23294401457472183,"81":0.27337899581884756,"82":0.16320382910993791,"83":-0.05369430242634413,"84":0.059079349706681016,"85":-0.025435266406546326,"86":-0.019698945825055183,"87":-0.046649271520991846,"88":0.03363005772004462,"89":0.30032127112332235,"90":0.3136005687905005,"91":0.10194069619076271,"92":-0.02600979224927601,"93":0.07342770257574824}},"14":{"bias":-0.13874021617381205,"weights":{"0":-0.31923769686269077,"1":0.062283399215458425,"2":0.0015974945443601254,"3":0.06977049926971807,"4":0.20246162209622828,"5":0.05738149205883187,"6":0.20155031471979787,"7":-0.12684138817412313,"8":-0.01774511004659446,"9":-0.05030899850527061,"10":0.24098630181447772,"11":0.257399208363962,"12":0.05132096695075635,"13":0.10793948884458911,"14":0.09934764783274383,"15":0.1246023428750152,"16":0.13421723034070288,"17":-0.08313209402401453,"18":-0.11683831978379466,"19":0.2186797975866515,"20":0.0747742238993176,"21":-0.1565641090798745,"22":0.26670764825715526,"23":-0.008945950532508308,"24":0.0403427670972424,"25":-0.1633763650591381,"26":-0.09842923136528403,"27":0.00967730906451083,"28":0.1504951444409987,"29":0.07720994884279009,"30":-0.016271817248117344,"31":0.31288534547148467,"32":0.10328783750613763,"33":0.144560208490401,"34":-0.07788990256315657,"35":0.1701191908005376,"36":0.24288370631192815,"37":-0.05104428735826949,"38":0.30419321216424516,"39":0.015889253183298695,"40":0.02001410175708141,"41":0.02077338089781633,"42":0.307918712983069,"43":-0.04685950476064162,"44":0.08555051706697928,"45":-0.0015596810250720443,"46":0.007236323693621212,"47":0.12635648500646188,"48":0.14039995371008596,"49":0.05032695317747744,"50":0.15881942668645976,"51":0.17602977694972502,"52":0.06035561412216079,"53":0.14036458690896883,"54":-0.2976941889986299,"55":-0.04775523854131461,"56":-0.07277813669804192,"57":0.019611961557548855,"58":-0.22625431300536722,"59":-0.1363298203500653,"60":-0.3035864442805635,"61":-0.24632421205340285,"62":0.046787099608693344,"63":-0.1953745538949382,"64":0.04053631245817148,"65":-0.013272282130704045,"66":-0.0568192668616574,"67":0.029105699416056306,"68":-0.10362055564438247,"69":-0.2729837122226759,"70":-0.22261587127916926,"71":-0.047548641310589015,"72":-0.1630927026900852,"73":0.019493261478553205,"74":-0.25008854344250014,"75":-0.19155863091939362,"76":0.061835631286887925,"77":-0.07536616494088676,"78":-0.08578742793540459,"79":-0.1081511944725752,"80":0.04322810368869906,"81":-0.13356489328712143,"82":0.15787542339244395,"83":-0.1459541876336548,"84":0.16338338078706002,"85":-0.18509632046694102,"86":-0.1860555798065955,"87":0.016677954525179988,"88":0.19143252928830615,"89":-0.0025949201191912174,"90":0.19222412352040394,"91":0.10129896310664932,"92":0.11075432452133582,"93":-0.15441620255887992}},"15":{"bias":0.014492812175886627,"weights":{"0":-0.49583070458323325,"1":0.2273416499752277,"2":-0.08382846835808112,"3":0.10922349603512858,"4":0.028565813611139815,"5":0.07975402212190755,"6":0.31620167178890907,"7":0.09577643124440768,"8":0.08698362986981235,"9":0.05804343251343413,"10":0.14569703575219678,"11":0.29138209054913716,"12":-0.15532290862138082,"13":0.254059553172935,"14":0.01598146831850765,"15":0.0935618791583835,"16":0.13850966738784953,"17":0.06681442968623119,"18":0.09483804152717096,"19":-0.1119433768306111,"20":0.11127023257515546,"21":0.3362014276629562,"22":-0.24835617509392902,"23":-0.157928288525438,"24":0.04478970823812348,"25":0.1139361263299395,"26":-0.04526379168837828,"27":-0.13135143954920644,"28":-0.055002153254338014,"29":0.35306988002958906,"30":0.3105145708901251,"31":-0.1332206727679053,"32":-0.039106916011984426,"33":-0.032752584931487735,"34":-0.05001189634720726,"35":-0.1360143667278916,"36":-0.07416997043645605,"37":-0.27101529875911706,"38":-0.13968510249789323,"39":-0.28326041027359977,"40":-0.139551772850647,"41":-0.31378688161523116,"42":-0.06900846253461257,"43":-0.15160097730536196,"44":0.2673431380744028,"45":0.053738252325060167,"46":0.0769386849436341,"47":0.19547288259733217,"48":0.028621739662647132,"49":0.3273900660137348,"50":0.18873341682932482,"51":0.20724708547297055,"52":0.09435954688026404,"53":0.17997470285992417,"54":0.15582198045540888,"55":-0.05882212517032222,"56":0.020847260508707083,"57":-0.07964493746663734,"58":-0.000540853499034791,"59":-0.09434204966515991,"60":0.048951382183458896,"61":0.01648464125829417,"62":0.02070433777196563,"63":-0.16482963819727678,"64":0.13311639630212335,"65":-0.019741200559548294,"66":-0.1447845366980942,"67":0.11886826583748279,"68":0.23161227981858915,"69":-0.14666005316440553,"70":-0.1472759888482235,"71":-0.1450886447780705,"72":0.05020161233812267,"73":0.04821661154046549,"74":0.0579905084722827,"75":-0.08300526221760617,"76":-0.31880555788375037,"77":-0.08293214309283717,"78":-0.038038345810678664,"79":-0.17425724799962966,"80":-0.12485481602977025,"81":0.07608605133099727,"82":-0.35144120182962696,"83":-0.159550385393447,"84":-0.03929298777643871,"85":0.060326418520011596,"86":0.050938894858283325,"87":-0.11226715032065976,"88":-0.32851395036600445,"89":-0.20390572913539845,"90":-0.2227911099333914,"91":-0.2269150749678212,"92":-0.013353181455212382,"93":-0.1763091395514893}},"16":{"bias":-0.1006734049332035,"weights":{"0":-0.22258279478150236,"1":0.10601644048420936,"2":-0.028293718520419703,"3":0.23474794620088946,"4":-0.036699593834336484,"5":-0.03789771423999054,"6":0.19840261684992938,"7":0.1267129197517864,"8":0.09317670492449531,"9":0.11039394280990028,"10":-0.2956216896878389,"11":0.059693091322010616,"12":-0.217787574185759,"13":0.10246544205673108,"14":0.17927577162423886,"15":0.1637971619713407,"16":-0.06842369029898068,"17":-0.11478420344392432,"18":-0.1141184654929236,"19":-0.15463587296024653,"20":-0.1282681270827051,"21":-0.047216207495038943,"22":0.033048704855638905,"23":0.14073723776217267,"24":-0.09210251905913774,"25":0.024700177288245258,"26":0.08088711661187778,"27":-0.008009099298250564,"28":-0.01640806639370509,"29":-0.08845356848958931,"30":0.0533199909316691,"31":0.06213176372852458,"32":0.19581008117797577,"33":0.2619064791113067,"34":0.23411286068730672,"35":0.3005343073993354,"36":0.26540095729164487,"37":-0.07280432901974146,"38":0.10411165027295055,"39":0.2524660406011566,"40":0.11187745503564121,"41":0.18530881190120946,"42":0.24532221619270292,"43":0.04330314020842934,"44":-0.17177090508660528,"45":-0.14378547842002962,"46":0.12157783926661088,"47":0.06507888031284322,"48":-0.27796120744655717,"49":-0.20200908338339305,"50":-0.2854316759289913,"51":-0.034068253443732176,"52":-0.15124618657450487,"53":0.08485031151265338,"54":0.24524709362881045,"55":0.0266157357122923,"56":0.27727118965989495,"57":-0.08515966337296475,"58":0.24013008229381314,"59":0.09929078770433697,"60":0.05602594960518343,"61":-0.03917469169280781,"62":0.18541657291616714,"63":0.08660283020456808,"64":-0.019388420053603604,"65":0.2660521544079318,"66":0.18689879008470284,"67":-0.012086757591435867,"68":0.14324037837177062,"69":0.233238728615229,"70":-0.05143452962669611,"71":0.20371509160840498,"72":0.23410073068883522,"73":0.16896935109928546,"74":-0.07916112933704836,"75":0.07902800565543924,"76":-0.1625293948185821,"77":-0.1941307117775704,"78":0.02421291825097667,"79":0.10301404843919161,"80":-0.04237944039791666,"81":-0.16220765638409165,"82":-0.16412297012066,"83":0.007873538394089176,"84":0.0058988593990997856,"85":-0.1443455117470689,"86":-0.2656766395754216,"87":-0.15125655235943788,"88":-0.19296185616523528,"89":-0.19158739387379603,"90":-0.25788576764386506,"91":-0.23952420852064696,"92":0.1095379219559579,"93":-0.10551123224252532}},"17":{"bias":0.053717150565081376,"weights":{"0":0.03519532978670804,"1":-0.2650073519878667,"2":0.03678087329810806,"3":-0.36546412187394356,"4":-0.021371826987171407,"5":-0.17268298939691573,"6":-0.006500941888189612,"7":0.07994868010499896,"8":-0.1616801305530272,"9":-0.4050423369015691,"10":-0.010363074972614496,"11":-0.05923290971912328,"12":-0.14215233966640148,"13":-0.3139989693976538,"14":-0.027633023485090478,"15":-0.22645857701439406,"16":-0.049629265493572244,"17":-0.07180262250660696,"18":-0.1277741321101663,"19":0.2249878549622933,"20":0.18802652929739244,"21":0.02103202670547142,"22":0.1877230752309762,"23":-0.025605219676595348,"24":0.046306685231475124,"25":-0.0722118935287858,"26":-0.02428188785905131,"27":-0.03976095699939355,"28":0.2365488409397741,"29":0.4742557961045335,"30":0.09289443309562893,"31":0.05844150984304536,"32":0.019440779139967276,"33":0.024607583051181832,"34":0.15121534251101,"35":0.17039983325583413,"36":-0.031491618308445296,"37":0.1746522114133449,"38":0.27369516157442236,"39":0.15249540759189073,"40":0.18549056997283644,"41":-0.09530264583514343,"42":-0.11298416728147553,"43":-0.03696660387287244,"44":0.08892749134129739,"45":-0.035048177360701926,"46":0.15636798210204794,"47":-0.03407321274405299,"48":0.41173450085632585,"49":0.012737168760624612,"50":0.1196101891019484,"51":0.17870081288050488,"52":-0.06637227565083821,"53":0.27400221275462683,"54":0.03869110390426555,"55":0.12866432892587637,"56":0.12257300741981972,"57":0.10743606415759052,"58":-0.1166316413114411,"59":-0.09380307075095735,"60":0.1401425774428236,"61":0.14869210751211892,"62":-0.037313747469747714,"63":-0.012040784527701154,"64":0.020287792740051755,"65":-0.13998827317864726,"66":-0.11569335580784283,"67":-0.02250955167748801,"68":-0.14151665210557424,"69":-0.0771526498881752,"70":0.1277196458567308,"71":-0.1675542893192989,"72":0.09135481283114942,"73":0.1332541998414114,"74":0.08297397670623795,"75":-0.16961131194382434,"76":-0.1228483565282288,"77":-0.03988468977959284,"78":0.09787886226867072,"79":0.0655821410791497,"80":-0.05637338713269381,"81":-0.11925456390728582,"82":0.18879990170806224,"83":-0.11536081984471258,"84":0.21524401040259988,"85":-0.11295590315446505,"86":-0.1342580024711444,"87":0.06109319012300377,"88":-0.142937814135195,"89":0.1906127500866006,"90":0.1910481681070071,"91":-0.14909543424885255,"92":-0.06588142088164904,"93":0.09845256398329032}},"18":{"bias":-0.2653526399705051,"weights":{"0":-0.14783980124956939,"1":0.08450060413321561,"2":0.057664019563838466,"3":-0.2973909760808026,"4":0.003500206637063002,"5":-0.09499159855366641,"6":0.012754011189770183,"7":0.029448339655705345,"8":0.06912383496826979,"9":-0.16867651089355587,"10":-0.23566129365590247,"11":-0.02638434470922479,"12":0.0025126504554852406,"13":-0.19674440553859937,"14":-0.19898822054964277,"15":-0.19144854529803848,"16":-0.09691207738987616,"17":-0.18382843655181916,"18":0.010328523856753735,"19":0.13804735449531136,"20":0.00018925220266377917,"21":-0.019370047765837138,"22":-0.043055080422257294,"23":0.12039787622292347,"24":0.15021560880604456,"25":0.09177581240549834,"26":-0.0229792285936762,"27":-0.16835432725504162,"28":-0.04489767855429617,"29":0.1836977573106056,"30":0.09924247226578896,"31":0.22617126299522955,"32":0.30959437723091665,"33":0.3363528942770757,"34":0.0934099981639633,"35":0.14103787876317952,"36":0.10211821926331907,"37":0.1441611806324943,"38":0.15118517532836895,"39":0.09251952487207904,"40":-0.035450096122626076,"41":0.1993678120942768,"42":0.28120590010241947,"43":-0.16104584270046288,"44":0.02755173654335651,"45":-0.12212350468758437,"46":0.12799407014003625,"47":0.1128549641776993,"48":-0.0031276265257126692,"49":0.07263762513326816,"50":-0.12000931014008999,"51":0.11783999235699624,"52":-0.008984040888698558,"53":0.20308922448254094,"54":-0.22524208985212682,"55":-0.14380182922021922,"56":-0.1763243121654524,"57":0.13006811521676276,"58":0.10829869168012284,"59":-0.08537343144649315,"60":-0.14028181399669873,"61":0.14168689624739997,"62":-0.2245274894718691,"63":0.053395455201772975,"64":-0.05496161793565764,"65":-0.15846605374978576,"66":-0.02906788414733781,"67":-0.11176716796827292,"68":0.1227137416702611,"69":-0.023564257065261957,"70":0.07886479868264472,"71":-0.04860641276380947,"72":-0.19166272914180682,"73":-0.20942933331929214,"74":0.036864913398411255,"75":-0.22699412385423592,"76":0.009403542465936674,"77":-0.017641890409011762,"78":-0.1364903173603594,"79":0.052322739065715246,"80":-0.02350495528149878,"81":-0.0009498311652654547,"82":0.019746596157121134,"83":-0.21645682584992287,"84":-0.1947772840805243,"85":-0.18401980659993689,"86":-0.003926540605252273,"87":-0.19483192303832847,"88":-0.22793800679552245,"89":0.008310240959164852,"90":-0.17153990255106077,"91":-0.016135643368641834,"92":-0.16028979566006515,"93":0.026839163074557817}},"19":{"bias":-0.19221843688259238,"weights":{"0":-0.21610573033903097,"1":0.0730101473676504,"2":-0.034775399667963475,"3":0.10491954737951571,"4":-0.17110022644832112,"5":-0.15509259860216032,"6":-0.17202788734500574,"7":0.11478866361524664,"8":0.047259727182057384,"9":-0.022875404826220126,"10":0.2741800106976693,"11":0.20269676862967467,"12":-0.06602735662757125,"13":0.13559624096710832,"14":0.10226266018820877,"15":0.012439846264061697,"16":0.14857291492690644,"17":0.15422890089972296,"18":-0.03645351373321745,"19":-0.23168533037720618,"20":0.09135235542739129,"21":0.1267744358508754,"22":-0.08824034997593397,"23":0.1242206114757263,"24":0.02574900007675612,"25":-0.19885033768645224,"26":0.1342115367622171,"27":-0.042592782734458025,"28":-0.1776764447834326,"29":0.008582966122746689,"30":0.21311787668356721,"31":-0.05480508145399936,"32":-0.296551868402122,"33":0.09654907859419833,"34":0.10449139553147083,"35":-0.14196400086606564,"36":-0.15475094445594034,"37":-0.14160391931180386,"38":-0.24830200359219612,"39":0.08194571796257384,"40":-0.2737216276421354,"41":-0.13415519467703382,"42":-0.11954645199497456,"43":0.10656519471175215,"44":-0.006101408110500311,"45":0.18665073673271868,"46":-0.0033369123896123537,"47":-0.03925522442508622,"48":0.260759846829571,"49":0.2933598852235546,"50":0.01682515585390013,"51":0.19409984425451615,"52":-0.06424345503281949,"53":0.23055495594704387,"54":-0.14436802586300454,"55":-0.05645461990085716,"56":-0.13060242274599068,"57":-0.058153759588560595,"58":0.15572311588936388,"59":0.002468642434688162,"60":-0.2037602483018745,"61":0.10033229936200133,"62":-0.13307730514210575,"63":-0.022006121656780363,"64":-0.19285748066493943,"65":0.09143443144881569,"66":0.06661101976731909,"67":-0.10151526096219074,"68":-0.01684157539390846,"69":-0.13180457342827395,"70":-0.16586438974423784,"71":0.018627802240114014,"72":0.1238145076556103,"73":0.06128105456517303,"74":0.008336775809178878,"75":0.14234756414060806,"76":0.08129282694617589,"77":0.028793781179181025,"78":-0.09699725823867567,"79":-0.19161257296228956,"80":0.14980029220878643,"81":0.17600627208622804,"82":0.1156133680717083,"83":0.12475585558357404,"84":0.09960689134374326,"85":0.031612707476857474,"86":-0.10886735256305322,"87":0.005175418078910733,"88":0.020322867769930687,"89":-0.07775158214650005,"90":-0.1471316537820681,"91":0.09162981181530741,"92":-0.1213698607910666,"93":-0.14620254163361263}},"20":{"bias":0.017441358241318976,"weights":{"0":-0.15774840367828213,"1":0.04989758849062768,"2":-0.07108424654093007,"3":0.1827756490637148,"4":0.1672173049399714,"5":0.014838389971496422,"6":-0.027459625919687182,"7":0.15830418291723386,"8":0.12493204610409211,"9":-0.11490172238125765,"10":0.032113741464652304,"11":0.17386764779050393,"12":-0.12921913894274617,"13":0.25905490668705133,"14":0.14196995072633128,"15":-0.06789722797927293,"16":-0.05119070790346415,"17":0.057207764110597886,"18":0.16732061149578156,"19":-0.0005755684993372374,"20":-0.09716199617943344,"21":-0.021257672690066093,"22":0.0005848466025489785,"23":0.0034130100833658266,"24":0.19093471835305098,"25":0.2056499923431389,"26":-0.12773730316055731,"27":-0.21825325201965426,"28":0.16154658007532768,"29":-0.33610263574600974,"30":-0.16825021678341942,"31":-0.28258672682437214,"32":-0.31568345716390767,"33":-0.15648187887151727,"34":-0.002586466536406473,"35":0.0712130820351643,"36":-0.29149535459529385,"37":-0.20104123473280033,"38":-0.12452089894070667,"39":-0.1959721995487409,"40":0.018659988808406996,"41":-0.07552516464833556,"42":0.017842959050358233,"43":0.12066603556210048,"44":0.11970937645683526,"45":-0.17686397622855843,"46":-0.12150853032144071,"47":-0.10347006496767312,"48":0.10263135288212892,"49":0.08309398201663094,"50":-0.1734842919836808,"51":-0.29333691029994763,"52":0.0021083209375967237,"53":-0.05548338893054099,"54":0.04216609897778876,"55":0.19433198708074764,"56":0.025402600325374416,"57":-0.0725255751133646,"58":-0.03726107043226321,"59":0.1558887133879031,"60":0.12364358213044538,"61":0.25000533600310565,"62":0.051922304864666,"63":0.10934051234561931,"64":0.23409481345473837,"65":0.043531165869579815,"66":0.26902466249390106,"67":-0.020142650616758042,"68":0.0971747295674342,"69":0.03394845017967641,"70":0.014758733909596583,"71":0.2510030538618482,"72":-0.037316841460786676,"73":0.08965848951883801,"74":-0.08493534217090393,"75":0.20697084252085146,"76":0.04546423788692348,"77":0.18591855008894434,"78":-0.15205928336264116,"79":-0.1744112632486699,"80":-0.016815941227107552,"81":-0.09192530155867235,"82":0.08827420416454619,"83":0.15740467177218795,"84":0.07092729532750337,"85":0.017495466985201234,"86":-0.2077531022393348,"87":0.014461023946498548,"88":-0.1769676538283897,"89":-0.19984268118601517,"90":-0.18309742976915622,"91":0.0905387868796463,"92":0.020033516039680732,"93":-0.19944580660029415}},"21":{"bias":-0.09949974079548221,"weights":{"0":-0.17864439957367442,"1":0.3012206727849674,"2":0.21027684803037175,"3":0.36825680200617433,"4":0.1085129519555885,"5":0.017903178093105238,"6":0.33242645795760734,"7":0.14211276383400293,"8":0.26035508219209086,"9":0.12262852295301502,"10":0.22232372181296656,"11":0.13807696490338908,"12":0.30914829803957894,"13":0.15418269517644181,"14":0.20717259467727564,"15":0.0021127118034750514,"16":0.176589488652276,"17":-0.041067655429585306,"18":0.054438779923012715,"19":-0.13307072450949028,"20":-0.05520484562299782,"21":-0.12266939703127921,"22":-0.20829872172203973,"23":-0.06133959124742426,"24":-0.13703924363254102,"25":0.10845797775615205,"26":-0.047152142805817955,"27":0.11030225466064217,"28":0.07468122711937307,"29":-0.013744224498849747,"30":-0.03396491400523682,"31":0.08415408152140696,"32":0.14208615169164446,"33":-0.15137266817663658,"34":0.062511896255583,"35":-0.035282863657510544,"36":-0.10359685151606048,"37":0.11715326863234304,"38":0.14192751900299214,"39":-0.1690288696950678,"40":-0.2386877399318059,"41":-0.1159572522564574,"42":0.09847219947881942,"43":-0.16528914713674522,"44":0.20470502272961644,"45":0.24483066875844212,"46":0.05863875522303679,"47":-0.06580135508302666,"48":0.1693253866976935,"49":-0.04728143150101308,"50":-0.09970214173758105,"51":0.09714149153399027,"52":0.216379287023691,"53":-0.0013989315068508692,"54":-0.25563720355630926,"55":-0.11068206126540271,"56":-0.10988073857120269,"57":-0.15529999082552715,"58":-0.14708789411403841,"59":-0.23672474283246728,"60":-0.21484452383197872,"61":0.07654820675797668,"62":0.008078107420785291,"63":-0.25585229753768013,"64":-0.17641878050125007,"65":-0.022445360409745218,"66":0.12744869016374225,"67":-0.042383530718363295,"68":0.03873842348084367,"69":-0.22328350024097984,"70":-0.020916340940096586,"71":0.1332235481141109,"72":0.05333669252840793,"73":0.08928445535096009,"74":-0.12054590965182657,"75":0.15247260282962072,"76":0.08500059098043229,"77":-0.1490925232004587,"78":-0.037327351205484124,"79":-0.14539074834590193,"80":0.1402374614943436,"81":-0.17435792646883927,"82":-0.22809128722711614,"83":0.163247149734819,"84":-0.06248192448832838,"85":-0.00043794162317058405,"86":0.09449601425467025,"87":-0.041407658226096884,"88":0.03734598349569403,"89":0.05818394355644519,"90":-0.0838333696500502,"91":-0.07897539870450455,"92":-0.07841053114698526,"93":-0.13828486659243844}},"22":{"bias":-0.05374355843890442,"weights":{"0":-0.13161669307345739,"1":0.41481280287658495,"2":0.08028959445432667,"3":0.42278782411016147,"4":0.05217809067403218,"5":0.40844137066030384,"6":0.15272007553900285,"7":0.18727280352445821,"8":0.13565281256964903,"9":0.22669945846755393,"10":0.3916270885323036,"11":0.046546298295782024,"12":0.5901054894602296,"13":0.31016522077500663,"14":0.10086984459227744,"15":-0.018621771990845363,"16":0.10831099167684861,"17":0.11109446894268048,"18":-0.08212793848531412,"19":0.13379607829377171,"20":0.20452110674259555,"21":-0.424676767107919,"22":-0.04808993717053332,"23":-0.015967572535750246,"24":0.1348928217726276,"25":0.07328590738820981,"26":-0.22815298686801488,"27":-0.1484119517402864,"28":-0.09103847476471649,"29":-0.27861314028072476,"30":0.063718973909426,"31":-0.0663748902693338,"32":-0.08016481744352799,"33":0.017556409968873615,"34":0.10084573166922249,"35":-0.23272219454576132,"36":-0.20014774955853937,"37":0.11995642354345214,"38":-0.15304352107864852,"39":0.05963309705233685,"40":-0.16261188722891867,"41":0.09555832663738605,"42":-0.19765090108255298,"43":0.03692946173759832,"44":-0.0026121033985874484,"45":-0.14148740873136756,"46":-0.1608484651546641,"47":0.05874437451165636,"48":-0.2101628532722738,"49":-0.3743264228766579,"50":-0.1534164692487634,"51":-0.062446218482156875,"52":-0.27289021000332464,"53":-0.26651998658553744,"54":0.05125467646181694,"55":-0.25798201518377123,"56":-0.06385760577357996,"57":0.0024666041581988,"58":0.03859614971732011,"59":-0.16267002667733557,"60":0.021137537737381216,"61":0.0635329956058311,"62":-0.21746760018453984,"63":-0.20727767887935059,"64":0.002657525011284439,"65":-0.08654112275632958,"66":0.004221037872093644,"67":-0.15496612907273774,"68":0.03288149908599257,"69":0.13381608267658,"70":0.1359466293821249,"71":-0.19895767925030625,"72":-0.09156666276778393,"73":-0.21091585076891264,"74":0.007447344275693356,"75":-0.06597896464746439,"76":-0.03390842938258984,"77":0.23756332146709702,"78":-0.14063823537716022,"79":0.2722200546386519,"80":0.12725946796744883,"81":0.09665017114453239,"82":0.17585969037477112,"83":0.11138114438854943,"84":0.2112509165251479,"85":0.07801071448952365,"86":0.03985915273203335,"87":0.14289154083202135,"88":0.19051457102245234,"89":0.09054380724058822,"90":-0.04978514902616711,"91":0.09864152766756426,"92":0.06701876953048984,"93":0.14791038311460053}},"23":{"bias":-0.15111114439307283,"weights":{"0":-0.2614546024286339,"1":-0.1429184182918779,"2":-0.17720506754213639,"3":-0.01860523887001206,"4":0.12164183327710111,"5":-0.0587004709595006,"6":0.004721159018065232,"7":-0.06175312167133119,"8":-0.21689823772808917,"9":-0.1643081064449312,"10":-0.14448342656071386,"11":-0.07507807957828222,"12":0.16179173652609294,"13":-0.2395321788140866,"14":-0.15251952862815046,"15":0.03333556093884738,"16":-0.1405754850880106,"17":-0.23410109648220534,"18":-0.1342734267434615,"19":0.16408042168099357,"20":0.10545617510457146,"21":-0.016265159850033253,"22":-0.02307267141121775,"23":0.15439687593729,"24":-0.05058408684756403,"25":-0.0820629116149092,"26":0.08721671272020783,"27":0.003319728995767421,"28":0.2962229363502033,"29":-0.1955292897828279,"30":-0.11233932630836183,"31":-0.1872035401162681,"32":-0.2724665807158167,"33":-0.16687241110815734,"34":-0.2567443940096106,"35":-0.054659608978957955,"36":-0.19788813621152415,"37":-0.07681015954745751,"38":0.09578887639952861,"39":0.0157032687782485,"40":0.11488536395880877,"41":0.04273972006489174,"42":0.10800414920025685,"43":-0.18118733672599435,"44":-0.01957734172684099,"45":-0.2352713944029918,"46":0.03906345914000262,"47":-0.22677867639992874,"48":-0.03896359858721688,"49":-0.29245565268203366,"50":-0.20634202690954512,"51":-0.03556280107927507,"52":-0.3325558215130861,"53":0.009924536712131582,"54":0.33945840110431047,"55":0.27631592652583037,"56":0.21751513798902516,"57":0.1735734150389539,"58":0.20924326789149483,"59":0.3808138067942403,"60":0.15953104436877674,"61":0.38466215156266664,"62":0.15298471057151086,"63":0.14305505593454265,"64":0.21644518864808965,"65":0.03553275484333418,"66":0.04340969168284165,"67":0.27600062429283684,"68":0.025042911726184846,"69":0.10501242284979216,"70":0.04668760627330895,"71":0.07207352832400958,"72":0.2169437258321618,"73":0.05954225810995821,"74":0.14135132200833253,"75":0.23966973512680873,"76":0.05549520334837509,"77":-0.04834512986501405,"78":-0.00794191209650636,"79":0.24402531121046114,"80":0.16120247945870242,"81":-0.04214383151790793,"82":0.18591985003161796,"83":0.1670142899417518,"84":-0.00879360857043096,"85":0.06403835359118797,"86":0.167511260035012,"87":0.11473492338485414,"88":0.07653527709362795,"89":-0.08264485712179637,"90":-0.08113073358913345,"91":0.16605296663962538,"92":-0.01048850350266896,"93":0.14936874321511365}},"24":{"bias":-0.02848974317434497,"weights":{"0":0.35476803621518443,"1":-0.1097246554918839,"2":0.1300785794758712,"3":0.1472371760737742,"4":-0.01612118070850343,"5":0.13224508766280976,"6":0.04920491018052368,"7":0.0908015217001531,"8":-0.04251265176586223,"9":0.18237767109696218,"10":0.02073660371652789,"11":-0.20471662548555777,"12":0.19121980075107511,"13":-0.06806464598364878,"14":0.06265441283233651,"15":-0.1450707361369922,"16":0.05076845539226735,"17":0.00030014657442667674,"18":0.1233065876372482,"19":0.34397628103216554,"20":0.1472069262038257,"21":-0.35611456893484417,"22":0.2559720329862531,"23":0.12851220579160821,"24":0.13632611585671156,"25":-0.12952089741889772,"26":-0.18517829192286364,"27":0.040617294175924676,"28":0.13646690564562006,"29":0.032555588048163026,"30":0.12178180652495549,"31":-0.1405302767146813,"32":0.3004811703668027,"33":0.06426834290339417,"34":0.19061356481029296,"35":-0.020664528973189256,"36":0.20220164665111823,"37":0.25908358562473016,"38":-0.1389502518178063,"39":0.20749097008705508,"40":-0.05778510460075109,"41":0.2850570385602792,"42":-0.0985944265292945,"43":0.004559742757253171,"44":-0.05773225889740079,"45":-0.026506692750853475,"46":-0.13566233396057628,"47":0.08089679450491437,"48":-0.3392468335496461,"49":-0.20372354807836443,"50":-0.09370494247148205,"51":-0.026774086486098927,"52":-0.013933328212003252,"53":-0.35156791889933386,"54":-0.2914605150058553,"55":-0.14509231614210896,"56":-0.14390560342347436,"57":-0.31427104017028556,"58":-0.20915076485493272,"59":-0.1416296851106481,"60":-0.20366119122273757,"61":-0.2472165749942016,"62":-0.05599144919166888,"63":-0.06859307378100325,"64":0.1121866249348136,"65":-0.10549006486026902,"66":0.057144863856189075,"67":-0.020377192073512122,"68":-0.1786778997650632,"69":-0.20827580240277338,"70":-0.3028040758331536,"71":-0.004303541315863403,"72":-0.1792918792580015,"73":0.07829321345754896,"74":-0.18579523802448403,"75":-0.07500272327867502,"76":0.10035176086563447,"77":0.11095783630136072,"78":0.015597992625975261,"79":0.04303797706225427,"80":0.14812055777538483,"81":-0.11102954276977564,"82":0.25636274556105504,"83":0.07716728059413863,"84":0.29171110055257854,"85":-0.05301238216043288,"86":0.24610222140422322,"87":0.13942534053570024,"88":0.2569778242283885,"89":0.25455799514460825,"90":-0.03335707120435789,"91":-0.0847272071144087,"92":0.15129965263600784,"93":0.22970745413484794}},"25":{"bias":-0.03610931393820398,"weights":{"0":-0.3009909118072881,"1":-0.2721260645837431,"2":-0.007718879616653868,"3":0.018890395246925575,"4":-0.060010939827094684,"5":-0.2769123855373939,"6":-0.1800675139072849,"7":0.025318080073789048,"8":-0.2833358380544011,"9":-0.01923004831506447,"10":-0.43135795362734364,"11":-0.3464248866097316,"12":-0.2763251415781425,"13":-0.009213191939656265,"14":-0.22877438534166047,"15":-0.008624242186459618,"16":0.06125931323711887,"17":-0.12991265784384534,"18":-0.1898934557292008,"19":-0.015613780130705345,"20":-0.05716194202920216,"21":-0.07409415242435355,"22":0.26199609875032837,"23":-0.01499530920933465,"24":0.16198111564476306,"25":0.0011048102436150586,"26":-0.1253335159521053,"27":-0.10266236869422449,"28":0.29790498070753174,"29":-0.27846173948654784,"30":0.055809787247161076,"31":0.22807134119287092,"32":0.10633530997687868,"33":0.30799808846306936,"34":-0.0722714966602005,"35":0.3002746974425231,"36":0.022724509948190225,"37":0.09622955144487268,"38":0.2365358388382472,"39":0.1450461339081953,"40":0.3476585217583361,"41":0.3205834510836531,"42":-0.009825717522261081,"43":-0.18763573159420263,"44":-0.1963549923924395,"45":-0.008564464247376249,"46":-0.2650598862986074,"47":0.10817566029157802,"48":-0.031299239172646244,"49":-0.1506932223761571,"50":0.005951415111125143,"51":-0.08120038227317025,"52":-0.3097633356698278,"53":-0.0008110844584136599,"54":0.3035748743574035,"55":-0.0027527238242385454,"56":0.20895769640457376,"57":-0.0180450521240864,"58":0.14709478369556825,"59":0.16994189910703666,"60":0.08828367183885338,"61":0.07825568265945149,"62":0.21126384064979056,"63":0.2451647373877852,"64":0.2259749295631607,"65":0.30082030739021,"66":0.2703258646560218,"67":0.0562324719500766,"68":0.12367785655901938,"69":0.10060269619734738,"70":0.26014380771100354,"71":0.07373528163944082,"72":-0.11407988295935831,"73":-0.12042896906422294,"74":0.16767212088051783,"75":-0.1141530442074965,"76":-0.022612196206491623,"77":0.04229556096932635,"78":0.06879546800867269,"79":0.11995487393313478,"80":0.006616263061367862,"81":-0.07591230894509246,"82":-0.1394588860494978,"83":-0.1089281524468335,"84":0.01008811141552078,"85":0.17857715221064885,"86":0.009944764839975714,"87":0.08439193704534774,"88":0.055016492803468243,"89":0.004491667571256882,"90":0.15090327613040383,"91":0.11274952660317948,"92":0.10569916675421408,"93":-0.07731344068094169}},"26":{"bias":-0.11953866256619597,"weights":{"0":-0.10675717213455287,"1":0.03836191432778705,"2":0.03301604527814671,"3":-0.04286867337055334,"4":0.02471218741238131,"5":-0.15164621788189997,"6":-0.0829374639689208,"7":0.06616545001077105,"8":0.07114326249181475,"9":0.08119168095846127,"10":-0.1758855181911406,"11":-0.2881246985419251,"12":-0.1584410092375633,"13":-0.21384560057042643,"14":-0.09117757963218429,"15":-0.15115206473711104,"16":-0.07161677903472821,"17":-0.025596182768990502,"18":-0.1190621593098881,"19":0.15204750851293053,"20":-0.052810204419744294,"21":0.2723234274518544,"22":-0.012879412114717133,"23":-0.11935548291589522,"24":0.16154442369553443,"25":0.09741439125412903,"26":0.07078659694329874,"27":0.1355173990462384,"28":0.09598718463132053,"29":0.3063094651131944,"30":0.08116375351824834,"31":0.007491539049579025,"32":-0.15306702690624233,"33":-0.005705734082197291,"34":-0.19134086085934846,"35":0.018071347766024204,"36":0.11998861675225046,"37":-0.007900095837749081,"38":0.06165862140081735,"39":-0.049474600071852844,"40":0.06226904763986805,"41":0.19009906426368026,"42":0.0010366882147685346,"43":0.03908660087456966,"44":0.09301351805236388,"45":0.18196571814375914,"46":0.15620854232568768,"47":0.1435208144155633,"48":0.16576783984605703,"49":0.012337898008093694,"50":0.1409259662516462,"51":0.07967654469085204,"52":-0.006034800313402217,"53":0.15619043996939583,"54":-0.13908090960156383,"55":0.07657735390636926,"56":0.02093592351037524,"57":0.011447539759851195,"58":-0.10071660148928967,"59":-0.055094888444559044,"60":0.12486304342558413,"61":0.12748314066603322,"62":0.15695418126846492,"63":-0.1256363703849578,"64":0.05380741606525427,"65":-0.029061651766858685,"66":-0.17309227728876717,"67":-0.14827825502978528,"68":-0.13771090922801976,"69":-0.0445470454280858,"70":-0.07546067635588051,"71":0.20526918960565793,"72":0.09807929790143857,"73":0.031298766039811805,"74":-0.14167229421096783,"75":0.1032722708490604,"76":0.09507947650339461,"77":-0.0249561005927343,"78":0.12008319607476887,"79":0.21683253641908162,"80":-0.04417722566629515,"81":-0.11781372769591604,"82":0.1888401271584478,"83":0.09647857278994017,"84":0.08948542012844718,"85":0.08095787383567257,"86":0.19494382910299934,"87":0.07783237368539767,"88":-0.019798737755759063,"89":0.11747883336408368,"90":0.24463678031307984,"91":0.0791165238717911,"92":-0.04792448430136037,"93":-0.03707213478789223}},"27":{"bias":0.06306317201160426,"weights":{"0":-0.10170322088712276,"1":-0.2716603326070081,"2":-0.028779108021457542,"3":0.023865044124665943,"4":0.11458878138193816,"5":-0.16290515711796594,"6":-0.14884978937498644,"7":0.0913861058191918,"8":-0.19392680417397543,"9":-0.32297232972605694,"10":-0.27321815029614943,"11":-0.27379941644117334,"12":-0.37013514477557213,"13":-0.025243249922743474,"14":0.0787915173952696,"15":-0.20928851869444204,"16":-0.20105878835987562,"17":-0.01356878521232739,"18":0.014031246445814391,"19":-0.18955189752938773,"20":-0.1174753051620982,"21":0.3814904992752061,"22":-0.06599160284291967,"23":-0.015215408639675661,"24":0.12263097535755557,"25":0.0789879890640392,"26":-0.014165121451959788,"27":-0.10163209529387066,"28":0.20472178144398342,"29":-0.23818643538189577,"30":-0.045913821414261285,"31":-0.06185772943174419,"32":-0.2208489230558324,"33":0.1092443511022127,"34":-0.15704119788463022,"35":0.031099579576009426,"36":0.14512812329697689,"37":-0.23907975531596246,"38":-0.0689639983681047,"39":-0.13578863207784747,"40":-0.024442684723319334,"41":0.08642867330937794,"42":0.13148853625390916,"43":-0.21915882761981167,"44":0.13570207298259437,"45":0.05592209583601207,"46":0.13606441196002164,"47":-0.11990649879291151,"48":0.1411852112791819,"49":0.18065732878853283,"50":-0.058561495270162606,"51":-0.07221305910468591,"52":-0.057597419966505976,"53":0.02313764432012322,"54":0.2268685724317306,"55":0.06577239068092983,"56":-0.029072867017640596,"57":0.25517430860319457,"58":0.24636302398550985,"59":0.06990395078314444,"60":0.059330594731190206,"61":0.252528682635086,"62":0.18768250870041164,"63":0.16111585757481353,"64":0.20202389758773046,"65":-0.0240158352328454,"66":0.2620373595216069,"67":0.23753723896729703,"68":0.13729656750613073,"69":0.08477140291909033,"70":-0.035086576177019,"71":0.1400562982539642,"72":-0.06000904728304752,"73":0.1765274776370328,"74":0.0007051316322840614,"75":0.10665960695138134,"76":0.03082742033356578,"77":0.118525057562479,"78":-0.013512915057537881,"79":0.1055600525432966,"80":-0.15538067386257834,"81":0.1087520508732059,"82":-0.25973945144378857,"83":-0.08869489934530972,"84":0.05260328131435821,"85":0.038129347575158415,"86":0.09250898153729625,"87":-0.2707630567278292,"88":-0.03705731885903839,"89":-0.1156361121512019,"90":0.05410465561642997,"91":-0.050537543808870995,"92":0.01825291257665765,"93":-0.21735185107198415}},"28":{"bias":-0.009234865405806841,"weights":{"0":0.3598246619527924,"1":0.05912604290416225,"2":0.16060222532897028,"3":0.09023038026929035,"4":-0.09879236004735613,"5":0.09211618829807135,"6":0.04932138365455808,"7":0.1264392662314493,"8":-0.042721430446652504,"9":0.14026677131097445,"10":-0.05386972234798999,"11":0.11696193441676488,"12":-0.09679516004529179,"13":0.17316732028499018,"14":0.021805774015321144,"15":0.012476315176625799,"16":0.1550210408603505,"17":0.0013083374624358107,"18":0.08617599382042458,"19":0.004958434484200148,"20":-0.15422281441470848,"21":-0.03368046247517338,"22":0.06264447921530257,"23":0.20159619387840882,"24":-0.17621257954091818,"25":0.07014687661118672,"26":-0.17759128942034694,"27":-0.1704912460659104,"28":0.12768422031633542,"29":-0.47620523540558923,"30":-0.03196817024844226,"31":-0.2728808422495088,"32":-0.29857047498869094,"33":0.011077436875561291,"34":-0.22665944421898235,"35":-0.255553819595394,"36":-0.15457625112608633,"37":-0.1412173969672876,"38":0.06446241532608533,"39":-0.028564675285916948,"40":-0.2064040082498775,"41":-0.16604947757433466,"42":0.0762998233310584,"43":-0.20175657710624575,"44":0.07039455610114438,"45":0.024882531745932083,"46":-0.02526053635553705,"47":-0.08990579192784436,"48":-0.1675410350056419,"49":-0.03551362060554675,"50":-0.1939092121491768,"51":-0.055459949175043696,"52":-0.1373395091715264,"53":-0.18180578234926636,"54":0.13616114259434267,"55":0.15150100692364313,"56":-0.18587612669969636,"57":-0.0028755327760199,"58":-0.164027762992957,"59":-0.11924786545155504,"60":-0.13851296420050777,"61":0.19284045412275028,"62":-0.05951476837532507,"63":0.03937912567117652,"64":0.17214851695802683,"65":-0.14940377792648532,"66":0.1006632297860484,"67":-0.15930372296941978,"68":-0.014616307698109081,"69":0.041273972057978156,"70":-0.04959637755445841,"71":0.09948672241436685,"72":-0.13691517727970395,"73":0.11119042410169666,"74":-0.14265745377996597,"75":0.005945084449066371,"76":-0.1321176230846021,"77":0.14288567182229714,"78":-0.0026185121626448975,"79":0.015549562398749025,"80":0.1373421057919134,"81":0.06732608122320236,"82":-0.11913041359017498,"83":0.004910794746328226,"84":-0.18326220525158282,"85":-0.18314106953351988,"86":-0.1975327050369366,"87":0.10205865593234537,"88":-0.13152555129227636,"89":0.0523723124609891,"90":0.17184683385583144,"91":-0.21813869311024575,"92":0.164994800156123,"93":0.06353611811508025}},"29":{"bias":-0.09011702024929542,"weights":{"0":-0.006166692855018114,"1":0.39874410091655105,"2":0.09017834663799319,"3":0.4382451871682766,"4":0.2856421955690839,"5":0.41028853219906963,"6":0.3649017559279803,"7":0.1917799846977903,"8":0.11481810617888635,"9":0.15971778478026183,"10":0.2384429254793586,"11":0.38604292925576583,"12":-0.06539658073488643,"13":0.3234148623181636,"14":-0.09557946527575872,"15":-0.08479407046441245,"16":0.186408660324634,"17":0.19701546454650065,"18":0.18698463505980994,"19":-0.12344483156550404,"20":0.1180155346294885,"21":-0.2052272535453416,"22":-0.07566687207187243,"23":-0.011733743689368718,"24":0.1739230111163457,"25":-0.1232051864427096,"26":0.12240980365361526,"27":-0.23350494017177295,"28":-0.18981872853444118,"29":-0.25169207213199574,"30":0.03683518709825743,"31":0.27001533815342726,"32":0.23115632264024233,"33":0.09616063009751416,"34":0.3312852255909333,"35":0.28896305247503806,"36":0.3332642004905695,"37":-0.11021066520814607,"38":0.2595225492022518,"39":0.03714406954492084,"40":0.07863808197025833,"41":0.024580552868706522,"42":0.12998317988985586,"43":-0.11310585608505984,"44":-0.08284387823395564,"45":-0.10820876706488226,"46":0.062484120667088916,"47":-0.09138440687278462,"48":-0.21004659274045676,"49":0.11362890838592841,"50":0.016095900188886385,"51":-0.0967595144057941,"52":-0.12068795168787921,"53":-0.06698539422981255,"54":-0.09938866215230567,"55":-0.29235274055634436,"56":-0.3311142109573474,"57":-0.33316816841360786,"58":-0.3164884789395195,"59":-0.11802396928957944,"60":-0.24302989977247771,"61":-0.19625178661869339,"62":0.04777370966529092,"63":0.047335527571234284,"64":0.00685112090607371,"65":-0.2702408536151274,"66":-0.12264811671209545,"67":-0.20181419594690408,"68":0.04692623768151229,"69":-0.2813494463691126,"70":-0.015598677046921491,"71":-0.1841279221845772,"72":-0.15262854993298297,"73":-0.07939903577805325,"74":-0.07840074149401541,"75":0.09824212335109185,"76":0.061965117591545,"77":-0.07662862260448079,"78":-0.1833377702714062,"79":-0.2566763851172163,"80":-0.07075885624685914,"81":0.0417035996412586,"82":-0.06662463585445468,"83":-0.035109529999473706,"84":-0.24813030189308258,"85":-0.09731165104079381,"86":-0.21574939304877036,"87":-0.20759875302238998,"88":-0.16402117681484848,"89":-0.20120991729146132,"90":0.06350766019522583,"91":-0.04417838381700571,"92":-0.0461611530418616,"93":-0.20279403668520615}},"30":{"bias":-0.021645841823590813,"weights":{"0":0.2796669820049264,"1":-0.02715156752183749,"2":0.01233741439520241,"3":0.22283349921067638,"4":-0.03337938988481124,"5":-0.04798478289578949,"6":0.2188417659291639,"7":0.18353807016230173,"8":0.2262453668763913,"9":0.16759646084524402,"10":0.04475947149650334,"11":0.13572980048967778,"12":0.055892577493049565,"13":-0.08183198771946028,"14":0.05353566949315055,"15":0.10969853656054458,"16":0.18423971549055276,"17":0.07318457914705764,"18":0.21369126481464903,"19":-0.06566565649365631,"20":0.11908541215619654,"21":-0.32915564098779165,"22":0.15086787868732252,"23":0.024384188851320102,"24":-0.09516414287879382,"25":0.1359121334093521,"26":0.09872947261328494,"27":-0.10051060805519998,"28":-0.18267673310737945,"29":-0.21964321590677652,"30":-0.1450098646177176,"31":-0.08269234062442735,"32":-0.1257779825173867,"33":0.06365450445193897,"34":-0.1812348115030565,"35":-0.1776573140029369,"36":-0.2023084970324041,"37":-0.024339789508209492,"38":0.01786075349096568,"39":-0.05943157576651131,"40":-0.011213537038392138,"41":-0.17739900456794983,"42":0.016978241776554225,"43":0.14305355943583944,"44":-0.16541482847987332,"45":0.11785554402113693,"46":0.11614943784150854,"47":-0.044115258094182284,"48":-0.08987398155849849,"49":-0.2927863014867892,"50":-0.11553439538076911,"51":-0.2052521897220596,"52":-0.009001521325753601,"53":-0.18831391543644058,"54":0.1399656740997295,"55":0.09644316469212867,"56":0.05232600894203745,"57":-0.1344048881082083,"58":-0.15851708638460582,"59":0.17287094485853127,"60":0.0038574609119100436,"61":0.11676770525677291,"62":0.04719922281737729,"63":0.02913396996249897,"64":0.020563026772379988,"65":-0.1383104253244704,"66":0.18882697933771328,"67":0.2112622882919015,"68":-0.031731739096734185,"69":0.019419084351389903,"70":0.009873357578164233,"71":-0.01607212596195583,"72":0.16540000849566378,"73":0.17501769489320645,"74":-0.01576762088617236,"75":-0.2038760145582069,"76":0.19881356643401227,"77":-0.08223946514938077,"78":-0.03386597554411827,"79":-0.014620131324619787,"80":-0.045225400029705314,"81":-0.07584090196214263,"82":0.11878737825772757,"83":0.1654403098333218,"84":-0.0725381363315986,"85":0.10049692205898202,"86":-0.14866954674451954,"87":0.1987613939256748,"88":0.054385171784664905,"89":-0.004259865196516344,"90":0.028174651858874,"91":0.08938733807798359,"92":0.051093025692518335,"93":0.05410153359634818}},"31":{"bias":-0.04548669399908387,"weights":{"0":-0.269077081495931,"1":0.3836850747870063,"2":0.024480853148580575,"3":0.4534333470905107,"4":0.29044335611855465,"5":0.22078276600007,"6":0.16684880112898362,"7":0.015013433656013557,"8":0.38034342769446566,"9":0.28727597552277684,"10":0.37698121615688596,"11":0.032141895380724504,"12":0.4814636875729957,"13":0.2170248723370125,"14":0.0017998874399695714,"15":-0.03361138557718606,"16":0.2055575819412353,"17":0.13345826706023667,"18":0.09053853814988247,"19":0.2122262821217028,"20":0.08939629935254524,"21":-0.26065395960188853,"22":-0.04836055139589481,"23":0.17038265459915225,"24":-0.01215998691707654,"25":0.13815977341429503,"26":-0.1243879816592522,"27":0.12301894428539406,"28":-0.07792033995030709,"29":-0.0702473540661977,"30":0.03720139452868834,"31":-0.07638321395770632,"32":-0.2752695876445012,"33":-0.04002483642338491,"34":-0.07887676489573238,"35":0.022421432348927905,"36":0.11388515904192163,"37":-0.02787223103921478,"38":-0.03235131889860795,"39":0.07787436339687694,"40":-0.03672974857206167,"41":-0.059260394342857556,"42":-0.10193750136023345,"43":-0.18598407109074525,"44":-0.21630501522181267,"45":0.06138306420932265,"46":-0.29661292365037084,"47":-0.25871636508292506,"48":-0.08083010315355377,"49":-0.3803146089568277,"50":-0.20474400923103073,"51":-0.14898298208585853,"52":-0.11647114856341835,"53":-0.42696779373238614,"54":-0.29811587227434083,"55":-0.34212413905448286,"56":-0.1371918030290506,"57":-0.21244575222197587,"58":0.033537415785527304,"59":-0.2772314686894293,"60":0.00797125497974056,"61":-0.01653017339903137,"62":-0.18403849106564665,"63":0.1324316214891215,"64":-0.2203160506412267,"65":-0.0019141042126385572,"66":-0.055744844254872195,"67":-0.024520390220376092,"68":-0.1959676131176545,"69":-0.1951637295986389,"70":-0.1333299081548507,"71":-0.24871249390374314,"72":-0.030404403002127867,"73":-0.016324500291508486,"74":-0.15836653038038637,"75":0.13728520909534778,"76":-0.041558571290801094,"77":-0.06781563481840103,"78":0.07173143031911125,"79":0.27533864376398,"80":0.1921977718163009,"81":-0.11887974256613197,"82":0.24857478106322792,"83":-0.04304326724679132,"84":0.2844433920172683,"85":0.15340203357059295,"86":0.11809308733365202,"87":0.30598676722777285,"88":-0.042365024272099205,"89":-0.07323110295634795,"90":0.06553445422107339,"91":-0.06645234794252859,"92":0.0639266451102005,"93":0.09743546526639006}},"32":{"bias":-0.11650676627397559,"weights":{"0":-0.17490546691713574,"1":0.026468226892691456,"2":0.016516037391637754,"3":-0.06679402726685758,"4":0.029293676718791718,"5":-0.09390146448910112,"6":-0.13491278902850973,"7":-0.17527370731798778,"8":0.11060528824448386,"9":-0.06850278441039463,"10":-0.160579850314536,"11":-0.27458133572510235,"12":0.16849103741973648,"13":-0.07733645706572409,"14":-0.08673373915552986,"15":-0.10331445910657237,"16":-0.06033259030542204,"17":0.048243512642877934,"18":0.10738586789101282,"19":-0.059088000580983624,"20":-0.1909394368358276,"21":0.1320741185049899,"22":0.1279280564437299,"23":-0.13453641595866608,"24":-0.12290086111927928,"25":-0.05671402504585193,"26":-0.016771174978020324,"27":0.17749062023542614,"28":0.21631851401001617,"29":0.00443019015134695,"30":-0.19600995557641837,"31":-0.07527176578672092,"32":-0.0849326177300715,"33":0.03872049223495322,"34":-0.29214023858517085,"35":-0.20026847792286598,"36":-0.20464216879644645,"37":-0.14024712738992445,"38":-0.1314363829296113,"39":-0.11323049153167984,"40":0.15638945107431731,"41":-0.18526047324456774,"42":-0.07732599347420503,"43":-0.14214106800439485,"44":-0.02799242980366982,"45":-0.17556638770583968,"46":0.07483990346967198,"47":-0.2146073214352141,"48":0.11451968259861661,"49":-0.12308780013975494,"50":0.1866769651922447,"51":0.07332518833095887,"52":-0.09953945488380263,"53":0.05898034719817261,"54":-0.03952609162661502,"55":0.0901394117686381,"56":0.18897058129986427,"57":0.07628388538975453,"58":0.24621847050661225,"59":-0.11183094335476798,"60":0.07586122484336616,"61":0.021078142821034544,"62":-0.111829004945373,"63":-0.09945381755838309,"64":0.03341370963535517,"65":0.12235021300780442,"66":0.21128841770557955,"67":0.11311621781801817,"68":0.2005099885347597,"69":-0.10924053436689751,"70":0.0011603953543300979,"71":0.008492725270235672,"72":0.17651710062532755,"73":0.10334553565995992,"74":0.2326551443620291,"75":-0.0000011871085078887206,"76":0.1885814597444891,"77":0.14284926997607186,"78":0.04507124660553235,"79":0.2558029001191025,"80":0.19816491451562845,"81":-0.010558779370947232,"82":0.15893262870680375,"83":-0.051392030208925375,"84":0.15524411945796748,"85":0.2238743200373835,"86":0.24418929947254897,"87":-0.101831951938079,"88":0.24623176187072593,"89":-0.11788218280825812,"90":-0.05292561753102118,"91":0.17717776301980662,"92":0.0963219447525404,"93":0.12548742276147928}},"33":{"bias":-0.037908674004531955,"weights":{"0":-0.3529007442183123,"1":-0.06859496961651074,"2":-0.18254131748364227,"3":0.15269717423606544,"4":0.05042601656775582,"5":0.11882934061354648,"6":0.16646612657599727,"7":-0.10396558525472784,"8":-0.011511732247481223,"9":-0.2333086717661903,"10":0.08389671306705355,"11":-0.007255426645156491,"12":-0.06311316378892141,"13":0.0859598187886779,"14":0.16936996916471533,"15":0.02639416664522547,"16":-0.10954613190002234,"17":-0.11329353736403013,"18":-0.03122127099934975,"19":-0.27856237318205856,"20":0.16383356574710026,"21":0.136054742624679,"22":-0.0860235392083817,"23":0.1218534776803076,"24":-0.06850196044022604,"25":0.013686279815466497,"26":0.26463407224478236,"27":-0.025211961947529032,"28":-0.1472777621918873,"29":-0.07147630114008524,"30":0.2646555051082982,"31":-0.09079765757040885,"32":-0.13154692094476322,"33":0.008716360653373771,"34":-0.16427364229873836,"35":0.11098792125874724,"36":-0.1486148207821137,"37":-0.015770201055913098,"38":-0.0620885616216192,"39":0.1912463213358405,"40":-0.08330935079199883,"41":-0.21095623542311487,"42":-0.003331323758091223,"43":0.13437016674660585,"44":0.13204576369107496,"45":-0.0012716508608578115,"46":0.2527568440361453,"47":0.04023157356104352,"48":0.12217891553813,"49":0.16258544910924952,"50":-0.15171270730993863,"51":0.23655142378366056,"52":0.19136776278466042,"53":0.0883488432102684,"54":0.19381588116805484,"55":0.15685084174877828,"56":0.18030981926282827,"57":-0.0025973029960691145,"58":-0.04557227052674912,"59":0.15307347150351175,"60":-0.12860011966323903,"61":0.07982160094517772,"62":-0.005873893556084068,"63":-0.02830473403360739,"64":0.2140880677544753,"65":-0.03870821513232977,"66":0.07997734423435478,"67":0.16551154672375412,"68":-0.03882231046892926,"69":-0.06719709458850022,"70":0.16482433281978123,"71":0.1978737003992105,"72":-0.013324199272166729,"73":0.1543300284798834,"74":0.19827557227159556,"75":0.0313519846459068,"76":-0.052160844261845286,"77":0.08272770598174817,"78":-0.17109335951568166,"79":-0.2139424733290992,"80":-0.25675713280324636,"81":-0.13973111013103293,"82":-0.020322311229308727,"83":0.027363079977910387,"84":0.08567175159089643,"85":-0.1806200109645817,"86":-0.21525645883174632,"87":-0.0015775886615319186,"88":-0.2607293507966458,"89":-0.2806594462216809,"90":-0.1228736767914819,"91":-0.20943231180217586,"92":-0.26898908155936424,"93":0.06228479533808638}},"34":{"bias":0.2868676150613616,"weights":{"0":0.1812186480089708,"1":0.25898598151597607,"2":0.19204821384710977,"3":0.16200717145721158,"4":0.23047163053357647,"5":0.34988923014441475,"6":0.3972417996242944,"7":0.03360867326972357,"8":0.0850586625344542,"9":0.24632850899163608,"10":0.15322059845193903,"11":0.27900731106278215,"12":0.08229055618108995,"13":0.19677598392229567,"14":-0.04744761256327232,"15":0.0018718360473983988,"16":0.0598535228362631,"17":0.024847101195589662,"18":0.06839628749407708,"19":-0.2990764654093719,"20":0.06946425265707772,"21":-0.20151025721659852,"22":-0.08848573191054582,"23":0.2071220734043756,"24":0.10406392616505739,"25":0.21183484536336145,"26":0.16348076061176411,"27":-0.15734659743432888,"28":-0.3284746432963675,"29":-0.5348374158421688,"30":-0.14358392082024593,"31":0.07988283157585743,"32":-0.17035557772172533,"33":0.012029441127343676,"34":-0.17418856709616015,"35":-0.13760070382086467,"36":-0.10818672157542628,"37":-0.30496119078161765,"38":-0.15485563564417976,"39":-0.17645007756911413,"40":-0.052997737726964846,"41":-0.1022934142042676,"42":0.10646642258242417,"43":-0.3309407810767073,"44":-0.2526816149346302,"45":-0.0182154423834968,"46":-0.29263299840673895,"47":-0.01522826866617158,"48":-0.5391439217446244,"49":-0.10970091043417457,"50":-0.43655515828403024,"51":-0.20907052404904944,"52":-0.22882515210781978,"53":-0.17941666080832872,"54":-0.17829934337704273,"55":0.12333375482374927,"56":0.03527335581580904,"57":0.013151960509113896,"58":0.022083912243763028,"59":-0.0820030818960864,"60":-0.054759696440182776,"61":-0.08991128416570912,"62":0.1338506982401898,"63":-0.05851600090058445,"64":0.10467128737719186,"65":-0.0172436408787749,"66":0.051437513952516556,"67":-0.10205928711804559,"68":0.03955378832525713,"69":0.022244268999139144,"70":-0.1282357166818085,"71":0.016324826058933997,"72":-0.027338780205138705,"73":0.20828577276071103,"74":0.14223491184743522,"75":-0.13438918763174684,"76":-0.20582068650382535,"77":0.09215330997966438,"78":-0.04179762068415464,"79":-0.25547303394260823,"80":-0.11690093051523014,"81":0.024027782114783545,"82":-0.2707265983729891,"83":-0.003236799570673734,"84":0.046668212064939596,"85":0.007099028556721322,"86":-0.006925075454691339,"87":0.020337659907859167,"88":-0.14452403750966047,"89":-0.2551150680653835,"90":-0.255182915141075,"91":-0.04145733673067034,"92":-0.2252315704625163,"93":0.03818290201355938}},"35":{"bias":0.11972934390121333,"weights":{"0":0.1451099043439001,"1":-0.11615886002713124,"2":0.07884230344306238,"3":-0.29020335798784885,"4":-0.2214849597443382,"5":-0.10780989756798519,"6":-0.27184735906211444,"7":-0.23284737934385671,"8":0.04970184083165807,"9":-0.1406562279534556,"10":-0.36594227609727203,"11":-0.11743595452336496,"12":-0.31520371533860153,"13":-0.10283817958316131,"14":-0.153701356667672,"15":-0.14517390508181963,"16":-0.19700066891802387,"17":-0.056177624855068796,"18":-0.2359665119594077,"19":-0.040993323582194326,"20":-0.053807984156977774,"21":0.13984348173836397,"22":0.18943146505912403,"23":-0.02802690480180239,"24":-0.19135553403196942,"25":0.0038337762259656686,"26":0.08863154833775824,"27":-0.061175415761950264,"28":-0.012068795741144552,"29":-0.41751986611378855,"30":-0.17370820354087538,"31":0.16909862055490732,"32":0.06418666783863093,"33":-0.12574719902851822,"34":-0.010180996705429317,"35":0.05211565941207342,"36":0.17831884721003233,"37":-0.08302509890075006,"38":-0.039524971298736396,"39":0.04655297443135371,"40":-0.05427080156790513,"41":-0.1831680683807777,"42":0.20210513528734897,"43":-0.0625196120791303,"44":-0.19013110339993475,"45":-0.12187627078396321,"46":-0.0002512142338563019,"47":-0.19189730128833546,"48":0.1316240717660708,"49":-0.12356239626843424,"50":-0.2972544220225489,"51":0.10890246725462534,"52":-0.19784023496320666,"53":0.16736868472695313,"54":0.22467487850471615,"55":0.2346757358247081,"56":-0.028489275744727503,"57":0.18074606895902723,"58":0.10036570927531531,"59":0.09407901444022589,"60":0.21692604275907298,"61":0.0593279709271893,"62":-0.016025538112179247,"63":0.001666517674497749,"64":0.12250216644657311,"65":-0.023563371089066202,"66":0.1930247897378335,"67":0.11028224133588777,"68":-0.012644376418829699,"69":0.05756804090894409,"70":0.15649866738520962,"71":-0.0709420535360258,"72":0.22054758771525818,"73":-0.08150010054827023,"74":0.18842049728435606,"75":0.16824300758019886,"76":-0.3057983035677238,"77":0.09308626452557785,"78":0.01838765048653365,"79":-0.1419225433794382,"80":0.07821200747760902,"81":-0.1281177520246993,"82":-0.07512264890491593,"83":-0.13689770371515975,"84":-0.29877122599329897,"85":-0.28516628534716326,"86":-0.11784293235511299,"87":-0.2527770699555554,"88":0.006612350493557287,"89":-0.05463009482569887,"90":-0.012215745423437523,"91":-0.2553583193440108,"92":-0.20989970983626752,"93":0.0825738686811484}},"36":{"bias":-0.07303429490130832,"weights":{"0":-0.5099731930807003,"1":0.1360050084324766,"2":-0.14230484210391772,"3":0.04434897563582504,"4":-0.07857295743483153,"5":0.23101403938526538,"6":-0.0015041777415532363,"7":-0.09520637777790464,"8":0.1855645446757384,"9":0.21524705941910485,"10":0.1871722722144267,"11":-0.0500106762426619,"12":0.22700448801467563,"13":0.17624620466717927,"14":0.01753575478394197,"15":0.12201536337265373,"16":0.120148580010424,"17":-0.1286474360430735,"18":0.00666062530224159,"19":0.11651904839291856,"20":-0.10943312732178215,"21":0.2472931791119606,"22":0.1903668573139364,"23":0.09466999988897085,"24":-0.15723319220251136,"25":-0.14354870873797093,"26":-0.1355080013758849,"27":-0.020396183441011913,"28":0.1153209086432947,"29":0.5483681792430284,"30":0.08642881040401991,"31":-0.08243102514711624,"32":0.17971136550601585,"33":0.06083854458829974,"34":0.08674736186131098,"35":0.02722583544999041,"36":-0.03503754652098135,"37":0.29770244426953374,"38":0.23107111975185107,"39":-0.12169577460583153,"40":-0.01605332972664841,"41":-0.10093556112770058,"42":0.11529126781011376,"43":0.0064217914919505155,"44":0.20874609431190458,"45":0.20647421218881576,"46":0.22799675214047313,"47":-0.04882766944155641,"48":0.22621929928883777,"49":0.11755834745377881,"50":-0.020819219559209064,"51":-0.009370718569390729,"52":0.26030931238835137,"53":0.21047555320857333,"54":0.12798977341483167,"55":0.02629741930274619,"56":-0.20468048795826116,"57":-0.12083065536303106,"58":0.0970769759797953,"59":-0.05422192507544358,"60":-0.21385906658434098,"61":-0.08955004198069905,"62":0.027735605986670266,"63":0.07283140225815156,"64":-0.08395747542724895,"65":-0.19182050157333977,"66":0.1358600356414184,"67":-0.08174273619389212,"68":0.13980730488074475,"69":0.1397227586647545,"70":-0.09188077175778177,"71":-0.24283482453940095,"72":-0.025797830625026434,"73":-0.1699937115131023,"74":-0.10908793685517852,"75":0.1292124038447658,"76":0.1263092071148996,"77":-0.13820032555876408,"78":-0.19172848798353576,"79":0.21368805439150823,"80":0.15288997883177352,"81":-0.07329380421546891,"82":0.19741973377046296,"83":0.11182229832401275,"84":0.1844568107050751,"85":0.07196142550128172,"86":0.12348884026579154,"87":0.15464004770199136,"88":0.22851163546070694,"89":-0.09001428325683639,"90":0.0435196504062917,"91":0.08076099994078823,"92":-0.16208506828459704,"93":-0.13851742819022966}},"37":{"bias":-0.07884469755193359,"weights":{"0":-0.5450856641175631,"1":0.3493283694388664,"2":0.1563646301186632,"3":0.22540426288489812,"4":0.24136257632854424,"5":0.22137234885770324,"6":0.1506866745557162,"7":0.21831026613576843,"8":0.21553189083664803,"9":0.0424288201143177,"10":-0.17115747953781,"11":0.21134640319471798,"12":0.1675508679167269,"13":0.38797583144670045,"14":0.11440472664584933,"15":-0.06338753709497644,"16":0.06481259644877214,"17":-0.1152974140751572,"18":0.07825783374193106,"19":-0.15144216944391992,"20":0.16686922785444658,"21":0.3015047493919914,"22":0.012998337411474234,"23":-0.0481717445981541,"24":-0.10758524205334477,"25":-0.11070153780792083,"26":-0.0024374302294970607,"27":-0.18845910418788012,"28":0.15114829633796303,"29":-0.19935239508698688,"30":-0.12069058542360737,"31":0.19373888854974305,"32":-0.15202995992682958,"33":0.18618923693449832,"34":0.04323409396686393,"35":-0.14634575962962962,"36":-0.1690000544830646,"37":0.05756402627393717,"38":0.1908188571678183,"39":-0.18185861380033208,"40":0.0167844125901487,"41":-0.1460880629671274,"42":0.05482589682058714,"43":-0.12958815032655896,"44":-0.1537077840599257,"45":0.11630091015995506,"46":-0.15618828277995028,"47":-0.17918106735949862,"48":-0.2888371263870873,"49":0.0984645522753536,"50":-0.18270305089475658,"51":-0.12830382147398023,"52":-0.10252740577352558,"53":-0.12226106542391138,"54":-0.022085452331769062,"55":0.09350902175996077,"56":0.29902182037130404,"57":0.31138622299117247,"58":-0.03274914785214524,"59":0.27769466788407116,"60":-0.00486211592768194,"61":0.21019320738489086,"62":0.12043271240265364,"63":0.26061138879403206,"64":0.14630461725484067,"65":0.18234811168673545,"66":0.14200537623417478,"67":0.22566961696348836,"68":0.062449709632233244,"69":0.2702821951088613,"70":0.19820574679655692,"71":0.07582529113072112,"72":-0.04731963523220002,"73":0.28983203281696024,"74":-0.08352537815182497,"75":0.005742826218759696,"76":0.025653165209942777,"77":-0.09537488398340895,"78":0.012498481767537305,"79":-0.18335681995778355,"80":-0.01659990635568894,"81":-0.2554545001041784,"82":-0.26971594553383854,"83":-0.028507946135432487,"84":0.030307353568921187,"85":0.03263913704861736,"86":-0.02368400088377561,"87":-0.03747404553987,"88":-0.22435298185545494,"89":-0.3225091308997802,"90":-0.12302192960270367,"91":0.033095717684357526,"92":-0.27868699334969405,"93":-0.2237853118292717}},"38":{"bias":-0.17901263266336723,"weights":{"0":-0.3662208108020792,"1":-0.06332206733313818,"2":-0.06769005479885688,"3":0.04454658746908577,"4":0.18220446116092254,"5":-0.22093600283149684,"6":-0.11056167210948888,"7":0.06823502776164866,"8":-0.14950707776832747,"9":0.041999286409252705,"10":-0.15655145524095093,"11":-0.08744513782044394,"12":-0.41159819326591846,"13":-0.20543156011547367,"14":0.008152553198078815,"15":-0.18289086914706051,"16":-0.07914563531960381,"17":0.034046426768968095,"18":0.18311394416110488,"19":-0.21132351297966012,"20":0.18366045163635314,"21":0.4355039201809224,"22":-0.17668421537409867,"23":-0.10131578269708068,"24":0.030671015393134948,"25":-0.12207334952103231,"26":0.21310999398314534,"27":-0.2264786166616524,"28":0.22373360045011617,"29":-0.17536349771602952,"30":-0.13973382328718523,"31":-0.05252191645512861,"32":-0.06978855530936184,"33":-0.16246761676663612,"34":0.1755033273066864,"35":0.17492469781144623,"36":-0.09096433154167302,"37":-0.19663744021557572,"38":0.00990416642436098,"39":0.14921334018422036,"40":-0.013514561982024503,"41":0.11242243380759184,"42":0.21749960230878954,"43":0.004640436753975348,"44":0.06421746315340778,"45":0.03626597705843831,"46":-0.04020479715355521,"47":0.15618865097864507,"48":0.17292100515504008,"49":-0.14489868460978086,"50":0.129274804380793,"51":-0.05960267810794076,"52":0.10020890690396564,"53":0.0166118670009186,"54":0.3715310904033028,"55":0.07489479221458935,"56":0.3743013380493966,"57":0.2568683722262641,"58":0.2770675487102149,"59":0.22987888104946563,"60":0.3077116104589236,"61":0.29949338649111634,"62":0.18902545747789076,"63":-0.03758756885569938,"64":0.2986834443481768,"65":0.1362757074094553,"66":0.003046977724251422,"67":0.30223062953065466,"68":0.13687081550403182,"69":0.14813440988612364,"70":0.3126739823131579,"71":0.20814836133557907,"72":0.04282504593416171,"73":0.08159386617946743,"74":0.14637556350658326,"75":-0.016939366976647757,"76":-0.017258026481070683,"77":-0.12126051202950919,"78":-0.18358460442226907,"79":-0.22434816333984445,"80":-0.01714351936870905,"81":0.1259855371392736,"82":-0.16188381260343165,"83":-0.1500431613383887,"84":-0.3088287995887139,"85":0.03999767968397852,"86":-0.0824339769472137,"87":-0.27805373661400656,"88":-0.02857243026410042,"89":-0.25183775817817483,"90":-0.08882069017642095,"91":-0.20035266298453241,"92":0.03550535527689773,"93":-0.18850185872033545}},"39":{"bias":-0.0030484806778794693,"weights":{"0":-0.012067347635841415,"1":0.08199231096138286,"2":0.11427743642971346,"3":0.04960117242334455,"4":0.021832684536849584,"5":-0.0076849441547759976,"6":-0.06023002588670224,"7":-0.05036921077590776,"8":0.13971302998524418,"9":0.12878956968052613,"10":0.1278882815516669,"11":0.09757949371640373,"12":0.3227208471879896,"13":0.11772481195078896,"14":0.19781874588536874,"15":-0.027465945781363143,"16":0.10360279895214977,"17":-0.09236642998136299,"18":-0.08824500389624387,"19":-0.031305241054548225,"20":0.14079673357374217,"21":-0.21778957565947082,"22":0.0053788614229295225,"23":0.047176793053089014,"24":-0.05439241823326874,"25":0.049935842880080086,"26":-0.17722121431694277,"27":0.16320849811109703,"28":-0.09600161947541526,"29":-0.14962004058266445,"30":0.027813783615826787,"31":-0.20662985925105393,"32":-0.06374691268384532,"33":-0.09153099419741181,"34":0.05892421611453093,"35":-0.18109700285813624,"36":-0.31174936197135,"37":-0.09600200599060367,"38":-0.14620288034940654,"39":-0.1876499742935313,"40":-0.2705611816809022,"41":0.06276298343701898,"42":-0.10255054396703635,"43":0.20352638272113785,"44":0.12295369103000935,"45":0.028686739883791078,"46":-0.014786418993161774,"47":-0.0748693069681842,"48":0.022196145725020947,"49":-0.17595020165001196,"50":0.07717168870976136,"51":-0.05694447785160016,"52":-0.15208819753129132,"53":-0.12646289011547357,"54":-0.16813220854936822,"55":-0.1656493825332133,"56":0.07818580090582618,"57":0.043165775708992174,"58":-0.05133655258969956,"59":-0.23818202709685876,"60":-0.13305075965365926,"61":0.07818696620920017,"62":-0.13685351246122734,"63":-0.027105951016668347,"64":-0.08608849009130329,"65":-0.10044803314402245,"66":-0.11341734380154386,"67":0.0028724542228407324,"68":0.15835643347969824,"69":-0.17303795676212513,"70":-0.1108577408625642,"71":0.11683359760741698,"72":-0.07297580947798904,"73":0.029238328548734007,"74":-0.17249445040903283,"75":-0.15520352638711477,"76":0.26141293927652215,"77":-0.056239809122593125,"78":0.1863674579326214,"79":0.22802982416429043,"80":-0.08803180679065524,"81":0.21667667249236258,"82":0.20227724116244797,"83":-0.01943473478570441,"84":0.09690194587680753,"85":0.18745793190214638,"86":0.20059579640194425,"87":-0.04080909041829244,"88":0.05733203691219874,"89":0.11381133694432896,"90":0.069258331129337,"91":-0.036500323760678306,"92":0.15635238276902114,"93":-0.025674300248169604}},"40":{"bias":0.09589193263496361,"weights":{"0":0.199626015424793,"1":-0.18826614800647135,"2":0.14757310606093646,"3":-0.1013300077202008,"4":0.08040306836235289,"5":0.01368575092161246,"6":-0.09612663138232437,"7":-0.11959110572071202,"8":0.02280949812351911,"9":-0.06891209991744977,"10":-0.076015710043375,"11":0.022781718872206546,"12":-0.3226856195261681,"13":-0.04044856602722164,"14":-0.08647170357684246,"15":-0.058876047778993454,"16":0.006744058284460467,"17":-0.0236188392746734,"18":-0.0619408106833841,"19":-0.094113957340544,"20":-0.07741451547087459,"21":0.2781416983385027,"22":-0.1618874804579295,"23":-0.16084912028981674,"24":-0.028365867778022552,"25":0.17978500710621273,"26":0.18302155612469717,"27":0.1061699848367813,"28":-0.3613194161417668,"29":0.11622436537670103,"30":0.028427770574572363,"31":-0.24844224365184545,"32":-0.13762367380576307,"33":-0.1292169862025515,"34":-0.14009405671033004,"35":-0.23833701098035262,"36":-0.0329285674272526,"37":-0.13817051133151856,"38":-0.0869536134629636,"39":0.14394825275299925,"40":-0.010659801158223191,"41":-0.3159878164187429,"42":-0.1011942026115882,"43":0.17673810811875318,"44":0.2438370333706189,"45":-0.011469338398622287,"46":0.20515639380279638,"47":0.11226433865398808,"48":-0.013340119786139982,"49":0.2150106548213558,"50":0.15282654044013003,"51":0.32063504792555936,"52":0.024537516251710627,"53":0.16923235011824733,"54":-0.08475954893590013,"55":0.04986395354490071,"56":-0.019440653379068855,"57":-0.1839511756270176,"58":0.1290436306962856,"59":0.0008202277064845787,"60":-0.06882395436955703,"61":-0.0006183378848334239,"62":-0.059368078541495554,"63":-0.05923582836752984,"64":0.03314378536357635,"65":0.07606069510103203,"66":-0.20459428164268623,"67":0.09453803939195521,"68":0.05239378879730968,"69":0.16965454267728303,"70":0.08269280973556738,"71":-0.1307281492539606,"72":-0.016663719022192252,"73":0.0044571487135561015,"74":-0.07257588927032535,"75":-0.10853139172569949,"76":-0.07760064084736129,"77":0.1126923800985276,"78":0.10838848333939383,"79":-0.2826872372292178,"80":-0.25463131877237405,