{"layers":[{"0":{},"1":{},"2":{},"3":{},"4":{},"5":{},"6":{},"7":{},"8":{},"9":{},"10":{},"11":{},"12":{},"13":{},"14":{},"15":{},"16":{},"17":{},"18":{},"19":{},"20":{},"21":{},"22":{},"23":{},"24":{},"25":{},"26":{},"27":{},"28":{},"29":{},"30":{},"31":{},"32":{},"33":{},"34":{},"35":{},"36":{},"37":{},"38":{},"39":{},"40":{},"41":{},"42":{},"43":{},"44":{},"45":{},"46":{},"47":{},"48":{},"49":{},"50":{},"51":{},"52":{},"53":{},"54":{},"55":{},"56":{},"57":{},"58":{},"59":{},"60":{},"61":{},"62":{},"63":{},"64":{},"65":{},"66":{},"67":{},"68":{},"69":{},"70":{},"71":{},"72":{},"73":{},"74":{},"75":{},"76":{},"77":{},"78":{},"79":{},"80":{},"81":{},"82":{},"83":{},"84":{},"85":{},"86":{},"87":{},"88":{},"89":{},"90":{},"91":{},"92":{},"93":{},"94":{},"95":{},"96":{},"97":{},"98":{},"99":{},"100":{},"101":{},"102":{},"103":{},"104":{},"105":{},"106":{},"107":{},"108":{},"109":{},"110":{},"111":{},"112":{},"113":{},"114":{},"115":{},"116":{},"117":{},"118":{},"119":{},"120":{},"121":{},"122":{},"123":{},"124":{},"125":{},"126":{},"127":{},"128":{},"129":{},"130":{},"131":{},"132":{},"133":{},"134":{},"135":{},"136":{},"137":{},"138":{},"139":{},"140":{},"141":{},"142":{},"143":{},"144":{},"145":{},"146":{},"147":{},"148":{},"149":{},"150":{},"151":{},"152":{},"153":{},"154":{},"155":{},"156":{},"157":{},"158":{},"159":{},"160":{},"161":{},"162":{},"163":{},"164":{},"165":{},"166":{},"167":{},"168":{},"169":{},"170":{},"171":{},"172":{},"173":{},"174":{},"175":{},"176":{},"177":{},"178":{},"179":{},"180":{},"181":{},"182":{},"183":{},"184":{},"185":{},"186":{},"187":{},"188":{},"189":{},"190":{},"191":{},"192":{},"193":{}},{"0":{"bias":0.16466389783066018,"weights":{"0":0.18244852330006228,"1":0.0005723917136046604,"2":0.16008368633161565,"3":0.06299193101447909,"4":0.16353970981677735,"5":-0.04478342091199606,"6":-0.10988584227807499,"7":-0.0701797590668246,"8":0.09881023600701268,"9":-0.03123053714135266,"10":-0.05888391890386178,"11":-0.1944103758183026,"12":0.09661509400297454,"13":-0.11877671273471523,"14":-0.042461249738218715,"15":0.17763205301111346,"16":-0.13653187478449752,"17":-0.17790820538882357,"18":0.041009929976395465,"19":0.09886576230509758,"20":0.08983831381721064,"21":-0.14805802362259055,"22":-0.027263463061759922,"23":-0.05598775528788373,"24":-0.11741814734070143,"25":-0.058587029484096664,"26":0.14870221441511833,"27":-0.1480315812249538,"28":0.13136420310617938,"29":-0.14935639996988778,"30":-0.14927122201661575,"31":0.10396578001238603,"32":-0.12592978648901823,"33":-0.019045172266450524,"34":0.06830968834493256,"35":0.20318326302327466,"36":0.21433890573288908,"37":0.057769662450860425,"38":0.03400508581655566,"39":-0.031159123991063187,"40":0.13168904607330179,"41":0.10292608876429933,"42":-0.010226787573581923,"43":-0.11600082953229898,"44":-0.09235302830479325,"45":-0.022592403297112214,"46":0.3200618225628447,"47":0.07631381733716595,"48":0.17032092623479378,"49":0.05917274138818986,"50":0.18467698998564935,"51":0.06269657539203595,"52":0.037653470501865204,"53":0.021167693198341483,"54":0.060255827460340236,"55":-0.010675220900637111,"56":-0.20229921589623395,"57":0.06951866204470084,"58":-0.1599897159513864,"59":-0.2725086485461638,"60":-0.28231927549730923,"61":-0.27377712975605223,"62":-0.009515973451959314,"63":-0.00796832034865711,"64":0.08612511990407407,"65":-0.1561908394714291,"66":-0.07738909396224009,"67":0.1131171140152712,"68":0.0919988633818622,"69":-0.17309158539806838,"70":-0.12425391756955241,"71":-0.15129214530172574,"72":-0.06695642800918039,"73":0.05692095272182445,"74":-0.18870677313524065,"75":-0.02939858302291927,"76":-0.010885042025897629,"77":-0.16373383639294392,"78":0.06408986500837296,"79":-0.20672539750020175,"80":0.05302527688645627,"81":-0.1334028446925711,"82":0.06781579733778408,"83":-0.13172017478198841,"84":-0.123630666889655,"85":-0.0681919472260226,"86":0.029184776176765025,"87":-0.0540387829441084,"88":-0.19785711656928553,"89":0.017088927423049894,"90":-0.0166035215325478,"91":-0.1814536325736089,"92":-0.2607820499660928,"93":-0.1193053016189677,"94":-0.08301059842391333,"95":-0.09571432393803943,"96":0.10839602675937682,"97":-0.03844472191377349,"98":-0.11184445789798743,"99":0.23549158944498677,"100":-0.06540751949881062,"101":-0.041074614955178224,"102":-0.11939253703741533,"103":-0.11621128031599945,"104":0.14547011675200872,"105":-0.06979118574105637,"106":0.0806768200398244,"107":0.20042879932555677,"108":0.10971371482178006,"109":-0.15725103439549165,"110":-0.12517741897080942,"111":0.016676144197615993,"112":0.22030946800727702,"113":-0.09150611885105095,"114":0.0478254823165603,"115":0.15821601647997283,"116":0.10739141249940007,"117":0.13993860392083213,"118":-0.06601449275947763,"119":0.021391175034452765,"120":0.16529125938947647,"121":0.17835871975951362,"122":-0.10325527247828367,"123":0.11543902590400792,"124":-0.08164494208707525,"125":0.169045890792772,"126":-0.168553855324804,"127":0.0038325331491099054,"128":-0.14375753152405335,"129":-0.02561275745628177,"130":0.05883094313560146,"131":0.06873002576761642,"132":-0.1632610592876103,"133":0.16643219598816716,"134":0.02218935353019911,"135":-0.06444545140356558,"136":0.02867817118423297,"137":-0.08470832836010236,"138":0.1955533445671177,"139":-0.11572889627787268,"140":-0.01959911370528688,"141":0.019725071487275692,"142":-0.15449295669697807,"143":-0.03229970869845152,"144":0.15790162415372924,"145":0.153561604760491,"146":0.14388731705272276,"147":0.049782563512568025,"148":-0.028741440908964737,"149":0.06922321234080663,"150":-0.06809466039497869,"151":-0.10455112185331082,"152":-0.16492934530901773,"153":-0.13098983275332346,"154":0.024736987919673735,"155":0.05151379862823037,"156":-0.04004205574020314,"157":-0.0027113407181825113,"158":0.07581641685871864,"159":-0.20704226844824333,"160":-0.04228765166093661,"161":-0.2154990951329638,"162":0.07774994732810163,"163":-0.13001555170702314,"164":0.06590247335564518,"165":-0.11431128772591499,"166":0.051656282654925306,"167":-0.07216240059976008,"168":0.050512004289463674,"169":-0.15002836592637822,"170":0.11574900531663977,"171":0.0610424222411633,"172":0.030156609458306588,"173":-0.03868869522018062,"174":0.12863010749349324,"175":-0.17267074954037692,"176":0.0026603269090741716,"177":-0.09675979388763592,"178":-0.04745269903072241,"179":0.1801953755676657,"180":0.19667655421909297,"181":-0.06616546531810802,"182":0.027608115543697492,"183":-0.0005654032073305262,"184":-0.13651958911277276,"185":0.18882614747658538,"186":-0.18706580256429511,"187":0.14840493513410236,"188":0.014532256349576259,"189":0.0012785750861197581,"190":-0.13358801420192434,"191":-0.1301571901747715,"192":0.09672480183061814,"193":0.1983376700398667}},"1":{"bias":0.09506814217122805,"weights":{"0":-0.24069692429326062,"1":-0.021512070174915708,"2":0.10614504504354025,"3":0.2973558603473098,"4":0.06044827489482567,"5":0.06419419412643416,"6":0.1819361924525364,"7":0.08867562148012742,"8":0.015263345609282409,"9":0.18037871183053417,"10":0.28615868645999587,"11":0.28609603962193647,"12":0.1618267421722878,"13":0.10089616389359603,"14":0.015724247759878313,"15":0.24035205478959729,"16":0.18841062982793552,"17":-0.03934386992436925,"18":0.04572714236728262,"19":0.22745788544010215,"20":0.19474177834104522,"21":-0.08708238179677624,"22":0.09684032892223804,"23":0.021643772079641396,"24":-0.14303633068674937,"25":-0.00042483872941877834,"26":0.16760036766490685,"27":-0.03574313344704015,"28":-0.13445685199554977,"29":0.034487234713351335,"30":0.056276023888778205,"31":-0.3323026819959416,"32":-0.21574637926441853,"33":0.01777778268144686,"34":-0.10519057953952986,"35":-0.1447300920099504,"36":-0.10200375654256368,"37":-0.1905130795212043,"38":-0.03471949570898361,"39":-0.13910467723284983,"40":0.13389081264210156,"41":-0.09031568842043272,"42":-0.027238718005672215,"43":0.013969939913010557,"44":-0.11576217789916778,"45":-0.10596958709763935,"46":-0.010924994707869715,"47":-0.1681048418122902,"48":-0.20858304373248446,"49":-0.06757283192063585,"50":-0.30246416375212526,"51":-0.19868050258939002,"52":-0.03857458448991478,"53":-0.011609851331304911,"54":-0.27800461637466817,"55":0.010309809936110526,"56":0.08852723728365246,"57":0.16099112705689003,"58":-0.15952565204791627,"59":0.04665990333411174,"60":-0.0730078102327975,"61":-0.026799673767210517,"62":-0.18470328585971307,"63":-0.16903587368083553,"64":0.07307040299843277,"65":0.09849032151405003,"66":0.04829896286615305,"67":0.13089615260469525,"68":-0.07780645574430493,"69":-0.021808324946613014,"70":-0.07162178907571418,"71":0.18089516310543735,"72":-0.11766735358845354,"73":0.17623491938637537,"74":-0.051567423826886456,"75":0.1344770471285856,"76":0.12453689290773012,"77":0.1311949857098284,"78":-0.019601872693733365,"79":0.19706206177879895,"80":-0.000833816296597715,"81":-0.09477283778025175,"82":0.19114057973866008,"83":0.1535218293999653,"84":-0.13097697813744685,"85":-0.10556778764514456,"86":0.0525857172769758,"87":-0.11355717620111008,"88":0.08757526455643402,"89":-0.10912185257009621,"90":-0.13659335403334794,"91":-0.016221293338129914,"92":0.04969730148194875,"93":-0.019301014536569887,"94":-0.15692074183832494,"95":0.08229343696661556,"96":0.239272840133625,"97":0.29066230488786626,"98":0.22858240252457823,"99":0.028505675022469725,"100":0.04224054719429464,"101":0.010003290029880466,"102":0.20656584190310776,"103":0.05252218088307298,"104":0.13498615114634666,"105":0.2183895894299885,"106":-0.14680829033333284,"107":-0.17946529098100955,"108":0.022747539795847697,"109":0.022110935002863714,"110":0.18070505301558432,"111":-0.007701014532843534,"112":0.1085873584499845,"113":0.08538011341063016,"114":0.039698546360658164,"115":0.0709193186443337,"116":0.08100169281170586,"117":0.1224397700997441,"118":0.17974017739082124,"119":-0.058955284069457686,"120":0.05562479986640393,"121":-0.23689402119863376,"122":-0.13753054205327062,"123":-0.10113328863746161,"124":-0.08706562305618423,"125":0.10239220139487706,"126":-0.08086189194637944,"127":-0.03860781073343483,"128":0.028332511006065562,"129":-0.13628209629425472,"130":-0.1133210658610237,"131":0.07018729041659641,"132":0.05015720209231249,"133":-0.1189724633627319,"134":-0.08286699890508598,"135":0.09013553516653375,"136":0.14762429488691534,"137":-0.0434889327617162,"138":0.07218437322441953,"139":0.11460255941393925,"140":0.007964080379777803,"141":-0.05750911765302784,"142":0.07710413920831828,"143":-0.26037336853602466,"144":-0.0013222699837326958,"145":-0.04578661960906309,"146":-0.05302121306550622,"147":-0.05164067480095992,"148":-0.18486250184051328,"149":-0.14463425915092853,"150":0.04898285069873063,"151":0.011911216200103865,"152":0.18429084716500574,"153":-0.19394003623278533,"154":-0.18539981189593566,"155":0.11978223238446038,"156":-0.19132030156190358,"157":0.0006875481927852469,"158":0.07623152090334555,"159":-0.1416914401917263,"160":0.18248580319905508,"161":-0.05367457490911686,"162":0.0942243364373591,"163":-0.00576591419951419,"164":-0.034573245558553935,"165":0.09903111475062785,"166":-0.08944931442310536,"167":0.0036670829290012296,"168":0.18776474575271815,"169":-0.0047396219583199055,"170":-0.12859820101226002,"171":0.15234250267688784,"172":-0.056483473819377746,"173":-0.043011111879284955,"174":0.0023756216744073603,"175":-0.11549092430722911,"176":0.032384608974682455,"177":-0.1000797888837683,"178":0.12046187967693368,"179":-0.16222690952376892,"180":-0.18509106045724533,"181":-0.0957992243632388,"182":-0.16330282655475042,"183":-0.12284929918369344,"184":-0.1870612765299148,"185":-0.11316478275453541,"186":0.021105288091302167,"187":0.02628724556255064,"188":-0.1886675925062721,"189":0.0415767772337486,"190":-0.07454159643698131,"191":0.05010069769216835,"192":0.26483212942850687,"193":-0.0363674922560458}},"2":{"bias":-0.14854133589197466,"weights":{"0":0.054469003054573306,"1":0.10993479095097693,"2":-0.06733423259503009,"3":0.15038930143358528,"4":-0.03847148284077968,"5":-0.1184905945819132,"6":0.0023913530581054997,"7":0.1647883446372274,"8":-0.06731465363002236,"9":-0.16143698035892023,"10":0.008870766183709996,"11":-0.08507983304373459,"12":-0.08723136542671593,"13":0.18879891723831724,"14":-0.14187598529754553,"15":-0.0157958367603695,"16":-0.012792076158341385,"17":-0.09510738194565896,"18":0.16850688354806337,"19":-0.05456746717174293,"20":0.002690292511529529,"21":0.14644051165942693,"22":-0.0836257260799936,"23":-0.1153928062890743,"24":-0.05793774883264669,"25":0.10279923016342488,"26":0.18229379013355243,"27":-0.17784765112832115,"28":0.029333876842136127,"29":-0.20052411934657613,"30":0.2884167949271022,"31":-0.1726510833843741,"32":0.10387511651050092,"33":-0.0031860335744777002,"34":-0.03703668938168843,"35":0.11739170179363165,"36":0.16699940020257145,"37":0.09697979167769372,"38":-0.08955757234313591,"39":-0.06690094293160953,"40":-0.1644862598380711,"41":0.0363026347814011,"42":0.18577634792286205,"43":0.22217703680311082,"44":0.003792285253485163,"45":-0.19005192323012998,"46":-0.002873827384765592,"47":-0.2015686540867174,"48":-0.15975275616610993,"49":-0.07702084093729379,"50":-0.007944582219558327,"51":-0.01689425473849665,"52":0.008675343708082693,"53":-0.13667668740234618,"54":-0.18630160601869633,"55":0.16012333822942185,"56":0.03930677782245429,"57":0.22872744328593964,"58":0.23887071806988014,"59":0.18305095309648123,"60":0.06164394849546051,"61":0.23571700940972068,"62":0.09169578633766118,"63":0.16065924392021272,"64":-0.0067210318361763674,"65":0.11926681902767762,"66":0.12422641985445734,"67":0.009285356981156423,"68":0.05114553983219653,"69":-0.015284495108735079,"70":-0.04760147579565101,"71":-0.0074958020817628545,"72":-0.04091007984162959,"73":-0.13466718489855425,"74":0.16881924907663792,"75":0.1077916679187,"76":-0.09134921024583349,"77":0.209810287556164,"78":0.03808483067931334,"79":0.15468629408712956,"80":-0.17182881511159095,"81":-0.03237299875747161,"82":0.03467632848463677,"83":0.2145433556651143,"84":-0.16627588832563422,"85":0.17252752180178482,"86":-0.027096638920640997,"87":0.19633660211242746,"88":-0.010504293865578513,"89":-0.03906938633599907,"90":-0.13896886268314027,"91":0.016002256224793027,"92":0.04106096453045299,"93":0.14441223176098086,"94":-0.09169626099844531,"95":0.10923496704735275,"96":0.08329515017163733,"97":0.08005698860934221,"98":0.06969159793115982,"99":0.10897839306477505,"100":-0.05427173336916352,"101":-0.14807284255368025,"102":-0.010874491076404678,"103":-0.16021672585562222,"104":0.10379689411817607,"105":0.1270404216916456,"106":0.1383704778296833,"107":-0.09185759250670511,"108":0.10714155385060893,"109":-0.10619419574698498,"110":0.1142501336388662,"111":-0.1663373188933897,"112":0.08712134276468171,"113":0.09571122829631241,"114":0.1503057743745358,"115":-0.1535476013651927,"116":-0.07407355412562587,"117":0.1585220871931951,"118":-0.018528031475857704,"119":-0.12559165523483737,"120":0.17380590746333563,"121":-0.09852904728358577,"122":0.14668742582597405,"123":0.025075383561426707,"124":0.06210543047229946,"125":0.06259296281265896,"126":0.16398440809432158,"127":0.09505914094103783,"128":0.010061365169634153,"129":-0.12096912753169582,"130":-0.18910779822330234,"131":0.07699207171819365,"132":-0.16514108550652912,"133":-0.15669676705364205,"134":-0.032317726345859416,"135":0.0827512744952824,"136":0.09675057635904448,"137":0.16207036840225758,"138":-0.09774556648773482,"139":-0.09477086329220107,"140":-0.005059509786218074,"141":-0.13357255011176727,"142":-0.03807572137579441,"143":0.05439341173087744,"144":0.05791454234765804,"145":-0.12495147391617294,"146":0.1190551321811225,"147":0.13883863727937723,"148":0.13857875777696343,"149":-0.12867752222874762,"150":0.050211199658721097,"151":0.036772229503175664,"152":0.20298411511777104,"153":-0.02915469078391581,"154":-0.0782633886610701,"155":0.17232944646689013,"156":-0.11640763295579523,"157":0.039867651125178656,"158":-0.18637848744486818,"159":0.19233250493147058,"160":-0.11553935168271795,"161":0.14812044193072216,"162":0.10132148961741769,"163":-0.00799165378307912,"164":-0.10795946399454018,"165":-0.051640495099669746,"166":0.06687027018572915,"167":0.167187658440077,"168":-0.002829054713655098,"169":-0.07856440807180644,"170":-0.14004544782267522,"171":0.07686849913156012,"172":0.09341759021429923,"173":-0.1784109289348074,"174":0.15043011918398358,"175":-0.05356453811332266,"176":0.09909263281930951,"177":0.14105621176475758,"178":0.0657974301245333,"179":0.007847269514327574,"180":-0.01453036929964478,"181":0.13132437288215543,"182":-0.02620064620655837,"183":-0.14739862501975284,"184":-0.14428791936514057,"185":0.14047223740729464,"186":0.05037415461737809,"187":-0.05365714500440572,"188":0.00756546967413984,"189":-0.09361921186484191,"190":-0.03865183054928129,"191":-0.13415513024080059,"192":-0.049105234634575175,"193":0.01205126717362686}},"3":{"bias":-0.11165859073985855,"weights":{"0":0.26392782460598807,"1":0.10148903966163744,"2":0.03169110772690455,"3":-0.17074786453704488,"4":-0.11681473352336089,"5":-0.06285721174386966,"6":0.02217821281796635,"7":-0.18849448561634405,"8":0.12099639025993275,"9":0.09216404768260753,"10":-0.18806127264983055,"11":-0.07944006977147021,"12":-0.0773468871351231,"13":0.11454643713504335,"14":-0.15541348070844668,"15":-0.10548540727874911,"16":0.02195248931426132,"17":0.11009151587796283,"18":0.16270479637622964,"19":-0.10419798643590931,"20":0.11036208177430562,"21":0.010122593637468029,"22":0.1980653509435249,"23":-0.1169293062064805,"24":0.09965479351508376,"25":0.09289012767539032,"26":0.007224757267370733,"27":-0.07804734054188629,"28":0.05867963591793456,"29":-0.06882067576906845,"30":-0.03033287826518485,"31":0.07679880614504174,"32":0.08887724191141315,"33":0.03448281310322976,"34":-0.21468493202694372,"35":-0.1943149543296405,"36":0.13199646988546931,"37":-0.1816942739427967,"38":-0.027955114226128105,"39":-0.12649715605675596,"40":-0.08464213794503474,"41":0.08104868720015512,"42":-0.09163501913704762,"43":-0.1353762442463537,"44":0.09042174735419656,"45":-0.20163004597469067,"46":0.14255634047604954,"47":0.03862785482500539,"48":-0.02586958878874238,"49":-0.11322387205852835,"50":-0.1477484029652978,"51":0.10920079188979613,"52":0.04379024351812211,"53":-0.18514998364882643,"54":-0.018204153269380158,"55":-0.2176605653895969,"56":-0.1630055877193202,"57":0.008319915452400807,"58":-0.031459520673095515,"59":-0.08973615565632238,"60":-0.22440636090319713,"61":-0.05751984147869971,"62":0.023611986406037844,"63":-0.11742513305673885,"64":0.04630416474289294,"65":-0.16613640467209448,"66":-0.18737814609617728,"67":0.1345018536452869,"68":-0.019095347699111462,"69":-0.0562387914228481,"70":-0.09638918494751603,"71":-0.021079039143629165,"72":0.08890840113135226,"73":-0.02138494970824701,"74":0.025575159047582747,"75":-0.16224017994097129,"76":-0.16908676855571964,"77":-0.201867389058074,"78":-0.14423520417736477,"79":-0.11194671229374067,"80":0.05144700007158731,"81":0.17913460179818538,"82":-0.14985717555598732,"83":-0.08201629931597101,"84":0.10885998209141783,"85":-0.16172815597074366,"86":-0.16957184538278353,"87":0.013055114022095646,"88":-0.171644299161474,"89":0.007386159352770538,"90":0.12865189135814525,"91":0.1503322640386318,"92":-0.15932154433067983,"93":-0.06928897386130652,"94":-0.08665265710850802,"95":0.07221805450157552,"96":-0.08819661131951033,"97":0.1879358390691183,"98":0.16489099607998003,"99":0.10311505462909491,"100":-0.12889661268783403,"101":-0.10807087778695175,"102":-0.055219754404099396,"103":0.17639653749212564,"104":0.0772854296466514,"105":-0.10544354663346107,"106":0.03064046208682604,"107":0.1752322710102867,"108":0.08119843738560156,"109":-0.09915959112961899,"110":0.0861756621113058,"111":-0.057714620531552976,"112":0.07227845439102858,"113":-0.18216180880724403,"114":0.09912229669404049,"115":-0.17139283137437333,"116":0.16744394713777253,"117":-0.10922031002693752,"118":-0.1814223601300125,"119":0.12369707101738918,"120":-0.08654610155960867,"121":0.07286336773416513,"122":-0.060243913958622865,"123":-0.04795239697325721,"124":0.15424769076123965,"125":-0.1652544362164304,"126":-0.1028686185813436,"127":-0.06793990003288279,"128":-0.12290970039382428,"129":0.13561675885822824,"130":-0.11768697844982624,"131":-0.11195963703473762,"132":0.14704267142111735,"133":-0.15581258851936003,"134":0.055773092334088385,"135":0.08863956590143461,"136":0.08337245000285125,"137":0.18789732898275888,"138":0.1525491229716384,"139":-0.05302585902587779,"140":-0.13881631010096523,"141":-0.14474089970209342,"142":-0.06535083605922472,"143":0.13828120039534497,"144":0.11716898834260416,"145":0.12495909620089869,"146":0.08348722266226194,"147":0.02550387074190611,"148":0.19957090996003488,"149":-0.10806098049404514,"150":0.1205429040437558,"151":-0.049584611261953224,"152":0.011497766960020958,"153":0.0428879149602285,"154":-0.19200317610657433,"155":0.14671960681184387,"156":0.20086888016247806,"157":-0.15849081834325698,"158":-0.040258450679348426,"159":0.15503131006468773,"160":-0.03003975584745579,"161":-0.1210305517396802,"162":-0.10613857368723789,"163":0.12405807312169592,"164":-0.04048268010637758,"165":0.0557617935508634,"166":0.09900467819530986,"167":-0.1404137114042749,"168":0.06471613424963321,"169":0.17438476069535505,"170":-0.11257414019127868,"171":-0.15380164527058476,"172":-0.022594248800337766,"173":0.07191413639039888,"174":-0.17149269052504862,"175":0.14270231531126074,"176":-0.015253174831650373,"177":-0.06999648650780946,"178":0.1054717768346117,"179":-0.14954757866772067,"180":0.10330383512736421,"181":0.12915596483775274,"182":-0.10602711385275546,"183":-0.12726393805223618,"184":-0.05321635079725554,"185":0.0841349494377582,"186":0.10726655196341936,"187":0.1358496379243829,"188":-0.08283940054864307,"189":-0.1136837130138154,"190":0.0892020049823431,"191":-0.08685885650670522,"192":-0.19546506568914832,"193":-0.04158986235325879}},"4":{"bias":0.038923787697822225,"weights":{"0":0.08270193953340832,"1":0.06797582581582322,"2":-0.035863174390237784,"3":0.05829306512956203,"4":-0.17317594592473484,"5":0.13818064368691513,"6":0.1882407558072235,"7":-0.02868276922450167,"8":-0.18270089614784588,"9":0.032969961996536123,"10":-0.19146696116328887,"11":0.21843886847012037,"12":0.05336702793639847,"13":-0.12451846897616294,"14":-0.06808244800257786,"15":-0.007282754727948038,"16":-0.11714054023531986,"17":-0.17138353087811625,"18":0.02163298616698168,"19":0.19943609082451227,"20":-0.18912788113777132,"21":0.26930572088496846,"22":0.08681276385321245,"23":-0.0751990368518702,"24":0.26492232445420305,"25":-0.06982129176581793,"26":-0.003937473913933338,"27":0.0033725575335655836,"28":0.03528491329666062,"29":0.0944095067540648,"30":0.053800189027707376,"31":-0.26405052843205173,"32":-0.004253749770267008,"33":-0.047635589403938076,"34":-0.1600792104522901,"35":0.12431256664590655,"36":0.17051937610027632,"37":0.03949770021081927,"38":-0.03543248907590981,"39":0.01665143648231297,"40":-0.051983606460150586,"41":0.2010745275643029,"42":-0.0017141732338787437,"43":0.1762633944628969,"44":0.20673313525965972,"45":-0.11443872889878094,"46":-0.10885272426125961,"47":-0.2050717421090797,"48":0.12141752658471819,"49":-0.17899659016002004,"50":-0.3154106102515576,"51":-0.048495709230454306,"52":-0.07865315148051688,"53":-0.11102102425102699,"54":-0.15854607953019212,"55":-0.013333665003365906,"56":-0.048901025389164264,"57":-0.08339816121329989,"58":0.14298610569979148,"59":0.029813710311436894,"60":-0.12850161506043423,"61":-0.056296061165981424,"62":0.1892282372461638,"63":-0.08506380904432616,"64":0.17225812976495636,"65":0.0018712077086725527,"66":0.004041389448523569,"67":0.01912318318000344,"68":0.11165400863102946,"69":0.16345463965948284,"70":0.11512552819378549,"71":0.07488404758735306,"72":0.15197042527543506,"73":0.18275097410886607,"74":-0.029923686050666733,"75":0.18203179790879678,"76":0.21667463904061587,"77":0.07761656899948502,"78":-0.023094762932060323,"79":0.054447031154683766,"80":-0.06998280975729076,"81":-0.10097120131653213,"82":-0.14815535144585487,"83":-0.08797573266908074,"84":0.095566106167845,"85":0.059318817942004894,"86":-0.08987074477527729,"87":0.12635867210926527,"88":-0.10664083823844253,"89":-0.09305866499136858,"90":0.07331275581063651,"91":0.040469867103888606,"92":0.01793026138652312,"93":-0.0619467230598721,"94":-0.16028253224829872,"95":-0.09782542908580978,"96":-0.11818940305099096,"97":-0.18161492179864733,"98":-0.07391479159882906,"99":-0.08083471367551749,"100":0.06599019086050914,"101":-0.20275581329509662,"102":0.18286390232701988,"103":0.1884455664308662,"104":0.012864948142601298,"105":0.14914388377861995,"106":-0.1494528726349152,"107":-0.0670778747479322,"108":0.03797880248119946,"109":0.04732085445907999,"110":0.030262017839924514,"111":0.1003398813373789,"112":0.15094265228570883,"113":-0.02261757802538046,"114":0.10554704398578009,"115":0.10276993006470037,"116":0.10614189607062179,"117":0.13398866366647713,"118":-0.06129100532909457,"119":0.14671144659606952,"120":0.04812268473443746,"121":-0.009864650393734147,"122":-0.1203965434352779,"123":0.12265254367104882,"124":-0.19369595867055422,"125":-0.17036400043727357,"126":-0.17858433762992082,"127":-0.05713453385285126,"128":-0.21811207097603266,"129":-0.073975977530841,"130":-0.07246203080226278,"131":0.013899361745781276,"132":-0.16731533296487436,"133":0.055059718163846236,"134":-0.10764227747442122,"135":-0.15984364029461465,"136":-0.08526532296046709,"137":0.17541725046436132,"138":-0.11195476307951104,"139":0.07457854999834142,"140":0.17527654388517586,"141":-0.16882702925421397,"142":-0.02100612435532417,"143":0.05660532818028805,"144":-0.16949962239763178,"145":0.17807020320892292,"146":0.11908794914992978,"147":-0.01692926586110139,"148":0.15553971229770042,"149":0.15954636232095562,"150":-0.0322330039604253,"151":0.04209248766973554,"152":-0.14637511069772413,"153":-0.05493711192242205,"154":0.20797864595201268,"155":0.0978975056031828,"156":0.050602491107945055,"157":-0.14256786038528693,"158":-0.07510806249095654,"159":-0.17769951218591185,"160":0.03370455228744948,"161":-0.0883014351552776,"162":-0.14309286635510546,"163":0.17595628452209813,"164":0.04091257129848168,"165":0.11175971904378554,"166":0.19637527945218686,"167":-0.010991230966166683,"168":0.06306416058470796,"169":0.04635043084770946,"170":-0.01407900115658835,"171":-0.09950074829292142,"172":-0.0096033933430426,"173":-0.0655308851065501,"174":0.1402449327601185,"175":0.16533688775046046,"176":-0.17104618831343227,"177":0.12019084929194371,"178":-0.1688005567245737,"179":-0.1697321810525133,"180":0.07468737896867586,"181":-0.17804720181099976,"182":-0.1048176859989023,"183":-0.15841674856130022,"184":0.18439002371313234,"185":0.10553181591393637,"186":-0.030763253416367854,"187":0.05879661630257233,"188":0.060923542995219966,"189":-0.15094799005671072,"190":-0.15508696188824903,"191":-0.1328354407117238,"192":0.13094029169004476,"193":0.13043951579680005}},"5":{"bias":0.04761049097357806,"weights":{"0":-0.3604248544689704,"1":-0.31059205417990104,"2":-0.19912290317663017,"3":0.2666749871416002,"4":-0.09878157468749134,"5":0.020599755071143352,"6":-0.03788263584025125,"7":0.2037043310334856,"8":0.24493664091794118,"9":0.08834200576732097,"10":0.14801019037713484,"11":0.11781571613723496,"12":0.06126662200981716,"13":0.32619315971506574,"14":-0.14093654326214206,"15":0.3015613678655268,"16":-0.03325985831210104,"17":0.12127714261011792,"18":0.22190642222573234,"19":0.15230599230089442,"20":0.0008592173361757864,"21":0.012606467999814616,"22":-0.037073147416071164,"23":-0.026525742694538095,"24":0.012315244686101647,"25":-0.09417429914052018,"26":-0.024356007255186777,"27":-0.001682084047864614,"28":0.1965189015881029,"29":-0.24395878460462952,"30":0.09115324923218111,"31":-0.34412822847033,"32":-0.03462672026376356,"33":0.15135693171486767,"34":-0.09042052789474954,"35":-0.06624017944735927,"36":-0.10052596835970477,"37":-0.08071684515857752,"38":0.16816198951796493,"39":0.11357283746494959,"40":-0.026310441462146256,"41":0.10803031343967562,"42":0.2545670922163316,"43":-0.1317857531639007,"44":0.2291905153096684,"45":-0.02117703232237946,"46":-0.057071940567332086,"47":-0.12059830086184178,"48":-0.13102236139105108,"49":-0.1562269855392357,"50":-0.0066863463085518075,"51":0.06422150134405655,"52":-0.29935173761601364,"53":-0.23749417703463865,"54":-0.07537281267491602,"55":0.11390939525827812,"56":0.09382003289007182,"57":0.22457510453596652,"58":0.13970707242333721,"59":0.302886825225939,"60":0.22615051503535732,"61":0.16307822701446728,"62":0.009263365516797831,"63":0.22210074120558124,"64":0.11576485285790857,"65":0.04969838813322515,"66":-0.021027117329119223,"67":0.2785327146798289,"68":0.2297463884149743,"69":0.012551196158630326,"70":0.1289773695849094,"71":0.22267997304113488,"72":-0.1206428160277958,"73":-0.005491779607914897,"74":-0.0028290976551933636,"75":0.005023536438828862,"76":0.1662663497658167,"77":-0.0951484898499912,"78":-0.03947486111409175,"79":-0.06742057225342292,"80":-0.044274776361771656,"81":-0.06507113037138847,"82":0.04648021090776741,"83":-0.08844346323609413,"84":-0.2696573207420651,"85":0.15552931246200624,"86":0.07355323421099891,"87":-0.18225196627482387,"88":-0.13115486349619954,"89":0.04650254336813046,"90":-0.171763414006758,"91":-0.06760671215347662,"92":0.08295249559629227,"93":0.02054737060188329,"94":0.08887589374702524,"95":0.03359217209395431,"96":-0.06339917306706483,"97":0.007567972005811211,"98":-0.0031479539806910373,"99":-0.12365844854816471,"100":0.20214707287799943,"101":-0.1250472069037284,"102":0.18696925729666738,"103":0.1930162796268495,"104":0.1713910772864001,"105":-0.10198861597698944,"106":0.004472141653101524,"107":-0.04804216218134989,"108":-0.004003575337440678,"109":0.018618589853834445,"110":-0.04836240965700155,"111":-0.13139726567801996,"112":0.10468421272451774,"113":-0.06940063120213893,"114":-0.10250222727537038,"115":0.1817286897446123,"116":-0.06852202252540188,"117":0.15545143415650287,"118":0.07540666058866854,"119":0.04780340068504851,"120":0.02371275638570387,"121":-0.2187538576377363,"122":-0.11000988164278644,"123":0.161077591013351,"124":-0.11626168809293388,"125":-0.2127314060839065,"126":-0.1525588131560886,"127":-0.08398391585186825,"128":-0.046802326560105176,"129":-0.11286124720344845,"130":-0.012654482026711242,"131":0.15437220476789432,"132":-0.21859340670065044,"133":-0.0828612773946365,"134":0.0002533643652793936,"135":-0.09263647791849575,"136":-0.028750318473831773,"137":0.1573180497187432,"138":0.004028046332083618,"139":0.04323582439878012,"140":0.0010800747974603851,"141":0.1572468780040035,"142":0.05116978828445536,"143":-0.18106491400554367,"144":-0.13876337740487427,"145":-0.272959374853421,"146":-0.21927193731528188,"147":0.05276764220899428,"148":-0.08863341781876878,"149":0.1345746797935857,"150":-0.0731495901518521,"151":-0.10763775119127987,"152":-0.07930399983837205,"153":0.03195908920640879,"154":0.14454635816419784,"155":-0.0757893123126695,"156":0.11002673659076687,"157":-0.1604343059543209,"158":0.07401296527334479,"159":-0.16256420769689775,"160":-0.12337489956635123,"161":-0.20133027584886068,"162":0.11028775903699707,"163":-0.1493479197814809,"164":-0.1560439474883735,"165":-0.12080184104692919,"166":0.00943464540698552,"167":-0.0670487102093222,"168":0.12036779191179033,"169":-0.08420046094239582,"170":-0.08681776990546423,"171":0.10555674520220105,"172":0.029765873471160473,"173":0.040854406961810176,"174":-0.15442644166085154,"175":0.20221816727793748,"176":0.010454810845376979,"177":-0.1543017812457253,"178":0.16297344892450097,"179":0.14096808580988807,"180":0.07966970927659307,"181":0.19604820852246777,"182":-0.05729315449244673,"183":0.14128704615301876,"184":0.09424330493694162,"185":0.11048592372070977,"186":0.11557075629928755,"187":0.14001075541633148,"188":0.06248236836435677,"189":0.16686792487755564,"190":0.2013712267660756,"191":0.014278158556475871,"192":-0.05996474272256137,"193":-0.00782168238334784}},"6":{"bias":-0.10446979615245407,"weights":{"0":0.07530957480708352,"1":0.1484256808929257,"2":-0.004949650829595256,"3":0.16929362771666706,"4":-0.13281980881493177,"5":0.23190852456040875,"6":0.03735576595162676,"7":0.2051527377393011,"8":0.011117549551998441,"9":-0.12851978984317053,"10":0.14747027725619816,"11":0.313228701987251,"12":0.25953327569070034,"13":-0.00501352814730477,"14":0.21381835221473203,"15":-0.044393036919282355,"16":-0.10113061171043103,"17":-0.08947189051758542,"18":-0.135334054374274,"19":-0.1764318554916333,"20":0.15101162157664313,"21":0.02384923001014881,"22":0.029274586261917302,"23":-0.28418098340863956,"24":-0.15621726659376783,"25":0.003577963594899187,"26":-0.15484935741704114,"27":-0.006660682552876956,"28":-0.19059183844978803,"29":-0.05870051230838077,"30":0.06387469894608698,"31":0.010255713704145747,"32":0.005464295630397664,"33":0.075920426832315,"34":0.03323655849288961,"35":-0.1003982386717495,"36":-0.044919680802810655,"37":-0.18633776970377414,"38":-0.15695584209965774,"39":0.2233348085219714,"40":0.07813234871350878,"41":-0.08443905528111942,"42":-0.030560293297057874,"43":-0.06160841384665163,"44":0.022163525553232925,"45":0.11338586411252205,"46":0.2300280525268866,"47":-0.1951929867889024,"48":-0.0055318331501374,"49":-0.07086043774025551,"50":-0.3422968223740541,"51":0.034144721463045126,"52":-0.058525353944493284,"53":-0.1025591658042528,"54":-0.15123401258207575,"55":-0.39187147365671005,"56":-0.04411261662224339,"57":-0.0018348734624468754,"58":-0.2733759042856822,"59":-0.19079691782025543,"60":-0.30676605177446037,"61":0.015431806182905709,"62":-0.2024937246977958,"63":-0.2723088466332196,"64":-0.1540636785008625,"65":0.07053723738030009,"66":0.04393357376488024,"67":0.027192910689777895,"68":0.0669141768760453,"69":-0.14025121082671677,"70":0.02203201183750213,"71":-0.05590956711409269,"72":-0.25551403600919415,"73":-0.20510808352533702,"74":-0.07326785690787958,"75":-0.2419063181237981,"76":-0.005193501105075556,"77":0.004773741758072963,"78":0.11550696261147979,"79":0.19001212607801365,"80":0.10761210680709224,"81":0.17250452324951784,"82":0.17524527144275293,"83":0.18645165729286897,"84":0.26841087446525963,"85":0.25660005983302864,"86":0.05751582204267673,"87":-0.0000840510849262436,"88":-0.05005639385659187,"89":0.18593154652531432,"90":0.0948630953402638,"91":0.3089148753477012,"92":0.03324168737371454,"93":0.17644493825472407,"94":0.09464146482902061,"95":-0.008666835102853291,"96":0.1368346472002563,"97":0.09807125651204196,"98":0.05482633654479924,"99":-0.1235775879473632,"100":-0.08116704139437854,"101":0.06901763852481968,"102":-0.044183574306923455,"103":0.05813178671393515,"104":0.20553641386243648,"105":-0.1576023606582983,"106":0.011224943584745017,"107":-0.14506240523145547,"108":-0.17314356322586893,"109":-0.15719819676338787,"110":-0.06693530106798681,"111":-0.047043058433369575,"112":0.0750670850702089,"113":0.16262352022454463,"114":0.0076296833192362285,"115":0.19264578505827107,"116":-0.22015612866379225,"117":-0.14394046375680006,"118":-0.14553652419692664,"119":-0.04263108664213579,"120":-0.07191077441537358,"121":-0.2435058211557871,"122":0.029030791549955668,"123":-0.09841424824082808,"124":0.09616329656971301,"125":0.12466198224330224,"126":-0.14450619113636917,"127":0.06343219708726046,"128":-0.003409252667453312,"129":-0.0695807277305924,"130":0.029777031688267785,"131":0.1649968349070723,"132":-0.09345708517006956,"133":0.06372204719824193,"134":0.05558730151174494,"135":0.008001591254678558,"136":0.041255600224705063,"137":-0.08733367144646895,"138":0.16054350168920944,"139":0.1525797107993161,"140":0.07766247377483015,"141":-0.2077270797651662,"142":0.004790302271593099,"143":0.04898320696282965,"144":0.1751283814194126,"145":-0.15738096169812427,"146":-0.04963339005956887,"147":-0.15977940013166386,"148":-0.10637046652238172,"149":0.21622492679806485,"150":0.04848865096601608,"151":-0.16779094438582387,"152":0.04990712444960403,"153":0.08032592588603052,"154":-0.0519737624158175,"155":0.11551124696507459,"156":0.06445265757577001,"157":0.11172371947349047,"158":0.22570691223018632,"159":0.05301910088512109,"160":0.18397669671511005,"161":0.016700768778712335,"162":-0.16001996569317897,"163":-0.06576506045432462,"164":0.0264437501001936,"165":0.1347544233297539,"166":-0.14653116312054043,"167":-0.04154241289026715,"168":0.19395206073169796,"169":-0.01950762339413634,"170":0.11949704115622424,"171":-0.08474083722244043,"172":-0.025744875288501032,"173":-0.026381791833987162,"174":-0.12460649312890894,"175":-0.09525438494018261,"176":-0.02952082649915883,"177":-0.1818433098100838,"178":-0.06272261618564097,"179":-0.026169841628652674,"180":-0.019347674337558466,"181":0.14709899188051984,"182":0.1087870908597587,"183":-0.17489380557046674,"184":-0.13300269266089954,"185":-0.07899298952598548,"186":0.17534117939944355,"187":0.015227208006594307,"188":-0.015708952741350955,"189":0.19230690739596634,"190":-0.11379763118933041,"191":0.05305436906851831,"192":-0.0643856164902646,"193":0.10955306782783485}},"7":{"bias":-0.015884124308075738,"weights":{"0":-0.0914113988672122,"1":0.10794529508000622,"2":-0.011492125379059349,"3":-0.17807196581802814,"4":-0.07133138229994813,"5":0.013947355508978944,"6":-0.14691933589527004,"7":0.1441032141594954,"8":-0.015707458716526356,"9":-0.01845807972003554,"10":0.12404438804791353,"11":0.12304119930998111,"12":0.10011848248414479,"13":0.15808670275904,"14":0.14339094275553205,"15":-0.07759979168746865,"16":-0.019581888738855056,"17":-0.07156783583751682,"18":-0.07602313357327152,"19":0.1657283178147319,"20":-0.007715188324056408,"21":0.0829730722941524,"22":-0.18014919984342526,"23":-0.023609567004742957,"24":-0.06459061834873188,"25":-0.06221200611320205,"26":0.13762752015220836,"27":0.1037747906594211,"28":0.07823681399986837,"29":-0.25291361243820926,"30":0.05377841292368398,"31":-0.4537420936509852,"32":0.12118256623774065,"33":-0.06722973852183144,"34":0.07560485225164183,"35":0.004929733341667931,"36":0.13634382034481718,"37":-0.004443002071272933,"38":-0.08356730270823393,"39":-0.06836684818620041,"40":-0.0509556078464471,"41":0.12315278689373028,"42":0.15717206876698936,"43":-0.14472544669817483,"44":-0.14944755566780318,"45":-0.10318864415639334,"46":-0.09098597631690239,"47":-0.05317346549520468,"48":-0.04106490571279724,"49":-0.05340865778122094,"50":-0.0370584075170563,"51":-0.2087184816410137,"52":-0.06423877453118709,"53":-0.08821313914962134,"54":0.03551673890481595,"55":-0.08332445685701091,"56":0.10316555176453694,"57":0.05423298367013844,"58":-0.12594701009374723,"59":0.1663855530500015,"60":0.11366636818549795,"61":0.13249877473536184,"62":0.06143476548381845,"63":-0.12638965531237942,"64":0.011979801768072581,"65":0.14758764046378772,"66":-0.049465990860901726,"67":0.09210256227660747,"68":-0.029460163077209982,"69":0.12142130912717808,"70":-0.11671292258225391,"71":-0.07077247290815465,"72":-0.05889138722166551,"73":0.18956537083216016,"74":-0.030095191906777317,"75":0.07134344226201471,"76":-0.05511880612602768,"77":0.15500097668384907,"78":0.06607154452845007,"79":-0.06085683780781881,"80":-0.12547437986774312,"81":-0.1118465584641354,"82":-0.009012339671757895,"83":0.00048783577784142896,"84":-0.10261062480364039,"85":0.13047905963259387,"86":0.1428143103989065,"87":-0.18104478207946798,"88":0.021653503381576865,"89":-0.15071877249244778,"90":-0.00471702987496434,"91":-0.05056668738474214,"92":-0.016610696888167218,"93":-0.16397562578414818,"94":-0.15228281380316075,"95":0.1731729838086488,"96":0.20013153956730464,"97":-0.11806420846664513,"98":0.0819130520265225,"99":-0.056753435184714894,"100":0.21104452370294283,"101":0.022300691430230685,"102":-0.13773008935087744,"103":0.1738355298879653,"104":-0.13429190158803966,"105":0.18575668999509098,"106":0.20539875228162519,"107":0.05726999427514365,"108":-0.08110130022440762,"109":-0.029750698186105182,"110":-0.034901416937637944,"111":-0.07959189219597163,"112":0.16240867518198637,"113":0.017637403432239004,"114":0.1564621052090202,"115":0.13446516513869794,"116":-0.20227948737650572,"117":-0.14389807761309642,"118":0.1417173057713797,"119":-0.10468848995716248,"120":-0.06947943371024716,"121":-0.15062704518940925,"122":0.04151169603140272,"123":-0.036202261326746595,"124":-0.14398227028239818,"125":-0.1429609271596028,"126":-0.14329439178104553,"127":-0.11469565450044658,"128":-0.06739679039610824,"129":-0.04172186924079749,"130":-0.056742989841691356,"131":0.14060847897016504,"132":-0.04495542004678169,"133":-0.16300106209716758,"134":0.07101934213388181,"135":0.00846288081470412,"136":-0.14965103800178706,"137":-0.10568975343848026,"138":0.01136670756257797,"139":0.1652512395618873,"140":-0.05467126079512306,"141":-0.004113569673334853,"142":-0.07563749317246155,"143":0.1855009246180415,"144":0.1348393923372661,"145":0.17668880838339118,"146":0.03953573400780684,"147":0.07064873281913106,"148":0.11511836923600338,"149":0.06877891545970036,"150":-0.18430134159775416,"151":0.08372476093745693,"152":-0.12470863250791867,"153":0.12641666584262784,"154":0.043959222029210376,"155":-0.15977054958264597,"156":0.15219900196593816,"157":-0.03035946390706423,"158":-0.06662828623340515,"159":-0.18980799775132848,"160":-0.012701597561294475,"161":-0.10149115643439353,"162":0.02590315175632948,"163":0.10331379736515908,"164":-0.08198433071909281,"165":0.11289320690917624,"166":-0.0929921560775854,"167":0.020838371610861862,"168":0.14753436371506995,"169":0.18725142680018225,"170":0.18316313880590057,"171":0.18098179396338393,"172":-0.12036509170937944,"173":0.07054414307246144,"174":0.025283627935495774,"175":-0.06212949890676076,"176":0.12732393101785466,"177":-0.05640477285537246,"178":-0.13337833966280524,"179":-0.08996442056985479,"180":0.17932451342419725,"181":-0.1565207467602029,"182":0.08158249544095963,"183":0.038749237119356655,"184":-0.1518168819822376,"185":0.19979686081701903,"186":0.19900876175880022,"187":-0.05622835271891066,"188":0.0909466610537778,"189":-0.04841759428529551,"190":0.07243201256933623,"191":-0.09896424318423452,"192":0.15254467173296368,"193":-0.1119592226375956}},"8":{"bias":0.12717855214635457,"weights":{"0":0.15159707340683914,"1":-0.11482791446537802,"2":0.020168322775095233,"3":0.2555999409994,"4":0.10046657879453708,"5":-0.08263821274811677,"6":0.08889171277619969,"7":0.23521583994153034,"8":0.2796422971335091,"9":-0.12657816898419183,"10":-0.003978208319142307,"11":0.21934386268518244,"12":0.2165842059734657,"13":0.11109778882145037,"14":-0.13778593772836825,"15":0.19958411637186113,"16":0.021427541864582657,"17":0.21468406642721774,"18":-0.11558140428248845,"19":0.17537525387629396,"20":-0.1585412220578651,"21":-0.17395625816798868,"22":-0.011958527008101072,"23":0.0683185598281359,"24":-0.04566091746878185,"25":0.1921958331532049,"26":0.17510041620405462,"27":0.14289492585949634,"28":0.13242220081143272,"29":0.0683208626774838,"30":-0.28553407520112584,"31":0.013027970386308924,"32":0.18578459076773435,"33":0.10863110218119368,"34":-0.0802180416541524,"35":0.11790049364096829,"36":-0.11352253181546487,"37":-0.14164863248003176,"38":-0.1739687865423308,"39":-0.027400238937912186,"40":-0.14407980279618593,"41":-0.17015282378658245,"42":-0.1018355145707905,"43":-0.11988507952023794,"44":0.031805042347142744,"45":-0.06266168879628697,"46":0.2135464804788636,"47":-0.13216927569723763,"48":-0.15930773459834016,"49":-0.023804926053791583,"50":-0.09437044724390273,"51":0.2069901927450366,"52":0.010427498591916906,"53":0.05082541883739904,"54":0.11213317316978702,"55":-0.046892242421553494,"56":-0.07153502768134624,"57":-0.1214515651323438,"58":0.10101078238204132,"59":0.11129131635682905,"60":0.007210952847835219,"61":-0.2211151648268772,"62":0.00573537841831095,"63":-0.009170458726140147,"64":-0.044689540616618464,"65":-0.1787071441687207,"66":0.136560454236242,"67":-0.08122805536511377,"68":-0.13839576725329267,"69":0.0773145837679131,"70":0.04768419983392076,"71":0.08085568671894384,"72":-0.053460250421908606,"73":-0.22801254958123598,"74":-0.035647745422938984,"75":0.056571265393985805,"76":0.16715757634330128,"77":-0.22183261257969347,"78":-0.1505908273119341,"79":0.031056210604867053,"80":-0.12112381978579644,"81":0.16364514038681827,"82":-0.1212275290005512,"83":0.12550995964974399,"84":-0.15466899547753057,"85":-0.06778640162715457,"86":0.07052080661990717,"87":-0.13743791979367975,"88":-0.07579575947709516,"89":0.06503113530502186,"90":-0.23475763621752022,"91":-0.04606945086452233,"92":0.10389254514605217,"93":0.1705285652810119,"94":-0.06497062373906172,"95":-0.01998334131628717,"96":0.24262100601689232,"97":0.0983024497261919,"98":0.09198555009050535,"99":0.049896656920465354,"100":-0.09043103852369541,"101":-0.09821920658267551,"102":0.10059780426765308,"103":0.04565000534310399,"104":0.06279460828038876,"105":0.2328310005931943,"106":-0.042891258870755115,"107":0.16446284878836495,"108":0.15081806016835714,"109":-0.11878253724548023,"110":-0.09736534082059002,"111":0.1831592795792012,"112":0.057469996584148746,"113":0.08157620151858014,"114":-0.14030645391750624,"115":-0.016346753612487355,"116":0.1207318747308604,"117":0.17590641632527604,"118":0.07292489773410755,"119":-0.07298998799687104,"120":-0.17586850699697631,"121":0.007123924980036231,"122":-0.1488495472982093,"123":-0.021535604202932074,"124":0.02894924638512983,"125":0.17767337588066484,"126":0.14560775604210552,"127":-0.18237829674336095,"128":-0.049999685561772575,"129":-0.04426559825466676,"130":-0.12232559765459325,"131":0.06826885134816398,"132":0.06004232605128122,"133":-0.14236408297571365,"134":0.18563599621761884,"135":-0.04108853207447628,"136":-0.14502037748387078,"137":0.155124499689008,"138":0.04660922731540572,"139":-0.12779679278382508,"140":0.11578849175050406,"141":0.03475478089944582,"142":-0.09443067319422684,"143":-0.0816882982806921,"144":0.12613876618341247,"145":0.008776696028361364,"146":0.04013932132232273,"147":-0.16970268560736412,"148":0.09107649106622279,"149":0.08066676658792825,"150":0.057901974402282605,"151":-0.10609110558455999,"152":0.026302138340189855,"153":0.13059344671339868,"154":-0.08024328453580125,"155":0.10372310604383826,"156":0.11283160378720551,"157":0.1336706998923065,"158":0.18898763203757674,"159":-0.20649557283352812,"160":-0.08886945174156889,"161":-0.06554567076865299,"162":0.08954031010964068,"163":0.030878333745355372,"164":-0.1371767344789256,"165":0.0741518712530405,"166":-0.1810655261228185,"167":-0.002007467166870771,"168":-0.11135451963516625,"169":-0.09552825806653112,"170":0.03715170264486575,"171":-0.19162936622591376,"172":0.10969394966619249,"173":0.07742054619049037,"174":0.153928622247888,"175":-0.1464562419051942,"176":-0.0828446755809438,"177":-0.1282198801909083,"178":0.08809453947177219,"179":0.20837253822636856,"180":-0.12373169358262294,"181":0.18128943217784577,"182":0.1907205525531318,"183":-0.04427815797588683,"184":0.1542331520382318,"185":0.17480361996351518,"186":-0.052258325578517756,"187":0.10036518501800405,"188":-0.04044407747880788,"189":-0.04614117946379072,"190":-0.029561162307069365,"191":-0.05061391782387556,"192":0.12711011754826868,"193":0.009373568755458549}},"9":{"bias":-0.18382369036576607,"weights":{"0":-0.04890497814335203,"1":-0.049620038668047164,"2":-0.1378787874858969,"3":-0.017484218341836114,"4":0.11220190977342127,"5":-0.18486004317717586,"6":-0.19030024741342094,"7":0.0646345837034935,"8":-0.22852791715219992,"9":-0.26260604144313343,"10":-0.028445353168077753,"11":-0.04681680524662444,"12":-0.1490962574120169,"13":-0.17377680811245097,"14":-0.28424773646361484,"15":0.058711754258636444,"16":-0.18889151552882913,"17":-0.09875452336259104,"18":-0.05661887374445748,"19":0.0026435182399798247,"20":-0.22341254599266935,"21":-0.05254169466809661,"22":0.03813296929826315,"23":0.25400439842194467,"24":-0.15654187910377756,"25":0.14242272143926482,"26":0.15398174459675518,"27":0.11734032003206085,"28":-0.046835801844834116,"29":-0.11831531531314722,"30":-0.27903772409866273,"31":-0.04727441836290077,"32":-0.0375317298864635,"33":-0.11822116194225119,"34":-0.006077820186792081,"35":0.08926689401002456,"36":-0.20417557301304923,"37":0.10237241352993391,"38":0.10308107996538705,"39":-0.09723652770679696,"40":-0.07803417250746288,"41":-0.12568628942268814,"42":-0.06280238576535253,"43":0.07358474927874006,"44":0.1281168043429122,"45":0.08202568180082817,"46":-0.16741675933271663,"47":-0.013103551521066506,"48":0.217482181137486,"49":-0.14885585584315872,"50":0.11871289266434298,"51":-0.020555438883819006,"52":0.12967555953641524,"53":0.019401807852725543,"54":0.20547173408917022,"55":0.05059897241612748,"56":0.12191739641962059,"57":0.10998410498614991,"58":-0.124967522950686,"59":0.07315769629505892,"60":0.09705195947608519,"61":-0.01915115929368411,"62":-0.01520925718160874,"63":0.061514212775766595,"64":0.1361486788688898,"65":-0.010524464282128634,"66":0.05286791440740349,"67":-0.09913593026259772,"68":-0.022040422824335878,"69":0.108592090746848,"70":-0.06994965904037251,"71":0.029496118476193118,"72":0.027383907165107538,"73":-0.05877489424522095,"74":0.22023776107783724,"75":-0.020952387645765687,"76":0.13780413372767653,"77":0.1729938509136231,"78":0.005898290805716831,"79":0.1333464189985482,"80":-0.13403808979327034,"81":-0.0940506172533482,"82":-0.05466084066277955,"83":-0.043074568468059654,"84":0.024990627385523323,"85":-0.1589475019487559,"86":-0.021746265281381683,"87":-0.03431504175745694,"88":-0.19808726950351035,"89":0.010666736662627347,"90":-0.07341789932033006,"91":0.10059777361888989,"92":-0.13356982867513817,"93":-0.06538822131478722,"94":0.122421374123236,"95":-0.20749242511973415,"96":0.1040488424996501,"97":0.01123752159158261,"98":-0.22989376482394,"99":0.09006311772808911,"100":0.1001828367740864,"101":-0.15740072631897487,"102":0.09848265941070371,"103":-0.04597954885617445,"104":-0.20121571347169423,"105":-0.03593342133856946,"106":0.12209888033915896,"107":0.18790521160823373,"108":-0.20745751308347002,"109":-0.17141284665346804,"110":-0.13136227031526465,"111":-0.14799522824483424,"112":0.03315234465352144,"113":0.024874903968533396,"114":-0.06926614220597178,"115":0.06707002249540815,"116":-0.07132214873662601,"117":-0.025766374791372348,"118":0.04298590117247937,"119":0.008193468526610945,"120":0.10763270314456241,"121":-0.11141974127394429,"122":0.032897674936581245,"123":-0.13588011922039142,"124":0.07113438197078713,"125":0.08044434914677556,"126":0.09823061802957778,"127":0.10458449885758024,"128":0.08341152977086014,"129":-0.0125839863459684,"130":0.00511201766750244,"131":-0.1433008085442816,"132":0.10186587562159899,"133":0.12179919580431531,"134":0.20518723783990386,"135":-0.1041189604570035,"136":-0.17885785538169607,"137":-0.08200532132084941,"138":-0.06455926192719108,"139":0.09619955164399663,"140":0.17746685443864305,"141":0.16119831827352285,"142":0.23176436223127225,"143":0.06408961636628226,"144":0.10811155212306875,"145":0.24410479254976222,"146":0.22941469404831713,"147":0.24205844355880116,"148":0.045753869167819206,"149":0.13640990499246486,"150":-0.01370284321800604,"151":-0.0548916029163184,"152":-0.12189830093539179,"153":-0.13911497989201646,"154":0.027160277247054998,"155":-0.18784284197835358,"156":-0.03722851502044059,"157":0.12322845235799841,"158":-0.06488927573512163,"159":-0.1647808526335115,"160":0.09620024617031056,"161":0.14857567022127238,"162":-0.17720048654466658,"163":0.1306086056350228,"164":-0.05124876387689845,"165":0.08250756504137621,"166":-0.0864184203217246,"167":-0.07089838058670943,"168":0.02203383165512889,"169":0.02600094054904605,"170":-0.14798338110544354,"171":-0.14534510970877249,"172":-0.010911942461280313,"173":0.08777801936761435,"174":-0.174860424447629,"175":-0.048946232429590654,"176":-0.062309100090488685,"177":0.1647588458022088,"178":-0.18968081755367,"179":0.019759584830486926,"180":0.1583793179515512,"181":-0.16604534829486656,"182":0.15837307628705366,"183":0.11658017182211404,"184":-0.0931394566157255,"185":-0.18102226276769376,"186":-0.03000083562693574,"187":-0.08255918712067598,"188":-0.13760625241188346,"189":-0.026566696108358583,"190":-0.016322168114791428,"191":0.021532239703264972,"192":0.007775822646852982,"193":-0.10445563118392105}},"10":{"bias":-0.15519532339553843,"weights":{"0":-0.2772670140872815,"1":-0.15703936417886466,"2":0.03611408894227448,"3":0.17817331611679324,"4":0.2317741081567498,"5":0.06126806338219256,"6":0.24944553023971636,"7":0.14612933404584622,"8":0.29435291975838157,"9":-0.12235252100109889,"10":0.09208588179034288,"11":0.2901222031648838,"12":0.1963047439740514,"13":0.09087448327580375,"14":0.15799034444833715,"15":0.2885567730106626,"16":-0.10249905036977953,"17":-0.01494692057432698,"18":-0.08027759799465242,"19":0.09768827044616721,"20":0.2325832576201812,"21":0.08575613362929202,"22":0.09541933411165379,"23":0.10505963660187916,"24":0.09721993209366288,"25":0.12514831130786983,"26":-0.15550936480312347,"27":-0.08613294070285474,"28":0.13297185031297482,"29":0.19863987424036142,"30":-0.021627943088660184,"31":0.21638971850258154,"32":-0.06861806526193841,"33":-0.09658769945490903,"34":-0.23014627584512007,"35":0.042534870370182956,"36":0.04722500459491834,"37":0.03077032608943765,"38":0.13934234185006578,"39":0.07180606698451653,"40":-0.004669629057547476,"41":0.09595559257011008,"42":-0.13761899414306952,"43":0.07688913090095974,"44":0.15073195783182725,"45":0.05391192107213282,"46":-0.005164383162546579,"47":0.07695888213702665,"48":0.11807060992415555,"49":-0.017544843028116996,"50":0.138758506240311,"51":0.04471547280403665,"52":-0.02604472238519088,"53":-0.180145500135555,"54":0.15960184477010506,"55":-0.07190752770856021,"56":-0.036010904157650944,"57":0.16667468637662175,"58":-0.034747147424298686,"59":0.18460154809271442,"60":0.07597014372650762,"61":0.11035451651858828,"62":-0.14363437151661992,"63":0.007435534984921589,"64":-0.02469969115374484,"65":-0.036316689468131734,"66":0.22561452509416183,"67":0.17111699727958968,"68":0.09213390188516284,"69":0.11885336907713183,"70":-0.009793721183155035,"71":-0.06786716923681077,"72":0.14638705419136147,"73":0.053414719119314315,"74":0.20724212691840485,"75":-0.008885069567301925,"76":0.17259717378420406,"77":0.09669086369438548,"78":0.14484994449789934,"79":-0.006042399965726271,"80":-0.1272308530546451,"81":0.20096219339310273,"82":-0.12128314126728407,"83":0.16254395744102573,"84":-0.06639242978575315,"85":0.03666023064818601,"86":0.1079714583407368,"87":-0.009859739099532229,"88":-0.10468961873531406,"89":0.04234097497552836,"90":0.2159028899194869,"91":0.1441787124756939,"92":0.2285849846655745,"93":0.20454918648560358,"94":-0.14801314576673355,"95":0.2151700785697981,"96":0.16840482246839275,"97":0.09841928669528169,"98":-0.10098055077327948,"99":0.02371640781296565,"100":0.011403078450905123,"101":0.17897739138369412,"102":0.10150027282952069,"103":0.1716252086849138,"104":0.12811674929585573,"105":-0.024794682580413417,"106":0.02530609462844787,"107":0.04917264981885062,"108":-0.012445798567841459,"109":-0.16999969161520517,"110":0.04210265893493802,"111":-0.09486021215570134,"112":-0.11591712504118473,"113":0.08512416275859394,"114":0.08967160673988607,"115":0.09915554176880077,"116":-0.056344657120647186,"117":-0.20007657065224754,"118":-0.11182729464451485,"119":0.09126356685568981,"120":0.1702674282537878,"121":-0.18569122261401483,"122":0.1548322010284113,"123":-0.2217996315927479,"124":0.01994422351057345,"125":0.15179030711941713,"126":-0.17083439368901973,"127":-0.07727966265715056,"128":-0.09219637474240741,"129":-0.007170213745709798,"130":-0.08120650586357588,"131":-0.007769203536729971,"132":-0.010816908868619328,"133":0.14055759726965963,"134":-0.221489661194769,"135":0.129536174834555,"136":-0.037157063248845025,"137":0.018053926756080238,"138":-0.09469379986959664,"139":-0.09103351136497245,"140":-0.10453107574825354,"141":-0.18500988215494996,"142":-0.1754616677102564,"143":-0.03631091101483403,"144":-0.06291800335667128,"145":-0.32458349644604034,"146":-0.26384812168229765,"147":-0.3306441492364289,"148":-0.15691608720171488,"149":-0.04742921406819681,"150":0.0855568176964453,"151":-0.10311209279369053,"152":0.2059124959490886,"153":0.027704973320773513,"154":0.024895029552708902,"155":0.17389601593876933,"156":0.09777307805068008,"157":-0.09215307987312842,"158":0.19407276120424335,"159":0.11846131025270029,"160":0.18786542639306295,"161":0.09900570725149765,"162":0.13696935838512506,"163":-0.14531638118954557,"164":-0.007732700683802435,"165":0.12796857553875846,"166":-0.1406576567528256,"167":-0.00320715563065724,"168":0.1758652159568732,"169":0.06451231767789231,"170":-0.09791771995535967,"171":0.17982409254953763,"172":0.06045701444429772,"173":0.20156665580880123,"174":-0.14001399903366799,"175":-0.05526998160107343,"176":-0.05947128292446093,"177":-0.10834284450165423,"178":0.08486081160161477,"179":-0.06658975517916634,"180":-0.059425575799753376,"181":-0.16221392178878502,"182":-0.11515025362656689,"183":0.01353968762961835,"184":0.09058552142311457,"185":0.12068223020339944,"186":0.07717790387979381,"187":-0.16122934425373459,"188":0.16759848379488068,"189":0.020613190519581073,"190":0.046753772291536946,"191":-0.06681806953802981,"192":-0.0604510708894833,"193":-0.1002679116407405}},"11":{"bias":-0.17780425260829294,"weights":{"0":0.18328412334392066,"1":-0.15106616996414512,"2":0.11459275040741794,"3":-0.007150953802605652,"4":0.04761491967338326,"5":-0.03144545001327693,"6":0.06361919176399455,"7":-0.20134090967442464,"8":-0.23302360392684465,"9":-0.20313214190139336,"10":0.0222559852263012,"11":-0.03835883527849302,"12":0.034350709245459105,"13":-0.11702060173286774,"14":0.1336259752826634,"15":-0.29338742706050175,"16":-0.1652554268813029,"17":0.16540894517091537,"18":0.15911977664164392,"19":-0.038044572758290485,"20":-0.1436930004409177,"21":0.2556902548745467,"22":-0.18384449682801113,"23":-0.035107042155692304,"24":0.2247182711437148,"25":-0.15700946870643967,"26":0.1119814259278753,"27":-0.1214965389878515,"28":-0.15872895063895795,"29":0.18156416136827255,"30":0.006730684781908571,"31":0.10861198047594188,"32":0.0648220275864136,"33":-0.15295555351940035,"34":-0.12469679722137296,"35":-0.1159876280828434,"36":-0.21824848359364854,"37":0.10232234792863631,"38":-0.048788548482147934,"39":0.09890084697429882,"40":0.03171922621724757,"41":0.048134506794207305,"42":0.13237468383582693,"43":0.20698565312516176,"44":-0.2274069687347043,"45":0.013752283732111247,"46":-0.17957235996576018,"47":-0.01994812204698684,"48":-0.1397883030747936,"49":0.0069912253323592575,"50":-0.12987288380336237,"51":-0.263954076571025,"52":-0.15577937909705508,"53":-0.06554138322723187,"54":-0.036650609160778454,"55":-0.22346502253780112,"56":-0.20366289238000737,"57":-0.07202383070261063,"58":0.11672409566396338,"59":0.1902260152491698,"60":0.09906619158067842,"61":-0.11572836574939964,"62":0.10771565442907308,"63":0.14341555814664922,"64":0.05221774329759312,"65":-0.009096011496933124,"66":-0.10199252560960158,"67":-0.1449555096743096,"68":0.1740666974415767,"69":0.19499531620419924,"70":-0.08739992732207269,"71":-0.17274953558752096,"72":-0.09728501277277997,"73":0.022006512996108625,"74":0.1659844398570507,"75":0.19052392360366555,"76":-0.11434842659947705,"77":0.1452689531230278,"78":0.12892011773340142,"79":-0.12798606218012437,"80":0.039781599426472775,"81":0.19424716686066332,"82":0.0018728055097652525,"83":0.028429441060513642,"84":0.20015892474795577,"85":-0.12499054626956878,"86":-0.030959106886724565,"87":0.24350010904624853,"88":0.009689243173458132,"89":-0.06306377155447443,"90":-0.02449349876129683,"91":0.2559547570322151,"92":0.09686025687271504,"93":-0.014690186310609464,"94":0.24197032913216393,"95":0.27453632645697734,"96":-0.12389733079790949,"97":0.10868865190681752,"98":0.15632047837757718,"99":-0.1761438748626022,"100":-0.19063953597977634,"101":-0.1343390938967259,"102":-0.17330743286595385,"103":0.08100914979095286,"104":0.12249924578209316,"105":0.07327779403435097,"106":0.1510347878071271,"107":-0.21605564902060814,"108":-0.15731369636742676,"109":-0.21100777477877053,"110":0.12755453219165708,"111":-0.03222235798419953,"112":-0.12425639998948314,"113":-0.19492586850715707,"114":0.0027510878192340622,"115":-0.020855977949842577,"116":0.18435431260987037,"117":-0.11406572899643797,"118":0.032257139156283546,"119":-0.07805743622124589,"120":-0.06580455461644213,"121":-0.17681164313764863,"122":0.1439134592668109,"123":-0.1286534111831436,"124":0.1109479249714303,"125":0.050858993673096646,"126":0.15058272270615328,"127":0.21686788486419797,"128":0.034155680323664776,"129":-0.19882767662801848,"130":0.12842634336313882,"131":-0.17876077485020064,"132":-0.1901214650330388,"133":0.15262589525164763,"134":-0.20688596999491313,"135":-0.05761020885481267,"136":0.099026797884536,"137":-0.19950574749365807,"138":-0.04277828874260859,"139":-0.20024736124345885,"140":0.16812499480109308,"141":0.16340917312434589,"142":-0.021164101764871095,"143":0.021714229465470466,"144":0.13430245785622047,"145":-0.17288688447632353,"146":-0.13589749187307798,"147":0.047864556606717484,"148":0.060649859932585315,"149":0.1448195457012347,"150":0.08466844411296627,"151":0.10044058814274277,"152":0.03663521202683662,"153":0.1817284956402337,"154":0.13179304206851739,"155":-0.10606618870842831,"156":0.03572366308132416,"157":0.195241990322944,"158":0.028653428314093954,"159":-0.12630685095835648,"160":0.11344756032395344,"161":0.08369950676898653,"162":0.1145058190705749,"163":-0.07962228254996705,"164":-0.12503899642966415,"165":0.0171281358953265,"166":-0.19283066321292924,"167":0.09682840088498915,"168":0.09717130903131868,"169":-0.16958775533567177,"170":0.14064894281903456,"171":0.16423246485007037,"172":0.16868466291818462,"173":-0.0412608758280608,"174":0.1663541865529392,"175":-0.20423549764992557,"176":-0.005193846963776487,"177":-0.1664763951144589,"178":-0.06479395169226872,"179":0.16490790498064561,"180":0.13634263662468066,"181":-0.20510922903230022,"182":0.08516573510260353,"183":-0.042895657082598786,"184":-0.1853536677834431,"185":-0.06997219426705188,"186":0.09795562499736879,"187":0.036005498855759356,"188":-0.1975186660841078,"189":-0.22823202994951258,"190":-0.04942614517524361,"191":-0.1573577255353159,"192":-0.1686197986400872,"193":-0.10802187134680494}},"12":{"bias":0.1450194650811261,"weights":{"0":0.10989699285111812,"1":0.012520426286994181,"2":0.1328662180327079,"3":-0.2586929091834894,"4":0.011216842348805038,"5":-0.26484994369950493,"6":-0.10446579034221853,"7":0.020100479974570196,"8":-0.4251352478322491,"9":-0.22400841375684352,"10":-0.1441614581331365,"11":-0.27771867058103233,"12":-0.34427314840519113,"13":-0.05833109884333321,"14":-0.10178666507559805,"15":-0.20687333202813132,"16":0.05554465763630522,"17":-0.19557950223289378,"18":0.11702447544276366,"19":0.04189952305245286,"20":-0.1708346965921011,"21":-0.3203601638602012,"22":-0.008446651014793534,"23":0.21535381925994806,"24":-0.25826280038499505,"25":-0.09717236713124411,"26":0.15663883974031684,"27":-0.09482148367585622,"28":-0.0047755020213883104,"29":-0.21835868478690187,"30":-0.0096968353771997,"31":-0.2740340750500712,"32":-0.15398275168655257,"33":0.03488328104096975,"34":-0.3061972407689047,"35":-0.027681785428207702,"36":0.09273275414311012,"37":0.0067919763125807425,"38":-0.09971487555951442,"39":-0.14291767170143327,"40":0.11524695021059131,"41":-0.04774132771131939,"42":-0.07502340332884888,"43":0.07499494083962358,"44":-0.18688996917012168,"45":-0.06320728039434996,"46":-0.3186264167441149,"47":0.18510356902474348,"48":-0.13492582501426076,"49":0.053021086432002755,"50":-0.15238941373544782,"51":0.09407123988440186,"52":-0.07453946341719986,"53":0.09865032186589041,"54":-0.11671569067573499,"55":0.10312048872313505,"56":0.1940804541781651,"57":0.3289853345452419,"58":0.04934848514805277,"59":0.18476716199764792,"60":0.33021422433720404,"61":0.057415758121320486,"62":0.23983255830307154,"63":0.20011844604556162,"64":0.21140189464644427,"65":0.10776983158775627,"66":0.15049772539951045,"67":0.23663459131911388,"68":-0.028921030783703564,"69":0.28327942959919744,"70":0.11194226441938465,"71":0.18547559119410814,"72":0.07300450402096395,"73":0.07723690636182123,"74":-0.07302088783300639,"75":-0.048883834682991324,"76":0.27559032689636354,"77":0.046812259260060725,"78":-0.10364947435734757,"79":-0.2176997130130114,"80":-0.12941403064448512,"81":-0.07396570919542692,"82":-0.002295587390237691,"83":-0.06601105167093844,"84":-0.09635244168524858,"85":-0.014483835251548267,"86":-0.22126405799758986,"87":-0.07065574853589994,"88":0.09181940774658096,"89":0.06568303882396091,"90":-0.10062398474368876,"91":-0.07576892256346372,"92":0.14712750810154612,"93":-0.09414737971851661,"94":0.062066199643308374,"95":-0.21308065796627731,"96":0.07624218714835075,"97":-0.32977751555104756,"98":-0.0726339415123831,"99":0.07483039669150716,"100":0.05213532420530975,"101":-0.06988567272542946,"102":-0.1981301110928084,"103":-0.1507693998808638,"104":0.08761876657025874,"105":-0.19209018220026913,"106":-0.21564194488996316,"107":-0.07015427809960625,"108":0.17793787235035066,"109":-0.1222669248901111,"110":0.18472345085196146,"111":-0.05715573309324123,"112":0.13468656050466438,"113":-0.16544120157707592,"114":0.03665217026433605,"115":-0.029792327893571672,"116":0.03327335949646563,"117":-0.1332898797693309,"118":0.17968209341422056,"119":0.08036657248203931,"120":-0.020470671098091173,"121":-0.15928130863446932,"122":0.20244888423488902,"123":0.15959217061510825,"124":0.04820466236857863,"125":-0.01452614952601555,"126":-0.1800292900334493,"127":0.18946332327735557,"128":-0.027357022897831727,"129":0.09177949327803046,"130":-0.11385598929882138,"131":-0.01590284686699595,"132":0.09575455850774715,"133":0.14601204555258065,"134":0.12741632013266094,"135":0.17637182026264356,"136":0.10780928524232718,"137":-0.17994882911186583,"138":-0.016097874754286177,"139":-0.03415283273351207,"140":0.2062882507412688,"141":-0.04098148656303908,"142":0.20959169505252404,"143":-0.1400166127266558,"144":0.1954221855180118,"145":0.04281398627224751,"146":0.08940471845482303,"147":-0.044020226588277506,"148":0.13366147948295523,"149":0.12139686166314652,"150":0.06632658474686169,"151":0.17506115129934263,"152":-0.0775572777852747,"153":0.08367441434776361,"154":-0.05834836824601148,"155":0.05143727604772942,"156":-0.06069076361308016,"157":-0.11848689370868613,"158":0.1562350977723641,"159":0.16178058725116368,"160":0.15157141917916395,"161":0.09116359418069307,"162":-0.1252393769649549,"163":0.11460646064615145,"164":-0.0658499644476214,"165":0.09411458117144898,"166":0.12409014227777126,"167":-0.16020063550219407,"168":-0.09688437152634613,"169":0.18463550372189627,"170":-0.1304430507011477,"171":-0.005985247562028326,"172":-0.051174328884895745,"173":-0.13078729334293077,"174":-0.13278623745234366,"175":-0.1892710957346268,"176":-0.07526049279674954,"177":-0.1729291321974192,"178":-0.05068555675534965,"179":0.16744738562669548,"180":0.1897502779671735,"181":0.057689949837901724,"182":0.17691449852632232,"183":-0.10179802640955628,"184":-0.1336232136667358,"185":-0.08332539452664525,"186":0.09384884093581505,"187":-0.024525047467944018,"188":0.13925196570934414,"189":-0.27015101420905374,"190":-0.010655619355712473,"191":-0.2225548043020748,"192":-0.10175412902012151,"193":-0.14864001490874013}},"13":{"bias":-0.15280312749264133,"weights":{"0":-0.014319382064689455,"1":0.003322041601152102,"2":-0.1109177871528737,"3":-0.04418034447015545,"4":0.04797059028940125,"5":0.07923049974012325,"6":-0.14426532311003987,"7":0.2209196918811813,"8":0.07889799121904742,"9":0.004324288452301086,"10":0.2750408945945257,"11":0.15412936232549906,"12":-0.07591399965617211,"13":0.017336308013667,"14":0.034037555132312367,"15":0.061735487894635864,"16":0.1344440725256632,"17":-0.021412909326785898,"18":-0.14700482412964588,"19":0.18783784655725053,"20":0.06998124805562202,"21":-0.021868326226913665,"22":0.18533649206264063,"23":-0.21388764384674205,"24":0.11773447312280937,"25":0.1916499732329502,"26":-0.03363706631463537,"27":-0.0841212907194368,"28":-0.025206451949989023,"29":-0.05331980932176067,"30":-0.10610331658835948,"31":-0.11751394050456848,"32":0.10480097070131526,"33":0.20758363915387365,"34":0.01714801876164497,"35":-0.14932669217428515,"36":0.26547048690923414,"37":0.24149916513614664,"38":-0.12109668166162373,"39":-0.0379535438139799,"40":-0.09184626011072297,"41":0.0703743565070597,"42":0.06316540044802882,"43":0.17848336475302595,"44":0.008157697337823788,"45":0.07171313009635824,"46":-0.06255530973355222,"47":-0.21658053073654102,"48":0.14103476599567277,"49":-0.11936450325200458,"50":-0.25564715716380376,"51":-0.22112200215830405,"52":-0.22905614686673464,"53":-0.09798507340769658,"54":0.123940275842864,"55":0.04702492384160739,"56":-0.18173597777768635,"57":-0.21446841647107504,"58":0.07054329493337944,"59":-0.1830951620116252,"60":-0.15831831605818067,"61":-0.20331932664443397,"62":-0.13015234923482766,"63":-0.08066903630909099,"64":-0.14342838168365454,"65":0.10785766973138101,"66":-0.009626282085412666,"67":-0.15747353024009203,"68":0.10745137768433917,"69":-0.016734801537306703,"70":0.10434259495775011,"71":0.16189349344133475,"72":-0.08363577082093523,"73":0.03473238629937735,"74":0.12630479520853927,"75":-0.21722431670936762,"76":-0.06842719417564147,"77":-0.07674527340846349,"78":0.12027435126393116,"79":-0.1629934196629972,"80":-0.1924825789858076,"81":0.1247309077276981,"82":-0.011373032481992843,"83":0.0705908990906311,"84":0.07245901746072941,"85":-0.18206267509543236,"86":0.0004782686241181206,"87":-0.20766568172668878,"88":0.11223493271559663,"89":-0.20303050162949007,"90":0.16449039919886013,"91":-0.12810953203086528,"92":-0.19216314647573407,"93":0.05533034448784439,"94":-0.12282650293523048,"95":0.15359686182236845,"96":-0.12417332854228225,"97":0.05338980596835024,"98":0.02000541600306538,"99":0.045875554839537376,"100":-0.13223299284185036,"101":-0.10533228637775426,"102":0.06862032441788495,"103":-0.06412252607710664,"104":-0.09578357654020823,"105":0.05309188029722897,"106":-0.04861257261830351,"107":0.21115975951522228,"108":0.10244291567374933,"109":-0.07736904092572709,"110":0.1150078209278213,"111":-0.09006683519480349,"112":0.2207679696179933,"113":-0.13266816254275557,"114":-0.12762261230541164,"115":-0.05787864883818231,"116":0.15578047108862833,"117":0.17170100821115933,"118":-0.04847287325157379,"119":0.09654135523871589,"120":-0.08086597340040484,"121":0.1465106261881693,"122":0.054756382322246784,"123":-0.1744567895976131,"124":-0.09455491657743391,"125":0.14396014037020935,"126":-0.18568663586650955,"127":-0.18766441080112783,"128":-0.06682447806684491,"129":-0.158553246226027,"130":0.03689590324465422,"131":0.15723504958989817,"132":0.005709329038364102,"133":-0.1751676051838754,"134":0.02263071863430855,"135":0.10631014372198073,"136":0.16897884860964804,"137":0.09074435610005073,"138":-0.1478631879023559,"139":0.1366589082368155,"140":0.12827258918811477,"141":-0.06051060244880408,"142":-0.16281690085104478,"143":-0.11309170355100502,"144":0.07719887748664096,"145":-0.07896615164612367,"146":-0.1024290731255346,"147":0.16458229356451945,"148":0.08651535819108748,"149":-0.026674937431806513,"150":0.17427186829764352,"151":-0.09088499439106537,"152":-0.003626607253793867,"153":0.08650355876163147,"154":0.09939002410637797,"155":0.09409933755720205,"156":-0.16615256254389812,"157":0.18426072214566963,"158":-0.00967570900837594,"159":-0.21120725701675408,"160":-0.17037989171971268,"161":-0.042832396110056146,"162":0.00805369035419412,"163":-0.171884661576441,"164":-0.008924380067178293,"165":-0.016531503391310487,"166":0.10106373132528222,"167":-0.10206471063943184,"168":0.13128748419849565,"169":-0.11719783674869914,"170":-0.057072801848671154,"171":0.0707665189421763,"172":0.12907128273113985,"173":0.019934174280393412,"174":-0.15305793997605,"175":0.12807522106499658,"176":0.21097648397252708,"177":0.1962891112154936,"178":-0.11980476637330582,"179":0.18404722631689271,"180":0.1801719108673097,"181":0.16532214097202227,"182":-0.009527431072571785,"183":-0.01906361874172432,"184":0.190929973657647,"185":0.2001045337122954,"186":0.2026804312418821,"187":-0.05909703630722668,"188":-0.1375445369575913,"189":0.16364969762612738,"190":-0.058233466085543896,"191":0.13102412746284786,"192":-0.0984874086333038,"193":-0.020450020685093266}},"14":{"bias":-0.17063531481715283,"weights":{"0":-0.01678677358335702,"1":-0.262375764710302,"2":-0.13277281205809657,"3":-0.018319749457900086,"4":-0.09138958239236249,"5":0.242086059995704,"6":0.029474315870647902,"7":0.17764012946812835,"8":0.1693196805338406,"9":0.1143929376420411,"10":-0.033775555988895506,"11":0.2316197796976915,"12":0.05911688249458642,"13":-0.1379203225207798,"14":-0.12359781832403773,"15":0.2187579219414465,"16":-0.08534330617689437,"17":-0.0910919044379261,"18":-0.036771246760462624,"19":-0.1553716172873749,"20":0.0984488935834171,"21":0.2618886398285816,"22":0.15193142373934626,"23":0.18596094873045205,"24":-0.02789700431965279,"25":0.14700969338954267,"26":0.02717721162538525,"27":0.04868765797896446,"28":0.22123748963830184,"29":0.09362942507702623,"30":0.1874259797385504,"31":-0.017846251860808172,"32":0.12971424219725813,"33":0.17853407429630974,"34":-0.0021329568507608165,"35":0.22597239812805303,"36":-0.14134214482308052,"37":0.1123747022995824,"38":0.09594077300853039,"39":0.10556364614880279,"40":0.12473520545404963,"41":0.11179553714081945,"42":0.2120061286003364,"43":0.03883490573306315,"44":0.1509600147695341,"45":-0.1526577519149504,"46":0.02153577348928932,"47":0.15206199757423094,"48":-0.056995313186653615,"49":-0.16135648808060915,"50":0.1580178013360095,"51":0.1426957623773884,"52":0.16933541663134452,"53":-0.061333450095985155,"54":-0.163951477340239,"55":-0.13403579766892892,"56":0.20689715988020513,"57":-0.0053743592182958445,"58":0.2619974860523582,"59":-0.09494917553584871,"60":0.1733984536881884,"61":0.08841493843433305,"62":0.169929359328429,"63":-0.14557801694881517,"64":-0.01432037912121492,"65":0.06089474837156532,"66":-0.13182180903351487,"67":-0.10741693223381688,"68":-0.01377834918945698,"69":0.08367179349325492,"70":0.059198278283016506,"71":0.12589885068660892,"72":0.18069690503776845,"73":-0.10668334118172276,"74":0.15738894929742944,"75":0.14098105846972286,"76":0.03718788209467666,"77":0.1731669358062243,"78":0.12719010067772757,"79":-0.06677228159577911,"80":0.17040364184471132,"81":-0.10345389926230464,"82":-0.04499230257307149,"83":0.09255945586069468,"84":-0.05769295999442511,"85":-0.054569175232014905,"86":0.1890934015473265,"87":0.22423484035068642,"88":0.027471167014089002,"89":-0.06283260168964204,"90":0.15990264500472617,"91":0.1544856275494401,"92":0.04733240466192312,"93":-0.004197824579391674,"94":0.0922781129814944,"95":0.15378907981486603,"96":-0.116210676719949,"97":0.15182939921403754,"98":0.07732220888065879,"99":-0.19120284529947437,"100":-0.19600887809914094,"101":-0.025409470167313666,"102":0.10853889395509485,"103":-0.042269119463511126,"104":0.015345339843084593,"105":0.11096870232113855,"106":-0.0007353533025809227,"107":-0.027903187698682476,"108":-0.030473369547931457,"109":-0.05886760673467006,"110":0.02518441701138094,"111":-0.1427334459410147,"112":0.12401348930399697,"113":0.03500404999181315,"114":0.06289826921861966,"115":0.049203730168450595,"116":-0.08077084281111975,"117":0.003683957285120112,"118":-0.005143423995578601,"119":0.030969461242992734,"120":0.10897858100352135,"121":0.0399285300514619,"122":0.010729712704903102,"123":0.0668676646472132,"124":-0.16186889293600554,"125":0.07816021203967886,"126":0.14357259521943455,"127":-0.14623997036218642,"128":0.0013985212002703674,"129":-0.06303403621702913,"130":-0.12342966029023081,"131":0.06846511707927276,"132":0.14659977764994142,"133":-0.16123360951845928,"134":0.1434530238910307,"135":0.1682959386986041,"136":0.03704952658114068,"137":-0.11683759732778759,"138":0.0524825444107198,"139":0.08950679946967015,"140":-0.03931009731662856,"141":0.18643173947705602,"142":-0.0019301085177429592,"143":-0.21284685041517978,"144":-0.22744447855281621,"145":-0.18764829445602804,"146":0.01507532843801073,"147":-0.04936773258744975,"148":0.03700005646403432,"149":0.2077467936562962,"150":-0.01698917423720402,"151":0.17090142241257641,"152":0.16532633318569182,"153":0.18045650532477175,"154":-0.06533247989677361,"155":-0.11217103520628374,"156":-0.15135715774000602,"157":0.05470708910444141,"158":-0.07333198196063383,"159":0.13834088330447467,"160":0.06864612648808602,"161":-0.040919557633571274,"162":0.1530366770377837,"163":0.041360521741791424,"164":0.21902802193089102,"165":-0.1448964818970902,"166":-0.006394742326237349,"167":-0.03221062725796599,"168":-0.06127478266050661,"169":-0.13288002174469823,"170":0.18661120658094527,"171":-0.1980671900079866,"172":-0.034181173532586144,"173":-0.0005222554593932543,"174":0.04634459447121857,"175":0.19050278932278364,"176":0.05967964591213726,"177":0.1234297558923632,"178":0.13414094428876117,"179":-0.03976655106946125,"180":0.030031360319430232,"181":-0.1576202255505721,"182":0.008275947741174582,"183":0.10523823807824056,"184":0.06958540630422344,"185":0.05874766945746973,"186":0.057346003412106425,"187":-0.1800230752308928,"188":-0.09461087960588112,"189":-0.12834121767376555,"190":0.028230750542401175,"191":-0.04411675393118553,"192":-0.12726342659455578,"193":-0.045911445750715936}},"15":{"bias":-0.1917589223088319,"weights":{"0":-0.06203185074604647,"1":-0.1621367052107165,"2":0.19059944301450965,"3":0.03510353348736147,"4":-0.015258189533045433,"5":-0.025644227518723563,"6":-0.060115785148582936,"7":0.08359207604563,"8":0.20403660069953491,"9":-0.04169614890703103,"10":-0.10577284417537909,"11":-0.0658560945975828,"12":-0.07332868982495747,"13":0.15396440632598615,"14":-0.1337599604648333,"15":0.0007736944898253889,"16":-0.0747952579646024,"17":0.19449563262127925,"18":0.19110445533447137,"19":-0.11803103358627232,"20":0.025425980558086578,"21":0.05524787242153722,"22":-0.10247650294609231,"23":0.027875049209158325,"24":0.13153506752718222,"25":-0.02485017201375707,"26":0.17569262469160232,"27":0.0795773579114141,"28":0.063147329853659,"29":0.057202092943841314,"30":-0.09098457077080847,"31":-0.178883518096718,"32":-0.07530404556518076,"33":-0.05565541530544585,"34":0.030722155977764624,"35":0.0707143617570028,"36":0.022438152193630555,"37":0.07448960251954831,"38":0.07937638362664987,"39":-0.18455947298134956,"40":-0.11649651031037292,"41":0.12824414339762355,"42":-0.2237416096027571,"43":0.1545390973869062,"44":-0.03328507588065805,"45":-0.1721355005567341,"46":0.22381750304526593,"47":0.1973900421317423,"48":0.10082589403873896,"49":-0.08554470878242147,"50":-0.011103997634008628,"51":0.10601388284345667,"52":-0.07620607834073051,"53":-0.0734770757561736,"54":-0.1498705668069489,"55":-0.17835008615853698,"56":-0.05834865527476269,"57":-0.013887723695759647,"58":-0.1445661456973023,"59":-0.18001175127441846,"60":-0.21173137176208673,"61":-0.06690025831066844,"62":0.13083964046251978,"63":-0.16812729407903798,"64":-0.06733262043946413,"65":-0.1881308213071412,"66":-0.0762416625243528,"67":-0.19813481350881895,"68":-0.20856109766918876,"69":-0.19091720516928173,"70":0.000040708490181724194,"71":-0.07310555567244907,"72":0.1079924703792774,"73":-0.10103315628465769,"74":-0.06897005375198102,"75":-0.14823704272978638,"76":-0.20415651647696237,"77":0.0015502301753549956,"78":-0.03775165793588598,"79":-0.08828947432433244,"80":0.0797715074081736,"81":0.07622190842157517,"82":0.08104943716480328,"83":-0.16035102089706732,"84":-0.18383000215993192,"85":0.1172885509454088,"86":0.0066105063057807145,"87":-0.09035863157010954,"88":-0.1189443595185558,"89":-0.02129441820721728,"90":0.11656785693210114,"91":-0.03204188245949971,"92":-0.178003835841814,"93":0.1576121246601313,"94":0.02383979639198473,"95":0.06090143292556207,"96":0.20999360503763287,"97":0.11874214400039806,"98":0.06733338385063005,"99":-0.11818323927634927,"100":-0.17532645274831007,"101":-0.1137093403307377,"102":0.13412046307866426,"103":-0.012569557919600773,"104":-0.08852561260787778,"105":-0.015910300154999557,"106":-0.0185633812507964,"107":0.15547633824170187,"108":-0.044163217196481704,"109":0.08231623173012091,"110":0.10948705806119259,"111":0.0329930264450436,"112":-0.1891709020461389,"113":-0.15917814674443237,"114":0.12821018093933326,"115":0.20164139102301287,"116":0.05310111003249019,"117":-0.1982621326678023,"118":0.17933100451033462,"119":0.1521253825744801,"120":0.04768410336750054,"121":0.04151131305347346,"122":0.04238652899430679,"123":-0.16018393470345527,"124":-0.10608069669676527,"125":-0.1245122782534739,"126":0.11090011454523518,"127":0.14179164772785738,"128":0.016842501910178703,"129":0.1816670402185238,"130":0.043071091144512165,"131":0.1368480743246704,"132":0.10930104056624856,"133":-0.10691697106913317,"134":0.08232658110046115,"135":-0.1274991984302542,"136":0.026311127710181462,"137":-0.0717240100030282,"138":0.18520696599531639,"139":-0.034317800167586114,"140":0.11938929099156498,"141":-0.11540227930023063,"142":0.22064127704657335,"143":0.0836226686262569,"144":0.1844465399451847,"145":0.11507156002591808,"146":-0.023341060872768934,"147":0.07421565335332936,"148":-0.18509149562549143,"149":-0.20515063498036867,"150":-0.10411765727964058,"151":0.08469578334187418,"152":-0.08482890718506864,"153":0.011740420780614434,"154":-0.032311536069516984,"155":0.14353644134313334,"156":-0.14450459969605592,"157":0.1236337332244518,"158":-0.061570647218857605,"159":-0.19982722988569093,"160":-0.14043639630209245,"161":-0.1501103513116305,"162":-0.1099374044841994,"163":-0.1720902570403902,"164":-0.03751538551921488,"165":-0.1348813586193653,"166":0.1265835053640768,"167":-0.18189761090508824,"168":0.106972583566515,"169":0.19143492730782938,"170":0.18859796098520068,"171":0.07895316331283735,"172":-0.15878567500503246,"173":-0.08415138412943096,"174":0.16236538617860166,"175":0.031234322361893496,"176":-0.09606505684035038,"177":0.0008658586809571639,"178":-0.11900786217135433,"179":0.12852393324872585,"180":0.09685903964461072,"181":0.18605752710300824,"182":-0.06266234870914171,"183":0.1334849753060787,"184":0.16614149730903874,"185":0.03575142177658147,"186":-0.174743531202566,"187":0.18159625768409762,"188":-0.15515790917420427,"189":0.08843057436696966,"190":-0.0634176161331168,"191":-0.08682550630547299,"192":-0.06801747569874098,"193":-0.05838762449852739}},"16":{"bias":-0.10639609329570576,"weights":{"0":-0.025104064085022335,"1":-0.12022007021477006,"2":-0.14173265042167268,"3":-0.12119740923495882,"4":0.09490980503270526,"5":-0.055234251907304646,"6":0.1642066457916316,"7":0.07500572772395087,"8":0.013055919622045222,"9":-0.13516109032027487,"10":-0.2003850777332101,"11":0.001066932792871168,"12":-0.24885503153691718,"13":0.09506422800255056,"14":-0.14838323033262418,"15":0.15557463944567262,"16":-0.002193968334657902,"17":-0.033531365790411244,"18":-0.08494689002073322,"19":0.09397095840630018,"20":0.16271054494441595,"21":-0.24034214107676394,"22":0.011091175585584473,"23":-0.008218944613576785,"24":0.04692684119417631,"25":0.18926408526871324,"26":-0.13445531135230204,"27":-0.054780348705938564,"28":-0.005083245473005901,"29":0.016150371331720342,"30":0.15201783860601212,"31":-0.06343536759257527,"32":0.055521446356806156,"33":-0.14075706748250333,"34":-0.17229744959262716,"35":-0.14276471348848124,"36":0.00954202568448029,"37":-0.050257480221914085,"38":0.21556535752787012,"39":-0.0420974476951211,"40":-0.018230747934335746,"41":0.012967874477811251,"42":-0.026678141243595396,"43":0.058611856519963174,"44":-0.056637994155373704,"45":-0.2164803214812787,"46":-0.2953343914125523,"47":0.0881483063148314,"48":-0.09110162502412492,"49":-0.09658027512430259,"50":0.005917613250686352,"51":-0.15576805636633162,"52":-0.1138260690176774,"53":-0.1423058963363162,"54":-0.03148937720920754,"55":0.12375957004216857,"56":-0.033231499470975874,"57":-0.0016940330748640017,"58":0.10782214369830852,"59":0.1713012326638266,"60":-0.029673594773943022,"61":0.12020338336204453,"62":-0.03011570060128352,"63":0.22456633638987136,"64":0.01729548396116578,"65":0.21979671439862206,"66":0.10306024514865185,"67":-0.0041140998884323194,"68":0.24732311751212863,"69":0.18990910591050897,"70":-0.00791142897525096,"71":0.2538460052531082,"72":0.0065380538236501674,"73":0.03408668911030622,"74":0.022662258659350162,"75":0.14982020760277065,"76":0.13782891535477598,"77":-0.06895337592738325,"78":0.028685043745518696,"79":0.06904931221670754,"80":-0.12742628958288257,"81":-0.09090123535683678,"82":0.06869926201577647,"83":-0.15848555891151822,"84":-0.03699778084328369,"85":-0.1107716626042135,"86":-0.2418677619626687,"87":0.04983095759383783,"88":-0.24436653936767,"89":-0.19959036059227162,"90":0.03700221152762385,"91":0.03579479109093793,"92":-0.10469641027816973,"93":-0.2552102402169042,"94":-0.24256822403630474,"95":-0.200974375510163,"96":0.025377549635199354,"97":-0.09777035865552333,"98":0.006131177901059514,"99":-0.0899894252937186,"100":-0.14501750450481174,"101":-0.19181157037287908,"102":-0.18457703660834593,"103":0.17034115137246725,"104":-0.03735279297615708,"105":-0.009431847107293436,"106":0.19128875283031233,"107":-0.09275990471969509,"108":0.17015305487343307,"109":0.16807877518636266,"110":-0.11978239663302909,"111":-0.15159593840506141,"112":-0.11232813754566665,"113":0.17323093293045716,"114":-0.20994433090555045,"115":0.05323158293984315,"116":0.04171098546655209,"117":0.128628532226555,"118":-0.10749427013439189,"119":-0.05482488830074136,"120":0.1313354030487107,"121":0.11607883541672702,"122":-0.08841323051461511,"123":-0.16175127220250846,"124":0.04608291086789138,"125":0.12082611003155365,"126":0.05088793115983834,"127":0.13363313996249515,"128":0.040395182270785625,"129":-0.038963197279343796,"130":0.044704989120190976,"131":-0.11719662055354058,"132":0.13211803518580265,"133":0.16126327719662112,"134":-0.0421856770487963,"135":-0.1896227698456002,"136":-0.12160681572500093,"137":0.07969538226227159,"138":-0.09705479112504997,"139":0.054624063341060326,"140":-0.04560300136344649,"141":-0.17811707545388325,"142":0.11081353037208652,"143":-0.12152907999492808,"144":-0.12683673257313743,"145":0.1444480061425451,"146":0.04257092824386776,"147":-0.10422445824983059,"148":-0.04202026545700498,"149":-0.1794689586186169,"150":0.06514544107507025,"151":-0.03063331219708312,"152":0.026299899126482177,"153":0.11423051403345078,"154":-0.1812111302899358,"155":-0.14037380223293786,"156":0.03096239436616975,"157":0.12978185565026057,"158":-0.20836712139459151,"159":-0.08871251084312742,"160":-0.20482495999092434,"161":-0.1795720404404883,"162":0.011939025010440741,"163":0.1549251816364967,"164":0.17812045243291452,"165":0.08507916038560337,"166":-0.02291434771814773,"167":-0.059512540313444114,"168":-0.11373475638096689,"169":0.058841883883413625,"170":0.0006492565440281393,"171":-0.15796490970488258,"172":-0.010429197373313284,"173":0.08597882067492828,"174":0.009095627585015734,"175":0.14275989808043302,"176":-0.19720416889814354,"177":0.16213384565686964,"178":0.11755705499389743,"179":-0.06460292896064872,"180":-0.01406908452157516,"181":0.08171607635157804,"182":-0.11508813193096629,"183":-0.07154297600130952,"184":-0.09250325756546382,"185":-0.030839943763941512,"186":0.1945330059350168,"187":-0.1976868838534804,"188":-0.11393434142614242,"189":-0.22417524838609876,"190":-0.039381175462730574,"191":0.15911181856169726,"192":0.07746233633401588,"193":-0.0665836891504239}},"17":{"bias":-0.2005730706769695,"weights":{"0":0.0430761467372116,"1":-0.12927476150840142,"2":-0.19833363213354022,"3":-0.09179432845224927,"4":0.16905514777874064,"5":0.24108175910791754,"6":0.02809431889293654,"7":-0.05645721724530478,"8":0.2810466789566216,"9":-0.08644567090023432,"10":-0.04108844824649668,"11":0.09308363241928735,"12":0.2083880897354123,"13":-0.015133639478364026,"14":-0.09409320916336675,"15":0.12027733217271852,"16":-0.02561772321756106,"17":-0.1481055603729826,"18":0.02804216813563451,"19":0.21463930518261914,"20":0.17809742068965034,"21":0.15533988871421167,"22":0.016548559800937716,"23":0.05269721897432875,"24":0.05142729334514013,"25":-0.07483433041743857,"26":0.10170960577872075,"27":0.15469481817335504,"28":0.09770143630995941,"29":-0.230808464162347,"30":0.18732333568937629,"31":-0.42040358861436855,"32":0.14425780904412525,"33":0.09513589733470347,"34":0.041221140615759655,"35":-0.1861873186879053,"36":-0.1567904029829284,"37":0.18798846264638536,"38":-0.06375367888984965,"39":-0.1710949252086657,"40":-0.13419480274619588,"41":-0.05596928321821782,"42":0.12877830599455867,"43":-0.05637068048265233,"44":-0.08696307115114876,"45":0.10050636737302814,"46":-0.018991725869065598,"47":-0.06780852961947031,"48":-0.17626224296025275,"49":-0.10196510958552735,"50":-0.16923454356153328,"51":0.02227348207735256,"52":-0.2556175965373563,"53":-0.1951172926801046,"54":0.0057916068966203235,"55":-0.26864288595238606,"56":0.021582866333985512,"57":0.1919348828022421,"58":0.08109305204925238,"59":0.09514345344844871,"60":-0.17291533381577515,"61":0.12402474078525043,"62":-0.08820588995842599,"63":-0.09009091162927062,"64":-0.02247996842857404,"65":0.06453268064721603,"66":-0.07774531218678016,"67":0.11411663034731112,"68":0.10009981285802821,"69":0.05047634118810591,"70":-0.15967555928104898,"71":-0.11719496971827074,"72":-0.15869165175280966,"73":-0.027982883938715616,"74":-0.13873831954004506,"75":-0.16857277862387704,"76":0.04869800073306697,"77":0.09113725167380526,"78":0.10552299666033434,"79":-0.10255718801910073,"80":0.11400818439790039,"81":-0.043829106471040116,"82":-0.00019806653772333973,"83":-0.14305427826898906,"84":-0.009899977403866805,"85":0.05516060107381997,"86":-0.11806690378628627,"87":-0.20180454866231465,"88":-0.045829068902415185,"89":-0.1733690948349509,"90":0.156825048528316,"91":-0.11261434774832803,"92":-0.00873797341337709,"93":0.07365456983873152,"94":0.06517677360322038,"95":0.16205632860459943,"96":-0.0488284522791635,"97":0.1278230727233777,"98":0.19871833271525,"99":0.021742087747595083,"100":-0.09101326296419902,"101":0.142868908280454,"102":0.025418529623919738,"103":0.17475044357895655,"104":-0.16283291772385697,"105":-0.028000341110065146,"106":0.11502449191225672,"107":-0.10692194987160304,"108":-0.15461652234479928,"109":0.13875678174881617,"110":-0.1711368037415138,"111":0.010131411584233476,"112":-0.09816891532589828,"113":-0.10112633750820146,"114":0.18023781512864281,"115":0.20855597234087606,"116":-0.12286118306520731,"117":0.12246577896177077,"118":0.11557070700787636,"119":-0.0010903866743696023,"120":-0.11898951858343744,"121":-0.2199146091186882,"122":-0.1380990165043265,"123":-0.14557326402691745,"124":-0.14074356018759918,"125":-0.2091327481263624,"126":0.17113729874668013,"127":-0.004424291416730147,"128":0.007685301579786807,"129":0.17329838055993654,"130":0.007712617405835981,"131":-0.0363270025247963,"132":-0.08843272572670456,"133":0.0790293471983607,"134":-0.1460453908341148,"135":-0.18473120698318782,"136":0.06536561378936225,"137":0.02950474980009833,"138":-0.09995599736472814,"139":-0.19613114121797534,"140":-0.13064838849368873,"141":-0.04253885136631097,"142":0.04071849836187662,"143":-0.06836207699259007,"144":-0.09931482696129033,"145":-0.13651124080160723,"146":-0.03857431919646164,"147":-0.20195310562872307,"148":0.11507285599093965,"149":0.091040653201495,"150":0.12318537929567638,"151":0.11461629114787851,"152":0.1492831361050227,"153":-0.1486118166892452,"154":-0.038641953395052255,"155":0.01397398670686076,"156":-0.03811290737181713,"157":0.04447494974651632,"158":-0.10408760195287566,"159":-0.06198082739525397,"160":0.04504973906988079,"161":-0.19546881435594782,"162":0.029142611129983915,"163":-0.127625219565902,"164":-0.005192151762086199,"165":-0.13480939322711055,"166":-0.01997162246034214,"167":0.0003713001935009329,"168":0.08044578321190335,"169":0.11420366922252775,"170":-0.16650347975090052,"171":-0.10216012510784953,"172":0.06360576345095216,"173":-0.040909861470514515,"174":0.17367609748016966,"175":0.14815705927614564,"176":-0.13282373938056022,"177":-0.0793148058640014,"178":-0.05590163402742963,"179":-0.10346933365286588,"180":0.029569203111031707,"181":-0.013209293668167536,"182":-0.1588362145992509,"183":0.15796512233383797,"184":0.16332134748158006,"185":0.1753109836366969,"186":-0.06899102423440853,"187":0.15629732023232268,"188":0.000913612097977222,"189":0.15674166119006486,"190":0.25000820117845546,"191":-0.07094026699259222,"192":-0.07023302530882185,"193":-0.06113072184235962}},"18":{"bias":-0.15606204993850767,"weights":{"0":-0.1419893226223456,"1":-0.0055106345948191405,"2":0.0062378972280504805,"3":-0.04088175828736234,"4":0.03611942300738701,"5":0.08909559215126621,"6":-0.08850982259800566,"7":0.10316428581221582,"8":0.024907606740975172,"9":0.08075407128415235,"10":-0.18260359508700838,"11":-0.24710695168838545,"12":-0.012723634721220622,"13":-0.2219109261127939,"14":-0.054547637273971224,"15":0.09600640563583893,"16":0.07433118305674301,"17":0.15323478169213936,"18":0.10896246279014475,"19":-0.06764621114495407,"20":-0.07995005557348418,"21":-0.11853046969843914,"22":0.022043957416554627,"23":0.06000694015655653,"24":0.12400314112144166,"25":-0.04110880107954868,"26":0.006441812904291069,"27":0.139788577480603,"28":0.12625228988542656,"29":-0.033204130592655506,"30":0.10399069531640054,"31":-0.09202507269754709,"32":-0.09956545133141494,"33":0.2461677056270307,"34":0.1050225531072021,"35":0.2749130780869302,"36":0.17761789637614256,"37":0.21127889395165236,"38":0.17327100104486615,"39":0.021102801216826245,"40":0.1636232683613205,"41":0.23464749004536348,"42":0.015536467631387283,"43":0.002430417835070583,"44":0.16155464473526246,"45":-0.16374514245117386,"46":0.091875028130007,"47":0.22006103912081962,"48":-0.03405477150699845,"49":0.015204949893178719,"50":0.1378678482184871,"51":0.26077377458239914,"52":0.14468263739112966,"53":0.10634198427036062,"54":0.022744961051531145,"55":-0.16991629002212824,"56":-0.0013454374201733149,"57":-0.13961665645486954,"58":0.05132814688992029,"59":-0.16982598723891826,"60":-0.10524682445079503,"61":0.03712178010286897,"62":-0.07396401904508795,"63":-0.09376740345466553,"64":-0.04121157595496265,"65":0.04663198691992062,"66":-0.0035110434261051327,"67":-0.23715466455611683,"68":0.0021500056762070387,"69":-0.17841209190401908,"70":0.06298493955029216,"71":-0.13601322114374984,"72":0.10601686877776581,"73":-0.06376358348504559,"74":-0.03337807715778898,"75":-0.11342117972289237,"76":0.08187606764361371,"77":0.10805114752596971,"78":0.09482497941828384,"79":0.006644623436914797,"80":0.026811229469280357,"81":-0.06349856556472812,"82":-0.1915750467462608,"83":0.01850228797742484,"84":-0.16107829148596328,"85":0.05226969259368658,"86":-0.04735616739772733,"87":-0.010967331084779233,"88":-0.19135336888073823,"89":0.1540061817361803,"90":-0.08415905652429286,"91":-0.22886574074044547,"92":-0.1666225133100432,"93":0.04949764653629713,"94":-0.1274406923200753,"95":-0.06862138453037434,"96":0.08263722596280174,"97":0.05571667690583477,"98":-0.052424062069972965,"99":0.07488346276889701,"100":-0.0709630434509723,"101":0.11440723896642446,"102":-0.1438433841258047,"103":-0.08947717423788915,"104":-0.09843211846208154,"105":-0.1301749700600945,"106":0.09542820721141948,"107":0.19886318972015218,"108":0.02000537805344584,"109":-0.1824943423267845,"110":-0.02472720722800364,"111":0.14713415603888624,"112":-0.09699249551838458,"113":-0.09369774624775656,"114":0.1165797672764316,"115":-0.06759323723232205,"116":-0.09691780257069707,"117":-0.18435419135633832,"118":0.009969150142975123,"119":0.1864132663207233,"120":0.12892015645971866,"121":0.06298910783152245,"122":-0.06863982629180634,"123":-0.024701704732041273,"124":-0.14581346474296214,"125":0.13502078932686157,"126":0.1791075366874717,"127":-0.08910435103939993,"128":0.19897482802208827,"129":-0.1798260874754475,"130":0.1294294019258995,"131":-0.1802870872698839,"132":0.19699121326358648,"133":-0.05997770146427355,"134":0.19320147618211536,"135":0.09589372255358143,"136":0.11820349896548689,"137":0.02382805849891466,"138":-0.10585700945181889,"139":-0.07346641369321882,"140":0.029719099120959228,"141":-0.14375673468040476,"142":0.01406307362987208,"143":-0.018480750034253292,"144":-0.12097386966544109,"145":0.11954633470813748,"146":-0.03241970739623048,"147":0.12618422858282413,"148":-0.06595385901043967,"149":0.10926925302719727,"150":-0.19372104246564195,"151":-0.06439596565892473,"152":0.18150593930377243,"153":0.16361422031815553,"154":-0.19107477339047932,"155":0.17488549223539732,"156":-0.0048659329316700275,"157":-0.055204273662849995,"158":0.10743449174065473,"159":-0.2170256941519719,"160":-0.015191348674791721,"161":-0.17591271247590448,"162":0.13114180146029528,"163":-0.1714198090034407,"164":-0.1909079270797259,"165":0.06669547488716104,"166":-0.08953883790573253,"167":-0.03480702935254186,"168":0.03925314379855761,"169":-0.1422615242791903,"170":0.010735112615120428,"171":0.038919373646415525,"172":-0.08950860894734808,"173":-0.1110108104530092,"174":-0.053148999208940825,"175":0.03300204052292506,"176":0.11740464899371329,"177":-0.048635558084539524,"178":-0.19059958888326684,"179":-0.11174642695406756,"180":-0.03389754721224435,"181":0.008288110684099386,"182":0.07333069906466629,"183":0.0954605358284444,"184":0.18960040407476678,"185":-0.1836745833805393,"186":-0.14843410141037014,"187":0.0553451504600921,"188":0.055379523572954295,"189":-0.04391593266184691,"190":0.044481412798400115,"191":-0.04224126556104042,"192":-0.14478024954325558,"193":-0.20914431883073492}},"19":{"bias":0.14402437721845146,"weights":{"0":0.13248012975485857,"1":0.2717057736345468,"2":0.28432626679728734,"3":0.10741713534606231,"4":-0.1063977985963869,"5":-0.058630855875365574,"6":0.14783192269676623,"7":-0.010111005532651759,"8":0.09160445312927944,"9":-0.13700586047355703,"10":0.004736998408470671,"11":0.00155632765816937,"12":-0.06004859928782024,"13":-0.1814616230959307,"14":-0.016902847094782604,"15":0.16111279274600931,"16":-0.0027334154781652135,"17":-0.0558543680510908,"18":0.024845890370469928,"19":-0.012696818963705768,"20":-0.11591346872953091,"21":-0.1172801538357394,"22":-0.14363257576040306,"23":-0.24542028695239873,"24":0.046129309933784,"25":0.025929602303841143,"26":0.0004563700991834536,"27":-0.18448713007761175,"28":-0.11898884784386068,"29":0.10537658835070043,"30":-0.13774306088826288,"31":-0.015403779805944208,"32":0.10075819280685737,"33":0.03366682673184717,"34":0.0720928374724063,"35":-0.0883493622707645,"36":0.10395042351328782,"37":-0.031266856543353025,"38":-0.08611859588483899,"39":-0.04130602604316921,"40":0.0054441025276409805,"41":0.06256573702099812,"42":-0.2752918733319841,"43":-0.17643985805870532,"44":0.07232161313546091,"45":-0.19043679779579473,"46":0.029001154020094122,"47":-0.010238857498317615,"48":0.05378900223169889,"49":0.05404273818300601,"50":0.129993076371503,"51":0.01007190971210465,"52":0.15770251742459768,"53":-0.12061351726964328,"54":-0.11795082199970569,"55":-0.19803923079309493,"56":-0.30996684007272585,"57":-0.11623880182058713,"58":-0.11542410227132154,"59":-0.26157926290937916,"60":0.04457648208556997,"61":-0.2540002012760763,"62":-0.13180739516532203,"63":-0.12770548912174137,"64":0.017459989671753134,"65":-0.24347483724738878,"66":-0.12088927511051234,"67":-0.19024168079672388,"68":-0.11381461774201879,"69":-0.08380504585427215,"70":-0.1649834526848022,"71":-0.23784200785368517,