{"layers":[{"0":{},"1":{},"2":{},"3":{},"4":{},"5":{},"6":{},"7":{},"8":{},"9":{},"10":{},"11":{},"12":{},"13":{},"14":{},"15":{},"16":{},"17":{},"18":{},"19":{},"20":{},"21":{},"22":{},"23":{},"24":{},"25":{},"26":{},"27":{},"28":{},"29":{},"30":{},"31":{},"32":{},"33":{},"34":{},"35":{},"36":{},"37":{},"38":{},"39":{},"40":{},"41":{},"42":{},"43":{},"44":{},"45":{},"46":{},"47":{},"48":{},"49":{},"50":{},"51":{},"52":{},"53":{},"54":{},"55":{},"56":{},"57":{},"58":{},"59":{},"60":{},"61":{},"62":{},"63":{},"64":{},"65":{},"66":{},"67":{},"68":{},"69":{},"70":{},"71":{},"72":{},"73":{},"74":{},"75":{},"76":{},"77":{},"78":{},"79":{},"80":{},"81":{},"82":{},"83":{},"84":{},"85":{},"86":{},"87":{},"88":{},"89":{},"90":{},"91":{},"92":{}},{"0":{"bias":0.2552476357412433,"weights":{"0":0.13051176290752606,"1":0.20005147680787563,"2":-0.0874208408877937,"3":0.1434807759083263,"4":0.2536818102736482,"5":0.21917306713042106,"6":-0.15346756751798987,"7":-0.046844222991141965,"8":0.02344463398231943,"9":-0.10791609587067574,"10":0.02774666265725609,"11":-0.2815438095792987,"12":0.08764626454296305,"13":0.15871792957578004,"14":-0.17714804624795305,"15":0.03247223190352665,"16":0.15423136526529513,"17":-0.1472005985887183,"18":-0.17639337184791334,"19":0.18724253481982883,"20":-0.023446043191549526,"21":-0.20542828148779557,"22":0.11275557692198844,"23":-0.12200405773099975,"24":-0.1377099508693313,"25":-0.017736241963350514,"26":-0.25933265428759333,"27":-0.13217789427702709,"28":-0.33308595333448654,"29":-0.0389136255191868,"30":-0.008532831289621795,"31":0.1056121961786988,"32":-0.18414738243530904,"33":0.10225808902756517,"34":0.12964151615726002,"35":-0.039012378918254154,"36":0.04878611808937931,"37":-0.13712818454912049,"38":-0.14961303856590905,"39":0.13409917179004457,"40":-0.05615100969715695,"41":-0.02240624045175947,"42":0.05252572214188248,"43":-0.1606082054037696,"44":0.11381835389385508,"45":-0.10973295364661032,"46":0.08369197015352442,"47":-0.26269832669883025,"48":-0.18412991276605725,"49":-0.2287446028768128,"50":0.050941976222849586,"51":-0.11779566170917563,"52":0.06521085198603681,"53":0.13348313468208886,"54":0.26801727748986126,"55":-0.01198273549541678,"56":0.0866399300190296,"57":-0.06194954066504563,"58":-0.03849834653982059,"59":0.2402187806833028,"60":-0.08479871949600827,"61":-0.02081064585437117,"62":-0.010779665034675425,"63":0.08239285923200951,"64":0.03776754385753301,"65":-0.03922958739954576,"66":0.25089837917861774,"67":-0.0416130806017247,"68":0.19899160692731016,"69":0.19658728757034855,"70":0.04656816203982791,"71":0.2245411491541746,"72":-0.00473419066294544,"73":-0.017565883165899503,"74":0.20874264537950593,"75":-0.0919750028183957,"76":-0.08041416506014586,"77":-0.0467093990062225,"78":-0.21289610785448232,"79":-0.2147141109410514,"80":0.023806717988407628,"81":-0.3250505113320068,"82":0.06499659225607123,"83":-0.005717931642656027,"84":-0.004922629373313366,"85":-0.11088634387445997,"86":-0.1384917438633721,"87":-0.02253882363364662,"88":-0.03988247595683055,"89":-0.05506410025691115,"90":-0.2576959341349698,"91":-0.22847652248184055,"92":-0.19311015442486387}},"1":{"bias":-0.17076269217343,"weights":{"0":-0.023529242523374783,"1":0.23506437208648467,"2":-0.06281993926837218,"3":0.01872526997817058,"4":0.24808425932493286,"5":0.16718665975101968,"6":-0.08592622516098083,"7":-0.032539604614334486,"8":0.030718982864267736,"9":0.21928186628039484,"10":-0.009075106369136061,"11":0.12935946223822128,"12":-0.052323356541199906,"13":-0.07644763349562134,"14":0.18826023828189375,"15":-0.08051363440884227,"16":-0.1531776672561324,"17":-0.06851916641756625,"18":0.16661865932716544,"19":0.06254616159017046,"20":-0.044229529758396995,"21":0.2536168104920447,"22":0.12124666478366157,"23":-0.026402765953097363,"24":0.017860304701278595,"25":0.1319348083824595,"26":0.26971503845232325,"27":0.14037274201624494,"28":0.425887546538266,"29":0.01800200865369798,"30":-0.10728475221682562,"31":0.21394459579054456,"32":-0.011413917206203236,"33":0.2161040780355395,"34":0.09759522422139631,"35":-0.09021816427929724,"36":0.1725688880468449,"37":-0.051464586451956236,"38":0.21169127629345225,"39":-0.031942174264360794,"40":0.22528254263276115,"41":0.035013804877254015,"42":0.03046494824975509,"43":-0.026687425952719175,"44":-0.1388910884651209,"45":0.009080697729308933,"46":0.24624582958077287,"47":0.02099785661202701,"48":0.2159493170432675,"49":0.06311555541466178,"50":-0.023303683235725712,"51":0.2400173905399053,"52":0.016765797254822763,"53":0.021874448984870443,"54":-0.2100836768298413,"55":-0.020765080745148788,"56":-0.26330968899252605,"57":-0.11367079902324316,"58":-0.17746034948245407,"59":-0.039769995740595206,"60":-0.3088317655176688,"61":-0.21620964551101196,"62":-0.13513813440226302,"63":-0.21564754376826437,"64":-0.10974769967074102,"65":-0.23323677203782567,"66":0.10283019558239645,"67":-0.055386389994868085,"68":-0.11855334086200005,"69":0.07466969538704929,"70":-0.15216489549065912,"71":0.07316801223921465,"72":-0.07885604369598076,"73":-0.22269976117022894,"74":-0.006474529968058978,"75":-0.015713335077136792,"76":-0.15903391243518267,"77":0.20421868821024922,"78":0.20575388550818138,"79":0.10836558248206767,"80":0.07333146820696936,"81":-0.10914063223428834,"82":-0.06529022298045624,"83":0.25462597801703307,"84":0.062300935533795336,"85":0.17426451364212833,"86":0.08106571665027143,"87":0.23132428101980643,"88":0.17675540630105369,"89":-0.07949043177011131,"90":-0.07318224726239937,"91":0.06145661254729936,"92":-0.1026453333779596}},"2":{"bias":-0.13345014692806753,"weights":{"0":0.18302319830090485,"1":-0.08133840143549907,"2":0.13880639117307442,"3":0.19220737133156746,"4":0.06615254661352257,"5":-0.10291326398026421,"6":0.02424117428915104,"7":-0.1620413353865523,"8":0.13123199005057662,"9":-0.060297993562654084,"10":0.16470451936506258,"11":-0.24323775017393012,"12":0.07636475121528478,"13":-0.0030441324804737734,"14":-0.02528122894325093,"15":-0.07595577878962095,"16":0.0153645404054186,"17":0.1714621206652659,"18":-0.09452833797787603,"19":0.0459645060859279,"20":0.2502668549168285,"21":0.052109378269194574,"22":0.02260968079134139,"23":-0.09322452030930822,"24":-0.0321141769363189,"25":0.15936060070571104,"26":-0.054536651587596525,"27":0.19664635667141223,"28":-0.34792963525451553,"29":0.09333939892909647,"30":-0.14874697150861071,"31":-0.01983810339867988,"32":-0.11542457436450267,"33":-0.012094742658971707,"34":0.02482440194855724,"35":0.21504290554881347,"36":0.06460562255722174,"37":-0.015388920460924488,"38":0.18839647054313194,"39":0.025270651548517827,"40":0.05773565736189928,"41":-0.03161910033690325,"42":-0.09060598905890169,"43":-0.19980124923682735,"44":0.01994028196518144,"45":0.07624987473222582,"46":-0.002381394441299825,"47":-0.10808046387023748,"48":-0.13768663126808708,"49":-0.1835871564017789,"50":-0.24722425087743813,"51":0.08705778811365841,"52":-0.1659705882645111,"53":-0.022304731208859438,"54":0.17091285235937034,"55":0.20501351830490885,"56":-0.04979185692055331,"57":-0.07972767348273781,"58":0.16454269407921562,"59":0.11366967658375204,"60":0.06983993072396129,"61":0.05991981207889363,"62":0.05396148727923929,"63":-0.053499359732284577,"64":-0.1534775953723312,"65":-0.07379396471219099,"66":0.2335545806810604,"67":-0.15429806014657824,"68":-0.16101587039401866,"69":-0.140050969147858,"70":-0.001334301091864174,"71":0.1805273491287772,"72":-0.11479033961135283,"73":0.10833734240182215,"74":-0.005298319438887121,"75":-0.24394704898432942,"76":-0.04073703325854024,"77":-0.08020747914356655,"78":-0.2536123679762744,"79":0.03921786031503234,"80":-0.26111105537928686,"81":-0.09410916451097143,"82":0.1041040738935083,"83":0.007329427683563271,"84":-0.25291048626346896,"85":-0.24679395176078614,"86":-0.21125540215814967,"87":-0.012367831637160404,"88":-0.16671017711571084,"89":0.040019025553478714,"90":-0.24054327456111727,"91":-0.07463235607315981,"92":-0.2583200076268978}},"3":{"bias":-0.2055430888490056,"weights":{"0":0.08405168070642406,"1":-0.15735870202120728,"2":0.06409455961235636,"3":0.00047022279611963166,"4":0.1739751219818043,"5":-0.026565771508655536,"6":0.19641284102765913,"7":0.08852214186607688,"8":0.054827163233966913,"9":0.13719362783309846,"10":-0.17136902348618446,"11":0.2813877841892823,"12":0.09204980000470088,"13":-0.16145463431865414,"14":-0.07159150263858628,"15":-0.036844773920824976,"16":0.043991857882423976,"17":-0.08886987245803209,"18":0.23014519888334212,"19":-0.19943241418485244,"20":-0.23499237248481963,"21":0.11546007537904357,"22":-0.009266340320231874,"23":-0.18427382432163852,"24":0.07922923770254262,"25":-0.0771673734120081,"26":0.3179253867362161,"27":-0.0030075761033213026,"28":0.6311975016757378,"29":0.15779792315738325,"30":-0.10259612350033556,"31":0.2529396328925829,"32":0.09950203564029206,"33":0.171825991881743,"34":0.19258128424738574,"35":0.1856562122944796,"36":0.26929231291389577,"37":-0.14333724513555873,"38":-0.11145362618138856,"39":-0.13704019552562327,"40":-0.04876105098851814,"41":-0.1531445602453877,"42":0.057040824252818104,"43":0.015006107612230708,"44":0.23309167390917473,"45":0.2000790292851682,"46":0.13849085699571095,"47":0.15816611006087697,"48":0.1490309797175857,"49":0.12596136078746095,"50":0.3289373205140807,"51":0.07275218030812018,"52":-0.18188313643103649,"53":-0.3234844365384575,"54":-0.21087858747170252,"55":-0.26795048071893013,"56":0.016091550013705134,"57":-0.3463609814805268,"58":-0.11496460525087493,"59":-0.08535147562126866,"60":-0.3135422103370469,"61":-0.2763895985374379,"62":-0.20344338424373623,"63":-0.2280524494115298,"64":-0.13401933314975056,"65":-0.2545534016975275,"66":-0.15638952659429392,"67":-0.2303653146252975,"68":-0.008699400359110957,"69":-0.021064209547546963,"70":0.04088897413146264,"71":0.06577454188843564,"72":-0.2846685809384075,"73":-0.10027177314743056,"74":-0.3024538233640982,"75":0.11913749514176061,"76":-0.040146862446634596,"77":0.17872487251160152,"78":0.05669154507025685,"79":0.17006802722174322,"80":0.1453602697108723,"81":0.07429135994632903,"82":0.24112173593993874,"83":0.1772367063417756,"84":0.18019900477329617,"85":0.2808664892823816,"86":-0.025343499107793013,"87":0.13208016417512636,"88":-0.07040591930509109,"89":0.13227420863214037,"90":0.11677914761336435,"91":0.08391660025106992,"92":0.2244448798294066}},"4":{"bias":0.0007799185200353302,"weights":{"0":0.41792827961712375,"1":0.31695304633149934,"2":0.14689081957075667,"3":0.0342486891272602,"4":0.4421491925381651,"5":0.3528753581357158,"6":0.1665538721096312,"7":0.22262732148782333,"8":0.35932462481872385,"9":0.09401038281050171,"10":0.38726978540423673,"11":0.31171737356770307,"12":0.3414861891725721,"13":0.005656448091915602,"14":0.002205787292469286,"15":-0.03460035397263636,"16":0.09908087431582728,"17":0.10044696481126046,"18":-0.08082578571856358,"19":0.21097674337523464,"20":-0.3763360283948621,"21":0.0021884240883956116,"22":0.007820676588578396,"23":-0.04537607471195002,"24":0.0023598089996132218,"25":-0.20100579264287122,"26":0.11047803659242285,"27":-0.07423590444738182,"28":-0.2759916766720843,"29":-0.2236829529436054,"30":-0.23799521331700188,"31":0.02258574146224866,"32":-0.10042331599827388,"33":-0.17658755215299807,"34":0.12106694453658899,"35":-0.14359267546412088,"36":-0.12586035974052207,"37":-0.20557798782682232,"38":-0.05615404510500536,"39":-0.042008743138534525,"40":-0.032039446445398904,"41":-0.03688896495516004,"42":-0.1937017987348075,"43":0.060688713046968094,"44":-0.2861610421398376,"45":-0.1455857716079242,"46":-0.11635491445072163,"47":-0.3629459244108728,"48":-0.134567866601273,"49":-0.25289566077472814,"50":-0.2130417912491527,"51":-0.30153185931297255,"52":-0.07271143598344905,"53":0.07155131738484692,"54":-0.17284293640306037,"55":-0.1644231540587563,"56":0.04068959385175962,"57":0.034771543375421,"58":0.05740422243699016,"59":-0.05564828540620866,"60":-0.14034539275251498,"61":-0.07766642657205393,"62":0.11136131915072685,"63":0.11651640664955255,"64":0.09795390193020988,"65":0.01334614175017735,"66":0.1834876126595247,"67":-0.14249049552100446,"68":-0.21880892251440467,"69":-0.19620612772731857,"70":-0.041144417196199934,"71":-0.2032772552946432,"72":0.045807765419474594,"73":-0.12110005459085801,"74":0.16818822451564638,"75":0.1160801037368599,"76":-0.0295577448486352,"77":0.12063772231832377,"78":0.05478077959467267,"79":0.18826516874439816,"80":0.1464825706486519,"81":-0.11468226692626814,"82":-0.14972448578313738,"83":-0.016649987871454424,"84":0.16370384964958382,"85":0.10207198962663802,"86":0.08065308633746358,"87":0.05977938506408968,"88":-0.008291325849218371,"89":-0.11749180354601356,"90":-0.006904233285434568,"91":0.11661070213755345,"92":0.08557103409966657}},"5":{"bias":0.14031806820620626,"weights":{"0":-0.15269200139224814,"1":-0.0015883720608127823,"2":-0.0786097595894777,"3":-0.24126085761688015,"4":-0.36860648457989187,"5":-0.3695948575485116,"6":-0.05062201999629658,"7":-0.1427498127795192,"8":-0.1393138332294545,"9":-0.2186996512745029,"10":-0.3336974645209061,"11":0.04588974172596681,"12":-0.059210243688151726,"13":-0.005195783249127879,"14":0.12211579677368174,"15":0.0044220608092192274,"16":0.04992295214969172,"17":0.00208611537043987,"18":0.18067723514315184,"19":-0.05997106888520709,"20":-0.16415497478819097,"21":0.12515635587415908,"22":-0.002196693344661119,"23":0.03395764268579593,"24":-0.08539616535667385,"25":-0.16748451913622142,"26":-0.058108734697904695,"27":0.04442666215805741,"28":-0.35725731290162316,"29":-0.024086432942186025,"30":0.03132731495743383,"31":-0.18674536822649168,"32":0.012844969610498014,"33":0.10768954063140478,"34":0.11604890887187423,"35":0.03644484779938235,"36":0.16574650257200677,"37":0.10760355635649714,"38":-0.16390114479421972,"39":0.10765041438895777,"40":0.034981567725938315,"41":0.06255612531296852,"42":0.06614606536793209,"43":-0.00449206634932299,"44":-0.20377009596828605,"45":-0.10514988129314988,"46":-0.23964007735015702,"47":0.09861317881809596,"48":-0.2764567874965785,"49":0.003186696905398358,"50":-0.010677348590836072,"51":-0.10525565325063123,"52":-0.12226349172169731,"53":0.039558085951912264,"54":0.1908303682689489,"55":0.3206590552480271,"56":0.2910921532860877,"57":0.19563326419043822,"58":0.13389523100479037,"59":0.0866893500246998,"60":0.06751675700957196,"61":0.018320909670108257,"62":-0.00545766459116096,"63":0.2571253341666461,"64":-0.025006643770281226,"65":0.1493148550534777,"66":0.25435484275807674,"67":0.19583449377196657,"68":0.23086677896851662,"69":0.16097212354006166,"70":0.1772359056031974,"71":0.15864825193907084,"72":0.07083798472376807,"73":0.13838783463282509,"74":0.17750557388083743,"75":-0.033720291999386795,"76":0.1357497537064991,"77":0.13942454487090913,"78":-0.041325592661642395,"79":0.23762859276693923,"80":-0.006220605276504634,"81":-0.03677693575599839,"82":0.19134399077916223,"83":0.0901624474411508,"84":-0.07424240139828818,"85":0.14689215686260632,"86":0.16315881703641166,"87":0.08355277880608727,"88":-0.1097158928335001,"89":0.15978788119825646,"90":0.025713091476966817,"91":-0.1029480411043736,"92":-0.08395690460526564}},"6":{"bias":0.04750789936923285,"weights":{"0":0.35180550271508537,"1":0.012944368782769224,"2":0.023003774807279217,"3":0.07943470967792512,"4":0.3735115803708231,"5":0.3508466963450708,"6":0.24402030296808377,"7":0.19420513596446615,"8":0.18399090440557692,"9":0.44529018844738566,"10":-0.03251891953244847,"11":0.17947454971163507,"12":0.20049854912311152,"13":-0.07210973938332907,"14":0.031711343589234775,"15":0.15091930260866893,"16":0.1653468659330673,"17":-0.027887942618068613,"18":-0.03225313343762552,"19":0.026802112161828536,"20":-0.011457879726885802,"21":-0.109450192153036,"22":-0.14527494774957703,"23":-0.1576487197032065,"24":0.1312659100060732,"25":-0.21563888525032324,"26":0.018670517969341903,"27":-0.17443866151619375,"28":0.4001271412785365,"29":0.24183918098606008,"30":-0.1495261561547265,"31":0.0340832945870015,"32":0.06899910565350477,"33":0.18187390753924354,"34":0.045667415731360295,"35":0.16286249837334033,"36":-0.01390186562674374,"37":0.1613168619087733,"38":-0.11421560056393562,"39":-0.19803949824887981,"40":-0.1240437671240404,"41":0.09776334827360462,"42":-0.08237645109532939,"43":0.12470041629850145,"44":0.29096837909239576,"45":0.19504133633426485,"46":0.05179009941135804,"47":0.1349111081077587,"48":0.3037000475672709,"49":0.30899244676217175,"50":0.17394719841448045,"51":-0.04926465589930386,"52":0.08034775714548524,"53":-0.1247502230707527,"54":-0.18268441287396714,"55":-0.38352421169617884,"56":-0.1696887395175248,"57":-0.3512374963653319,"58":-0.3632637625910714,"59":-0.36064243196723067,"60":-0.3932767659260151,"61":-0.30332456834755395,"62":-0.29307380704010605,"63":-0.03734303111457949,"64":-0.29015454770497123,"65":-0.027462389811842472,"66":-0.17174519290768164,"67":-0.25834578712967227,"68":-0.07008990830141888,"69":-0.2859936087976655,"70":-0.281795681342273,"71":-0.27652269908023513,"72":-0.1706550380429686,"73":-0.04357089427124161,"74":0.04237668315201546,"75":-0.1573536571885354,"76":0.0008307599480674283,"77":-0.04501712266230102,"78":-0.002657016113193134,"79":0.16224186295980428,"80":0.11796439550410141,"81":0.15636720924891642,"82":-0.16374597413503492,"83":0.13277323361401486,"84":0.20222866434408152,"85":-0.11806428685509546,"86":-0.16174448981932246,"87":-0.1538201786399937,"88":-0.07788708793277864,"89":-0.026390001918648015,"90":-0.023954511011182057,"91":-0.09397686431399033,"92":0.12333427371607902}},"7":{"bias":0.15136530823295125,"weights":{"0":-0.04276309591385914,"1":-0.02789894374629422,"2":0.1366360286847482,"3":0.06137258381009889,"4":0.10124055315376139,"5":0.1359463814822012,"6":0.11575274527024694,"7":-0.14143053568457525,"8":-0.10884858890425533,"9":0.01794506142041992,"10":0.015826768190491634,"11":0.12215047717379796,"12":-0.12573186141586146,"13":0.16662372543035436,"14":0.07173406953968815,"15":0.10184300235356626,"16":0.08119960856119075,"17":-0.05705550902654815,"18":0.0712279659596809,"19":-0.03588552473087474,"20":0.051506339013875004,"21":-0.014729305723796873,"22":-0.10054042926710122,"23":0.16015814978409898,"24":0.17638811933626897,"25":-0.10737730923295948,"26":0.10758725010948801,"27":-0.2962112467338487,"28":0.05401432251001924,"29":-0.12429849975296935,"30":-0.27618623204799064,"31":-0.11302300575904346,"32":-0.1359554791436398,"33":-0.07579559584097013,"34":-0.14653432792980609,"35":0.06670965472761799,"36":-0.1850792152433205,"37":-0.08714154985699628,"38":0.06878578252846994,"39":-0.10215970010606681,"40":-0.25163231005123576,"41":-0.2832631287485676,"42":0.04118216498089786,"43":-0.12224835603154176,"44":0.17092074872432195,"45":0.09764091906604891,"46":-0.0501443304470253,"47":0.2393851492806318,"48":0.2332768012946517,"49":-0.048269511933583524,"50":0.04174724116259942,"51":0.032137809177897804,"52":-0.15525779303786205,"53":-0.17632702179024942,"54":0.022126695952852524,"55":-0.1807333677502529,"56":-0.03359904621302672,"57":-0.11156501856851926,"58":-0.0528463502160647,"59":-0.016350093515663938,"60":0.03273775683737245,"61":-0.1780004876674096,"62":-0.06302902544959006,"63":0.13342885083457062,"64":-0.01017102233290213,"65":0.09926224124976754,"66":0.06552074768423718,"67":-0.1617479240965473,"68":0.09155727563680059,"69":-0.18042285828979882,"70":-0.003369210930591954,"71":-0.19008310770465225,"72":0.17916366966065142,"73":0.1445973432395539,"74":0.11818400733565619,"75":0.08526133510211584,"76":-0.11191613125279207,"77":-0.14710249850436813,"78":0.11863570968724979,"79":-0.07330601557514824,"80":-0.09519504198626727,"81":-0.23875606906487734,"82":-0.20045191397077122,"83":0.08041802174466232,"84":-0.09940522799519284,"85":0.10455196835455664,"86":-0.014386107234297778,"87":0.06874200696638554,"88":-0.1566687602713878,"89":0.10036042996113297,"90":-0.14761781879882982,"91":-0.1312836033002712,"92":-0.13108550536696426}},"8":{"bias":-0.014625969594608254,"weights":{"0":0.028554203299563246,"1":0.025537990779190965,"2":0.2188080061218371,"3":0.14647333069180274,"4":-0.07030963846847219,"5":0.20168214074515656,"6":-0.061847202674448584,"7":0.11305362327198806,"8":-0.24079941744948494,"9":-0.05577776821597341,"10":-0.11278820351555864,"11":-0.21291592290640074,"12":0.1773614425109039,"13":0.11103813293671458,"14":0.17566128569427455,"15":-0.11631967283809545,"16":0.047850343421470314,"17":-0.07693007495361515,"18":-0.010204935903724092,"19":-0.13711350895718627,"20":0.2787405401220156,"21":0.08448629318928169,"22":-0.13098797325748146,"23":-0.008552568360874011,"24":0.10066235439363587,"25":0.07935211175602783,"26":0.11982986464417451,"27":0.04888542066554327,"28":0.1069633404626307,"29":0.03654885833899752,"30":-0.1159526792601387,"31":0.1899308831543283,"32":0.09595168617590628,"33":-0.009100280013048153,"34":0.23877063297566423,"35":0.09779749413019254,"36":0.17301682678641309,"37":0.20475607405726384,"38":0.14517342946944484,"39":0.0897888438219607,"40":-0.058518378091893836,"41":0.002874889822226278,"42":0.04115666481970993,"43":0.1502651615746814,"44":0.18729473649652056,"45":-0.14168889265180837,"46":0.16269507677448333,"47":-0.1665250823389558,"48":-0.05561476664268516,"49":-0.18393281989926152,"50":0.26020097271543546,"51":0.21421966207983195,"52":0.07401797353766869,"53":-0.2184901425489836,"54":0.10790979815999022,"55":0.12590627218041395,"56":-0.10479559629000287,"57":-0.17499005800539277,"58":-0.20870124004728155,"59":-0.006811612076134668,"60":-0.19003252056226236,"61":0.07571006113567635,"62":-0.15012580500044417,"63":0.022340973579278906,"64":0.17294413682705176,"65":0.0832821533960657,"66":0.1598832104411356,"67":-0.18389441443588628,"68":0.06326917816636272,"69":0.16124779078067727,"70":0.08551220105413687,"71":-0.18200010465138158,"72":-0.1319429539695345,"73":-0.03408642776133085,"74":-0.13107754778486325,"75":-0.20176479109158157,"76":0.08574301656792128,"77":0.14795395097412845,"78":-0.175050504111014,"79":-0.0002131285781592882,"80":0.034020752218173717,"81":-0.373408670943254,"82":-0.10431506549413877,"83":-0.2025461877962447,"84":-0.06544092753349803,"85":-0.11590488218698687,"86":-0.006085028560437222,"87":-0.24709047048353264,"88":-0.27924933277143404,"89":-0.07091993971887124,"90":-0.19718874978782905,"91":-0.015998582527696786,"92":-0.14093907595166325}},"9":{"bias":-0.08863649384336851,"weights":{"0":-0.22189809889293172,"1":0.014879642171361611,"2":-0.10989882265293396,"3":0.07905213539241208,"4":-0.14798274148398086,"5":-0.17416382198212138,"6":0.14840046254035358,"7":-0.15256367504892654,"8":0.11772501248712892,"9":-0.08931294214044158,"10":0.03712197869659442,"11":-0.035530422344660306,"12":-0.23627429961075838,"13":-0.15124438595911208,"14":0.03963250004264176,"15":-0.1893150707109547,"16":0.13746921281020202,"17":-0.04521371824490578,"18":0.20207076944125107,"19":-0.20137854888345813,"20":-0.02037482646790757,"21":0.04570578102253814,"22":-0.02272224984681728,"23":-0.20376673367655027,"24":-0.10480284358664346,"25":-0.0930172805713702,"26":-0.046728059950162146,"27":0.2037667980611311,"28":0.2140188736055624,"29":-0.16466101249201276,"30":0.14619550587860328,"31":0.09710564746849325,"32":0.17025252524550114,"33":0.09867404933029854,"34":0.0952735350676573,"35":0.19302120581349372,"36":-0.011942385752920934,"37":0.1282074775911196,"38":0.16150124052975498,"39":0.15002296803748177,"40":0.13271136936034172,"41":-0.021529977539912988,"42":0.1707976777775162,"43":0.0566867593232273,"44":0.034210015240432275,"45":-0.1081526886970524,"46":0.007538667300569053,"47":-0.10619749867497236,"48":-0.11335892888428634,"49":0.21224345235802475,"50":0.17916218460870176,"51":-0.06383966413455858,"52":-0.1927681221885164,"53":-0.0353048621318415,"54":-0.11168402992744372,"55":0.04890458479229736,"56":-0.14596980432085088,"57":-0.12787468917364211,"58":0.04930067261549711,"59":-0.050160084983262375,"60":-0.25116810474124823,"61":-0.022719909795600467,"62":0.1042010132674884,"63":-0.19939760251435915,"64":0.07170283513876284,"65":-0.17658340985680385,"66":0.06774326800525203,"67":-0.19245092357349866,"68":-0.10328001398045812,"69":-0.02914996990369888,"70":0.12493211793469605,"71":0.08265979776197938,"72":-0.03681190024496129,"73":0.1481266874161207,"74":0.059510511088297885,"75":0.15830789316263205,"76":-0.06058649928349305,"77":0.011453591112382179,"78":0.009976593362446733,"79":-0.058368898624256246,"80":0.002863362801687046,"81":0.3097299529387376,"82":0.1011225508066285,"83":0.13573265719205152,"84":0.286310681920542,"85":-0.007177501332831418,"86":0.2738213717974072,"87":0.18187289208246724,"88":-0.07703830946993576,"89":-0.017992124638118244,"90":0.15850222089789492,"91":-0.004780343397599381,"92":0.09167693090497311}},"10":{"bias":0.03836463478412156,"weights":{"0":0.016770660950185808,"1":-0.015429467685491704,"2":0.16257509389212316,"3":-0.085268691349181,"4":-0.11349869342863136,"5":0.2516635586372232,"6":0.04545548586532632,"7":0.18474799998406405,"8":0.0009118461303277394,"9":0.192494117183325,"10":-0.06899922998145604,"11":0.12016442998754005,"12":-0.12451114806905214,"13":-0.1490529552350848,"14":0.1301859317388611,"15":-0.020212241984725585,"16":-0.15734146811543376,"17":0.0686548895222707,"18":0.1602564880576559,"19":-0.07818067672625117,"20":-0.14514973508430312,"21":0.08798141260011406,"22":0.17410058002291454,"23":-0.14492005248193343,"24":-0.19785283660448416,"25":0.13032784769705183,"26":0.08398464875545827,"27":-0.1689907608072749,"28":0.24689581405582034,"29":0.09496040141850923,"30":-0.011451164496397303,"31":-0.3982852476594729,"32":-0.11006840709885925,"33":-0.027949227941717607,"34":-0.1314311744659446,"35":-0.065788037274844,"36":0.07487789822021203,"37":-0.3127020432405981,"38":-0.31711343190286123,"39":-0.14644111790840458,"40":0.0845108988105305,"41":-0.22835582543309288,"42":0.03536133853576334,"43":-0.16901009931944855,"44":-0.1702053956544462,"45":0.1437158465980745,"46":0.017064730726420927,"47":0.09528099374134104,"48":0.07966096270190222,"49":0.27762584086461717,"50":-0.1621332374287206,"51":-0.07652298967398745,"52":-0.14703326670759265,"53":-0.2312427710779383,"54":0.08344002521657996,"55":0.07263011334659646,"56":0.031053857602554878,"57":0.07696949648185054,"58":-0.1609473548562094,"59":-0.20181713278429636,"60":-0.0422387198522041,"61":-0.1666564117298554,"62":-0.0017404406897848794,"63":0.0028599429940902982,"64":0.050001758580688706,"65":-0.044501531106630986,"66":0.025115409813302996,"67":0.06123069856240172,"68":-0.12181319329118753,"69":0.01811195552868547,"70":-0.10727856491912426,"71":-0.16408710853280942,"72":-0.2249091475295851,"73":-0.2146809476504624,"74":0.11335761402871919,"75":0.0351751515328745,"76":0.0674444501910082,"77":-0.0712074041909509,"78":0.26335943993527505,"79":0.1802189166913405,"80":-0.09268799406237649,"81":0.002134826926367662,"82":0.15251635672762576,"83":0.19711953880219743,"84":0.2119989109484675,"85":0.1257641431073069,"86":0.1289717660980609,"87":0.1448762320767325,"88":0.05339935093641447,"89":0.25111450145812925,"90":0.027006483631040183,"91":0.25910561695433304,"92":0.16117954223885478}},"11":{"bias":-0.12933908803540875,"weights":{"0":-0.04588217718324799,"1":0.15090983830344679,"2":0.16676295853153295,"3":0.2194235598714634,"4":-0.06670328085097557,"5":-0.045501982096776535,"6":-0.09116342026539011,"7":0.1252672531907247,"8":0.2885569902020936,"9":0.02193690500110136,"10":0.038843395401808374,"11":0.07934179256664438,"12":0.03536088666974462,"13":0.0938271856797899,"14":-0.009264015009167285,"15":-0.1607528458361518,"16":0.001058172460837993,"17":0.028412410683952064,"18":0.2726708332899377,"19":0.1473495119247369,"20":-0.3832418093862461,"21":-0.011544439633150216,"22":0.06701921872279148,"23":0.16591333784505918,"24":-0.09004381071838735,"25":-0.07977083375396182,"26":-0.18305633601682963,"27":0.38535153464067634,"28":-0.38626164586318906,"29":0.06294400637428625,"30":-0.02009663128537101,"31":0.07275156486953634,"32":-0.19167460240568915,"33":-0.18270865544311024,"34":0.011312961830802727,"35":0.08596250079530564,"36":0.23195602368611362,"37":-0.1314216824423042,"38":-0.019567259465295445,"39":0.21526663844418167,"40":-0.046303655835872065,"41":-0.13669224787091325,"42":0.044607756428814094,"43":-0.1396117431528994,"44":-0.31652048427355656,"45":-0.1957147942309858,"46":0.009942794563429834,"47":-0.14854686950582305,"48":-0.11282766142632981,"49":-0.14035137019191407,"50":-0.3514579184136293,"51":-0.1692619160435956,"52":-0.04902965180998478,"53":-0.15372296249814996,"54":-0.07836685109864362,"55":-0.009952537458269396,"56":0.033226472438591344,"57":-0.17424168047829905,"58":0.1654060258303446,"59":0.16104168074354805,"60":-0.16581427133211143,"61":0.14992680398031674,"62":-0.09283447608921717,"63":0.12432754819443592,"64":-0.04284242095541712,"65":-0.0937604246911382,"66":0.0947108374904879,"67":-0.03529849369414176,"68":-0.2002996999460039,"69":-0.1277136064754554,"70":0.16223215671636262,"71":-0.11259028257925559,"72":-0.08318351990763878,"73":0.12160176819726652,"74":-0.03484481054035027,"75":0.1022648154544681,"76":-0.12733349918357362,"77":0.07234354829815723,"78":0.28333964606956424,"79":-0.060817766232373435,"80":0.24644336661946478,"81":0.3153948540360274,"82":0.22488144036083188,"83":0.16867845528671677,"84":-0.058923161248494,"85":0.14579232689672397,"86":0.11279630522845166,"87":0.13174465193727242,"88":0.1984056791521971,"89":0.19576176595538386,"90":0.1179136518775034,"91":0.13472238730665284,"92":0.14675680649552614}},"12":{"bias":-0.007466856407694597,"weights":{"0":-0.1343681246865369,"1":-0.0024030131753926586,"2":0.21564048360558147,"3":0.18169888268802106,"4":0.1582268219789463,"5":-0.0070463538726760954,"6":0.15318381512500054,"7":0.09993208206604431,"8":0.03643578194323148,"9":-0.08772591637269803,"10":0.251237526526774,"11":-0.15434879240177304,"12":0.06112857082824695,"13":0.1918508754658488,"14":-0.03243626595696292,"15":-0.10869225163439071,"16":0.19783623862715297,"17":0.15143257351536607,"18":-0.03319619410044498,"19":0.05988448595311337,"20":-0.0731196078569604,"21":-0.16062652857212512,"22":0.0718716010589947,"23":0.0020947822018494693,"24":0.16898509728575575,"25":0.17212309527120734,"26":0.09168397949757151,"27":0.05596101547438489,"28":0.025513773223672175,"29":0.13497006532287434,"30":-0.13281706053270503,"31":-0.1316907020387941,"32":0.10327003775676866,"33":-0.03033465197955153,"34":-0.24464460436182212,"35":-0.1433900511339277,"36":-0.0008317318062332982,"37":-0.10574820359508208,"38":-0.11564223280226651,"39":-0.10044081781687834,"40":-0.16878897525095224,"41":-0.15355101466393317,"42":0.053055278712247245,"43":-0.10082601093880081,"44":0.1620231524019999,"45":-0.006341101623720765,"46":-0.13019065629643875,"47":-0.19507224842399465,"48":-0.15584559365175327,"49":0.028309441555853302,"50":0.18463241593571142,"51":0.17569630445548226,"52":0.11716189578146105,"53":0.03370160071958258,"54":0.1846245815472259,"55":0.1480027936631579,"56":-0.08569080085954238,"57":-0.10042076283137781,"58":0.11917375592822758,"59":-0.1579681114418698,"60":0.19350630174503664,"61":-0.06125238387664641,"62":0.11805208893401052,"63":0.02595536026022529,"64":-0.06991188414618059,"65":0.09808735526999539,"66":0.0995464382552823,"67":-0.1353864147001745,"68":0.15262850424122937,"69":0.17017027368497306,"70":0.12102470314605823,"71":0.021264250530909082,"72":0.14571795954899197,"73":0.1716754848736231,"74":0.06770594705365518,"75":-0.2164168287302139,"76":-0.07541157525613072,"77":-0.006449844806158783,"78":-0.14243256965374748,"79":0.1734253839382026,"80":-0.07449684528120563,"81":-0.19598387604338746,"82":-0.18510543427635273,"83":0.11123979311620291,"84":0.1511689580732421,"85":0.060174656694892685,"86":0.050325273199615925,"87":0.12920033682493692,"88":-0.1400454797801522,"89":0.09439467956440281,"90":-0.22479921019301585,"91":-0.04943336704005731,"92":-0.19191512873638567}},"13":{"bias":0.07231922184397511,"weights":{"0":0.3973100175115662,"1":0.22093964369927477,"2":0.19534057245602468,"3":0.14657666289889232,"4":0.08905030030258561,"5":0.3235338939640592,"6":0.17784637488985322,"7":0.03300276625182062,"8":0.2317431213496654,"9":0.14291846515333603,"10":0.04801616374605251,"11":-0.09595957646704692,"12":0.30172580014208683,"13":0.2566401500628368,"14":0.14807657388199705,"15":0.21308514330963582,"16":-0.017020626534339077,"17":-0.08758973150029332,"18":-0.20510420835300588,"19":-0.09846842195649082,"20":-0.16695839586133934,"21":0.12451950784791418,"22":0.013231806256711762,"23":-0.04264138103115666,"24":-0.10733605297529628,"25":-0.09340663435142137,"26":0.07084247519339995,"27":-0.11220267263771717,"28":-0.12895082423166854,"29":0.09856779019638642,"30":0.07530337744602542,"31":-0.17450865445397679,"32":-0.07695066018081173,"33":-0.011141340073281792,"34":0.02445311564826772,"35":-0.011508747637558568,"36":-0.159178622983041,"37":-0.10967711946353526,"38":-0.07103146926065085,"39":-0.09312278610866297,"40":-0.21466508900708475,"41":-0.08326751060822438,"42":0.08152160831100716,"43":-0.012986577819433683,"44":0.2160494032766653,"45":0.028961359856710906,"46":0.1611671594714248,"47":-0.104527707131798,"48":0.13307896781673104,"49":-0.06778060165197795,"50":-0.040038406321169624,"51":0.16077025155406097,"52":-0.11122369949500678,"53":-0.07987308569358535,"54":-0.06452523600735575,"55":-0.22367264536792333,"56":-0.1781199155125083,"57":-0.0027441281802477444,"58":-0.2359657158222196,"59":0.0414750116968486,"60":-0.25954962364787043,"61":-0.05684428730505416,"62":0.08126992169281982,"63":0.0178294290123338,"64":-0.09373685909747241,"65":-0.1941348774630608,"66":0.030289184058849537,"67":0.02758182477299534,"68":-0.1899882869952887,"69":0.0964108626120057,"70":-0.21003889775083562,"71":-0.2030684428468627,"72":-0.18538572064229294,"73":-0.08253455441305217,"74":-0.02662551403825831,"75":-0.21040704886636247,"76":0.13782503816809713,"77":-0.13882720003251522,"78":0.003202889241198214,"79":-0.04150771200188076,"80":-0.05043685135602343,"81":-0.2064948636589095,"82":-0.22258258925282134,"83":0.09818107232863672,"84":-0.096052723125141,"85":0.03747983198753319,"86":-0.24369797378189081,"87":-0.16203750257589442,"88":-0.14402112082722338,"89":-0.221226449437361,"90":-0.21737856861381247,"91":-0.22703988689394486,"92":0.06640223020330523}},"14":{"bias":0.08337084363486348,"weights":{"0":0.04361080187854349,"1":0.00818755048770983,"2":0.2025525621215728,"3":-0.18409062741420873,"4":0.1889440156978373,"5":-0.01589628919228352,"6":0.2062140832862341,"7":0.1744561159110991,"8":0.0926039844813714,"9":-0.0037446708955575264,"10":-0.06536985316990991,"11":-0.08841523955575152,"12":-0.19083524703946753,"13":-0.09413502955384068,"14":-0.14500860671429142,"15":-0.03368619145420498,"16":-0.01807858360511148,"17":0.030562758256309486,"18":0.16362263940810226,"19":0.03314573018284856,"20":0.14754776254270452,"21":0.010830912417937669,"22":0.18750223276158745,"23":0.16104591235407156,"24":0.09029757290629294,"25":-0.08679480870184636,"26":-0.1810414230217759,"27":0.1808195719363429,"28":-0.20487176837960597,"29":-0.023900711376096145,"30":-0.12591929440170344,"31":0.20197260099857534,"32":-0.01899126079865759,"33":0.09870928393568418,"34":0.058762671955467374,"35":0.1010694418017678,"36":-0.012308833604686308,"37":0.1935823837589205,"38":0.09137033240982873,"39":0.06265205892280555,"40":0.16349732764702035,"41":-0.11511763987667428,"42":0.09292526476407097,"43":-0.13220189315165654,"44":-0.011173629046105357,"45":-0.205734593591214,"46":0.13500234010050993,"47":-0.27015829925586704,"48":-0.23071417114143927,"49":-0.26929194685083757,"50":0.12672730222787323,"51":-0.10634829509817496,"52":-0.14646647373739646,"53":0.07468793722135142,"54":0.009993836577500107,"55":-0.0025383891124596022,"56":0.01002694516232827,"57":-0.09801800103842043,"58":-0.15572835416782493,"59":0.21032530522755788,"60":-0.06419029887591544,"61":-0.05207996094650392,"62":0.13900076045099694,"63":0.1626751483188377,"64":-0.16087317883936184,"65":-0.11481048831630752,"66":-0.052349802323331536,"67":0.07836232871427555,"68":-0.052932608075984475,"69":0.022798682262263743,"70":-0.008129910472867723,"71":-0.17017160496238903,"72":0.03740295702583085,"73":0.14607322044785154,"74":-0.16265781260536852,"75":0.11864086083212862,"76":-0.13789297073718096,"77":0.19110559794024376,"78":-0.1139565322867804,"79":-0.04951093022063214,"80":-0.016378005582490262,"81":0.023828669321031348,"82":0.029464006923043618,"83":-0.0233776595150917,"84":0.10500609736004449,"85":0.12472091276712097,"86":0.15027959731339252,"87":0.16473162085245585,"88":-0.12189077549482734,"89":-0.0835523248355441,"90":-0.06035126079382779,"91":-0.11177033587387246,"92":-0.09471516967232904}},"15":{"bias":-0.08041143569535456,"weights":{"0":0.2789162951416007,"1":-0.13871831235795304,"2":0.027559226895579877,"3":-0.08161437526058207,"4":0.20004996056513458,"5":0.07015913765305612,"6":0.1923095840486561,"7":0.23486472346965118,"8":-0.01681520272828761,"9":0.3401395486649207,"10":-0.039981431192143764,"11":0.2186924248813625,"12":-0.1200412375749113,"13":-0.045126278512390115,"14":0.09385666164738864,"15":-0.10833918210005618,"16":0.08303737660313597,"17":0.015862651615835315,"18":-0.15222111625427223,"19":0.032875420367037285,"20":-0.10223145860638508,"21":0.12750767073279007,"22":-0.07368327804087152,"23":-0.04248083132923247,"24":0.16481357830823304,"25":-0.13815105557859444,"26":0.2406859854233225,"27":0.05541785579369617,"28":0.2939323524541985,"29":0.10538335533988918,"30":-0.07065023475291807,"31":-0.1453852795104688,"32":0.006214251142564224,"33":-0.2837693425878891,"34":0.0402493487580123,"35":-0.2696655886912348,"36":-0.059813172349359366,"37":-0.17972012135754034,"38":0.01814597353904673,"39":-0.10497731747715487,"40":-0.08644379842774308,"41":-0.27854746340254394,"42":0.1543465559100107,"43":-0.16818960978543254,"44":-0.12401298670187286,"45":-0.05215438200581523,"46":0.024003261589896373,"47":0.28108121691036325,"48":-0.10917842255069626,"49":-0.004586857042469018,"50":-0.0045506412876285705,"51":-0.12670092907920524,"52":0.11018829976931763,"53":-0.024466100628834402,"54":-0.02172647374719958,"55":0.03607730131106799,"56":0.0670471247781357,"57":0.06838764306957341,"58":-0.1107438799437558,"59":-0.25629918861685835,"60":0.10850650943098945,"61":0.13326372934268033,"62":-0.0767565431319266,"63":-0.19834959141623507,"64":-0.14829893813895717,"65":-0.17986771678425267,"66":-0.21656315022386083,"67":0.1525123660997137,"68":-0.10816695763181262,"69":-0.18205514850788573,"70":0.032747958525042795,"71":0.015700204481596765,"72":-0.10854435223622856,"73":-0.03624773680801022,"74":0.003183442872786452,"75":0.04078347826740282,"76":0.17524563588632883,"77":-0.018593253660398112,"78":0.058062943623727506,"79":0.1241390944096881,"80":-0.006511812102926577,"81":0.17864724167894952,"82":0.11326408232468502,"83":-0.0783122590811565,"84":-0.07943177342783994,"85":0.1239191512364176,"86":0.1917139512391956,"87":0.1764387734013643,"88":0.09974996091771708,"89":-0.09186380693284825,"90":-0.0958389609249638,"91":-0.08905470424335027,"92":0.08955317468626937}},"16":{"bias":0.16666026276517443,"weights":{"0":-0.16440541912124532,"1":-0.10304600173278829,"2":-0.07465943013877935,"3":-0.21754356119578186,"4":-0.3465498086017504,"5":-0.29962932136172965,"6":0.08374861741126953,"7":-0.31287212740666087,"8":-0.3733150851648074,"9":0.053016365909192814,"10":-0.2748747767598049,"11":-0.2369738160102249,"12":0.02506323626137466,"13":-0.18166929852640623,"14":-0.10139769270058356,"15":0.057048447805237296,"16":-0.05567137413422986,"17":-0.018412192937599263,"18":-0.19145057891149875,"19":-0.1543979956352146,"20":0.2901986091432599,"21":-0.06563285414066554,"22":0.12478472184782367,"23":-0.041645907708948736,"24":0.13399735668240523,"25":0.09118186064559759,"26":0.1637750756171942,"27":0.15696980818808665,"28":0.20827378911305267,"29":-0.09512192580033824,"30":-0.26735119781922295,"31":-0.3222963108230158,"32":-0.09307202185443479,"33":0.037110392635716465,"34":-0.21967269371976766,"35":0.01892029137889116,"36":-0.15330652705738057,"37":-0.17036704782618228,"38":-0.16255882948739797,"39":-0.097330547437633,"40":-0.17506707147458814,"41":-0.28655396798597355,"42":0.17252292291823032,"43":0.16289172340654198,"44":0.07733871329920178,"45":0.015184294800747324,"46":0.0692056626728674,"47":0.20231066817831245,"48":0.1314235693632673,"49":-0.1233586963774425,"50":0.0481928536772581,"51":0.23500165977249365,"52":-0.018161825365166598,"53":0.16091793728683923,"54":0.30820606794648886,"55":0.040521923106436625,"56":0.12573487689305543,"57":-0.06080348907805571,"58":-0.09040029236880844,"59":0.2385561018471954,"60":0.2742859402109408,"61":-0.0332403959585883,"62":0.20463539787931906,"63":0.1379648951816044,"64":0.14785616837198096,"65":-0.11036334624965756,"66":0.1347646148364886,"67":-0.004357833861339965,"68":-0.05944907822593778,"69":0.1009358696593068,"70":0.010586826015839663,"71":0.1897896238505601,"72":0.14446169009419527,"73":0.08647017505924466,"74":0.010112211332936858,"75":-0.20789194370478054,"76":0.07869156911930883,"77":-0.11108778054974225,"78":0.1901896592095239,"79":0.07958755341859547,"80":0.07144913758080594,"81":-0.11229328040929684,"82":0.08049699325945292,"83":0.01019362623363499,"84":0.11879090981513006,"85":-0.0526808733126613,"86":0.018334007732224763,"87":-0.003998718691897564,"88":-0.15318748262105722,"89":-0.2178698991706233,"90":-0.1407521464671678,"91":-0.02060445555235082,"92":0.03693431224806579}},"17":{"bias":-0.005384926270570337,"weights":{"0":-0.040412936553836695,"1":-0.10602760135657888,"2":-0.042808318869906756,"3":0.0045337619704239225,"4":0.062244581929134624,"5":-0.0033531952715165235,"6":-0.15343268909223962,"7":0.12404410923702701,"8":0.036367908570391204,"9":-0.14499241969628915,"10":-0.08619475610859303,"11":-0.07161778565957451,"12":-0.09735965679551922,"13":-0.15224589083273607,"14":-0.13479315580664541,"15":-0.054430603288217916,"16":0.040387560032024455,"17":-0.08894057013941142,"18":-0.050191968443823676,"19":0.21049434467186268,"20":0.20503738635710383,"21":-0.1436926871428075,"22":-0.02386253533275837,"23":-0.07862014233504123,"24":0.16583017861086796,"25":0.06326892317390162,"26":-0.13502506909923115,"27":-0.3082519893032562,"28":0.032701700068644625,"29":-0.12637714779508866,"30":0.12162419676295745,"31":-0.3059375459909996,"32":-0.03410523901400511,"33":0.11217671351796432,"34":-0.05271165172101435,"35":0.039274094915257234,"36":-0.3183061299065021,"37":0.08384348361374024,"38":-0.1833026200062836,"39":-0.0010517036007601614,"40":-0.2927583500488068,"41":-0.0314858138268674,"42":0.03690231165034719,"43":-0.04113208776035178,"44":0.24580945222108488,"45":0.02473146425878541,"46":0.050342118251876206,"47":0.20983351521162225,"48":0.032740761356998535,"49":0.15327799846106002,"50":0.1070603425510107,"51":0.24400953459619093,"52":0.2530770097033427,"53":-0.022577698178744353,"54":0.04419069383047987,"55":-0.0637968099997515,"56":0.07112692243431984,"57":0.06085285056434432,"58":0.06686747481135906,"59":0.171409673891928,"60":-0.11300893760977795,"61":-0.039728616603146284,"62":-0.14558814447646426,"63":0.014065441915407302,"64":0.03955632504581045,"65":0.028612803264167094,"66":0.09510084236412501,"67":0.036264493045784024,"68":-0.01981366660847541,"69":-0.12887183848540595,"70":-0.07514517836830725,"71":-0.1146437218174404,"72":0.04508256580442898,"73":-0.07584214018352001,"74":0.17071681173031528,"75":-0.07020109216413972,"76":-0.17107720956799502,"77":0.03672515358176445,"78":-0.15466053799516097,"79":-0.013242907346157665,"80":0.011340347400533924,"81":-0.3449228204366589,"82":0.09677392108832619,"83":0.0029382378478694277,"84":-0.25317142761633027,"85":-0.22278640830462,"86":-0.17347836736338204,"87":-0.21699361229889258,"88":-0.026905631914592113,"89":-0.14131648963603918,"90":-0.05934335817197989,"91":-0.14129572511410246,"92":-0.10072013271246058}},"18":{"bias":-0.07972918479891619,"weights":{"0":-0.0851663596763636,"1":-0.16175883174586994,"2":-0.09783686754705824,"3":0.10527631966272341,"4":0.1974665766501601,"5":0.15377953339588846,"6":0.08619947973392242,"7":-0.09700278530280933,"8":0.08618113803079064,"9":0.16045855941185652,"10":0.0002441837342469886,"11":-0.14820450006004138,"12":-0.009235271528717464,"13":-0.021664690567009485,"14":0.0008149461270119138,"15":0.11958863018600907,"16":0.05357274713346895,"17":0.11628885097424096,"18":-0.08564692203669708,"19":-0.10548138004848139,"20":0.0023560862642400143,"21":-0.07531655075115158,"22":0.10297062498016256,"23":-0.16721444526103726,"24":-0.09500817849169554,"25":-0.04867292242294311,"26":0.023608004703994972,"27":0.07650309743834768,"28":-0.2345287991715102,"29":0.02269310309617719,"30":-0.2451930177950435,"31":-0.06291851585573477,"32":-0.16755472316696854,"33":0.10681077943295474,"34":-0.05979771517291017,"35":-0.045726301097719586,"36":-0.1448064334602466,"37":0.004237510388767389,"38":-0.1456094841189263,"39":-0.21025309239020792,"40":-0.32201568838393635,"41":0.06576002929241863,"42":-0.11344805629490506,"43":-0.2183268516567737,"44":0.05676099986224558,"45":0.0682218815917444,"46":-0.21944419791135408,"47":-0.2825362717958953,"48":-0.08484398356628527,"49":0.11854574441951954,"50":0.008007435144569622,"51":-0.16254810003869635,"52":0.12433658495834472,"53":0.13585438789783444,"54":0.05054189204198799,"55":-0.10291211771458836,"56":0.1368358326531249,"57":0.09079854882943503,"58":0.12815940317403063,"59":-0.06779928097008843,"60":0.0024531742747970777,"61":-0.14196641324831127,"62":-0.09531104486123057,"63":-0.05596558431044489,"64":-0.07462370202232643,"65":0.10811377466045438,"66":-0.13596460216543316,"67":0.0978185411971015,"68":-0.03297140687853619,"69":-0.069440205360601,"70":0.16801585259441607,"71":0.22310834529846282,"72":-0.1506372550845691,"73":-0.10257040962341524,"74":0.003250578494596578,"75":0.13068846133338094,"76":0.17205647674676602,"77":-0.19986827297400767,"78":-0.07468501721951666,"79":-0.1988021267115413,"80":-0.14844020595577131,"81":-0.18541628968323792,"82":0.020519036524137037,"83":-0.025786367192759,"84":0.0023084279834662347,"85":0.12248723238756265,"86":-0.21199382108041792,"87":0.10754691324707902,"88":0.10057456977161898,"89":-0.06062674292943671,"90":-0.04805667752880859,"91":0.14474575941491935,"92":-0.03131311059756789}},"19":{"bias":-0.1591034060980425,"weights":{"0":0.00820752477731674,"1":-0.18660451862663996,"2":0.04921842564696768,"3":0.05499646888884192,"4":0.05221094887803829,"5":0.08166222566611603,"6":0.0764978082553353,"7":-0.09363526421629866,"8":0.05754977538055693,"9":0.05051308028620947,"10":-0.06886655710770083,"11":-0.012355942075083505,"12":-0.21693890845991645,"13":-0.06161638543136125,"14":0.12561034914674302,"15":-0.18730197540783322,"16":0.1466703708455843,"17":0.1931664656769224,"18":-0.02938715328561076,"19":0.20106991101566118,"20":-0.19580005882915738,"21":0.033150968279634145,"22":-0.12367419463269023,"23":-0.006261129041664239,"24":-0.18200386780464256,"25":-0.0544275673174214,"26":0.22675206406746898,"27":-0.05357384988886952,"28":-0.11772210071380793,"29":0.12292313880911478,"30":-0.025478145792041034,"31":-0.3132420817442799,"32":-0.09374300148112481,"33":-0.11913434376801812,"34":-0.12216366461790676,"35":0.018875170908428232,"36":-0.04313587146555773,"37":-0.16372899277958933,"38":-0.06668777106740627,"39":0.013832359824787517,"40":0.10173468489587888,"41":-0.2181138560578169,"42":0.21737100251616745,"43":0.09873918313240966,"44":-0.20816320666030633,"45":-0.14046617927977748,"46":0.08066282576092665,"47":0.0776177090162961,"48":0.10497897484036435,"49":-0.13057154677731558,"50":0.0842194883835854,"51":-0.2348011811357488,"52":-0.08785560381743258,"53":0.08785786477635966,"54":0.203077239859495,"55":0.02370410486267892,"56":0.1411754409033909,"57":0.18473803382721432,"58":-0.053551754290973766,"59":0.22354681334008067,"60":0.11869213710615731,"61":0.18054147466421966,"62":0.2189165124782833,"63":0.0405709147726213,"64":-0.034387847195866544,"65":0.05846026148673859,"66":-0.06496227940454619,"67":0.05965911592810983,"68":0.15667265761276797,"69":0.15343460415831414,"70":0.1544757409958947,"71":-0.10541352336562024,"72":-0.0478286615073664,"73":-0.03603952630125034,"74":-0.02841154690254603,"75":0.05808796300159289,"76":-0.026319551053488897,"77":0.1970485787984478,"78":-0.023526220999770153,"79":-0.09924355286159198,"80":0.007882284356116988,"81":0.0628511959709301,"82":-0.09233389077596779,"83":0.18248887471532285,"84":0.17966366199901385,"85":0.26010242123163013,"86":-0.018819521542765724,"87":-0.1367343036687165,"88":0.1336934169173276,"89":0.14529939403283204,"90":0.2151909121208512,"91":-0.06217951162561274,"92":0.11981117254241633}},"20":{"bias":-0.04888581265886859,"weights":{"0":-0.2795872441248215,"1":0.029981708840848866,"2":-0.16295162641945243,"3":-0.17951665518259133,"4":0.010367189236000227,"5":-0.034163575779925646,"6":-0.0035600233218455717,"7":0.12732002048617289,"8":-0.2603810710806441,"9":0.022148199900479493,"10":0.009960796426798448,"11":-0.2511927561146133,"12":-0.03831098420187238,"13":0.1663471931584425,"14":-0.08232674338400882,"15":0.11001653761639522,"16":0.07576879328993001,"17":-0.12798086762527575,"18":0.0550734527698078,"19":-0.07858616803120834,"20":0.3162281937176713,"21":-0.18107448580514227,"22":0.001825317124397273,"23":-0.07215556350167111,"24":-0.13884119737829476,"25":-0.07269062908146089,"26":0.07871213008818718,"27":-0.14450120234434025,"28":0.22826402669626508,"29":0.3016304747905907,"30":-0.2335036354683458,"31":-0.2341409588379159,"32":0.07795501059724458,"33":-0.006770503112833773,"34":0.03111764425771199,"35":-0.02962900592517,"36":-0.20944556060453906,"37":-0.1765598996886956,"38":-0.2539989832254867,"39":-0.16186005021987568,"40":-0.06781367847636177,"41":0.028818694489935185,"42":0.17557660419817975,"43":0.15268340730049718,"44":0.04168813642673388,"45":0.08360609941011549,"46":0.10679758416212883,"47":0.01833041237860328,"48":0.2085535326784879,"49":-0.04457444814301375,"50":0.19968301526347673,"51":0.19906242870861204,"52":0.2898853072616898,"53":-0.15657509865808647,"54":-0.1922116334447673,"55":-0.0027672599594134907,"56":-0.17405331566686907,"57":-0.046646212423440934,"58":0.048562162123617886,"59":0.039083200145379235,"60":-0.0025787231551643312,"61":-0.08032586791934389,"62":-0.22087462993893886,"63":-0.11786406321894685,"64":-0.10389594539593894,"65":0.004061492943924771,"66":0.08893860224714852,"67":-0.11588338679814555,"68":-0.051626637234135755,"69":0.03936794675721335,"70":-0.07055010566295565,"71":0.19959388979821457,"72":-0.02218779152922211,"73":0.12621424991941013,"74":-0.04338793606144041,"75":0.06618659546480479,"76":-0.13358258301122125,"77":0.0643490681147995,"78":0.163349034105693,"79":-0.0853083199467429,"80":0.011862824884423724,"81":-0.11589817469933911,"82":0.11422625013025786,"83":0.15817095749930107,"84":0.06890512983919507,"85":-0.2248095068132747,"86":-0.035614804136923604,"87":0.029161239763013734,"88":0.08903243437088366,"89":0.08329533682093272,"90":-0.13821137131772718,"91":0.027190542769361597,"92":0.009927916343632163}},"21":{"bias":0.007109433204337042,"weights":{"0":-0.2916801662707223,"1":-0.2419209923423644,"2":-0.3566562121400527,"3":-0.14290857612273333,"4":-0.19772815055590678,"5":-0.12098641060225905,"6":-0.14232931828654632,"7":-0.1355742117392498,"8":-0.3779579587774931,"9":-0.2317376552157408,"10":-0.26662182093956144,"11":-0.5030531495385437,"12":-0.08907836896056096,"13":0.029233727068765564,"14":-0.18516244922922137,"15":-0.013975613398725812,"16":0.09868642397060369,"17":-0.07688447894500111,"18":-0.21614628995411728,"19":-0.09255568019604321,"20":0.34363037244308153,"21":0.1240254965752529,"22":-0.06252407923349604,"23":0.016009461277770736,"24":0.13121808503695143,"25":0.10355070350820217,"26":-0.11090989456475216,"27":0.02927944016138905,"28":0.0007686310347214292,"29":-0.044864576316616715,"30":-0.09400052322918563,"31":0.1809770090487758,"32":0.21534550823718085,"33":-0.0556909386204094,"34":-0.01581128210890551,"35":0.02301295644666196,"36":-0.05128804641119302,"37":0.22199619082909366,"38":-0.03820663869664458,"39":-0.09198256272363017,"40":0.1311504701161015,"41":0.16201994136287648,"42":0.16783088212913994,"43":0.04635146573473954,"44":0.21323898631862598,"45":-0.08447082695717088,"46":0.18082750624124072,"47":0.29560780125661024,"48":0.2779252434436425,"49":-0.141315373578019,"50":0.06135237905209539,"51":0.14693274715152008,"52":0.35667200391979575,"53":0.36411917854092546,"54":0.11535546279846456,"55":0.08215102966235076,"56":0.13564081702683192,"57":0.11100972591392391,"58":0.00839659945910609,"59":-0.0026196244909108407,"60":-0.05684274668511723,"61":0.2544226926871728,"62":0.21539286419236917,"63":0.04529749297591923,"64":-0.10257105259578257,"65":0.13995246396209102,"66":0.04648107826824145,"67":0.15593804939614017,"68":0.22591463675935985,"69":-0.06189022050328034,"70":0.007696720913407543,"71":0.09894414149925118,"72":0.2893203336212335,"73":-0.07266662874553274,"74":0.19007511662882895,"75":-0.013397896131063559,"76":-0.04133184789693628,"77":0.004486580730585287,"78":0.0009763497308253467,"79":-0.23094499440005747,"80":-0.20747493859,"81":-0.2395153941223996,"82":0.013560215517192237,"83":-0.157043688325605,"84":-0.2750316683256286,"85":-0.1579228339636809,"86":0.048728302664592854,"87":-0.2946304574244125,"88":0.02716768854891933,"89":0.085917985849733,"90":-0.18107606112816033,"91":-0.06529973659664265,"92":-0.13981647142653048}},"22":{"bias":-0.060256564982143795,"weights":{"0":-0.06503093988573132,"1":-0.015160724108669902,"2":-0.007632754127366834,"3":0.05588665960327251,"4":0.07689033047984138,"5":0.25865222063851434,"6":0.15257368255450104,"7":0.09905279826501692,"8":0.22748042789817308,"9":0.08022664197070993,"10":-0.019783440088798402,"11":0.06206448338022772,"12":0.2658397520097963,"13":0.05799945117746606,"14":0.03665316140311381,"15":0.2203432694328967,"16":-0.011948123402117775,"17":0.00619266711629581,"18":-0.0388250157118082,"19":0.07783551230162487,"20":-0.13916012998594493,"21":0.08186365115092777,"22":0.04843070619691019,"23":0.014661344927881147,"24":-0.17221120614943008,"25":0.0008437833745041355,"26":-0.025306782296724215,"27":0.037777233243639484,"28":-0.11712654099768216,"29":-0.1077156504357283,"30":0.12937151200934807,"31":-0.16050770047391172,"32":0.12251624482210699,"33":-0.07453606118995587,"34":-0.15493795284313558,"35":-0.051145783880974176,"36":-0.08252206286784396,"37":-0.020515910797027272,"38":-0.1139306289140174,"39":0.08129344719775741,"40":0.027648038840863635,"41":0.050155604775654554,"42":-0.09077109879137514,"43":0.11377051015273598,"44":-0.25794153775444195,"45":-0.06152130461173778,"46":-0.24897381660374565,"47":-0.2697453919147324,"48":-0.26290741180378685,"49":0.013208394040924493,"50":-0.02380566795197994,"51":-0.08646524370647632,"52":-0.20751039758349493,"53":0.13212819338066076,"54":-0.021029614514673556,"55":-0.023870697610309466,"56":-0.07594353190155119,"57":0.11090207667657596,"58":0.12601829507975154,"59":0.19311303918147243,"60":0.1445459680654886,"61":-0.054450620424863594,"62":0.04828010095836824,"63":0.17837531124772507,"64":0.19288275774033734,"65":-0.1278969754129972,"66":0.052099054311813095,"67":0.04618977992189683,"68":-0.07594208810620301,"69":-0.09709020649712104,"70":-0.16645507323701172,"71":0.1468523021088096,"72":-0.013722291008419445,"73":0.13157100346531567,"74":-0.07459520278590032,"75":0.05611812645344368,"76":0.1191135967839834,"77":-0.009017320103800786,"78":-0.012395955497508378,"79":-0.04555799527884094,"80":0.23674416873767679,"81":0.22155343627005777,"82":0.17408088518232562,"83":0.01659179653277074,"84":0.18954722617558523,"85":0.0815567445508808,"86":0.009660763957023083,"87":-0.1539250196325123,"88":0.2096322988724602,"89":0.18325436888773888,"90":-0.12442365081442096,"91":-0.06740405088513002,"92":0.126112270812369}},"23":{"bias":0.2111489821552439,"weights":{"0":0.033165239177703164,"1":0.08586206521240002,"2":-0.11817129884153367,"3":-0.2574749043675543,"4":-0.34862893404002887,"5":-0.06284932205522445,"6":0.13277048223222088,"7":0.01715517201298288,"8":-0.35369528168379116,"9":-0.1698889012648666,"10":-0.07413993735037419,"11":-0.37288806464613566,"12":-0.16674282994679307,"13":-0.10563066882156363,"14":-0.16547852129040436,"15":0.1379572353543743,"16":0.13742266298698594,"17":-0.1768580384362114,"18":-0.2811103458145923,"19":0.022577794892451035,"20":0.3384004329914231,"21":-0.2647609443922994,"22":0.012419209441348122,"23":0.014101694322193669,"24":-0.15562038450125643,"25":0.04098837490271696,"26":-0.22015931659178917,"27":0.1308641556131646,"28":-0.14289595978435768,"29":-0.13785977497064797,"30":-0.0007148302767451832,"31":-0.0836923887051559,"32":-0.16809682194908085,"33":-0.2595893192616223,"34":-0.2428274496182618,"35":-0.12403658603565883,"36":-0.14271118491435722,"37":-0.24263521434017182,"38":-0.2593392121100851,"39":-0.16397102143924583,"40":-0.24372309996496316,"41":-0.17811454088613599,"42":-0.006384069908953932,"43":0.12416036629478115,"44":-0.04579141906502562,"45":-0.07308774565691312,"46":-0.09233854051582975,"47":-0.010369134864445212,"48":0.006046484492856462,"49":-0.09902788963214756,"50":-0.004103242445109977,"51":0.08987814385726124,"52":0.0035665697298048744,"53":0.17673299266674958,"54":0.11521741043470299,"55":0.11181458136251199,"56":0.22772106351501933,"57":0.1720033173987538,"58":0.14902016524154438,"59":0.21926785833793505,"60":-0.01792002761325854,"61":0.07186532356560299,"62":0.1467543964871854,"63":0.237276061795214,"64":-0.07810814972853916,"65":0.011428498873471776,"66":0.1242196917549812,"67":0.24132269709831122,"68":0.008715309914726249,"69":0.03687021149083082,"70":0.034042853519511466,"71":0.08190380564262997,"72":0.0033916100990230872,"73":0.1922377888305669,"74":0.2588882987913164,"75":0.054591261985304375,"76":-0.10592081239330439,"77":0.03161276829805557,"78":-0.1709616911534891,"79":-0.23417686930302814,"80":0.0895019318571423,"81":-0.2831453357942865,"82":0.005248076248399383,"83":-0.06536024248893774,"84":-0.1188420372929004,"85":0.07131038562092189,"86":-0.27487942266823384,"87":-0.06322885112583439,"88":0.05340133523081426,"89":-0.24955991862559135,"90":-0.03262229669224554,"91":-0.2616793241991488,"92":0.07451437731990933}},"24":{"bias":-0.043220705077027265,"weights":{"0":-0.2983169794484335,"1":0.03203356734825993,"2":-0.2912978176870614,"3":-0.10550226988587567,"4":-0.33688052609597374,"5":-0.14788984219121679,"6":-0.19760168512418017,"7":-0.2484948780461158,"8":-0.20090984943203904,"9":-0.14585348039664942,"10":-0.3011037944042708,"11":-0.05843169760067189,"12":-0.18958320593624012,"13":-0.24999237384519035,"14":0.09066643258004599,"15":-0.06271732252459324,"16":-0.19174167185520027,"17":0.08494797867078013,"18":0.09723103779629673,"19":0.08670605658345942,"20":0.02975143439609546,"21":-0.09222180278034099,"22":0.1648012990764324,"23":-0.06390892015783406,"24":0.10653929393886183,"25":0.0785825802802696,"26":-0.028102244858837805,"27":-0.19795323371198795,"28":0.5045659063878184,"29":0.16181316943897406,"30":-0.16416752912492602,"31":0.023103042047054597,"32":0.03887438268514439,"33":-0.07797835806208514,"34":-0.0041306362134707455,"35":-0.0960811641978518,"36":0.14719881779037378,"37":0.07448082099109453,"38":0.08373227346462812,"39":-0.049525870581540545,"40":-0.18615195463486528,"41":-0.011702784552075228,"42":-0.02707570553643228,"43":-0.032576276443332906,"44":0.17439881104880509,"45":0.04586526288732572,"46":0.2065511879689242,"47":0.27190910817421,"48":0.2525503974821372,"49":0.1480958920934777,"50":0.2920597926986106,"51":-0.002383253257768262,"52":0.2750950311278072,"53":-0.007239099461364373,"54":0.16266777940068153,"55":0.09233658363602103,"56":0.19609257246819403,"57":-0.06754478681323121,"58":0.02074750655752584,"59":0.04242793771661731,"60":-0.07722862507800286,"61":0.032429521550734496,"62":0.14442363751490364,"63":0.025341602150504232,"64":-0.15312431368774082,"65":-0.004865240071428249,"66":-0.07130830112475306,"67":0.14770821384537874,"68":0.16331525661123153,"69":-0.14204676278915845,"70":0.141574404186685,"71":-0.16414932370913765,"72":0.004201747457740222,"73":-0.10060343779883137,"74":0.027039316943708484,"75":0.16536333481942378,"76":0.02378223083053752,"77":0.1055181731157496,"78":0.11534595966115792,"79":-0.04112395318705491,"80":-0.17361662761389804,"81":-0.14498780067116868,"82":0.0812723673675514,"83":0.11088551315202307,"84":0.10562328239451563,"85":0.18123038012957757,"86":0.11858496190525213,"87":0.16742267228786525,"88":-0.006578709921785821,"89":-0.11619420763113174,"90":0.023918659605858986,"91":-0.19958427637165543,"92":0.14148101731647897}},"25":{"bias":0.2612641140208549,"weights":{"0":-0.018596034102196915,"1":-0.1569190709240542,"2":0.07995550626019797,"3":-0.15497752426464198,"4":0.08860758669339953,"5":0.06969904078533741,"6":-0.13981089583273307,"7":0.11670987297293096,"8":-0.021775552008147216,"9":-0.12135241897594912,"10":0.12815325623936058,"11":-0.3614239734556869,"12":-0.11678884202330599,"13":0.10854194748457575,"14":-0.1090043699440724,"15":-0.16417917300305027,"16":-0.13698178437736422,"17":-0.07703396914231277,"18":-0.07237766606786136,"19":0.010333592351569902,"20":0.011023390010202064,"21":-0.05285004441351664,"22":0.12264576328222644,"23":0.10627833404405314,"24":0.08786470112083823,"25":0.156167868324215,"26":-0.2633886570981842,"27":-0.013039123636260738,"28":-0.209204026540682,"29":0.10888856120134484,"30":-0.05045960216244914,"31":0.31810542245188633,"32":0.18076271245000522,"33":0.12741153784845624,"34":0.2788808816518723,"35":0.0783728954731131,"36":-0.1754766729646533,"37":-0.0034496077789578933,"38":-0.08697677525342079,"39":0.08133492998862725,"40":0.03200905812038097,"41":0.07698193806393082,"42":-0.20424240496607735,"43":0.13461136862484613,"44":-0.0031385405287205634,"45":0.05425565927692832,"46":0.15039133526091053,"47":-0.11945747759813072,"48":0.1646978963788059,"49":-0.15175699963320416,"50":-0.07949725077430783,"51":0.08860963677055997,"52":0.0151972286904177,"53":0.16834902632598334,"54":0.2814027823273265,"55":0.1820973113096643,"56":-0.04151502295684563,"57":0.29031304670224456,"58":0.27672224391441047,"59":0.22629477242459387,"60":0.09902009221402978,"61":0.25426885894143736,"62":0.2598807889237443,"63":0.2654567532857285,"64":0.07880187775461098,"65":-0.10451268183694731,"66":-0.05851707973701173,"67":0.11595750654675932,"68":-0.09564322022063104,"69":0.007671393310302476,"70":-0.06781030992492806,"71":-0.013892749319313382,"72":0.19308760090840135,"73":-0.028680495813307633,"74":-0.06913175147077408,"75":-0.2535118057991209,"76":0.1661340949324387,"77":-0.16366202974810906,"78":-0.2549060636710676,"79":-0.010911260645702603,"80":-0.2669253127300999,"81":-0.14703739966905682,"82":-0.09471416465212681,"83":-0.29249167139092097,"84":-0.13895753298017918,"85":0.06301425548516672,"86":-0.20646021711595308,"87":-0.07178790880043051,"88":0.06288036207191867,"89":-0.19262188469023178,"90":-0.3056844439233185,"91":-0.23461877026185157,"92":-0.005742011369196839}},"26":{"bias":0.1428206176473461,"weights":{"0":-0.0811626216933858,"1":0.062160363369966255,"2":0.04864238615968181,"3":-0.1584606064373524,"4":0.07985530827711217,"5":-0.14630734491313388,"6":0.2115939004082952,"7":0.16258224080202288,"8":-0.016757834212590018,"9":0.12447381820825516,"10":-0.07166219577443965,"11":0.12670220526694517,"12":0.08086967743574199,"13":-0.033764661339725444,"14":-0.09817978105531147,"15":-0.1387131591315056,"16":0.04528248087073774,"17":-0.17489014599916705,"18":-0.3178155622878192,"19":0.19255025274124513,"20":0.09080129071221874,"21":-0.12572051463031844,"22":-0.07938786203995715,"23":0.16226704734833888,"24":-0.12376776944489949,"25":0.112772636126859,"26":-0.22008931240080498,"27":-0.08717000742887797,"28":0.017865111525029457,"29":0.1370843008050071,"30":-0.05080752743623346,"31":-0.2633438262458344,"32":-0.0984507786165007,"33":-0.04180492785461472,"34":-0.2815017422245989,"35":-0.32080361235127935,"36":-0.037849818310741766,"37":-0.12221192136557228,"38":0.008511751224216886,"39":-0.21862549924266442,"40":-0.019735658413528583,"41":-0.1504541210765647,"42":0.11868307615067515,"43":0.08686530031406509,"44":-0.17129312388105414,"45":-0.1811272722150031,"46":0.06373413666542899,"47":0.004187561078522719,"48":-0.1452364488525005,"49":-0.19639261788733267,"50":-0.06125387830468315,"51":-0.155814959022804,"52":-0.14316834672498926,"53":-0.07923862185179667,"54":-0.03183779365955881,"55":-0.11237650441057127,"56":0.10878018274565503,"57":0.14006877500308593,"58":-0.06972127357715077,"59":-0.06097254889908801,"60":0.22054952633194097,"61":-0.15721644731315645,"62":0.01751441872915033,"63":-0.019306406559405992,"64":-0.04496766462549908,"65":0.09668972783120329,"66":0.13504319062410294,"67":-0.08554560305790258,"68":0.08386037394365968,"69":0.21339624355730905,"70":0.14449732611593175,"71":0.11574354172882963,"72":-0.08789285631381304,"73":-0.004154546664182965,"74":0.041034051678821445,"75":-0.12933035335373108,"76":-0.06689815120453048,"77":0.17025784669693556,"78":0.15166295487218973,"79":-0.13961950938176493,"80":0.05223714616797928,"81":-0.06076683502366121,"82":-0.10742249808953254,"83":0.06925786850502005,"84":-0.16001413121952354,"85":0.12364213827774934,"86":0.0015635509594819639,"87":0.01636827476886487,"88":-0.21476019782992822,"89":0.10718992860267038,"90":0.17011200675142155,"91":0.1017262218585995,"92":-0.1925901226099145}},"27":{"bias":0.011360896069391713,"weights":{"0":0.1499756559649866,"1":0.12902467611328203,"2":0.01659441169398202,"3":-0.10799951132516272,"4":0.03394391951915894,"5":0.14561097067722636,"6":0.10361890818172252,"7":0.020372923776718586,"8":0.11185903897153181,"9":0.0029698074848749857,"10":-0.01025946954544322,"11":0.24383169229844656,"12":-0.12214903972746137,"13":-0.08464614626759469,"14":-0.18394030258301822,"15":0.054656098935974916,"16":-0.061519558458629706,"17":-0.08792364996948564,"18":0.14451508291623863,"19":0.18111543604990024,"20":-0.354892432707553,"21":0.06744568051088738,"22":0.15202264378592825,"23":-0.1254568177748363,"24":0.006266692623949337,"25":-0.010135578693718218,"26":-0.12571259924993358,"27":0.18776973355621657,"28":0.07190439732208903,"29":-0.2031823035766253,"30":0.09835903214313625,"31":0.25118104330673985,"32":0.25862818656324355,"33":0.19576121980746203,"34":-0.08240005815413348,"35":0.0538100250933273,"36":0.016110851841803196,"37":0.23832944079559382,"38":0.1714902334651668,"39":0.0402255921536364,"40":0.2804813953880174,"41":-0.02355994023183248,"42":0.12464543977972369,"43":-0.24576068452916905,"44":0.1034479032593709,"45":-0.07807155225115649,"46":0.12775844918514484,"47":-0.12529606941109553,"48":-0.20146535644052255,"49":0.03800192443025475,"50":0.0011563382760559036,"51":-0.09616348853131813,"52":0.04837270183283242,"53":-0.0700730557908229,"54":0.07950259294412208,"55":-0.23677495119169545,"56":-0.11587930760819715,"57":-0.24702051485016638,"58":-0.04191064257770791,"59":-0.05408620863231216,"60":-0.020750547718066448,"61":-0.08984109047049578,"62":-0.1653087667230048,"63":-0.0494499666935014,"64":-0.005320684633977447,"65":-0.01675829266896427,"66":0.05165686092814133,"67":-0.03908129384662448,"68":0.03701050762247837,"69":-0.042717227454005954,"70":0.004128869217742182,"71":0.0027688499797839817,"72":0.10823239646619574,"73":0.12165728018547457,"74":-0.10031028621395298,"75":0.05128011940981316,"76":0.0038571744748196937,"77":0.08603641919439833,"78":0.14500257813474185,"79":-0.15456474114045046,"80":-0.08225782851995592,"81":0.25117986553245913,"82":0.16872766140914586,"83":0.1587276680299327,"84":-0.11316715187520829,"85":0.22712943435150568,"86":-0.11003112196736821,"87":0.0847590704462463,"88":0.046155648048788946,"89":0.03847553428626542,"90":0.11927731241388868,"91":0.15715634373066986,"92":-0.09379721246123338}},"28":{"bias":-0.15992410741297688,"weights":{"0":-0.22995803580196694,"1":-0.09139640259273761,"2":-0.09619187792880203,"3":-0.02133878491087756,"4":-0.06010194992346005,"5":-0.16889340079585752,"6":0.06811021218447998,"7":-0.315197084303464,"8":-0.23634750257009937,"9":0.007082495380538505,"10":-0.2760815836958455,"11":-0.038645204600121205,"12":-0.27665308184942644,"13":-0.23032628076592254,"14":0.048986040966051164,"15":-0.22628324299855673,"16":-0.15900108194437662,"17":-0.08088742723586674,"18":0.1337309115242204,"19":0.0038938264925919615,"20":0.020804473908819253,"21":-0.005771227274098172,"22":0.16503253929715117,"23":-0.10951531654006279,"24":-0.09630717122825974,"25":-0.043361484549867525,"26":0.08832999614502544,"27":0.247305854452482,"28":0.10890680664367705,"29":0.10667643164797064,"30":0.06503434438548975,"31":-0.2831974736990952,"32":-0.0786833128907963,"33":0.0642523438312653,"34":-0.07813234227673621,"35":-0.23194964396130135,"36":-0.0870636294025265,"37":-0.13202619319247955,"38":0.08148201814279216,"39":0.029709923611013916,"40":-0.010099181216199989,"41":0.04114938712890985,"42":-0.14683018261967176,"43":-0.24343498066905628,"44":0.00978560187481353,"45":0.010691483062217006,"46":0.05437001709175373,"47":0.059381372008787514,"48":-0.24079021986995056,"49":0.05824002004372502,"50":-0.06905718437470001,"51":0.0845969164235831,"52":0.11823986858957337,"53":-0.03962758046166895,"54":0.20592672190567052,"55":0.15054661480926756,"56":0.08324092098595295,"57":0.07932508439509035,"58":0.027600252872137212,"59":0.14871239011924398,"60":0.19634004218079534,"61":-0.0538696591100026,"62":0.1831539513479779,"63":0.0241559596372933,"64":0.1212496021549325,"65":-0.003645538730805698,"66":0.10485235282120402,"67":0.12638648716634576,"68":0.006113660573677193,"69":-0.062185765319244364,"70":0.009463836532790447,"71":-0.0981028790587302,"72":-0.05318522865009292,"73":-0.1484513273498703,"74":0.16457912426513946,"75":0.23058477813728398,"76":-0.1551491652272075,"77":-0.060724626189829246,"78":0.14356804956354868,"79":0.23811314449943258,"80":0.05162313637492022,"81":0.0760619225065106,"82":-0.0052237757965788835,"83":0.04523099854248421,"84":0.2562609958841221,"85":0.05201031051460156,"86":0.07416963894896056,"87":0.004713435404964474,"88":0.0028698319387204236,"89":0.2748618246314087,"90":-0.021039165415570847,"91":0.19772880618576377,"92":0.13707453846268716}},"29":{"bias":-0.09351404894318412,"weights":{"0":0.15447992165839283,"1":0.01835467771049766,"2":-0.02961293871141214,"3":0.10466595108720474,"4":0.026649809542991624,"5":0.1270505860483416,"6":-0.10295604992508398,"7":-0.12096829730593714,"8":-0.04141009526664489,"9":0.24375107115811254,"10":-0.10422359494540125,"11":-0.015461240451724076,"12":-0.10661740541421783,"13":-0.153860569088502,"14":0.16253305280136857,"15":-0.07348908083850027,"16":0.13552629163753477,"17":-0.1585468162338483,"18":0.08026954091870174,"19":-0.16659907451075956,"20":-0.19197759146580143,"21":0.23857731589754871,"22":-0.20187527529735047,"23":0.13107690605555908,"24":-0.021820297602276627,"25":-0.15693600032790983,"26":0.07960191748015352,"27":-0.12102052556457148,"28":0.27910219794520746,"29":0.18526211802022277,"30":0.08552005472459275,"31":0.2639206139519648,"32":0.15360566967390477,"33":0.26026238926182393,"34":0.27355833682527,"35":0.23027243209010356,"36":0.19166972246514336,"37":-0.09839782866471958,"38":-0.09719809660747267,"39":-0.010520481265846584,"40":0.24438496619858216,"41":0.22032314839904155,"42":0.0562043765877638,"43":-0.010445420322819391,"44":0.14660991328156464,"45":0.0983834545627902,"46":-0.026294810532331202,"47":0.21785983410426157,"48":-0.04465944847989471,"49":0.2590667383309281,"50":0.1239973164355419,"51":-0.02993255776895737,"52":-0.13249346038161522,"53":0.07751814748706432,"54":-0.12066457194117904,"55":-0.14523520146583963,"56":-0.11188451411583235,"57":-0.13290872538306567,"58":-0.14486426746649064,"59":-0.24579531358046697,"60":-0.011992173970281114,"61":-0.19729887345331087,"62":-0.02881325332965273,"63":-0.08819993970637316,"64":-0.1470634064146908,"65":0.014730302676616397,"66":0.11783469518492337,"67":-0.20882308785843498,"68":-0.07887052034921245,"69":-0.1434395967237944,"70":-0.25357567158581557,"71":0.03191483228100302,"72":-0.028007690605372674,"73":0.0020061672521834266,"74":-0.20569122469023865,"75":0.25147614343881747,"76":0.14918212885307772,"77":0.018988793170176512,"78":0.23427801994008973,"79":0.06057736348492886,"80":-0.005278383817806812,"81":0.10371528796443989,"82":-0.13011677314921527,"83":-0.09695029533614272,"84":0.03600679653425443,"85":-0.014591724766795332,"86":-0.05010407029396679,"87":0.04641303460176489,"88":0.05203276416430829,"89":0.053313819562172717,"90":0.18174508409537857,"91":-0.015780666562245645,"92":0.15745790323117703}},"30":{"bias":0.09552409210989832,"weights":{"0":-0.39549686566097775,"1":-0.27589032541737935,"2":-0.26541820278525735,"3":-0.2092741536640217,"4":-0.25558947815835314,"5":-0.36672771456128883,"6":-0.21044049327724046,"7":-0.07713937637572725,"8":-0.23908776081558644,"9":-0.18112780463766864,"10":-0.4531655856347534,"11":-0.22522484371872376,"12":-0.2738111877974964,"13":-0.06568667091021126,"14":-0.1018835935869175,"15":-0.10945107648325403,"16":-0.05896934183995023,"17":-0.045875501469895975,"18":0.11013214390903246,"19":0.05231060065056617,"20":-0.15694238061039975,"21":0.0850998300154934,"22":0.1078646595399784,"23":-0.09038888974453352,"24":-0.12456365260045414,"25":-0.20014162038267558,"26":0.01317819666982448,"27":0.4316233125775366,"28":-0.10022278930353738,"29":-0.23515183522535008,"30":0.17076552587389715,"31":0.09640664714744267,"32":0.1153432625957412,"33":0.20216184086123468,"34":0.10554394656566725,"35":0.09145820816493963,"36":0.30067020696838737,"37":0.10183734424892234,"38":0.15157826301708097,"39":0.42472383658017626,"40":-0.01563772123043268,"41":0.1706775730273341,"42":-0.013138604158507412,"43":-0.21293707521673952,"44":-0.16317907229500475,"45":-0.21214941549766858,"46":-0.05170073996515338,"47":0.19006944866443443,"48":0.06406252265635128,"49":0.0137237188872744,"50":0.0844771691240145,"51":-0.048706498113499246,"52":-0.1590089872261474,"53":0.16269911752345628,"54":0.05185120008783151,"55":0.07671321803869273,"56":0.3137710827350504,"57":0.09769513387007467,"58":0.09114663334128874,"59":0.15670642863023018,"60":0.001002461358436796,"61":0.07779920295558379,"62":0.19781166845283638,"63":0.26526597061134194,"64":-0.042035346244654936,"65":0.2767599928689197,"66":0.04723683642627015,"67":-0.041839051252006966,"68":0.20429729172830577,"69":0.0662696433562861,"70":0.22168834232024362,"71":-0.10427563387645988,"72":0.10427857281707613,"73":-0.0455172830757575,"74":-0.023512990288853976,"75":0.2926822442677586,"76":0.13730809692793808,"77":0.11712111166267392,"78":0.10382203539299296,"79":0.2674207835675113,"80":0.0919602812875905,"81":0.12230304494375016,"82":0.20285447874333123,"83":0.25882760101225843,"84":0.03350917962148267,"85":-0.08420866103323651,"86":0.191811456853071,"87":-0.017767368628261105,"88":0.17394246783443865,"89":0.14500197857161237,"90":-0.0029253749353507445,"91":0.2539759629784018,"92":-0.025542904236754385}},"31":{"bias":0.052776477348320645,"weights":{"0":0.08891376324679044,"1":0.1960725098452371,"2":-0.13158239032972976,"3":-0.18510574988961245,"4":0.14270001527531243,"5":0.17040106076684988,"6":0.17066708178709783,"7":-0.17009206533409188,"8":-0.08835391920121922,"9":-0.19194043087765228,"10":0.06127275041254368,"11":-0.21645356452828446,"12":0.12543418809736562,"13":-0.0735576743421244,"14":-0.15237462631399015,"15":-0.07682907227243992,"16":-0.18992728062461986,"17":0.09379129833396307,"18":-0.23984266860020623,"19":-0.15326347545653965,"20":0.14161203012261261,"21":-0.23138194182290753,"22":-0.11416953501278737,"23":0.17858406895752707,"24":0.1254330173134623,"25":0.10689485398234075,"26":-0.062223332496826496,"27":-0.08534898715122564,"28":-0.021921528688867112,"29":0.1839914012335996,"30":-0.12976405342349023,"31":-0.17055619487761797,"32":0.12103663727072847,"33":-0.031916737063075365,"34":-0.12366156677114772,"35":-0.06614499244960184,"36":-0.2572711248951374,"37":0.11104038788935462,"38":-0.20950990362759014,"39":-0.17307448169079648,"40":-0.13574963974503965,"41":-0.13185912406599767,"42":-0.03943622453831256,"43":-0.14242534727345993,"44":-0.14435823446363366,"45":-0.10907210526973632,"46":0.17882537708171042,"47":-0.05423232238200811,"48":0.14124660649793896,"49":-0.23333599559278925,"50":0.1005713725011238,"51":-0.14574583624399862,"52":-0.1437091864399934,"53":-0.1334417589152126,"54":-0.08835106952725891,"55":-0.06689400809764061,"56":-0.1610292596488527,"57":-0.16212036843558253,"58":0.028050812329328413,"59":0.08111651461660299,"60":0.09537821580231053,"61":0.11057739831395787,"62":0.1804919540445087,"63":0.16843812527810956,"64":-0.11378487827132071,"65":-0.10790921026425808,"66":0.13531864677329924,"67":-0.023900964167767335,"68":0.15902161523289096,"69":-0.06828517965933598,"70":-0.03487610398028334,"71":0.10488494384359634,"72":0.21197355694189327,"73":-0.06760634479529062,"74":-0.020123234757703803,"75":0.03980550326474587,"76":0.11269147872625815,"77":0.14092827229515986,"78":0.1236399441974331,"79":-0.048762207544892536,"80":-0.06022487605652159,"81":-0.011588136997617807,"82":0.15273804389169132,"83":-0.03288843064647885,"84":-0.14135190904173817,"85":-0.14534511906627298,"86":-0.03077783644630801,"87":-0.2573172246828611,"88":-0.17118629929357987,"89":-0.1818312167146123,"90":0.12266807191639532,"91":0.04597462993111583,"92":0.09404482040183057}},"32":{"bias":-0.10072306723608407,"weights":{"0":-0.028183167997389583,"1":-0.1639410176243113,"2":0.17367933044213546,"3":-0.08903073947839775,"4":0.05835104565663989,"5":-0.12348813259576817,"6":0.08941828611401878,"7":0.14879907379571086,"8":0.19169587043744843,"9":-0.08584565517899986,"10":-0.009798639202070135,"11":0.12515534762927083,"12":-0.15725420181290545,"13":-0.10301996112793174,"14":-0.07893563028310586,"15":-0.19489622434881393,"16":0.1701881789707377,"17":-0.1283840110490173,"18":-0.14615510545673047,"19":0.21453700983955065,"20":0.04133093701461191,"21":0.1511261140581945,"22":-0.0719212439964607,"23":-0.046276937461905844,"24":-0.15179981292258707,"25":-0.015116489008103346,"26":-0.014842355356214015,"27":-0.07534768913078044,"28":-0.48983343464835455,"29":-0.23991924844958507,"30":-0.23132093921516692,"31":-0.2906012266906383,"32":-0.0541904074758011,"33":0.006590565233452146,"34":-0.01918545272018089,"35":0.0692697621082637,"36":-0.19613458278699178,"37":-0.17436121063023757,"38":-0.08623786350530187,"39":0.1400885678034173,"40":-0.16414338290963978,"41":0.026007438510706686,"42":-0.15087661169233024,"43":-0.07238232925231429,"44":0.020742091290340797,"45":-0.029139558319011848,"46":-0.05069160690627615,"47":-0.06409607530168894,"48":0.05650667896730091,"49":-0.04247286710907888,"50":-0.22907114747275548,"51":-0.2950308909183605,"52":-0.17414752871844222,"53":0.25146640236255685,"54":-0.011184856206885991,"55":0.021111462343750324,"56":0.2612346846073031,"57":0.05586849548059536,"58":0.1662669195748907,"59":0.18035422879138197,"60":-0.06316767137691014,"61":-0.003600870735008475,"62":0.0526589355963502,"63":-0.11190604066936226,"64":0.2485703387406814,"65":-0.02721537962924924,"66":0.22617133402556033,"67":0.1691564807292994,"68":0.20075833653488062,"69":0.131885579196455,"70":0.2004641238370039,"71":0.13595442233720192,"72":0.0954765192426785,"73":-0.05424933007716703,"74":0.12123047629632813,"75":-0.07158393453531635,"76":-0.11732611018578605,"77":0.12260178366834988,"78":-0.029817381348333415,"79":-0.033126715426351434,"80":0.013021998011141001,"81":-0.13697880935335513,"82":-0.1267886569250137,"83":-0.054879742376473126,"84":-0.18269022138250104,"85":0.18513270742073346,"86":-0.20543001264309255,"87":-0.07913960903474605,"88":-0.030613586869067812,"89":0.14656723441573516,"90":-0.11095038108130907,"91":0.004945696618376822,"92":0.04194207331854723}},"33":{"bias":-0.14526774702776288,"weights":{"0":0.38213653967408645,"1":0.15933534404386876,"2":0.10070675363412791,"3":0.2614983481353056,"4":0.21244206543214555,"5":0.22143407990029884,"6":0.03630444178274883,"7":-0.0018047228838934941,"8":0.2757044006566571,"9":0.04371055789482435,"10":0.22498736314767212,"11":0.3682944061660977,"12":-0.02172500167863542,"13":0.12500637468064402,"14":0.037050531268135414,"15":0.16583982593168714,"16":0.14834279305520076,"17":0.06457398703564209,"18":0.04451241784088372,"19":0.08676949815606846,"20":0.015592084420221823,"21":-0.1706138972878704,"22":-0.1311668155654699,"23":0.16955517565516354,"24":-0.12999653515138088,"25":-0.17520583044946392,"26":0.008945304643464106,"27":-0.1531780032956182,"28":-0.23107496259730362,"29":0.18789311721206944,"30":0.0321550374251675,"31":0.021285612789760735,"32":-0.23459411167106664,"33":-0.057106268919382835,"34":0.09668080174205992,"35":-0.22355508237066346,"36":0.13266171777578484,"37":-0.26015412508413516,"38":-0.2671258939608081,"39":-0.05581900329244743,"40":-0.13653873672834405,"41":-0.20421436582037666,"42":-0.09694652839523536,"43":-0.10290031961119374,"44":-0.10594830079812236,"45":0.07577832222265381,"46":0.11768804417235355,"47":0.005760271410722065,"48":0.002536579451082719,"49":0.0375523979326356,"50":0.005841485340039565,"51":-0.02557411755403301,"52":-0.25314510732939877,"53":0.054638871261121644,"54":-0.03944270281296024,"55":-0.22215532607261204,"56":-0.21832940960802957,"57":0.02446948106484222,"58":-0.22764753179405545,"59":-0.14645085672485805,"60":-0.08962669273141718,"61":-0.16934318792726427,"62":0.15175783177721808,"63":0.15486297176424096,"64":-0.11186977471251724,"65":0.06370733165482181,"66":0.06400152645438714,"67":0.10324421384993746,"68":-0.007654003762820127,"69":-0.18492921503414084,"70":-0.11703373618162566,"71":-0.09916364522041989,"72":-0.11951650702698893,"73":0.14933988907316864,"74":0.05714647174383623,"75":0.013396617674217308,"76":-0.17423667600172849,"77":0.08563319453403404,"78":0.013803795085069851,"79":0.011232757455316385,"80":0.03417707150661553,"81":0.08388646479848115,"82":0.1577117420783775,"83":-0.09563334898214342,"84":-0.03837550737948739,"85":-0.011899423033329547,"86":-0.09030580626455126,"87":0.14897037691353848,"88":0.005697304702217763,"89":0.05391079237513871,"90":0.01503957128158718,"91":-0.1274446470222903,"92":0.20051660437792296}},"34":{"bias":-0.04631201149119047,"weights":{"0":-0.22705463837410841,"1":-0.06070313923828133,"2":0.106674214708532,"3":0.1459759028604289,"4":-0.234489301390613,"5":-0.1497092385338928,"6":0.05306370791321907,"7":-0.018584009775535607,"8":0.0551436710129995,"9":-0.0028963868063222775,"10":-0.14358919116825128,"11":-0.37216202754128525,"12":0.006231062294155918,"13":-0.08042083791141817,"14":-0.04662333451907349,"15":-0.0919104603561863,"16":-0.044229906221311115,"17":0.06834833073157709,"18":-0.28558111406615583,"19":0.0958083669105888,"20":0.055602230934374566,"21":0.08201877639994681,"22":0.025551005284238253,"23":-0.018109485937052812,"24":-0.08476424058280056,"25":-0.0012920141295392799,"26":0.0984851782108765,"27":-0.03378990867774743,"28":0.152325576022684,"29":0.06848928853042598,"30":-0.11674057472325071,"31":0.060410913303710484,"32":-0.05796171612278624,"33":-0.18720928757906935,"34":-0.14237351748397725,"35":-0.05422813279619675,"36":-0.10700459299856062,"37":0.1896845940397085,"38":0.15814261239430255,"39":-0.11061204856555157,"40":0.016120130568548448,"41":-0.16229509978811218,"42":0.03793070172710419,"43":-0.08518586723506903,"44":0.19284201188345826,"45":-0.10428763651202046,"46":-0.01832489506813094,"47":0.03662948823056146,"48":0.03952288645253829,"49":0.11292777275956836,"50":-0.030996868513943853,"51":0.13115846520454919,"52":0.2600848820666267,"53":0.03727170842087748,"54":0.22927642784867083,"55":0.023105746588774023,"56":0.04344895370791442,"57":0.23638475819101154,"58":0.14553969255193397,"59":-0.07456048344114892,"60":0.2205979952105367,"61":0.12946807642635697,"62":0.20280001525246721,"63":-0.12851512528913464,"64":-0.06978847830702929,"65":0.15227738471913543,"66":0.10359253007297832,"67":0.123362170501207,"68":0.14311772196142983,"69":0.211650874426838,"70":-0.11357771805742739,"71":0.21051979838597107,"72":0.015367151863974407,"73":0.15967279439958465,"74":-0.15722869307098541,"75":-0.00838118619230476,"76":-0.14737850812683287,"77":-0.09946320856450876,"78":-0.1249485039096046,"79":-0.17048482582596636,"80":0.005735931627048516,"81":-0.22586542603730977,"82":-0.04848740655821193,"83":0.022854503730325174,"84":0.04172919068761562,"85":-0.10105356037917099,"86":0.049573483129250945,"87":-0.10888418443569807,"88":0.03756319565809494,"89":-0.1345341633925605,"90":0.06510101683134419,"91":0.04333607150463812,"92":-0.09200026331773814}},"35":{"bias":-0.22704109285655483,"weights":{"0":0.24940154627683114,"1":0.05209532728881892,"2":-0.07940535048564512,"3":0.16952997884103832,"4":0.30544072750256607,"5":0.3034716350844075,"6":-0.06671240399601644,"7":0.13680688699486637,"8":0.007540057241070514,"9":0.09024553444615031,"10":0.08156618421824902,"11":0.33034854876219366,"12":0.09790683485623267,"13":-0.16147095052070315,"14":-0.014676032821967121,"15":-0.1294947577150395,"16":-0.0013510407459068367,"17":0.17480482243247325,"18":0.23086114289525267,"19":0.005320864287661499,"20":-0.12282094451033679,"21":0.1607651399511725,"22":-0.17402081662188112,"23":0.06353855902208062,"24":-0.05655038373511625,"25":-0.11365057541556672,"26":0.17119731926682688,"27":0.18869963434473339,"28":-0.2312397831460737,"29":0.11279533186854349,"30":-0.07720570331432837,"31":0.11947976314930855,"32":0.007818858472580492,"33":-0.16717110508818717,"34":0.05402214882006671,"35":0.13283023885518297,"36":-0.12719153908396927,"37":-0.05120617679856327,"38":-0.22360364966949445,"39":-0.22136805871189516,"40":-0.1015646180172138,"41":-0.10917170887141071,"42":-0.15504850731038372,"43":0.10964215786080753,"44":-0.0620015972526491,"45":-0.2138411492478315,"46":-0.060268998353480735,"47":-0.1424950342107395,"48":0.001097195594862185,"49":0.1480923998051093,"50":-0.028707827404261012,"51":-0.19933189512635918,"52":0.041577512114067974,"53":0.12405343137904717,"54":-0.0637285083166116,"55":-0.16804780727056462,"56":-0.21120284151622293,"57":-0.24376455111479095,"58":-0.028976092551800794,"59":-0.02968283150589064,"60":-0.03297012186914596,"61":-0.1931201746293177,"62":0.1859207555488697,"63":0.1569818675791527,"64":0.12158873303283928,"65":0.12593934088985775,"66":-0.11423336373099109,"67":-0.17098374927363627,"68":-0.11681826266689792,"69":-0.07442386849391586,"70":0.1434674748063413,"71":-0.07462910281387142,"72":0.12923815473984523,"73":0.018936013807438368,"74":-0.2004249315397742,"75":0.07719008819667583,"76":0.19830262635638202,"77":-0.14425242949287845,"78":0.10057778250251831,"79":0.07675565097346129,"80":0.09094916203834397,"81":0.20467310873319888,"82":0.06091926453956479,"83":-0.007264286180650642,"84":0.13954002000661436,"85":-0.03608498231443167,"86":0.25036072731159614,"87":0.19651052463716723,"88":0.22385137035551123,"89":0.1851450334254856,"90":0.16145752328207247,"91":-0.04939366484104419,"92":0.2211567207562355}},"36":{"bias":0.008565697983985505,"weights":{"0":0.37893742946796977,"1":0.23223269307449487,"2":0.07273945437658012,"3":-0.022684893937074437,"4":0.36117731362535,"5":0.3810648865233939,"6":0.09521279703390409,"7":0.3233542001614007,"8":-0.07982958876471727,"9":0.1763474070841172,"10":0.2391186141488947,"11":0.04873848744014706,"12":0.4040319563978357,"13":-0.07686562447255094,"14":0.23931052491582502,"15":0.15581045777184518,"16":0.11159959627248511,"17":-0.051278112217483095,"18":-0.2686879446191463,"19":-0.020395141832213713,"20":-0.014007168582795307,"21":-0.1393457588567709,"22":0.01901493771581332,"23":0.14904914358269325,"24":-0.08416362522568215,"25":-0.16560284278758475,"26":-0.24801599359950402,"27":-0.04118628479400833,"28":-0.3398445396337446,"29":-0.08946503072956347,"30":0.12573202203364917,"31":0.08725940376384492,"32":0.0826834977244461,"33":-0.019408974942347754,"34":-0.09687682150818812,"35":0.05532477822100981,"36":-0.05716341821595011,"37":-0.13074390913437695,"38":-0.10800671224537713,"39":-0.033514615013632565,"40":-0.012485738745145476,"41":-0.180338585505499,"42":-0.32939031711913475,"43":-0.0924344176287601,"44":-0.23675536799033156,"45":0.025645744024113487,"46":-0.010506432432676151,"47":-0.07364465346092386,"48":0.019926441182308102,"49":-0.025989768159433855,"50":-0.08140287387293035,"51":-0.1434124778222719,"52":-0.3154310533594462,"53":-0.13082029267520462,"54":0.027453876265868593,"55":0.10362464716667164,"56":0.10314374697840882,"57":0.06251526211398874,"58":-0.1062824312343385,"59":0.001365199742046629,"60":-0.06611481534091782,"61":0.14346727663044195,"62":-0.09527463430808276,"63":-0.07217350720311862,"64":0.020519128753588165,"65":0.14442431586345933,"66":-0.04888024317564179,"67":-0.1418132911856909,"68":0.1831739320348341,"69":-0.046284608382722046,"70":-0.18390877449077078,"71":0.0586709541360537,"72":0.016429950879351795,"73":0.0697116515469032,"74":-0.0935877712303157,"75":-0.17059675728045293,"76":-0.18149321828968346,"77":-0.17769299692203877,"78":-0.26184139654465227,"79":0.10102429092369203,"80":-0.12261443391896346,"81":-0.023555874413406293,"82":-0.15547840027056195,"83":-0.1995785127429007,"84":-0.18804595373118818,"85":-0.09124360147544082,"86":-0.014530139874458973,"87":0.08435163915138193,"88":-0.07062253867011417,"89":-0.13765338315305375,"90":-0.06383673189824118,"91":0.008396793794529692,"92":0.04909130016898603}},"37":{"bias":0.3264413329827989,"weights":{"0":-0.13811147048897557,"1":0.22780219369367968,"2":0.2004364580611102,"3":-0.12003422329837898,"4":0.0951397172913485,"5":0.07132463620111092,"6":0.14951587468296876,"7":0.23071794649345348,"8":-0.12563205026039254,"9":-0.3236535151531966,"10":0.1831519104373982,"11":-0.19699991917025855,"12":0.2607351854038094,"13":-0.11399791139871288,"14":-0.053997175249800744,"15":0.16949930387207565,"16":0.09844348125815001,"17":-0.1199526714354655,"18":-0.08185484841611655,"19":-0.06079386092191649,"20":0.13139474897111247,"21":-0.03482200410441083,"22":-0.08626523820513489,"23":-0.1334386053732953,"24":0.0903184690742387,"25":0.1781033749360534,"26":-0.2283493316521202,"27":0.04290641258974339,"28":-0.6726936526145348,"29":-0.15350208450452954,"30":0.14579585001382223,"31":-0.07325740894642084,"32":-0.060607532063298414,"33":-0.016816265228696874,"34":0.15312863996517673,"35":0.21083066574180737,"36":-0.019559259743459963,"37":0.22104322449078584,"38":0.2154169281782754,"39":0.2733688230726193,"40":0.009634678209453544,"41":-0.1369722896053543,"42":-0.17009110228110436,"43":-0.14187784186543514,"44":-0.24294315444330408,"45":-0.040997172575973975,"46":-0.19488187690025585,"47":-0.36997567608524196,"48":-0.37309434015209536,"49":-0.21646537530997503,"50":-0.018293790600057376,"51":-0.18595677010832037,"52":-0.08711993957279585,"53":0.21482702956027927,"54":0.16278878459664528,"55":0.2128176159192891,"56":-0.05090074232246471,"57":0.17323681478704894,"58":0.04183603132052486,"59":0.18806965617625435,"60":0.10364816261139528,"61":-0.0655668401740222,"62":-0.03170907928768038,"63":0.07309977508841223,"64":0.25303397728946814,"65":0.1484065322457832,"66":0.20421793316335213,"67":-0.09254537316517672,"68":0.1329103359876956,"69":-0.07203999798377805,"70":0.19726371747498678,"71":-0.04660455210247869,"72":0.01979666041807734,"73":0.13329228537647222,"74":-0.08382470557342883,"75":0.0027441002033448325,"76":0.04841934288706942,"77":-0.017271959277928243,"78":-0.1329840373798053,"79":-0.05177875685919833,"80":0.13397060912702155,"81":-0.27047568435349223,"82":-0.1192156791285723,"83":0.06660503972242199,"84":-0.040492390692153594,"85":-0.15677095668465887,"86":0.09841689402884897,"87":0.03857416818454982,"88":-0.002931392597392796,"89":-0.2575758325939122,"90":-0.25173656754518187,"91":-0.26861614560637453,"92":-0.1699518281198407}},"38":{"bias":0.13744689743142532,"weights":{"0":0.28818100930726787,"1":0.20403090198666485,"2":0.25297607178574155,"3":0.0779696467521875,"4":0.15438170396368345,"5":0.2859836730756467,"6":0.005159591854862057,"7":0.18229026327527778,"8":0.18051843054260033,"9":0.32155065422054196,"10":0.11949612717676068,"11":0.19774292734015556,"12":0.25464387705019526,"13":-0.000929944236980938,"14":-0.11792111023957053,"15":0.03481965233508971,"16":-0.04781979493225546,"17":0.15392761011818026,"18":-0.007948783818410635,"19":0.1927355048500805,"20":-0.16362077287879015,"21":-0.06597203813976105,"22":0.049264043183202,"23":0.025161928168281073,"24":0.14364831803891673,"25":-0.09587975195800637,"26":-0.08776064883670315,"27":-0.26359054599690934,"28":-0.24905173506082567,"29":0.10474657743867491,"30":-0.23451376155462406,"31":-0.3048050119694189,"32":-0.05895569580033509,"33":-0.1623373492080947,"34":-0.045065070678408314,"35":-0.11403670503233931,"36":-0.1625661887701138,"37":-0.2546356608540953,"38":0.006967399545372157,"39":-0.11284871103407577,"40":-0.17544035349315137,"41":-0.24930046844503262,"42":-0.021790456133809255,"43":0.06640156297760706,"44":-0.17974675469249118,"45":0.10432979059457691,"46":0.013429230698539893,"47":-0.21154611567023981,"48":-0.18640393976655945,"49":-0.004151069301431874,"50":0.04914810564151689,"51":0.08083783058175999,"52":-0.2914546142041161,"53":0.023770231247520507,"54":-0.2014421907018061,"55":0.04454840584100798,"56":-0.22617079665312131,"57":0.07810401155486274,"58":-0.032657308379542546,"59":0.02784024186988313,"60":0.05891656173758087,"61":0.1520335340247665,"62":0.11724206787595823,"63":0.020147717931666184,"64":-0.027179338518416807,"65":-0.0608158504547239,"66":0.10065946433269807,"67":0.18100342509480133,"68":0.10180361629054346,"69":-0.20973256282940944,"70":-0.21042421483628115,"71":-0.18123821691541736,"72":0.14787413279339318,"73":0.09423902522364036,"74":-0.0762547675907691,"75":0.19921078433824355,"76":-0.1317540354923418,"77":0.18626679172633834,"78":-0.14629823696400432,"79":-0.17665279148994092,"80":0.19743879176879628,"81":0.07335833087150041,"82":0.10391725513272373,"83":0.14076034195985382,"84":-0.12530217527183501,"85":-0.06064784105555419,"86":0.02665476755799154,"87":-0.14750010691500953,"88":0.0045672730213604015,"89":0.03105880740492899,"90":-0.053249481270279585,"91":-0.04547952191049894,"92":-0.02069138733269862}},"39":{"bias":-0.008998848726639223,"weights":{"0":0.301063007140834,"1":0.055734693933321276,"2":0.010737375666636127,"3":0.13586121832258494,"4":0.15383070436196133,"5":0.3032731844076961,"6":0.0776011676616548,"7":-0.0004042359586614494,"8":0.1376452855090831,"9":0.290055239147164,"10":0.21429541569259256,"11":0.031951263929933485,"12":0.21525498417523273,"13":0.02645901231172197,"14":0.17414802184381012,"15":0.19830766710289785,"16":0.1694394036648683,"17":0.20291722098909895,"18":-0.046565368270861336,"19":-0.15552484418867343,"20":-0.1305803576337805,"21":-0.14163457754789407,"22":0.020430771578680847,"23":-0.044760305252130365,"24":-0.06981164202199894,"25":-0.16182585025778756,"26":-0.17406113600945558,"27":-0.14031153965478094,"28":-0.08909802864032502,"29":-0.014766399928151075,"30":-0.15151690163551515,"31":-0.22065086939597703,"32":-0.0036832616156992136,"33":-0.16283820018415265,"34":0.022662152618719587,"35":-0.18015398581944528,"36":0.0700864945625313,"37":-0.04739696010207337,"38":-0.015232372414225379,"39":-0.10407621439647083,"40":-0.08946181468842486,"41":-0.19183826181502003,"42":-0.12901805239739758,"43":0.0009438817893748914,"44":0.10483515418637644,"45":0.11420771465287359,"46":-0.045239140647254934,"47":-0.20629575167208578,"48":0.005717602370264024,"49":0.04194517000165427,"50":-0.012700351112380345,"51":-0.06684742322326613,"52":-0.21516358651999284,"53":0.09022300590458945,"54":-0.10942332634421549,"55":-0.21491282623684765,"56":-0.11309395591892873,"57":-0.08814264302299399,"58":0.009448035069448963,"59":0.16589533301733614,"60":-0.14618188147496247,"61":0.039540282630855864,"62":0.1648112720735597,"63":0.11631207063607335,"64":0.001241904484544075,"65":0.10150525471494837,"66":-0.028727287386429854,"67":-0.11816026508473335,"68":0.09405866974027768,"69":0.13884641319979033,"70":-0.03285157046803053,"71":0.074655779569086,"72":-0.009778477744026227,"73":-0.1338505451274652,"74":-0.0419851794068675,"75":0.2190532812617468,"76":0.17745985521907737,"77":0.10380490059095053,"78":-0.07392046401836354,"79":0.2350003552710329,"80":-0.010081836518011372,"81":0.1780088644852201,"82":0.015662346266670617,"83":0.005853126996920629,"84":0.18473063952951976,"85":0.19158867842809665,"86":-0.012519520537503083,"87":0.18459733057263397,"88":0.08151857983737291,"89":0.022995557082335444,"90":-0.06492599167748592,"91":0.16052239324599296,"92":0.019782666207759397}},"40":{"bias":0.12491962458831819,"weights":{"0":0.15208952068925605,"1":-0.01970575990337722,"2":-0.07119809930887369,"3":0.0687969450522593,"4":0.027578869891347203,"5":-0.10303259293309598,"6":-0.1037501110558412,"7":-0.15236113695220416,"8":0.11885232812406576,"9":-0.03231581796967835,"10":0.09962067417889536,"11":-0.002026883121988562,"12":0.016029168846912464,"13":0.007529732802959639,"14":-0.17372539005197216,"15":-0.06430209086914117,"16":-0.044942072288684805,"17":0.02845393506718788,"18":-0.04874118552727547,"19":-0.16937178195234717,"20":0.031097232040479365,"21":0.11317100836536938,"22":-0.13924924318247783,"23":-0.10879899544007078,"24":-0.12287584592940638,"25":0.011852713634666735,"26":0.13425951793785137,"27":0.2079827269447467,"28":-0.06535317216809595,"29":-0.1842100918296845,"30":0.12980267724764222,"31":0.11289559222883119,"32":-0.06845200742787276,"33":-0.060986616172048674,"34":-0.13740763038598114,"35":-0.07008493477381708,"36":-0.168370547550309,"37":0.0246704257234987,"38":-0.07084039103155154,"39":0.22562698540413093,"40":-0.04413814351183222,"41":-0.12393528385897101,"42":0.11692924647896877,"43":-0.10448508233955582,"44":0.10587459828683375,"45":-0.04244715535464192,"46":-0.06674462947081489,"47":-0.08956325641291163,"48":-0.2251711553638692,"49":0.13122813178467804,"50":-0.018736270225879436,"51":-0.0017080001221220454,"52":-0.22521622906200306,"53":-0.08674078720662988,"54":-0.0006435409875343915,"55":-0.13146949528808805,"56":0.013793875712427565,"57":-0.04182473701168526,"58":-0.13187969743706818,"59":0.20928143281536865,"60":0.15443933083095582,"61":0.19450375149072055,"62":-0.1436947659258385,"63":0.007065488586218874,"64":0.21359694977680124,"65":-0.13808232598076017,"66":0.11235479519040067,"67":0.12988143762476304,"68":-0.03975821450625983,"69":-0.0019708161450251683,"70":-0.008805172857516514,"71":-0.08090098906587022,"72":-0.12097083515153546,"73":0.12065579427493263,"74":-0.055732066036210996,"75":0.14775333855181425,"76":-0.027605112631382878,"77":0.10422415337709755,"78":-0.04028325350361791,"79":-0.04620735077359612,"80":-0.11768300529012111,"81":-0.1470471917679184,"82":0.052687215539347944,"83":-0.0107527243414924,"84":-0.1415222895783797,"85":0.03525738749018768,"86":-0.020786952238387002,"87":0.06228432687409849,"88":0.1521911016117627,"89":0.0657904392743539,"90":0.14694897088094444,"91":-0.13391866751779968,"92":0.09071399937789942}},"41":{"bias":0.03957331551138114,"weights":{"0":0.37457686702173604,"1":0.030754992068952738,"2":-0.006347808782896292,"3":0.09547081262947155,"4":0.2725552909542979,"5":0.3253879093527842,"6":-0.08064667813830745,"7":0.08281649332343044,"8":-0.1184413660889743,"9":0.06717111960933903,"10":0.2583946898986598,"11":0.0723736674466261,"12":0.037763706386998115,"13":-0.05700493427250255,"14":0.15043963595300897,"15":-0.08388596125708073,"16":0.05510469392913701,"17":0.2052120014169031,"18":-0.0602026557871042,"19":0.00795004206417015,"20":0.08033724766563438,"21":0.13606368703224064,"22":0.06592760127661225,