{"layers":[{"0":{},"1":{},"2":{},"3":{},"4":{},"5":{},"6":{},"7":{},"8":{},"9":{},"10":{},"11":{},"12":{},"13":{},"14":{},"15":{},"16":{},"17":{},"18":{},"19":{},"20":{},"21":{},"22":{},"23":{},"24":{},"25":{},"26":{},"27":{},"28":{},"29":{},"30":{},"31":{},"32":{},"33":{},"34":{},"35":{},"36":{},"37":{},"38":{},"39":{},"40":{},"41":{},"42":{},"43":{},"44":{},"45":{},"46":{},"47":{},"48":{},"49":{},"50":{},"51":{},"52":{},"53":{},"54":{},"55":{},"56":{},"57":{},"58":{},"59":{},"60":{},"61":{},"62":{},"63":{},"64":{},"65":{},"66":{},"67":{},"68":{},"69":{},"70":{},"71":{},"72":{},"73":{},"74":{},"75":{},"76":{},"77":{},"78":{},"79":{},"80":{},"81":{},"82":{},"83":{},"84":{},"85":{},"86":{},"87":{},"88":{},"89":{},"90":{},"91":{},"92":{},"93":{},"94":{},"95":{},"96":{},"97":{},"98":{},"99":{},"100":{},"101":{},"102":{},"103":{},"104":{},"105":{},"106":{},"107":{},"108":{},"109":{},"110":{},"111":{},"112":{},"113":{},"114":{},"115":{},"116":{},"117":{},"118":{},"119":{},"120":{},"121":{},"122":{},"123":{},"124":{},"125":{},"126":{},"127":{},"128":{},"129":{},"130":{},"131":{},"132":{},"133":{},"134":{},"135":{},"136":{},"137":{},"138":{},"139":{},"140":{},"141":{}},{"0":{"bias":-0.12161773426647034,"weights":{"0":0.2832220452435334,"1":0.14433991113921726,"2":-0.062069279109952205,"3":0.11458237126725315,"4":0.20531739116397157,"5":0.17921280417311575,"6":0.06941512950336166,"7":0.0009596377731808005,"8":0.026812976842653425,"9":0.057050689115510186,"10":-0.07424319926195236,"11":0.0348834086986599,"12":0.05470428910052525,"13":0.040453925155927675,"14":0.2228735346032312,"15":0.0901103803850665,"16":-0.08865388660764681,"17":0.11577744467102172,"18":0.028399652446611266,"19":-0.14387833952063733,"20":0.00725587790630862,"21":0.1497474414765819,"22":-0.15888364285664994,"23":-0.12551370705089382,"24":-0.11635215430182928,"25":0.0023046042152727233,"26":-0.0982897403134635,"27":-0.11663159496463454,"28":0.0034390844326295175,"29":0.1816986267169371,"30":0.16634025813433578,"31":0.2332023005007784,"32":0.22666939951574033,"33":0.016214448807030764,"34":0.12592760966928673,"35":0.1265945022400345,"36":-0.01944593026921882,"37":-0.147433065534326,"38":0.0891783095314006,"39":-0.14604905302716242,"40":-0.14507178316020597,"41":0.15216350325557224,"42":-0.02379536699116432,"43":0.17080378115114142,"44":-0.24803256891068054,"45":-0.23539508151727098,"46":0.07368228292106627,"47":-0.009252167908239373,"48":0.06613722967043101,"49":0.01629699516221342,"50":-0.13451550142881674,"51":-0.04702256153465265,"52":0.08826106602208855,"53":-0.14001759904236055,"54":-0.05673280699927956,"55":0.0008460947921014615,"56":-0.03496090746804855,"57":-0.1133832946348057,"58":-0.07027827925780747,"59":-0.014732369638334322,"60":-0.07995231846062184,"61":0.11716796516885195,"62":-0.11965316245482117,"63":-0.1244157347738326,"64":-0.19862907970189536,"65":0.06629659691010238,"66":0.011361666970301524,"67":-0.16333079050660207,"68":-0.04765882321743158,"69":-0.22978950373618554,"70":-0.09094006658793015,"71":0.036166477627773315,"72":-0.12266648266282162,"73":-0.15379538357762879,"74":0.04724499822674637,"75":-0.1498694861204197,"76":-0.020197223551265627,"77":-0.19908053713248255,"78":0.00697199739511332,"79":-0.15376832570493473,"80":0.07642799603722832,"81":0.14538118878809642,"82":-0.1357913764274345,"83":-0.16485762168203988,"84":-0.026176269415645517,"85":0.01329951970327287,"86":-0.09205783274130813,"87":0.0624316945123897,"88":-0.1070378675844142,"89":0.14860451537831332,"90":0.13165061344924434,"91":-0.07515127487967659,"92":-0.018669158681171978,"93":-0.040235562336818416,"94":-0.09246840478393288,"95":0.16793243999683616,"96":-0.029101916718734626,"97":0.105653384581594,"98":-0.13151677805311757,"99":0.03211248441836705,"100":-0.11629246319989041,"101":-0.11027772682325235,"102":0.13298244737758053,"103":-0.039113264335366625,"104":-0.12113866827735222,"105":0.13471137495719554,"106":0.14166694317773965,"107":0.06274112126983981,"108":-0.14369254103685286,"109":-0.08202531237527023,"110":-0.12335843667096884,"111":-0.27824964832624555,"112":0.08630430394831645,"113":-0.20348627034460032,"114":-0.13274543477659903,"115":-0.07554205651760174,"116":0.11474241693596472,"117":-0.11323279707793787,"118":0.12880778166390713,"119":0.17193485615264995,"120":0.027941223778085698,"121":-0.0784932358879995,"122":-0.08448773096078901,"123":0.025762980843089946,"124":0.08444084289703144,"125":-0.1462486153141322,"126":-0.2094284818422382,"127":-0.01630276744660872,"128":0.012850102651590551,"129":0.03259566102883276,"130":-0.13172002324175208,"131":-0.029328209270299728,"132":-0.16876877110442878,"133":-0.09564712636904296,"134":0.08821957484434531,"135":-0.1123300096283916,"136":-0.07953733222673966,"137":0.18082972307446982,"138":-0.14705485971588267,"139":0.0869855869145902,"140":0.157023274097995,"141":0.05339455872481222}},"1":{"bias":-0.10680953252925926,"weights":{"0":0.09412680105088621,"1":0.01772277842602739,"2":0.05682574766196081,"3":0.11785941689739213,"4":0.14832867322921334,"5":-0.12497643075942913,"6":-0.1993650812279012,"7":0.011584888490975814,"8":-0.09227526274623377,"9":0.18153649379208275,"10":-0.1382964391629126,"11":-0.11779749339207167,"12":-0.024811075247943598,"13":0.1230883041241818,"14":0.09735778878014377,"15":0.11058893232113536,"16":0.01245860495663127,"17":0.13762295341800548,"18":-0.1550815910518115,"19":0.13494000582595952,"20":-0.06896376592417806,"21":0.05790989469465502,"22":0.17399110590297515,"23":-0.08693361402117707,"24":-0.1515900238997521,"25":0.0170634170702463,"26":-0.14193516335659526,"27":-0.10127248857398019,"28":-0.1474763171552934,"29":0.11453271566343126,"30":-0.024236807380361887,"31":0.10331959081869063,"32":0.08871166866895502,"33":0.12446775511760749,"34":-0.08505057990601025,"35":-0.1782958708018762,"36":-0.04093924240681303,"37":-0.02577215031267497,"38":0.19557514254520433,"39":0.024974108198514953,"40":0.06425341511949684,"41":-0.09502279609870827,"42":-0.12180674507054476,"43":-0.08542374323100867,"44":0.13464209918461922,"45":-0.0451642062005694,"46":0.05368752602533198,"47":-0.11350617778586397,"48":-0.18104398820657447,"49":-0.05478895361025387,"50":0.19168481657908218,"51":-0.13073187583831047,"52":-0.08310375682676374,"53":0.03416653320394207,"54":-0.18193554409985993,"55":0.1690008823869336,"56":-0.1133059653446877,"57":0.0028274144403434157,"58":0.1946074062508086,"59":-0.010389380673010824,"60":-0.05331745007626675,"61":-0.07568498971687407,"62":-0.07797590259264969,"63":0.05919512905575062,"64":-0.12697330843941676,"65":0.07907918801607555,"66":0.028497869266769848,"67":0.08853533808973696,"68":0.048912599754314744,"69":-0.12262196408430215,"70":0.1350777064931259,"71":-0.03222482834775035,"72":0.09069407777513065,"73":0.1080835875152015,"74":0.19350695611285984,"75":0.13364791700507667,"76":0.19501826481282603,"77":-0.14450070433937243,"78":-0.0748817434076561,"79":-0.18749981027943752,"80":-0.1434307979177327,"81":0.16305145541093408,"82":0.037824553510910346,"83":0.042357190942080174,"84":0.07722560567145509,"85":-0.07882828167169749,"86":0.048943838108601305,"87":0.11379781345913026,"88":-0.1547485460691084,"89":0.020520722543104712,"90":-0.1266589690888033,"91":0.03359101420029294,"92":0.1305793479188082,"93":0.012470199037542295,"94":-0.05928892889963964,"95":0.14090512245981263,"96":0.2022801975781231,"97":-0.1071800410028341,"98":0.058331863440327474,"99":-0.1401293513463745,"100":0.0404236739790531,"101":-0.14580839227832948,"102":0.12854337230753993,"103":0.16592018744883485,"104":-0.09937897969262476,"105":-0.024899022952044332,"106":-0.0618271153570837,"107":0.13022825632803153,"108":-0.190745207486184,"109":-0.06181062063755728,"110":-0.16071898898276057,"111":0.16962570833273902,"112":0.0283510238307607,"113":0.1294966851071641,"114":-0.0657264073681105,"115":-0.14659667437168503,"116":-0.1645273670838822,"117":0.05367458384741918,"118":0.17221159294332872,"119":-0.06445359091758557,"120":-0.10570966080274223,"121":0.12947301713972081,"122":-0.09434310634694214,"123":0.18984582538973133,"124":-0.07521216029013796,"125":0.1240335079951074,"126":-0.1302820742419541,"127":-0.0546341161495381,"128":-0.032076154007048566,"129":-0.07817879992274793,"130":0.17957673514507788,"131":-0.17932059873607267,"132":-0.051651630165533854,"133":-0.09263376758591406,"134":0.16091041726597177,"135":0.08777766139772672,"136":-0.05724377452256461,"137":0.13173055471818654,"138":-0.12692530338182265,"139":-0.07948482311308576,"140":0.14850832251481896,"141":0.15226057676462443}},"2":{"bias":0.042471348757805484,"weights":{"0":-0.16729867838628182,"1":0.05954613790377633,"2":-0.015623920919555159,"3":0.04937879213022989,"4":0.05239533745372413,"5":0.17052915814720532,"6":-0.12243324844885457,"7":0.14329439026959195,"8":-0.1797571940774834,"9":-0.04291091176200699,"10":-0.024166062267795003,"11":-0.005581673609096271,"12":0.006978314539012109,"13":-0.017799661191928738,"14":-0.09582923919048965,"15":0.11546399968027564,"16":0.003045587287539823,"17":-0.0606153403910116,"18":-0.09763793333645289,"19":0.00968439366579881,"20":0.0661241580800193,"21":-0.0060986099953399455,"22":0.08229874163833749,"23":0.13068718347342786,"24":-0.1919515899995991,"25":0.06898788573919155,"26":0.21234948423725772,"27":-0.01729273966528542,"28":-0.012135031790776026,"29":-0.15457429911686713,"30":-0.03388022686208158,"31":0.07469109878228951,"32":-0.0131242067965218,"33":0.12037430436081631,"34":0.0648970574691493,"35":-0.017970277137845783,"36":-0.16783762741782168,"37":-0.06642644268751517,"38":-0.12763356492245162,"39":-0.15837133770141112,"40":0.06533925965344221,"41":-0.01591729666359347,"42":-0.1383431616792846,"43":0.1702396602444138,"44":-0.2513157151762698,"45":-0.08998940487850852,"46":0.0726236312826896,"47":-0.06219373631713846,"48":-0.061477598116136074,"49":-0.007348284695987636,"50":-0.08870131283718029,"51":-0.11136808051395305,"52":-0.1990771624670925,"53":-0.08281811306552606,"54":0.14211840078686858,"55":0.05284630594868787,"56":-0.13632682336847396,"57":0.13884368383198747,"58":0.15904832338065283,"59":-0.08870138100651669,"60":0.10659480800345687,"61":0.0675689686271531,"62":-0.08552207155010923,"63":0.005576312947694069,"64":-0.012435433096677826,"65":-0.18064185566433974,"66":0.15693074960900968,"67":-0.07962663044685007,"68":-0.1750147252337172,"69":-0.027100051170240554,"70":0.13820077549299795,"71":-0.14654804587388162,"72":0.06691224713655347,"73":0.055604428062560246,"74":-0.22161021712850856,"75":-0.02738181286778681,"76":-0.1427819154745229,"77":-0.13750222332514875,"78":-0.026215015392351954,"79":0.08908491469440556,"80":-0.001886099258385701,"81":-0.09007413433527962,"82":0.1459800489802318,"83":-0.03613293791632852,"84":-0.1855341141198552,"85":-0.19684058877507674,"86":-0.1757671856346279,"87":0.169018800927755,"88":0.14170232032657804,"89":-0.029178068932066273,"90":0.07144488878106851,"91":-0.0036560869052744095,"92":0.11693911778789016,"93":-0.09097781369124355,"94":0.1838951372017627,"95":-0.08422716076752794,"96":-0.11860375789377217,"97":0.13073177896533594,"98":0.04277277206316815,"99":-0.06150858483113622,"100":-0.06778283560030414,"101":-0.10210400699098424,"102":0.07687572727641283,"103":0.18748410283573705,"104":0.0643535462855717,"105":0.04358130582427719,"106":-0.008586609780426965,"107":-0.18273258902387118,"108":-0.025220207324793256,"109":0.08949573866701109,"110":-0.16228658581068772,"111":0.23146654521454718,"112":0.1671125811153064,"113":-0.0564007945517363,"114":0.1743292992292505,"115":0.14102683822772916,"116":0.04440271963863283,"117":-0.11418283697209387,"118":0.1657249921018496,"119":0.19070761905351585,"120":-0.11443555632785127,"121":-0.14571789732717605,"122":0.13832755774244743,"123":0.1874613292792949,"124":0.1380338887398313,"125":0.0718124422975806,"126":0.07260072264060702,"127":-0.0699179281261483,"128":-0.026764628330859415,"129":-0.1757612965406022,"130":0.09781543844253882,"131":-0.004860139496948928,"132":-0.11764979864001415,"133":-0.006181425378159454,"134":0.19527089581768783,"135":0.03601289357090663,"136":0.14776114221242515,"137":-0.1318315534762736,"138":-0.05118326244954991,"139":0.0902021149048931,"140":0.06188817949334835,"141":0.0439261031952963}},"3":{"bias":-0.09372727015069846,"weights":{"0":-0.032116489669735224,"1":0.012006638017992968,"2":0.10334738033920304,"3":0.027978611849746135,"4":-0.13315996163010319,"5":0.146401650301929,"6":-0.10070572558675026,"7":-0.1828411933140416,"8":-0.09328062377259932,"9":0.1521214473968957,"10":-0.15664542367919837,"11":0.1502598974804052,"12":0.16695961535595238,"13":-0.08599021639125512,"14":0.05802266864957407,"15":0.07867596539239771,"16":-0.16615928115845907,"17":0.04243354765428343,"18":-0.15203281966402699,"19":-0.1431141458328297,"20":0.08450081461944411,"21":-0.16619998221977386,"22":0.0207574565390539,"23":0.20397754279789518,"24":-0.08249770135979329,"25":0.0007524424032813083,"26":0.07595364017029964,"27":-0.0792708471387323,"28":0.027581998826074434,"29":-0.035543948740367606,"30":-0.03249630555385209,"31":-0.17170297747797286,"32":0.017426479317599122,"33":-0.2105997144376796,"34":-0.0946498424809074,"35":-0.10044304919193905,"36":0.17728673004463522,"37":-0.12597469620619464,"38":0.06314747161335228,"39":0.08132298081212577,"40":-0.10132247435687043,"41":0.15116607819484698,"42":-0.14317302051892444,"43":0.010666746664893246,"44":-0.10416857481103532,"45":-0.00998038674977882,"46":0.136081528866801,"47":0.16488999454465933,"48":-0.04600788459385025,"49":-0.02515706442069341,"50":-0.11578836881508135,"51":0.07613880139263428,"52":-0.19938217602551198,"53":0.128697747447268,"54":-0.05678091028390696,"55":-0.1820658815573597,"56":0.02061139266002049,"57":-0.16510325139638074,"58":0.18611287032876958,"59":0.11953560279339806,"60":0.16042282019434104,"61":0.14992102978558156,"62":0.18644932263648412,"63":-0.11420126604954868,"64":0.06577662451287554,"65":-0.20730062792004103,"66":0.05681029569311624,"67":-0.1307175389910805,"68":0.16058982983676476,"69":-0.0396319975098947,"70":0.12030675630555063,"71":0.11163627100265948,"72":0.027340001611073788,"73":0.02752490054239325,"74":-0.05221960497772726,"75":-0.185310385450509,"76":0.10968430587451639,"77":0.00905450330250627,"78":-0.18911079316176652,"79":0.07527642761249097,"80":0.018894760915289414,"81":-0.1515696354553993,"82":-0.012467452241922045,"83":-0.05314317868654138,"84":-0.007997303635972208,"85":0.07575712851981678,"86":0.06859532947471833,"87":-0.1124837412801112,"88":-0.05247887184090687,"89":-0.1503560196490963,"90":0.06646657235312955,"91":-0.16919631392175913,"92":-0.13728866830447542,"93":-0.022342106416967152,"94":-0.011518167149727605,"95":-0.003017223835037872,"96":-0.03173602639788097,"97":-0.15011197750452268,"98":-0.13815649676479266,"99":0.06304976200867188,"100":0.03566697422602948,"101":-0.17560632770694642,"102":-0.08725080828898532,"103":0.1250001354440463,"104":-0.1658120547941714,"105":-0.14945565011881184,"106":0.13781966857772923,"107":-0.0006631144009683765,"108":0.1222056646630316,"109":0.19337360570269205,"110":0.07917740608999926,"111":0.24821977099857948,"112":0.12908798233855975,"113":0.1401939665082078,"114":-0.07464805143153085,"115":0.1821928435002264,"116":0.19764876706681006,"117":-0.1750888982184219,"118":0.030454452815697565,"119":0.02665432530860643,"120":0.14588730193784086,"121":0.11829864198043867,"122":0.03263133602636996,"123":0.15414559171566794,"124":0.11848390287567818,"125":-0.08001489852993109,"126":-0.1752130134024443,"127":0.17054239022101655,"128":-0.1237766488454109,"129":0.15858676131125332,"130":0.2018684672173034,"131":0.05061651945200866,"132":-0.02401565846470452,"133":0.16569709999501342,"134":0.06069030589112332,"135":-0.11791473931310448,"136":0.15986915711023214,"137":-0.11195416915456603,"138":0.03581479374576511,"139":0.140780584804914,"140":-0.04068355375418942,"141":0.028598567468772165}},"4":{"bias":-0.1825614927520937,"weights":{"0":0.2704556751329665,"1":-0.035530793999314844,"2":-0.13354785748806253,"3":0.1999053087625534,"4":0.01607390125927903,"5":0.12274287250150269,"6":0.08168872656443507,"7":0.1055845426828128,"8":0.09512871676216184,"9":0.006747995947072027,"10":-0.16750148843231638,"11":0.04385835598089529,"12":0.21451629961498386,"13":-0.00034117747246193184,"14":-0.038989868793402126,"15":0.1812554379947226,"16":-0.12072068470911285,"17":0.06807522670150203,"18":-0.1692378750870411,"19":0.15334752309055044,"20":0.16081385048079566,"21":0.03467457524464853,"22":0.1638558041781515,"23":-0.10079495273935467,"24":-0.012567624611398443,"25":-0.07284981150047513,"26":0.11991975055719083,"27":-0.18745419656171206,"28":-0.12810160553779124,"29":-0.15556149868278615,"30":-0.14967061937433526,"31":-0.1409633780049604,"32":0.2211913053516989,"33":0.0556632933326353,"34":0.12033821003333776,"35":-0.1589908246977154,"36":0.17222600773931546,"37":0.19239600593377276,"38":0.027068766515884902,"39":0.022114032306623597,"40":-0.0003900368462598461,"41":-0.13085296402298985,"42":0.15233530402997988,"43":0.20664916055598587,"44":-0.10309311646573073,"45":-0.10113816466998564,"46":-0.12610692896192896,"47":0.0934515804183777,"48":0.037019385154104155,"49":0.07926662415860158,"50":0.11789352757354796,"51":0.023994778907507786,"52":-0.10016283697288975,"53":-0.11387211980025544,"54":-0.14792609908565668,"55":0.1796116697177895,"56":-0.15350273820877766,"57":0.1376896234190196,"58":0.06321395591295592,"59":0.04115966019254221,"60":-0.1654661211545594,"61":0.14412527746643763,"62":-0.22016358793623642,"63":-0.07951829678887065,"64":0.07139573085841,"65":-0.07386314804334829,"66":-0.02268801147086251,"67":-0.040092000494251864,"68":0.018571819150852518,"69":-0.2410980723571129,"70":-0.18078952680964241,"71":0.0013685698710721337,"72":0.08951084763177586,"73":-0.024866679924100434,"74":0.038077425316203485,"75":-0.13493678158733807,"76":-0.13342156342581565,"77":-0.1830302506845731,"78":-0.13739371829119096,"79":0.05732225760191763,"80":0.08728232119565427,"81":0.11998478956852758,"82":0.11198813547112062,"83":0.17270778128516195,"84":0.13476648455455764,"85":-0.04209245855421306,"86":0.17976012779913753,"87":-0.08878708309289321,"88":-0.07778426600563121,"89":-0.0029300109225609745,"90":-0.04749439201476021,"91":-0.04676336649094475,"92":-0.16481104849027617,"93":-0.17587859462907435,"94":-0.18294964795178476,"95":0.1576012482841998,"96":0.026952024818734304,"97":-0.035182358657603705,"98":0.13283966364700434,"99":-0.016618353121054034,"100":0.1624356914512638,"101":-0.1246499995413166,"102":0.020566290782019808,"103":-0.11209819765844277,"104":0.05215061380275166,"105":0.1436970735264838,"106":0.029584128212779722,"107":-0.19330095007191164,"108":-0.21036957568443732,"109":-0.013244857071168655,"110":0.11419569984185667,"111":-0.062484398392218976,"112":0.04334180247691036,"113":0.11182085251065205,"114":-0.17356436977018844,"115":-0.15613711912265177,"116":0.0902222232177831,"117":0.11947191306691404,"118":0.1270155919865237,"119":0.08853464731378884,"120":-0.1725765488561829,"121":-0.17301608043197614,"122":0.10392369392093062,"123":-0.10468964574973519,"124":-0.08893927398391913,"125":-0.07378145281382686,"126":-0.06091486037658301,"127":-0.012164354789588046,"128":0.02118766920708644,"129":0.026634910650139728,"130":0.17289028179678295,"131":0.033719723048715025,"132":0.021646546477032614,"133":0.06186939483603198,"134":0.03647973892541999,"135":0.1852932514536917,"136":-0.025836887263849813,"137":-0.061858488518730013,"138":0.11196185298150363,"139":-0.177685558923695,"140":-0.1346939328752553,"141":-0.01875935720349825}},"5":{"bias":0.05394792477993568,"weights":{"0":0.20842919883190156,"1":0.17212470072192584,"2":0.13251304240373504,"3":-0.06520933519589439,"4":0.08872029557018361,"5":0.14211719675231857,"6":-0.07632061443866861,"7":-0.12320215243571803,"8":-0.03843708825658799,"9":0.2107167033378089,"10":0.1678007103399442,"11":-0.03743911702566776,"12":0.08237323131747509,"13":-0.12659293999340068,"14":-0.09177534554935508,"15":0.07366682246046256,"16":-0.08541747833775012,"17":-0.15227622079222708,"18":0.009978454462206516,"19":-0.08710594595883735,"20":0.04802784526389753,"21":-0.03926497768599982,"22":0.1938913057609608,"23":0.030889198741056195,"24":-0.053160350824732264,"25":0.18528844838840305,"26":0.09577985300382584,"27":-0.20356973566810369,"28":0.043861277657198564,"29":0.11896551623866951,"30":-0.017226187138216723,"31":0.1425237415451738,"32":-0.12424499200757806,"33":-0.15737733112847133,"34":-0.0701134169596186,"35":0.19030316743174905,"36":0.046607219424453394,"37":0.11338030250274804,"38":-0.07350127959076082,"39":-0.09492205496658813,"40":0.08873758844010955,"41":-0.12392363589191595,"42":-0.10691070478366081,"43":0.21529541910467212,"44":-0.11914891757719093,"45":-0.20182445764854048,"46":-0.03111414542936604,"47":0.14193356974914256,"48":-0.14578917011139159,"49":-0.060870966100640383,"50":-0.11430815645126147,"51":0.0013250974347815514,"52":-0.03646536531786359,"53":-0.12707120194005236,"54":-0.08735007168411385,"55":0.06593283552149375,"56":-0.08024645008572139,"57":0.03427082249862898,"58":0.13545344501666595,"59":-0.1211994168905601,"60":-0.0339851225546904,"61":-0.11360038681000872,"62":-0.044114893178802496,"63":-0.07890537669431531,"64":0.11672949343189024,"65":0.10184207906501931,"66":0.09680089207341687,"67":0.09680267153207325,"68":-0.011915463568107802,"69":-0.27041651936212485,"70":-0.06914912011374956,"71":-0.15899471803579981,"72":-0.18723145782405975,"73":-0.20645408062335216,"74":0.04552622595010745,"75":-0.25597361302096455,"76":-0.2413750451671985,"77":-0.08863684313443539,"78":0.027374405428172117,"79":-0.17461704814988355,"80":-0.12166810506903278,"81":-0.1713518594720304,"82":-0.0029788844373939303,"83":-0.08078116946506303,"84":0.13896576135519345,"85":-0.09885433215309664,"86":0.10591490793065489,"87":-0.21484499667217796,"88":0.003299126779928706,"89":0.1594559087998677,"90":-0.029447015498935494,"91":0.028974587142039564,"92":0.1284059492296309,"93":-0.18880476658190973,"94":-0.1371595312016556,"95":-0.20686930816868473,"96":-0.07968041044018709,"97":0.12957085907642762,"98":0.03967844516261446,"99":0.008595530175652339,"100":0.023132961116201677,"101":-0.1647317402680369,"102":0.15602567182355243,"103":0.04007679139374586,"104":0.058793453164415956,"105":0.03122423978043255,"106":-0.20254567607850735,"107":-0.09076447212264788,"108":-0.08222505027525812,"109":0.02153693314708587,"110":-0.08744220789924845,"111":0.24937465253648328,"112":-0.0950196508090925,"113":0.07795949373184,"114":0.1610244946834765,"115":0.19426191699883535,"116":0.16900473320734885,"117":0.15763534995379966,"118":0.039745191963911665,"119":-0.17357305022310796,"120":-0.10546848997599138,"121":0.13301151282274462,"122":0.008364953642011095,"123":-0.1368767041684153,"124":0.12401338804155555,"125":0.16764643916190397,"126":0.10488644939549327,"127":0.056721644384532886,"128":-0.1621521367615738,"129":0.20602380751197874,"130":-0.11695281703011476,"131":0.0838318106939835,"132":-0.07602133126073583,"133":-0.06608003557911356,"134":-0.08414892522970459,"135":-0.1719619349928159,"136":0.11341934212016792,"137":0.026569710376507145,"138":-0.018842425544607643,"139":0.19858279008775043,"140":0.052860926019241014,"141":0.05660901236935008}},"6":{"bias":0.06605447869761796,"weights":{"0":-0.07496826348567787,"1":-0.07859124188904125,"2":-0.04185496993733007,"3":0.21503818901247096,"4":0.08660326691999609,"5":0.10919302718376359,"6":0.08556074105291442,"7":0.15399651977449225,"8":0.008110696616700257,"9":0.1414300611063234,"10":-0.16574387914639216,"11":0.13712456443426266,"12":0.09205158555460319,"13":-0.09777653888477651,"14":-0.07799164216615136,"15":0.1347870459080001,"16":-0.13367566500119346,"17":0.018579734269315792,"18":0.1812617987471121,"19":0.1276313475863779,"20":-0.047594518923413744,"21":0.03276784289664238,"22":-0.16422308838428967,"23":0.15797870744041376,"24":-0.038423181923662626,"25":-0.05117717456767983,"26":-0.09997983643668762,"27":-0.18273179114652835,"28":-0.056420744752918355,"29":0.08026716037759722,"30":-0.012783631894865146,"31":-0.061233124088168576,"32":-0.1199337890229695,"33":-0.08170840140430516,"34":-0.11903100716609577,"35":0.17862595256241076,"36":-0.10367024612899019,"37":-0.03696597484315351,"38":-0.10854000481314119,"39":0.008593864277241556,"40":0.13928424922128768,"41":0.16724954752039906,"42":0.16223967639523357,"43":-0.04155810845336778,"44":0.10699832395010722,"45":0.07372331490806511,"46":-0.0348271544104044,"47":0.08460311784851832,"48":-0.09114794430470077,"49":-0.16531336840132135,"50":-0.10375496783554156,"51":-0.20823721692763886,"52":0.0709033505916849,"53":-0.13488382979417574,"54":-0.2285642072464961,"55":0.1688179350463838,"56":0.15422587723045925,"57":0.1824185422749567,"58":0.1476300324436868,"59":-0.1585146056028594,"60":-0.11481041590035543,"61":-0.07575295811245875,"62":-0.11121354911498277,"63":-0.11403907514231379,"64":0.11669519925924077,"65":-0.14117406300526436,"66":-0.1961393356674575,"67":0.05981163408522133,"68":0.14745347621270208,"69":-0.14248353654734217,"70":0.08441138788290396,"71":-0.11174109479002915,"72":-0.18245309882177102,"73":-0.07916895730159404,"74":-0.024625737266047908,"75":-0.13386251419069414,"76":0.11240448226079632,"77":-0.04454677172701033,"78":-0.22191672220378827,"79":0.025131398111333088,"80":-0.16363141149197483,"81":-0.18267747141919194,"82":0.1830469205109236,"83":0.17952275364980705,"84":0.07388502639033839,"85":-0.14810323122774377,"86":-0.03213696154278055,"87":0.07841837303562749,"88":0.13090742253423396,"89":0.14682787974221204,"90":-0.07991152897025325,"91":0.13859107457810368,"92":0.08990434887645543,"93":-0.09797751231622358,"94":-0.04622191472733203,"95":-0.10231479641397916,"96":-0.11585241758651993,"97":-0.16785252318189806,"98":0.007338409300699281,"99":0.127022908626489,"100":0.14231903524950332,"101":0.13154460231409953,"102":-0.08808244901326262,"103":0.08373491546591982,"104":-0.13280853966394654,"105":0.03255091912383132,"106":0.16358840891800083,"107":0.13978483916162174,"108":0.08254903806968122,"109":0.1713239156727571,"110":-0.020740488435530374,"111":0.0031310267177164573,"112":-0.03551778739167361,"113":0.16776392343535435,"114":-0.12120066404233246,"115":0.03833950889083158,"116":0.03953611033787123,"117":-0.09395326211249236,"118":0.13878458923782422,"119":0.07799995819072543,"120":0.12210693296853004,"121":-0.016320614937256738,"122":-0.024304256179926736,"123":-0.03778925245903757,"124":-0.12692254940515119,"125":0.15110767129380753,"126":-0.038827924775170365,"127":0.17883849927074913,"128":-0.07753301836811329,"129":0.013190516883530614,"130":0.011488952988812492,"131":-0.2028013382261547,"132":-0.005118916677896043,"133":-0.15515237346568822,"134":-0.13529606023359836,"135":-0.1764282504122781,"136":0.06792556390883636,"137":-0.09879161225366474,"138":0.0772318124852947,"139":0.14770134910009264,"140":0.011801338473415919,"141":-0.1674425338809914}},"7":{"bias":-0.06453537898401221,"weights":{"0":0.053949137139906865,"1":0.21249565861178363,"2":0.14998368208683124,"3":0.1190656746724519,"4":0.14239657653281262,"5":0.13040710652617116,"6":0.18481815620752992,"7":0.039579964312374344,"8":-0.12140324136809233,"9":0.07522988487176845,"10":-0.04474969209372173,"11":-0.09076823381194715,"12":0.19885924787246417,"13":0.05073942313516261,"14":0.07289068181043647,"15":0.20491749339976367,"16":-0.04311063441482291,"17":0.09159294379839886,"18":0.19364524840047592,"19":0.11731791789593407,"20":-0.1402949470651108,"21":-0.11172894033301023,"22":0.09326280689010494,"23":-0.02473552247877285,"24":-0.08222529749965087,"25":0.15887283499179033,"26":-0.10776053144304319,"27":0.12912579777137972,"28":0.18606979069227797,"29":-0.100702010592171,"30":0.004361919300747761,"31":0.14413739578539653,"32":0.061957364956506736,"33":0.1939674068453502,"34":-0.01821779956669401,"35":0.017484768319498405,"36":-0.02682673714760053,"37":0.019033932202681587,"38":-0.08051935288939106,"39":-0.15968920872454043,"40":0.13849314802888735,"41":0.17311845806002174,"42":0.14046805314673405,"43":0.09493759661856048,"44":0.042441006937702426,"45":-0.012589722785455388,"46":0.10632482987218787,"47":0.1401897158565515,"48":0.004194785012476152,"49":-0.0035767205115186567,"50":-0.17178955165094037,"51":-0.07530254709310655,"52":0.047996983277588674,"53":-0.05502018601433441,"54":0.03140682599368171,"55":-0.14943452113315026,"56":0.16572668975095417,"57":-0.05826366085010276,"58":-0.11431542860309787,"59":-0.02157657794085999,"60":0.14987379581860916,"61":-0.03755469453215262,"62":-0.08221674659972775,"63":0.19572864239577437,"64":0.1573135221521924,"65":0.16759998505302848,"66":0.03147782863908349,"67":0.027046038801236936,"68":-0.18420645859254456,"69":0.06579206320058452,"70":-0.08793875616782106,"71":0.09225684520668447,"72":0.10221458592269617,"73":-0.1395099654693805,"74":0.07146739337201743,"75":-0.09359912294464477,"76":-0.1313594878488687,"77":0.12554584743373937,"78":0.18604138241844786,"79":0.07401009273952894,"80":0.13613881411660284,"81":0.19992808022178865,"82":-0.17857827484179342,"83":-0.12924248482316553,"84":0.0982158851643456,"85":0.04780764563961261,"86":0.16291556687923825,"87":-0.09875693010204778,"88":0.028284039446548923,"89":0.08110587164952743,"90":0.015909699634996933,"91":-0.018895999340346106,"92":-0.05886228215649829,"93":0.05827051368994503,"94":0.04798133205941381,"95":0.18970127261285308,"96":0.09764154738790898,"97":-0.1499322559545635,"98":0.06497722863096289,"99":-0.1667258467578762,"100":0.1708411948676955,"101":-0.20995675081698395,"102":0.044791506435825953,"103":-0.011986869739273405,"104":-0.09306298838651197,"105":-0.1874782908638154,"106":-0.021952564968977874,"107":-0.03646811240342297,"108":0.20120202128659842,"109":-0.11087921128704166,"110":-0.09025166056747601,"111":-0.360823595799244,"112":-0.06107604407794788,"113":0.06231200843800743,"114":-0.24569064655832545,"115":-0.03800594949769798,"116":-0.10470544103626137,"117":0.03821897665016099,"118":-0.11196606944192809,"119":0.05173624615523574,"120":-0.16071791666673893,"121":-0.17945810990653366,"122":-0.07652687195533237,"123":0.06319237174122408,"124":0.00046977047190070015,"125":0.03678051970712549,"126":-0.14963473907571587,"127":-0.06237274186489432,"128":-0.022308642282233546,"129":0.058042063243585074,"130":-0.05018490852514252,"131":0.05454985978723491,"132":0.0745315995003378,"133":-0.15341469279431566,"134":-0.03488920291069147,"135":-0.1504099151104584,"136":-0.07869133130702671,"137":0.04468183560350198,"138":-0.11716678210245049,"139":-0.19455505226837783,"140":-0.17817173453264157,"141":0.15359884303187987}},"8":{"bias":-0.12819784628350434,"weights":{"0":0.04570356356234402,"1":0.08950630169633032,"2":0.16477405124465122,"3":0.037279404439663426,"4":-0.06022775949311953,"5":-0.1776359829679554,"6":0.12670828902285663,"7":0.10060602558580066,"8":0.15193108300542002,"9":-0.11263383387816328,"10":-0.08424407269744251,"11":-0.09917316419294096,"12":0.11960489248435456,"13":0.120963685059456,"14":-0.011355563282251931,"15":-0.10583174352310988,"16":-0.17455920155385282,"17":0.05872693715473601,"18":-0.14416062489023823,"19":-0.09231508450152379,"20":-0.07699101728867168,"21":0.18929731430854402,"22":0.07375154563625765,"23":-0.11705050516892163,"24":0.1795441344272693,"25":0.042481820006898124,"26":0.07856069630301221,"27":-0.18261856941837148,"28":0.0027576370120386295,"29":0.086851930547926,"30":0.024547190091467185,"31":0.16119854477849038,"32":-0.020827083751058607,"33":-0.016951696566158605,"34":0.10985332667184716,"35":-0.16819889204828448,"36":-0.013301593946826661,"37":-0.04674184315333807,"38":0.13426853760723945,"39":0.16514018636461625,"40":-0.041244036745575724,"41":-0.04381421186042783,"42":0.053883962190569984,"43":-0.1323690744034337,"44":-0.13163884189785044,"45":0.12818209883611043,"46":-0.05556119871915437,"47":-0.0499869279564492,"48":-0.12599621186309054,"49":0.01740041314376631,"50":0.18059910314658364,"51":-0.1536624003359153,"52":-0.16727599921292124,"53":-0.13611525492072804,"54":0.07034668184923897,"55":0.02762314229550701,"56":-0.19276061397393116,"57":0.015073977230833228,"58":-0.11207716742856662,"59":-0.0003742706825068256,"60":-0.013992640301639032,"61":-0.02320810079593713,"62":-0.16037620791990928,"63":-0.0835366923884718,"64":-0.21248039625525691,"65":0.033665763342101945,"66":0.07437869118257698,"67":-0.0023200452552341647,"68":-0.00026664898851282387,"69":-0.12665533984527266,"70":-0.20140376106791968,"71":0.07883698195490321,"72":-0.15454975584733174,"73":-0.0014962868127675075,"74":0.05393103056018187,"75":-0.1159399079297537,"76":0.10466885100736152,"77":-0.06950720931745118,"78":0.12220486985115281,"79":0.10320315198668975,"80":-0.1812678138321986,"81":-0.09883293739500999,"82":0.07440842515965736,"83":0.03633991336926884,"84":0.07463031924415638,"85":-0.07262213029618113,"86":-0.06235387090833208,"87":0.11035233811635627,"88":-0.07523010905482387,"89":0.0877843453489169,"90":0.1132599308210593,"91":-0.11794187884718411,"92":0.09229543294668908,"93":-0.13255566956365428,"94":-0.06627142386852626,"95":-0.05979270824568761,"96":-0.1451962769956534,"97":-0.14128762888916535,"98":0.069348603584123,"99":-0.17471754117940835,"100":0.005462551627495327,"101":-0.04903900488956428,"102":-0.06006207722391091,"103":-0.07221770431665045,"104":-0.1826097859520087,"105":-0.03444688565445977,"106":-0.09494778778579084,"107":-0.10886717303943842,"108":-0.12625920195662496,"109":-0.11782777244661173,"110":0.17156167261942284,"111":0.17515588031388238,"112":0.050384364295868185,"113":-0.1349193650504832,"114":0.0465052971523486,"115":0.21380035106105608,"116":0.23213870209087004,"117":-0.15396485550541586,"118":-0.012454055791056521,"119":-0.07856322332193927,"120":0.1268312162247015,"121":0.0428279306772613,"122":-0.11501409134844542,"123":0.052588741360022666,"124":-0.01610217737458731,"125":0.13209105943900148,"126":0.2240525664130042,"127":0.21988950647755295,"128":0.06945793702757064,"129":-0.04511277771991974,"130":0.20684567075982999,"131":0.17577884781928474,"132":0.0798862521372594,"133":0.1620470987570957,"134":0.16782269282965998,"135":0.06779470412857959,"136":-0.05655011465277151,"137":0.09451763375929258,"138":0.06109331152908618,"139":0.10786763479708845,"140":-0.08163078656322047,"141":-0.027498907867099517}},"9":{"bias":0.00014179139407617469,"weights":{"0":-0.22463324293689962,"1":-0.2582326444279428,"2":0.1492790983396123,"3":-0.0817404698422964,"4":-0.17056512670267446,"5":-0.14419710181481135,"6":-0.2051837686629133,"7":-0.20300693769237926,"8":0.12061637616476012,"9":-0.22279448990841005,"10":0.08371877352300322,"11":0.08675349741854665,"12":0.10582406553942801,"13":-0.020565040198142308,"14":0.021712318047715985,"15":-0.12447726966430392,"16":0.1685757429205589,"17":0.08618174631555828,"18":-0.1162494313507908,"19":0.04341959654154741,"20":0.12276457639979885,"21":-0.16270478964298407,"22":0.023744492473204967,"23":0.14900868295080064,"24":-0.17122757723678814,"25":-0.14981800351829208,"26":-0.10608887562137145,"27":0.024711796196434464,"28":0.15770683984987202,"29":-0.08143283395201747,"30":-0.07052175724966746,"31":0.05262784341756639,"32":-0.20674297767128072,"33":0.15062445522409143,"34":-0.06584089921537566,"35":0.01792177572185783,"36":-0.08951626480776533,"37":0.02064784228124347,"38":-0.20859231813441956,"39":0.20370066456575883,"40":-0.17580976911551188,"41":-0.18670640083515272,"42":0.1359062634876003,"43":-0.2188256348732884,"44":-0.15810835832428136,"45":-0.007914315970191375,"46":0.037285774754494246,"47":-0.16455929628190571,"48":0.14118219006668506,"49":-0.10761511192358687,"50":-0.036610155789093456,"51":0.16846849039943831,"52":0.054503558649227936,"53":0.017480977421770433,"54":-0.07900535658369305,"55":-0.11869088227673973,"56":0.0024004359836131686,"57":-0.1126375466976482,"58":-0.18176228137681072,"59":0.07771842871676805,"60":-0.12412186233611117,"61":0.011063402130743267,"62":0.22962588722332125,"63":0.022904315019855286,"64":0.09422159444658458,"65":0.14125974356775178,"66":-0.07283476256952046,"67":0.09489858473145749,"68":0.08580170249144951,"69":0.09454126458476457,"70":0.014905580181674894,"71":-0.12871668673397121,"72":-0.03897694452371185,"73":0.19307604634712525,"74":-0.006853909589998858,"75":-0.012100445500095683,"76":0.034390155559927096,"77":0.16045161194378776,"78":0.11164179569976271,"79":0.02919053770224278,"80":-0.09813157586645695,"81":0.012161109060345674,"82":-0.08066400555097296,"83":-0.11745601923262315,"84":0.016032732571874476,"85":0.09012417239183139,"86":0.01939076955446735,"87":-0.05259448171905927,"88":-0.10766455671755942,"89":-0.1412499664640894,"90":-0.1391885630274292,"91":0.13875555576641263,"92":0.17498638651330617,"93":0.12295856149103311,"94":-0.04547935728289894,"95":-0.16618186128640666,"96":0.02758632341351718,"97":-0.017246952887808233,"98":0.1441999036191734,"99":0.004675022364202409,"100":0.028053727726928372,"101":-0.15748584314043548,"102":0.18983381981525643,"103":-0.06581720757223919,"104":0.13673237601080412,"105":0.015179884272598088,"106":0.17930321600724292,"107":-0.015617212513918597,"108":-0.1306890749010456,"109":0.07390857792475451,"110":-0.0077569041571677695,"111":0.22285998059444617,"112":0.07601725846290262,"113":0.20795831051619942,"114":0.052557563587462296,"115":0.01018462463284038,"116":0.19720745066006676,"117":-0.1509760620839953,"118":0.22507238696286438,"119":-0.006768193537491399,"120":-0.01566826722230278,"121":-0.13210228031639845,"122":0.13612920407577453,"123":0.0844504514288953,"124":0.11643782640568265,"125":0.22019540916291538,"126":0.14394095864002177,"127":-0.10336168609766244,"128":0.21517409154146785,"129":-0.05591002602589053,"130":0.020625173817435647,"131":-0.05261930317963262,"132":-0.1360783769577921,"133":0.1426680731039728,"134":-0.05384966241022879,"135":0.07498017634387345,"136":0.12706628701588432,"137":-0.1517061992178934,"138":0.01292064280957772,"139":0.14529517725297542,"140":-0.13962205821195348,"141":0.10897567459004598}},"10":{"bias":-0.15358244628711948,"weights":{"0":-0.2286841625935543,"1":-0.0727141074509956,"2":-0.023561107658964284,"3":-0.09663101043585919,"4":-0.1859240152177805,"5":0.06685517476457963,"6":0.08043078283994197,"7":-0.05043087449519749,"8":0.11368014636001844,"9":-0.10624522822007032,"10":0.14355125331051613,"11":0.07436664066268396,"12":-0.009503498183204982,"13":-0.1943268770554595,"14":0.08963527606188655,"15":0.11006367851534977,"16":0.1930022083596353,"17":-0.2028234269113665,"18":0.053354769479406206,"19":0.19138033873997376,"20":-0.07163575917732846,"21":0.0770470324894958,"22":-0.14117796177886402,"23":0.09900372956329252,"24":-0.005895776856613953,"25":0.08894939393137725,"26":-0.13253712785351887,"27":0.16276271233515546,"28":0.05650811070221004,"29":0.04656611107293221,"30":0.014944831121498026,"31":-0.005785960406944777,"32":0.13657813350175824,"33":0.17449199995650075,"34":-0.034625023878371804,"35":-0.12476309520927052,"36":-0.16265656016038785,"37":0.060321900627520006,"38":0.016726350521518964,"39":-0.07897102432221155,"40":0.13515949825262508,"41":0.1529692864368275,"42":0.1371329279540366,"43":-0.025223853264062266,"44":-0.06889506585083197,"45":-0.09857879591471697,"46":-0.08715718830264654,"47":0.14959229780903807,"48":-0.043919634887256045,"49":-0.0803793179081297,"50":-0.12219679921448909,"51":0.06736559321508148,"52":-0.023721238514175992,"53":0.075645903831226,"54":0.20215521421218247,"55":-0.05599848435962794,"56":-0.0293362350021072,"57":-0.0373013552723019,"58":-0.16452192574985675,"59":0.05464885046688621,"60":0.015591338303742389,"61":0.05741910112544628,"62":0.17627534021137448,"63":-0.1797868820841754,"64":0.11529737652648583,"65":-0.10114695625764096,"66":0.17236836524319946,"67":-0.06493943463267668,"68":-0.14936799050382307,"69":-0.01666270343491413,"70":0.0418773109950178,"71":-0.1666777938646812,"72":0.09893055802755829,"73":-0.11392208002308375,"74":-0.14264865896005108,"75":0.17263951824804122,"76":-0.13158378034361698,"77":-0.002606037140370098,"78":0.2079204817092222,"79":0.13316640614812258,"80":0.15105063919270748,"81":-0.17730447718589976,"82":-0.19367547542534078,"83":-0.16159980672918176,"84":0.1220200888066985,"85":-0.045898324554516645,"86":0.11452553941892028,"87":0.016790482635088918,"88":-0.06488576433001096,"89":0.18983362133092643,"90":-0.02132612480189448,"91":0.1575282594176907,"92":-0.054291848804351645,"93":-0.1309511610292277,"94":0.017479266523195314,"95":-0.07114492630682327,"96":0.19688656282628145,"97":-0.12638067913048942,"98":-0.006024296924943116,"99":-0.18815536416174047,"100":-0.09976215993094097,"101":-0.152883250828216,"102":-0.00028909681384329546,"103":-0.16773073876846492,"104":0.09421044337194183,"105":0.010291918732557769,"106":0.15532410044543846,"107":0.18287855428048463,"108":0.05052610183114081,"109":0.06413868203166509,"110":0.046275534759162386,"111":-0.07890033074643196,"112":0.19188990857394386,"113":0.18083462609889342,"114":-0.09245101900255116,"115":0.14151538508639763,"116":-0.07622409620186073,"117":-0.15441322291461201,"118":-0.048972536111236586,"119":-0.046956720535464874,"120":-0.06236935056940604,"121":-0.191491596459293,"122":-0.1689243239728037,"123":-0.1405887632404396,"124":0.05007393740885679,"125":-0.009679977506103775,"126":0.1453618292445802,"127":-0.08289581112838319,"128":-0.13265657848266782,"129":0.008371268662600467,"130":0.19083960162901112,"131":-0.16796276372346067,"132":0.11467534877308905,"133":0.18053090070792102,"134":-0.054711730809589444,"135":-0.1522566138454819,"136":-0.18746988410062745,"137":-0.053528463341516425,"138":-0.04779914460197954,"139":-0.01987835600360768,"140":0.05701841815143799,"141":0.06145907340935975}},"11":{"bias":-0.11851903161397492,"weights":{"0":0.2391643207271869,"1":0.0742090821809424,"2":-0.009510411451491105,"3":-0.029421557008299012,"4":-0.05225018949282103,"5":0.08577823448582196,"6":-0.1741511117912143,"7":-0.22289329620429407,"8":-0.03436662229230338,"9":0.14320123192563602,"10":0.15993243247030775,"11":0.17477283199863664,"12":-0.010800065572619571,"13":-0.12284918868152211,"14":-0.11933088371657853,"15":-0.13383433648433038,"16":-0.1281311288787706,"17":0.20615622443568085,"18":0.06835778137629592,"19":-0.0894243011133829,"20":0.05589186597691927,"21":-0.06716479301050408,"22":-0.1717712885016803,"23":0.16009722675891952,"24":0.1729094672622487,"25":0.052253744888408345,"26":-0.18222329933535086,"27":0.24066757209988718,"28":-0.02571970130758567,"29":0.17524436968475443,"30":0.15020060186536904,"31":0.08043780639635482,"32":0.12016101903998071,"33":0.022559569007261766,"34":-0.13517981511746632,"35":0.15866453533329988,"36":-0.14304066107653435,"37":0.050462516589880664,"38":-0.007282051832604363,"39":0.11111881268872173,"40":0.034532539977411604,"41":-0.16183209783617963,"42":-0.09528678591723573,"43":-0.03619415520375912,"44":0.11109209697173657,"45":0.1670707497348676,"46":0.03373496033270329,"47":-0.12476481684641386,"48":-0.0010227862311852959,"49":-0.06447445133853624,"50":0.03824247903321822,"51":0.1769536059031772,"52":-0.10397301762614214,"53":-0.08039147501813343,"54":-0.013161155968970025,"55":-0.0034131688769785088,"56":-0.09833838363988678,"57":0.1804606942016022,"58":-0.06991977081767042,"59":-0.14580109163147653,"60":0.14808148989474657,"61":0.06481063763674276,"62":-0.032361481291390326,"63":-0.0546846281790481,"64":-0.05574568509875987,"65":0.09582085479581329,"66":0.17519680167996413,"67":0.08395960378714756,"68":0.10165778564773566,"69":-0.10151870900585479,"70":0.19399735145404104,"71":0.15149486852683558,"72":-0.0071086238865636685,"73":-0.1678773552099149,"74":0.15190160848099543,"75":0.1858744561598865,"76":0.01488954048700846,"77":-0.14476603519808687,"78":0.2029811607273543,"79":0.13841858051979747,"80":0.1337185012389442,"81":0.11662349391078199,"82":0.056344367741138685,"83":0.08491564242952156,"84":0.11221866691545691,"85":0.11458649379992226,"86":-0.1049589395886079,"87":0.14889492193659143,"88":-0.0024386600104545834,"89":0.08092485145274854,"90":0.15516587031200024,"91":0.20111397039371243,"92":-0.060236882853637236,"93":0.14407924366950364,"94":-0.18599935999276745,"95":0.17351157164829556,"96":0.13247815027517312,"97":-0.02023397534569897,"98":-0.19661369461737147,"99":0.16295728118777963,"100":-0.12969699115375657,"101":-0.1844268239436741,"102":0.18583618324298395,"103":0.0029627905782841487,"104":-0.01665167682581291,"105":-0.16035378194214905,"106":0.18756584682526084,"107":0.013016343942802914,"108":0.020361148470114873,"109":0.10009572478137847,"110":0.01137574369946892,"111":-0.18349352394094243,"112":-0.17588520385626052,"113":-0.07466155700483364,"114":0.08042964397597477,"115":0.12085519438516731,"116":-0.02256069112372347,"117":-0.21499581214557037,"118":0.0022039295948755836,"119":-0.0960906484115547,"120":-0.12873950343179524,"121":-0.03935157657201879,"122":-0.2058242304741529,"123":0.15925648191224615,"124":0.13767147664980914,"125":0.02808369702884363,"126":-0.20046303178391603,"127":0.11023595452898675,"128":-0.08893086014553522,"129":-0.20719095399775003,"130":0.12382442116409033,"131":0.012230731367332017,"132":0.02739306290661428,"133":-0.17199101539948658,"134":-0.05191011121734666,"135":-0.1726823675399866,"136":0.053042295453909906,"137":-0.06522897005025018,"138":0.16895509789168145,"139":-0.14254155461079482,"140":-0.13150751246747022,"141":-0.13256760608491233}},"12":{"bias":0.05633397786797041,"weights":{"0":-0.28724639862921564,"1":-0.08844281806696756,"2":-0.04792494737677326,"3":-0.13759544278499258,"4":-0.08012206795732933,"5":0.008513426104796868,"6":-0.14283792645940138,"7":0.021051808016040324,"8":0.05334180128599077,"9":-0.20615703789403,"10":-0.037078087455096116,"11":-0.19939044427085806,"12":0.10756924067046096,"13":-0.04888573388451974,"14":-0.08926722877236501,"15":0.10483990650310776,"16":0.13731868774445813,"17":-0.01568862051654749,"18":0.02065273477720808,"19":0.17038555812806502,"20":0.012418702850539295,"21":-0.03144778578902487,"22":0.052269759403183194,"23":0.042827570821031946,"24":-0.14655753025988255,"25":0.09779953489285216,"26":-0.025280295587848233,"27":-0.12426071600427219,"28":-0.05812415341216473,"29":0.030048282672429878,"30":-0.15296976073071766,"31":0.1691525496952867,"32":-0.024544807560962695,"33":0.014938974191484515,"34":-0.07988583961301736,"35":-0.00671865768764372,"36":0.12684854773863424,"37":0.05411703899561269,"38":-0.05397579395309804,"39":-0.05659417115868888,"40":-0.06012605803868154,"41":0.05818766430042199,"42":-0.14203936902327055,"43":-0.12181990374763223,"44":0.026961562935188952,"45":0.17638608270582964,"46":-0.1981082646251756,"47":-0.08374715168361292,"48":-0.052539469333870444,"49":-0.05569215457996624,"50":0.11566650225887765,"51":-0.10807655144169667,"52":-0.05229686417348756,"53":0.173858961550938,"54":0.17659256890481104,"55":-0.0008154077749187663,"56":0.18443459573319537,"57":0.11762484641111581,"58":0.15056001061223184,"59":0.17684480399390667,"60":-0.12507076284336988,"61":-0.09321445888557749,"62":-0.10217958358045506,"63":-0.01125847723770344,"64":-0.12661622486447802,"65":0.11078838033854947,"66":0.1300850885163435,"67":0.1409651042217399,"68":0.11897001265131718,"69":-0.06437973297271496,"70":0.1835702845195414,"71":0.09003812721341246,"72":-0.01227417360888655,"73":0.06943585940362641,"74":-0.039551722278239484,"75":0.09179659372458242,"76":-0.10679292543102073,"77":-0.026782384251685425,"78":-0.12049139494423515,"79":-0.1851496918020485,"80":-0.16996876888926485,"81":0.0032779162005954136,"82":0.19192098833255103,"83":-0.18434482559688817,"84":-0.08704297202350607,"85":-0.09287585413073485,"86":0.16822520667220744,"87":0.06247769875803371,"88":-0.04831891161109445,"89":0.1332333729277663,"90":-0.01953480668399904,"91":-0.18262587293586124,"92":-0.0698038649740723,"93":0.19402574634792527,"94":0.07805840480752997,"95":-0.01240951581852155,"96":0.09464933531954119,"97":0.006925517043227663,"98":0.19515357701261163,"99":0.11045923680316085,"100":0.140746387515691,"101":-0.13763610930530276,"102":0.0897346450129043,"103":0.20448729433762294,"104":0.1991018609287383,"105":-0.013025908019790743,"106":0.027944529043886945,"107":0.09988593890821924,"108":0.1741632982017515,"109":-0.11538975547850878,"110":-0.09411160626343507,"111":0.29876052353826243,"112":-0.04116820566665269,"113":0.20498518893503612,"114":0.05608677421534669,"115":-0.065731866816093,"116":-0.04848201998723886,"117":-0.0654146061269829,"118":-0.161584565676013,"119":0.049342359514525876,"120":-0.00553840493716918,"121":0.14250145908627082,"122":0.18111809585310587,"123":0.14092831686858695,"124":0.06084370134261198,"125":0.10644166947294535,"126":-0.08807808098212973,"127":0.14303566638206974,"128":-0.06582491324548484,"129":0.22778318831144953,"130":0.06239744985558597,"131":0.02293892691063603,"132":-0.017565020864415026,"133":-0.10680487254043718,"134":0.054230707153385585,"135":0.20762465812609696,"136":0.00872762154720789,"137":0.21531252475419893,"138":0.10948273020803524,"139":-0.0070344775405317495,"140":0.11593959604794153,"141":-0.008122643171807763}},"13":{"bias":-0.14908541400516828,"weights":{"0":0.028923193074977788,"1":0.06088818119162611,"2":0.016190814076654226,"3":0.039983406387339604,"4":0.16964445223540714,"5":-0.046649495042805904,"6":-0.22751007466780043,"7":0.013872408649367049,"8":-0.04036393147783718,"9":-0.1792954190574379,"10":-0.22841449875094227,"11":0.10033342711917191,"12":-0.07104325436301613,"13":0.08927753106487377,"14":-0.09913793770406439,"15":-0.16204851911022194,"16":-0.08540133408486353,"17":-0.11763784882397563,"18":0.1258648050985456,"19":-0.021164581121255105,"20":-0.14811514726624933,"21":0.021578150901796836,"22":0.04249007399188195,"23":0.08887222719693168,"24":0.04380226540909643,"25":-0.1711902661198739,"26":-0.013710312892740757,"27":0.037955257999202824,"28":0.11832384223884107,"29":-0.11523825460682534,"30":-0.18960232688200007,"31":0.07525547759272662,"32":-0.17585863594822204,"33":-0.13292816278887773,"34":-0.18111021181076714,"35":-0.09236858644630534,"36":-0.09628302180586766,"37":0.10050818461225165,"38":-0.018051069876976824,"39":-0.06874689501237771,"40":-0.05066436727473028,"41":-0.19828225399021576,"42":-0.14234518589093192,"43":-0.10750934989597973,"44":-0.08271897407358708,"45":0.10306816669755613,"46":-0.06954381909412602,"47":-0.0424762087264396,"48":0.0967972438131435,"49":0.16099706724626173,"50":0.02066281635902611,"51":0.05216782291321403,"52":0.16851285292132367,"53":-0.1220922111843832,"54":-0.0008968529162348491,"55":0.099708949652175,"56":-0.09542399471562185,"57":-0.03232303324812342,"58":0.028284241832682213,"59":-0.17440272137226767,"60":-0.05250616606589987,"61":-0.14388413737429734,"62":0.1481265024899291,"63":0.0978267696964211,"64":0.02411897844942978,"65":0.18840618439016685,"66":-0.03381734700679888,"67":-0.1490613680664993,"68":-0.11648727565795006,"69":0.01690254914984054,"70":-0.051975020270782726,"71":0.09802937013321184,"72":0.05561220263074205,"73":0.06224437944475199,"74":-0.006656102961537362,"75":-0.022142016995566678,"76":0.16805109622951206,"77":0.061558586616087,"78":0.08724417092458514,"79":0.19086239017325177,"80":0.035428642408924696,"81":0.17358104003769706,"82":0.10796624982052377,"83":-0.05997140740614852,"84":-0.10918511280564681,"85":0.042198354355185555,"86":0.025446912233535377,"87":0.19929674553616109,"88":0.15403377898713735,"89":0.1513316127873294,"90":0.15486034370638782,"91":0.20375747380856854,"92":-0.027871244708788722,"93":0.117055726807962,"94":0.0385483330121691,"95":0.17300462829998195,"96":0.0003195793701283354,"97":-0.15832742141772346,"98":-0.1922345064743536,"99":0.17459330254476982,"100":0.1493190274544621,"101":0.050714189113241624,"102":-0.10699837593103223,"103":0.15315113413418718,"104":0.05015191851674462,"105":0.022696299968101106,"106":0.16877321791994612,"107":-0.13091059038717703,"108":-0.05726765295092891,"109":0.09621456307611304,"110":0.03451871639213369,"111":0.0957952364590308,"112":0.1458873493084448,"113":-0.13500704530573665,"114":-0.0546874425669749,"115":-0.1770878895183822,"116":0.1300195728444189,"117":0.08022733136222379,"118":-0.01600134101710248,"119":0.07407217939885488,"120":0.07110137202640558,"121":-0.17825339813059737,"122":-0.07452315194008563,"123":0.14430363320152448,"124":0.20827610670865607,"125":0.08546384061088902,"126":-0.16839739066328419,"127":0.2193045009802341,"128":0.049274991430583046,"129":-0.17434807062350602,"130":-0.0064162252414407825,"131":0.08416599479724224,"132":-0.007291066270572496,"133":0.062287389774424315,"134":0.1234721075459927,"135":0.014229236290339332,"136":-0.04882165333794395,"137":0.19718348796651144,"138":0.1594381373707632,"139":0.024978063182589088,"140":-0.17589235495010916,"141":-0.030886102615283274}},"14":{"bias":-0.005598170686946846,"weights":{"0":0.13973248402332375,"1":-0.16076791639206917,"2":-0.06729048835756639,"3":0.0574350934362619,"4":-0.16059921629931345,"5":-0.1037960714596314,"6":-0.17131170546053678,"7":-0.18698123107994083,"8":-0.1618868785960526,"9":-0.043669462663523506,"10":0.1410561353663849,"11":0.12597207203063954,"12":-0.1224796201009235,"13":-0.1706891483132611,"14":0.1005714620242666,"15":-0.04889320735002621,"16":-0.05584928227730508,"17":0.0005435530542961727,"18":-0.12304852653106901,"19":-0.011750166622089175,"20":0.006238373531532294,"21":0.11227315331400302,"22":-0.018577498756707257,"23":0.1510484963096963,"24":0.15191336809482475,"25":0.009415684042913394,"26":0.08054877514302783,"27":-0.05783242308601373,"28":-0.06971162367618776,"29":0.1821436353432222,"30":-0.1834727155969939,"31":-0.09321616148314457,"32":0.0531780839194852,"33":-0.12958526877726287,"34":-0.047735810896892605,"35":-0.06645159668458732,"36":-0.1630907605020652,"37":0.16345436684698744,"38":0.07140058733983522,"39":-0.1220925528202274,"40":-0.0071820871526282175,"41":-0.07434736636418042,"42":0.038762275095442084,"43":-0.03322158542195666,"44":-0.07821005828703881,"45":-0.035684729871344675,"46":-0.15279372282744724,"47":0.1907860282432164,"48":-0.18568310303142502,"49":0.04696864051589939,"50":-0.11148823833456331,"51":0.025702126500106337,"52":0.16105411808406722,"53":-0.0601682912996082,"54":-0.054441827143312894,"55":-0.0667225524312263,"56":-0.022163397922435043,"57":-0.190784860131298,"58":0.1720859012823588,"59":-0.006622606483234282,"60":0.157211494052649,"61":0.1881076707484136,"62":-0.005395850490266401,"63":0.17370151514977183,"64":-0.06877428676556567,"65":0.06252767983181785,"66":0.1380456314881397,"67":-0.20559483192852632,"68":-0.0926704064824068,"69":-0.10694191939647096,"70":0.11214022725772044,"71":0.17820805146089025,"72":0.1888388545590114,"73":0.18536069618402748,"74":-0.04536615528227815,"75":0.0811074704050035,"76":0.07064745330904149,"77":-0.11679156297575792,"78":-0.19376355785290136,"79":-0.018495923941531905,"80":-0.12771834659579595,"81":-0.0755443784400359,"82":0.182506454017582,"83":-0.17250345496568847,"84":-0.028110804052452636,"85":-0.046351581277800966,"86":-0.04815577521878246,"87":-0.17971311283659885,"88":-0.14795163240360013,"89":-0.19446498129627252,"90":0.10266108677759793,"91":0.10368074760609107,"92":-0.08900913449401134,"93":0.06482175960522672,"94":-0.011720995600324387,"95":0.03365395897455857,"96":0.04695636872656993,"97":0.142195348793668,"98":0.14093861535112504,"99":-0.037193849491151273,"100":0.13816426745516172,"101":-0.022435889486975065,"102":-0.11290423476620669,"103":-0.07300961840105807,"104":0.06095745529168008,"105":-0.10628895755730682,"106":0.05904824078593619,"107":0.057777173011721375,"108":-0.07403388115500788,"109":0.009130849688825103,"110":0.10773974473029863,"111":0.02365148806675505,"112":-0.06557424000576932,"113":-0.15807370540156537,"114":0.20917171286797012,"115":0.011115620757720499,"116":-0.10599954875909784,"117":-0.02659564053056825,"118":-0.16226790282161166,"119":0.11157063754223935,"120":0.0869002278495601,"121":0.1774547305988932,"122":-0.033413310821185226,"123":-0.10966937471704748,"124":-0.18387901108295598,"125":-0.15584816024048453,"126":-0.16836638394958314,"127":-0.008674547288692186,"128":0.004522726802253106,"129":-0.03480224332038017,"130":0.12792206566408545,"131":-0.01807616483629422,"132":-0.16470836014912932,"133":-0.18703236480353166,"134":0.01282447998739889,"135":-0.18418484387797435,"136":0.03062914154370385,"137":-0.16971343876612627,"138":0.00829661478400852,"139":-0.05422240576433432,"140":0.029849212734078916,"141":0.0321031763082652}},"15":{"bias":-0.03710426928443497,"weights":{"0":0.23700369908060928,"1":0.13228280366725007,"2":0.028615943052250126,"3":0.07261511359178371,"4":-0.02023189150801002,"5":0.03190300620211359,"6":0.16068644341211835,"7":0.16193336822630344,"8":0.1958368528383967,"9":0.003799029108203021,"10":-0.05657905378450274,"11":0.1766190997310503,"12":0.15990849517739228,"13":0.20358176704458372,"14":0.21648355541258205,"15":-0.07404490389029278,"16":-0.01797187534553239,"17":-0.06666825955723626,"18":-0.08639861412743438,"19":0.05288452946335856,"20":-0.0327501720451443,"21":0.19732797977225222,"22":-0.16391670796967442,"23":0.057332757908622585,"24":0.16063262573371606,"25":0.20758630260122046,"26":-0.102842462865484,"27":-0.18505918445692568,"28":0.1510273614558741,"29":-0.10780654156446967,"30":-0.07943475154289774,"31":-0.011482417120164285,"32":-0.07480337161721055,"33":0.10959643962056605,"34":0.07404193984525825,"35":0.21037732932923436,"36":-0.11058214379816439,"37":0.07562191336516783,"38":-0.04628424757665074,"39":-0.033635250747878015,"40":0.06831169671923579,"41":0.209530585162715,"42":0.011210710673601557,"43":-0.08637896706255686,"44":-0.29388103852465924,"45":-0.21690820152502235,"46":-0.12257172138831861,"47":-0.04894827286797668,"48":-0.19292743182114405,"49":0.07275805617630716,"50":0.06339893569126533,"51":0.13982721445005644,"52":0.03673619029054367,"53":0.02287402617619113,"54":-0.1537795650845109,"55":-0.12342996553659588,"56":-0.12357772394256647,"57":-0.19348921430027619,"58":0.019587575030093902,"59":0.1325130137425268,"60":0.08936822978262345,"61":0.08030935470927382,"62":-0.12934836676757613,"63":0.06988078853786729,"64":-0.19159083323484313,"65":-0.054482689585587114,"66":-0.05760345951609828,"67":-0.009431643039284747,"68":0.011731318821772195,"69":-0.07818214480272183,"70":0.03685780240963537,"71":0.09176263104277235,"72":-0.25915969418132195,"73":-0.13142631609804042,"74":0.09930133485186474,"75":-0.15919744313203274,"76":0.0007857810925025784,"77":-0.027685037352568,"78":0.061674031536909014,"79":-0.12108291881229537,"80":0.03953757679892245,"81":-0.04745713162051374,"82":0.10833223733034743,"83":0.02289819019227097,"84":-0.1281920376610075,"85":-0.14711594667417238,"86":-0.1957374351852986,"87":0.0875990190510741,"88":0.005550687124575776,"89":-0.14374211810349985,"90":0.03987997376410524,"91":-0.10556803369236349,"92":0.025229513331712788,"93":0.14359747330249167,"94":-0.06141089288735571,"95":-0.032016387671859485,"96":-0.1560122204926025,"97":-0.006671118532059469,"98":-0.021219609810403876,"99":-0.04562334013777708,"100":0.03186536384290303,"101":-0.1719516212250002,"102":-0.06499614583923154,"103":0.0023244139580776307,"104":0.15466255633071002,"105":0.1574174977531016,"106":-0.08447144167261329,"107":-0.0920383507375956,"108":0.07173836924976802,"109":-0.036191617826214335,"110":0.16496775560067284,"111":-0.03152376024356609,"112":0.06572932046571008,"113":0.1378699840436666,"114":-0.16403071462766144,"115":0.12539193273619767,"116":-0.09576752246919047,"117":-0.12528474255341976,"118":-0.073102223814375,"119":0.05716941275081596,"120":-0.1842934317317449,"121":0.1617248465392683,"122":-0.20603968506626272,"123":-0.05169696246266851,"124":0.18285637000569158,"125":-0.19961772044120227,"126":-0.03907724085480555,"127":-0.14006278325220514,"128":0.06127735989517316,"129":-0.19322770875057962,"130":0.08815263733685849,"131":0.013652971234603923,"132":-0.20102814665289753,"133":0.1205569292316913,"134":-0.02616310278517813,"135":-0.01808979411893168,"136":0.059114851745379504,"137":0.05300691056914204,"138":0.13601325245002263,"139":0.01068603712333295,"140":0.12320927474890753,"141":-0.09393234096336016}},"16":{"bias":0.11987153468779453,"weights":{"0":0.040547358175584094,"1":0.24963893607444537,"2":0.123346021193806,"3":0.22578797231123243,"4":-0.10134420281078545,"5":0.08410251257163719,"6":0.038463150798284815,"7":0.023755121545680016,"8":0.23933989794577798,"9":0.035975920789397826,"10":0.01969572162546066,"11":0.012238636474011862,"12":-0.08764221179562895,"13":0.21540452050117523,"14":0.08531478071695366,"15":0.059866529805057765,"16":0.13732145067502144,"17":0.05601895608076559,"18":0.1243837492941028,"19":-0.1367506383919881,"20":-0.12774710867385744,"21":0.07346123855891902,"22":0.12059080299911547,"23":0.09089669444693078,"24":-0.14739923344001948,"25":0.0584251549946976,"26":-0.16155778183279296,"27":-0.13238503301556795,"28":0.055252002272621205,"29":-0.10228680304771572,"30":0.08086582308521549,"31":-0.05341353561583218,"32":0.13879644937151203,"33":0.15645614277042702,"34":-0.07356913157692677,"35":0.14620208503593646,"36":0.2045921351269459,"37":-0.023569195129616558,"38":-0.122818830738035,"39":-0.06660854143802179,"40":0.18510113170704917,"41":-0.11652141383272155,"42":0.06272096898712044,"43":0.11830268498669823,"44":-0.05555517284415996,"45":-0.04440747179428525,"46":0.003348495442540411,"47":0.017240380149943134,"48":0.006584406682214161,"49":-0.052565746200316274,"50":0.17466386248342933,"51":-0.1475214611176968,"52":0.07056047667235331,"53":0.07803325624912476,"54":-0.11623001438166991,"55":-0.10211509594402161,"56":0.11301639877692841,"57":-0.04057251462132373,"58":0.14677592989500213,"59":0.12068214362539598,"60":-0.010708229665972369,"61":0.04236457964654282,"62":-0.07501319277450484,"63":0.17162573289354002,"64":-0.01220928974476126,"65":-0.11959719579802067,"66":0.03791162233399437,"67":0.05604790834327783,"68":-0.1488374397114696,"69":0.09398730098336845,"70":-0.023944911645136475,"71":-0.052306323567411016,"72":-0.09770307430340924,"73":-0.05580786993479359,"74":0.15856435774323036,"75":-0.18095520352220323,"76":-0.035702093458155754,"77":0.056572208540835285,"78":-0.1812411404585859,"79":-0.20410731701433515,"80":-0.20257413280790698,"81":-0.1561321472654888,"82":0.14284446149348384,"83":-0.196059731215347,"84":-0.0632274907989625,"85":0.09325046783323619,"86":0.18988056662280733,"87":-0.20679402436454825,"88":-0.18502899788317312,"89":0.14503359846644703,"90":-0.16712492971545173,"91":0.026634817588699615,"92":0.12247288594779866,"93":0.16658098869011218,"94":-0.0759906548346266,"95":-0.11126284417312877,"96":0.016436506698310985,"97":0.07751966972660261,"98":-0.17034756400175208,"99":0.08023999025471788,"100":0.07699235939186626,"101":0.031812345599647095,"102":-0.02217911590823221,"103":-0.15124778512444242,"104":-0.08915285616255024,"105":0.13299996914902606,"106":-0.18899063073720238,"107":0.09736928798370335,"108":-0.06346716989423941,"109":0.1368836363021343,"110":-0.11926864121517794,"111":-0.2748963506225564,"112":-0.03248192587835036,"113":-0.09546383564787035,"114":-0.024781945244988515,"115":-0.209232453899847,"116":0.019175069275130168,"117":-0.12858626284683394,"118":-0.09714316666713056,"119":0.0194921901894242,"120":0.11988188275950792,"121":-0.170816342985844,"122":0.07775379446048687,"123":0.07598834980271098,"124":0.12365088428432693,"125":-0.07728073154045548,"126":0.06931150753012427,"127":-0.04789138276485056,"128":0.15547390486211418,"129":0.05355453434363463,"130":0.012940413079256105,"131":-0.19497862974305027,"132":0.0984059645963102,"133":0.15093127818359445,"134":-0.08886627938430215,"135":-0.17926679615735372,"136":0.13750352794750156,"137":0.14720447893119412,"138":0.01813682109575546,"139":0.17476474748632528,"140":0.15904085048656955,"141":-0.01682169177703621}},"17":{"bias":-0.0055421545920316465,"weights":{"0":-0.024408144011029042,"1":0.09955268889754254,"2":-0.06467732550954661,"3":0.03714515920749129,"4":0.02836066206794198,"5":-0.19093648286511097,"6":-0.13833329897295177,"7":-0.12745261221606524,"8":0.1374489408361693,"9":0.08558695364966638,"10":0.07855376556276722,"11":0.008687896411103886,"12":-0.02561527550447655,"13":-0.19569498881752156,"14":0.18059187777834293,"15":-0.1732591338894355,"16":-0.06757845824384257,"17":-0.06849358888233317,"18":0.04299897631475485,"19":-0.08668171138274014,"20":0.16419668334776147,"21":0.14196581958950935,"22":0.17110212925786414,"23":-0.008832609366360513,"24":-0.05650175531523765,"25":-0.10712086605163577,"26":0.06278073890009883,"27":0.1498495612965645,"28":-0.08151347017060077,"29":0.12884287023025223,"30":0.07056869396577319,"31":-0.017532499094597923,"32":0.1258951734007814,"33":0.09744631247013336,"34":0.14741684612466835,"35":0.13273084936616833,"36":0.15023465967251123,"37":-0.11855109890032979,"38":-0.1741437459399415,"39":0.09528830834436583,"40":0.12611920267000556,"41":-0.06892482385165064,"42":0.037084500431594954,"43":-0.030409037372033248,"44":-0.005044237347722909,"45":0.08109012518405156,"46":0.14129963086292424,"47":-0.10837724500388735,"48":0.19603988346433382,"49":-0.0679350440533856,"50":-0.058694387533072434,"51":-0.015200117395663989,"52":0.16591856272959865,"53":0.04241883157169059,"54":0.1658833325240548,"55":0.04981685630421435,"56":-0.16986461543067402,"57":-0.05710758128829379,"58":-0.009444612587711966,"59":0.06438436570542888,"60":-0.18207990190137446,"61":0.09098049073170714,"62":-0.055657701037515286,"63":-0.15516296127902102,"64":0.062347861924227484,"65":-0.03940961121931536,"66":0.07131199408857182,"67":0.13622164527904804,"68":-0.139806975688262,"69":-0.03462126109056802,"70":0.11717244337847946,"71":0.13156281004082687,"72":0.12276844573049862,"73":0.08715026683944854,"74":0.17189925366209263,"75":-0.004099939629187627,"76":0.15401080082288593,"77":-0.053674746593399526,"78":-0.06345369316141942,"79":0.17113759743930412,"80":-0.15923160607642856,"81":-0.05751196388669592,"82":0.19980991289860922,"83":0.20501272902662165,"84":0.12049817790825952,"85":-0.049099146949002394,"86":-0.14566009599699897,"87":0.18922450529970763,"88":-0.015996455490763013,"89":-0.01630622938992441,"90":-0.1671716921875775,"91":0.02176378485842031,"92":0.18431378110698926,"93":-0.009618688063562303,"94":0.13767605979037545,"95":0.18599368509555103,"96":0.09407158127934913,"97":0.1445952446769403,"98":-0.05840041888773804,"99":0.07486616914116918,"100":-0.04859005338577128,"101":0.12987863834942215,"102":0.09789285320353831,"103":0.0018435389656139504,"104":0.12124078682978685,"105":0.027468296504559613,"106":-0.19030816833704564,"107":-0.04126459354757762,"108":-0.047881523125080684,"109":0.1271065991897931,"110":-0.07620663675735258,"111":0.08456917658174144,"112":-0.2051286369940449,"113":0.11087567782168106,"114":-0.03449017676660198,"115":0.07518712403350214,"116":0.10442017404872361,"117":-0.1583265642996898,"118":0.0686318679994225,"119":0.14850276237863166,"120":-0.13932645730980234,"121":0.09890427023564816,"122":-0.1140329487706085,"123":0.10438893204234415,"124":0.04268306204138865,"125":-0.07178507290994535,"126":-0.034977077842036304,"127":0.04433386674172328,"128":0.12017003424272767,"129":-0.18282907427748488,"130":0.13652134085433157,"131":0.1501534483755397,"132":-0.028146602557252893,"133":-0.0923398081021712,"134":0.03652797668176046,"135":-0.07638500242551952,"136":0.027183370955007672,"137":0.18931261349574846,"138":-0.1822813286646464,"139":0.0405869185895687,"140":0.10995040262308166,"141":-0.0010762924780378076}},"18":{"bias":-0.05789421234805634,"weights":{"0":-0.010617580387068198,"1":0.056282820585980976,"2":-0.10815381976753279,"3":-0.2139033864638542,"4":0.0469810864582751,"5":-0.02056636055249205,"6":-0.020719547451818147,"7":-0.1054653173257076,"8":-0.1011273249258893,"9":0.10910811191192486,"10":0.0708869353240213,"11":-0.2086074612816105,"12":0.07501141592173405,"13":0.07128494160448198,"14":0.012387420114184951,"15":0.08426728611831671,"16":0.12530371427757506,"17":0.12321642185412154,"18":-0.025534657365532697,"19":0.16136305461168834,"20":0.064363174936831,"21":0.04895835160989681,"22":0.010620239495454164,"23":0.11155229794083711,"24":-0.020198557071140582,"25":0.14953727233117456,"26":-0.19587886774191993,"27":0.04397223331703396,"28":0.021048774633942252,"29":0.10601307371204315,"30":0.17981619176460514,"31":-0.19239257379682478,"32":0.04066970699215361,"33":-0.05709015785555441,"34":-0.09138910325188336,"35":0.1249582674162206,"36":-0.13615185075929864,"37":-0.13895064397529833,"38":0.07902340457767086,"39":-0.13722686845703724,"40":0.09786616711080302,"41":0.16230795638049608,"42":-0.14168290309680848,"43":0.05848153496678746,"44":0.19835232104438813,"45":0.16574293702406073,"46":0.19133228149902637,"47":0.0964457104467599,"48":-0.15720117651561732,"49":0.17550884781557452,"50":-0.04563287043752932,"51":0.1921351968188979,"52":0.1076964790831004,"53":0.16897961223171726,"54":0.17038039959526632,"55":-0.025476533878597125,"56":0.13743942819883814,"57":0.05231404241824313,"58":-0.08744910800413377,"59":0.09437326184916053,"60":-0.07069189473053006,"61":0.03681711417369235,"62":0.10527991212361405,"63":-0.08012038383342748,"64":-0.18251865771745204,"65":0.11451335088493816,"66":0.22655808076765788,"67":0.07150671337603133,"68":-0.07530080901665878,"69":-0.07455112866679674,"70":0.21760798334945786,"71":-0.12768908323474937,"72":-0.1472934170177225,"73":0.04979951742568705,"74":0.08931141727798647,"75":0.05992114496646797,"76":-0.062428176614286436,"77":0.19502712159197116,"78":0.04985099173010241,"79":0.18484979693142578,"80":0.05959649985186734,"81":-0.09917138783776845,"82":0.1377651252542978,"83":0.16169177749771624,"84":0.13547058057509453,"85":0.0501708904643708,"86":0.09673961118682421,"87":0.09796555488487112,"88":0.15671452634797778,"89":-0.06188409823261891,"90":-0.17136932597555943,"91":-0.028612598694756138,"92":0.00030395192597686805,"93":0.0008758135779018349,"94":0.03802072035846265,"95":-0.09852993027298036,"96":-0.0358510215331629,"97":0.15627455783848554,"98":0.18792110757315345,"99":0.1404310227245919,"100":-0.06508005599131102,"101":-0.012722089281142044,"102":0.14472326401626978,"103":0.11524693127161414,"104":-0.06662710597382565,"105":0.10558953023939881,"106":0.01336263195915038,"107":-0.045199195803448874,"108":-0.12905750471548078,"109":-0.13625585757042097,"110":-0.06408845702840468,"111":0.029549673607333515,"112":0.00359247951539391,"113":-0.1535960759621241,"114":0.06671403848865504,"115":-0.03694913813757651,"116":-0.056722704955273824,"117":-0.13526653242315084,"118":-0.05734949963623407,"119":-0.1253788706564304,"120":0.07656452319035056,"121":-0.07496754547734318,"122":-0.18927758253391191,"123":0.07375688192399281,"124":0.14295040527922132,"125":0.11914699184412489,"126":-0.14186141249200326,"127":-0.03746159871476096,"128":-0.07251768165040569,"129":-0.10226416342263929,"130":0.11517417526638961,"131":-0.06068445390240673,"132":0.06325707688966885,"133":0.1517224521745042,"134":0.05318966998558686,"135":0.0818124740360776,"136":0.12320543126694242,"137":0.06575073595389935,"138":0.020657213882772595,"139":-0.14687327182443316,"140":-0.09312040440021349,"141":0.036406987324163566}},"19":{"bias":0.03921499596376821,"weights":{"0":0.022741504558457585,"1":0.18552901343773442,"2":0.09023901905965684,"3":0.060526012246990876,"4":0.07318505925106708,"5":-0.009681097693097728,"6":0.17976838458293776,"7":-0.06235716053232118,"8":0.00789314368575661,"9":0.16282519686545052,"10":0.02961028872012744,"11":0.18398944965705608,"12":0.11699903010167065,"13":0.0382392147472178,"14":0.004664035340688289,"15":-0.01038364456172575,"16":-0.18522106345940356,"17":0.05854285383233105,"18":0.008294895594012667,"19":-0.011849873689473293,"20":0.13637208080553606,"21":0.051056096121017976,"22":0.17153291762980374,"23":0.12383581397599387,"24":-0.15480403873373,"25":0.19268042117069376,"26":0.03491939847010136,"27":-0.059992571612432606,"28":-0.012886201984281113,"29":-0.16247418986645268,"30":0.21055393578028478,"31":-0.06835349105511097,"32":-0.057120862021778275,"33":-0.1608824913589482,"34":0.020047099801263603,"35":-0.0861451755551214,"36":0.15236848874571088,"37":0.18461346746592147,"38":0.08715835834669435,"39":0.17135288094823914,"40":0.13975835144104312,"41":0.013106450251826161,"42":-0.05250644353088624,"43":0.089970206880387,"44":-0.09663286404660762,"45":-0.06146604665970229,"46":0.1654378803037431,"47":0.06268666036474334,"48":-0.11251734531779602,"49":0.12924485142307893,"50":0.09900636113609355,"51":-0.0026761560771042937,"52":0.1584384766135892,"53":-0.23492098599349256,"54":-0.25928352997266,"55":-0.07832805414199102,"56":-0.045771307239616046,"57":0.013970437306105926,"58":-0.05403594747149322,"59":-0.02714171603455722,"60":-0.15879605323333823,"61":-0.0941316401700477,"62":-0.043462592133248636,"63":0.08897214592603468,"64":-0.1902619533467515,"65":0.07704943549976252,"66":0.08254463015156537,"67":0.010898132580551388,"68":-0.1516666872641276,"69":-0.24038715410291897,"70":-0.14024440542927166,"71":-0.13925422398884282,"72":-0.10773078815254737,"73":0.15392184182487906,"74":-0.1594407660913176,"75":0.048476305660662404,"76":0.02682246899999632,"77":0.02578644961492666,"78":-0.061068924061899614,"79":0.029554051455139833,"80":-0.2123384846951586,"81":-0.14328601036098287,"82":-0.018241894059964906,"83":-0.05887244892910138,"84":0.0029550986172902863,"85":0.03471474119782086,"86":0.16356569876717197,"87":-0.026206099660228785,"88":0.09114914766437444,"89":-0.13148448118919803,"90":-0.0225026873530438,"91":-0.008183232197512248,"92":-0.028882360135502796,"93":-0.1636924103066888,"94":-0.10043816282710745,"95":0.15487189751770664,"96":-0.06139663851602651,"97":-0.10891665298431955,"98":0.014496654176001825,"99":-0.015756352046049308,"100":-0.10168305455247244,"101":0.07058671345371641,"102":0.14509892157357962,"103":0.021317697271425913,"104":-0.17008490400300563,"105":0.08868622262200267,"106":0.17898093553769084,"107":-0.0689017646544461,"108":-0.07548115543807786,"109":-0.19581568889205875,"110":0.14009300893134885,"111":0.08239762108391434,"112":-0.1731107916490207,"113":0.21421548464642276,"114":0.08764854372359068,"115":-0.1441234894089792,"116":0.1422447583211638,"117":0.18804765632182702,"118":-0.17757005410715507,"119":-0.01490862059507298,"120":-0.10412969774599817,"121":-0.13674175750101286,"122":0.10416859991214676,"123":-0.013511548520262479,"124":0.20123731570628284,"125":-0.1659549175473352,"126":-0.02740030296774105,"127":0.15536368985635732,"128":0.13839139078342952,"129":-0.16510521617492332,"130":0.004408334832772774,"131":-0.1565708999422231,"132":0.21410394845939612,"133":0.10470618710712574,"134":-0.05025911211926106,"135":0.13701972246149727,"136":0.17895961149733286,"137":0.006778109614356265,"138":-0.0762241399216575,"139":0.10349105253854807,"140":-0.03887084479664249,"141":0.08997838878747022}},"20":{"bias":0.1034986326071339,"weights":{"0":0.10369485365280451,"1":0.1411184708836276,"2":0.02445910206762749,"3":0.10174642646283133,"4":0.218161380101854,"5":0.07137533209785013,"6":0.033772562332676885,"7":-0.10636304318833709,"8":0.04262610519668252,"9":0.21788479533015714,"10":0.19539197490526297,"11":0.056572428601547764,"12":-0.1095576409032986,"13":0.003765557767511049,"14":0.08479763823034708,"15":0.10767951394518055,"16":-0.16262886229258514,"17":0.045956055863275926,"18":0.0009244697388159586,"19":0.16631744825452754,"20":0.06277639354251893,"21":-0.11193609235418173,"22":0.0015858385022189028,"23":0.1375797227704153,"24":-0.08053628855888072,"25":0.2213749417061191,"26":-0.09722462625549656,"27":-0.005261906976870271,"28":-0.0643138287588413,"29":0.10915555035227299,"30":-0.11085594671472203,"31":0.2068436132161217,"32":0.18370592152373988,"33":-0.22004150459565827,"34":-0.149685495799546,"35":-0.1372600359022294,"36":0.07722797186634907,"37":-0.000903851514876581,"38":0.13782384240483686,"39":0.19637541527483945,"40":-0.06467630688657806,"41":-0.08664571681096254,"42":0.10232660410898788,"43":0.0745453657918757,"44":-0.07369709756261357,"45":-0.019918575820287672,"46":0.1004114621907239,"47":-0.2069216930476033,"48":0.16593634859036668,"49":0.06968736785502834,"50":0.05226534872684218,"51":-0.03817944561194251,"52":-0.03777725395998444,"53":-0.04319938230593559,"54":0.028971849855889187,"55":0.10650924595525142,"56":-0.01506315533549486,"57":0.1652270780634643,"58":-0.12021753697567812,"59":-0.00009515467516609986,"60":-0.19479777930765269,"61":-0.032613646171776985,"62":-0.13546770206474135,"63":-0.14737826334983986,"64":-0.08492460595325398,"65":0.014771040067930778,"66":-0.19609217491069136,"67":0.03234003138233853,"68":0.09116448528459212,"69":-0.09933926567636606,"70":0.07812392435966835,"71":-0.21829989547886747,"72":-0.2725674754653282,"73":-0.016433142717031893,"74":-0.2060516352389299,"75":0.08332249124449813,"76":-0.027317472695092413,"77":0.08925178919969748,"78":0.06187201034334692,"79":-0.22262990516920722,"80":0.02345264485123226,"81":-0.052656786039075726,"82":0.08318871399752309,"83":-0.18669278314285506,"84":0.07863737204167498,"85":-0.1315000642343828,"86":0.07048836159005922,"87":0.11986665355715119,"88":-0.11434517261860284,"89":0.1308696900545136,"90":0.16842545102815576,"91":-0.0031126796331341143,"92":-0.12216515605912158,"93":-0.10777381723556863,"94":0.10530998537952224,"95":-0.17334994783879953,"96":0.052817974571809895,"97":0.07702201654064245,"98":0.13302667153156095,"99":-0.04565104135334591,"100":-0.16338031812761047,"101":-0.0025725481508192664,"102":0.07273551984086524,"103":-0.18837849022111747,"104":-0.03422762217953858,"105":-0.0543676681843592,"106":0.09131994402103366,"107":-0.18920842810216484,"108":0.021503143150417757,"109":-0.035640859246340806,"110":0.07973774774697735,"111":-0.045256421075593134,"112":0.02103971274156465,"113":0.01001550918326145,"114":0.07561207662073316,"115":-0.08256909242140545,"116":-0.20891542035427144,"117":-0.11190989694271637,"118":0.024379041535099857,"119":-0.16622792707515413,"120":-0.08010688838218355,"121":-0.091644221744434,"122":0.11841798712978678,"123":0.18270082500225648,"124":-0.028276450895385725,"125":0.080989375675654,"126":-0.18262923328283254,"127":-0.09129615715407312,"128":-0.10763811917504391,"129":-0.0580549673244184,"130":-0.2072976648271667,"131":0.007899532618423561,"132":0.10917357892400252,"133":0.18039340042913038,"134":-0.09378795889955534,"135":-0.17570787030799576,"136":0.19043416120119816,"137":0.15082874186052286,"138":-0.10026288663828634,"139":-0.013494377338429515,"140":-0.09758200894805379,"141":-0.16881232008476316}},"21":{"bias":-0.025568306146149224,"weights":{"0":-0.15311948206606504,"1":-0.04160518524807546,"2":0.06863998888614449,"3":-0.14707771646165568,"4":-0.10613637117588104,"5":-0.14804986416943963,"6":0.09931831232511469,"7":-0.1286522550331355,"8":0.1566856591599442,"9":0.14807688232049432,"10":-0.1529619616728217,"11":-0.04909442801168488,"12":0.18811592667927302,"13":-0.13610108963318818,"14":0.0943727208425501,"15":-0.0006888958904583287,"16":-0.05329594220447325,"17":-0.06406935519362754,"18":-0.1495337789358689,"19":-0.0013034105863480741,"20":0.1890905448894153,"21":0.08364021763324464,"22":-0.10005620755510182,"23":-0.010110723604871119,"24":-0.05051157035118223,"25":0.1791207263499813,"26":-0.09547372044037146,"27":-0.11390581351726078,"28":0.10133198170953593,"29":0.06136635107021939,"30":-0.09370917767289579,"31":0.045113789752288164,"32":-0.14616592066665818,"33":0.08603061138269766,"34":-0.1278561864558297,"35":0.03872054385955925,"36":0.13093247584500248,"37":-0.17496841697417856,"38":-0.05350248339095395,"39":0.05213208175319388,"40":-0.13739203065782632,"41":-0.19190339980665386,"42":0.12818683298519265,"43":0.004878160939617964,"44":0.15485093648511394,"45":0.12700699428761575,"46":0.14436821738564454,"47":-0.15830629460365386,"48":-0.14256817937117655,"49":0.017013506188423778,"50":-0.19175376146365514,"51":-0.07244692602637487,"52":-0.15363675881970956,"53":0.1549926884806084,"54":0.19197755176736622,"55":0.0856612408009222,"56":0.08556194023593074,"57":-0.01907613848484963,"58":0.11166853531132177,"59":0.10073868947225452,"60":0.20222510507114416,"61":0.04364363740206423,"62":-0.07663000332462418,"63":-0.043062165086215215,"64":-0.06957672617888337,"65":0.10540288822090528,"66":-0.10810030849365514,"67":-0.08149876773516572,"68":0.059655030970537384,"69":-0.0763756655889202,"70":0.07976624509238085,"71":-0.17432561473590044,"72":0.0838285050681092,"73":-0.02690493947748461,"74":0.04480468193238313,"75":0.12028183890600082,"76":0.13615551703163684,"77":0.09931908775494082,"78":-0.09579030725387418,"79":0.19768242207264303,"80":-0.152828601286554,"81":-0.13658993828627927,"82":-0.10384270683407934,"83":0.010154053447966235,"84":0.006190923078809703,"85":0.013501775083341017,"86":0.05468094923528612,"87":-0.15526331457624581,"88":0.19458998595383367,"89":-0.15334129324985515,"90":0.07321990497834716,"91":-0.08249604658553503,"92":0.00793799968333176,"93":0.19833324105073027,"94":0.09404063316668884,"95":0.04054712697509135,"96":0.022803282260377058,"97":0.13399732899059277,"98":-0.11093300054182298,"99":0.011708172223169219,"100":0.16214483656925602,"101":-0.055389632505838116,"102":0.06454083293487882,"103":0.17711597345344954,"104":-0.05859221215688038,"105":0.12449676555933528,"106":-0.06013670401632042,"107":0.19396799015810404,"108":-0.1614394274128819,"109":-0.15545468095390572,"110":-0.15855616264427572,"111":-0.03505610358989033,"112":0.14006281934541143,"113":-0.09603777833363002,"114":0.04691129203083893,"115":0.15063624983461005,"116":-0.20934277353189085,"117":0.09656424430285766,"118":0.01928652009988878,"119":-0.10107434610679711,"120":-0.2125316115708044,"121":0.039234402688891744,"122":0.0811648643001516,"123":0.043702433684616036,"124":-0.15952280920698197,"125":-0.0782033985054473,"126":0.09161839774262895,"127":-0.16185697030733104,"128":0.13264829889323698,"129":0.11821365500454031,"130":0.1127263881633346,"131":0.0235466694222055,"132":0.02156215664443971,"133":0.1166104888545543,"134":-0.1823998121602673,"135":-0.13212643401062266,"136":0.03139548879641159,"137":-0.006404409736453566,"138":0.10155986717860264,"139":0.09659886920513448,"140":-0.1586690190767743,"141":0.15313273114832707}},"22":{"bias":-0.08648406072367201,"weights":{"0":0.08780054526858715,"1":-0.1358714335951669,"2":0.005788447144830278,"3":0.07392109469525984,"4":0.023636400702055846,"5":0.1151496301816844,"6":0.09068146931263646,"7":-0.0630950771722887,"8":-0.03316671964052195,"9":0.013845959722319877,"10":-0.003794796468771708,"11":-0.21235920767086913,"12":-0.026276078936473525,"13":-0.058803380799690316,"14":-0.017447424582135034,"15":0.019219876477938453,"16":-0.14096810285906475,"17":-0.016131570356320665,"18":0.14290366117658632,"19":0.06653186063423748,"20":0.030520172650180543,"21":-0.17598573089467595,"22":0.0793795026883226,"23":-0.1967594756307015,"24":0.03616370583172575,"25":-0.09423383219384147,"26":0.024648928422196185,"27":0.06813700318541359,"28":-0.13397039133770067,"29":-0.001608870861307397,"30":-0.09075973287473874,"31":-0.05277271518028713,"32":-0.04521713729048403,"33":0.16274348436697014,"34":0.03672360046327154,"35":-0.05752640941840863,"36":0.0697834936044599,"37":-0.09249677787216404,"38":-0.08501731002214202,"39":0.11288093558272742,"40":0.17203228526114017,"41":-0.16347879886745742,"42":-0.1374984226936815,"43":-0.13996986485343121,"44":-0.040145153757358026,"45":0.04146575013905608,"46":0.09766766513388501,"47":-0.04078115856320886,"48":0.1741863544175092,"49":0.007196420158212786,"50":0.08583806530217096,"51":0.15677196393346873,"52":0.1958417913750836,"53":0.025019463471612054,"54":-0.08794172765367571,"55":-0.11242168751863998,"56":-0.06720636400992554,"57":-0.020838897887230288,"58":0.16036582285542103,"59":-0.17960780042233104,"60":0.00697776987688259,"61":0.1848516133696191,"62":-0.007560074566948404,"63":0.07575605674129691,"64":0.07950305573521353,"65":0.19382798087049255,"66":0.17294293298098543,"67":0.21119943378339048,"68":-0.043221256825489725,"69":-0.10484024567089692,"70":0.09312714647699996,"71":-0.1213061675651388,"72":-0.1442407578846498,"73":0.01846943008244791,"74":-0.1101562522714943,"75":0.10323737837416888,"76":0.029358909940755722,"77":-0.0682431574069709,"78":-0.024118515664374934,"79":-0.1277972380271995,"80":0.11624956913216507,"81":-0.045618823542148024,"82":0.1876002358425979,"83":0.13571758016898697,"84":0.001256220405251795,"85":-0.13592029538507994,"86":0.0963748170515233,"87":0.012310333601783272,"88":-0.07389046165984635,"89":-0.04049398965720294,"90":0.09824060549507437,"91":0.12886344654461265,"92":0.025468804429174683,"93":-0.1367197969939759,"94":0.047982988983525265,"95":0.05900368201975595,"96":-0.16469749744857964,"97":0.059801686744771626,"98":-0.09808798325076261,"99":-0.10009927503295912,"100":-0.09084885498283571,"101":0.16093606172377192,"102":-0.014717292508310203,"103":0.13091681777769687,"104":-0.04383096208954515,"105":0.09256521887972165,"106":-0.034100739312489164,"107":-0.19150072103205248,"108":-0.1160818671953076,"109":0.1971148207658505,"110":0.0295214762429923,"111":-0.16017032445011098,"112":0.11740214111273875,"113":0.16913845013120768,"114":0.15132732699887966,"115":0.17734861318463777,"116":0.13600068970204457,"117":0.1650343972482187,"118":-0.04314286421208595,"119":-0.018047906994395888,"120":-0.12327447423637165,"121":0.1825992960574152,"122":0.17798281958964057,"123":-0.1316954978269248,"124":0.16938079371895032,"125":-0.09928052329637417,"126":-0.026662446815487417,"127":-0.17011031136818325,"128":-0.05953010414266199,"129":-0.03104037790744919,"130":-0.04194353671138367,"131":-0.12001556083636536,"132":-0.11653999454650389,"133":0.09421218706274491,"134":-0.1116153814542748,"135":0.1501745267769386,"136":-0.017594681792942678,"137":-0.177550144062342,"138":-0.09130508692439866,"139":-0.1795251867920007,"140":-0.011105988816966908,"141":-0.06480853451799172}},"23":{"bias":-0.09775649002375766,"weights":{"0":0.008367304857780648,"1":0.02204838218658135,"2":0.06547140119279009,"3":-0.25938169827564045,"4":-0.017648973687787207,"5":-0.14573766333112342,"6":-0.009192066259043688,"7":-0.050408177301803386,"8":0.08763016083426244,"9":-0.13126844564686224,"10":0.10885167810879642,"11":0.007746375258689007,"12":-0.012023712566199806,"13":-0.042018954759996466,"14":-0.20055580059861336,"15":-0.09634187553955482,"16":0.07754062263256044,"17":0.09858195732249113,"18":-0.2102073552068633,"19":0.11665509272188099,"20":-0.15797786902724442,"21":-0.04097026617079229,"22":0.16022802481405474,"23":-0.06124565880523351,"24":0.05374552299671491,"25":-0.1995362135277589,"26":0.08139572710355285,"27":-0.049049947878687425,"28":-0.07676789039183143,"29":0.15207771955309385,"30":-0.21011103858895613,"31":0.15352237017422188,"32":-0.0641402671077527,"33":0.14077258528982584,"34":0.07844186915506574,"35":-0.08263658371809227,"36":-0.1658927850648502,"37":-0.15112147613720617,"38":-0.19031397314279655,"39":0.1104618585046537,"40":0.15853048138508596,"41":0.07641857937770974,"42":-0.19359360519192853,"43":-0.20397850243963384,"44":0.2579990178559657,"45":0.24210063224076528,"46":-0.031192683551675333,"47":0.2080494830669467,"48":-0.17507339700152325,"49":0.030669197994242992,"50":0.0732138783098306,"51":0.1726237361142432,"52":0.17681321620692975,"53":0.09984531727012631,"54":0.2712540339947968,"55":-0.1648898187846944,"56":-0.15920523851705198,"57":-0.04851095689543534,"58":0.0543470691501236,"59":-0.04138162935056703,"60":-0.14738231282720668,"61":0.09806805329612242,"62":-0.14846142437370907,"63":0.07434879481829218,"64":0.026664457249742465,"65":-0.00840263596800209,"66":-0.11381377155391771,"67":0.08882125787290021,"68":0.06497533290833762,"69":0.08496205565013727,"70":0.13009094041058056,"71":0.23086055486997942,"72":0.09552519178946688,"73":0.00333658490612395,"74":-0.03640386949197164,"75":-0.01652030885212218,"76":0.04771615929220566,"77":0.013997895204964425,"78":0.07407225774729727,"79":0.0561482372265815,"80":-0.17453048507367855,"81":0.21582717497922174,"82":-0.1499378080433409,"83":0.05718530983318795,"84":0.0026765123468314974,"85":-0.09101144169664428,"86":0.04516573722977294,"87":-0.15248731778229155,"88":-0.15957918533425527,"89":-0.13476035733897462,"90":-0.10084817477876334,"91":-0.15127075443987398,"92":-0.14121202903094027,"93":-0.09362736210045171,"94":-0.10366982008488385,"95":0.20455176208744816,"96":0.16109742941194968,"97":0.022811578823076873,"98":0.1037447178130641,"99":0.13335300475871043,"100":-0.02773151723590859,"101":-0.037326039329051784,"102":-0.010197844653563133,"103":0.23481620212736026,"104":-0.15934043615589855,"105":0.1789465729582778,"106":0.03316532000971962,"107":-0.1007937038627098,"108":0.07352939016702545,"109":-0.1426017990625946,"110":0.17939299827932903,"111":-0.0746637002104173,"112":0.11977369004618142,"113":-0.06620586057170373,"114":0.14592871869795923,"115":-0.197083514018099,"116":-0.005996322545726696,"117":-0.08700896459848342,"118":-0.1966077398804679,"119":0.03778079712468357,"120":0.08400563273018015,"121":-0.1560898487677512,"122":-0.13873259757518036,"123":0.04638524818183385,"124":-0.05065642842164688,"125":-0.08079579662694562,"126":-0.006685252359445716,"127":0.13014878827147577,"128":-0.07522389404413914,"129":0.16975652091405108,"130":-0.00495629378770574,"131":-0.16272167895280165,"132":-0.12678441591867068,"133":0.006679966836767214,"134":0.1352995872756682,"135":0.1668639436904636,"136":0.03233118242265307,"137":-0.1022110928301496,"138":-0.12348988810904901,"139":-0.11998714608268977,"140":0.15609669462155906,"141":-0.08526508610613041}},"24":{"bias":-0.20467129317328117,"weights":{"0":0.11371036249897828,"1":0.15551890557017126,"2":-0.09314621939263042,"3":-0.10498790013532074,"4":-0.09192618363337889,"5":0.1351214745650475,"6":0.00511311037599333,"7":0.03069405288951725,"8":0.10108959160481339,"9":-0.022040308527778645,"10":-0.1808542823115595,"11":0.00021867848136391594,"12":-0.04593772715434869,"13":-0.14064936573390419,"14":0.10540071876170336,"15":-0.08465752143995538,"16":0.1592157073179269,"17":0.1946960751138978,"18":-0.19167579089570486,"19":-0.062302657217878886,"20":0.14893782009404571,"21":-0.05162819882862633,"22":-0.0825935126358873,"23":0.01881678902201955,"24":-0.08034253998156364,"25":0.1519110043154927,"26":0.15005033057567332,"27":0.06829161887696093,"28":-0.08501599632185472,"29":0.008691187829084531,"30":-0.16774597473651012,"31":-0.05002960665955085,"32":0.0926179594652288,"33":0.053458755983398956,"34":0.12935760512107913,"35":0.18433172882490328,"36":-0.16815401340336705,"37":-0.09999300487859548,"38":0.07205215988306632,"39":-0.01183508923047204,"40":-0.16792003869677075,"41":0.12809455627501498,"42":-0.06328247314453686,"43":0.05566201996373708,"44":0.0716649692290248,"45":0.18750028403275087,"46":-0.18049900469113048,"47":0.14876920567125346,"48":0.051714753528519786,"49":-0.1099382997676732,"50":0.058734951907509325,"51":-0.04003483761499715,"52":-0.04052450784018505,"53":-0.1080895350727433,"54":0.19915513230410894,"55":0.011574932585905364,"56":-0.057961444225045455,"57":-0.13146931366132875,"58":0.0434166703598447,"59":0.18747943329251066,"60":0.14822482046633162,"61":0.05431807341907163,"62":-0.0615839790588863,"63":0.17368646246892366,"64":0.03951293995612343,"65":0.1004403530420747,"66":-0.07724249497994341,"67":0.00484376720249986,"68":-0.11951007330526628,"69":-0.09887409819859995,"70":-0.0941342377259938,"71":0.17860788443014797,"72":-0.1971671038953878,"73":-0.19093263781483785,"74":-0.14611554011701955,"75":0.09775030812405709,"76":0.05373657754616328,"77":0.11845084567507579,"78":-0.06538953610090456,"79":-0.1003954018226222,"80":-0.1534507386887763,"81":0.12420766285702062,"82":-0.13500871742827933,"83":0.06895375919530644,"84":0.031202077183154556,"85":-0.18937098000801994,"86":-0.029576608448913258,"87":0.1292027004739009,"88":-0.09052332929956265,"89":-0.048061365685395305,"90":0.036994221933268304,"91":-0.0321343701501355,"92":0.0034953136887697325,"93":0.1063175151042332,"94":-0.12607213740150322,"95":-0.1133413599559925,"96":0.1344734068870683,"97":0.037584187865217486,"98":-0.04143394389297082,"99":-0.09686154788111823,"100":0.18626255933132188,"101":-0.09789670234860592,"102":0.15929852268827235,"103":0.05865807166579459,"104":0.07852370798946257,"105":-0.06967808287012012,"106":-0.13960694405996674,"107":-0.11020451958004907,"108":0.07632922986025109,"109":0.19089043920446927,"110":-0.011498301048071338,"111":-0.19015363636550064,"112":-0.07977651786012609,"113":0.11470285098526375,"114":-0.18933806390233618,"115":-0.0599460815804859,"116":-0.10288446097213093,"117":-0.045693199886083787,"118":-0.18409672815327943,"119":-0.058232060415577026,"120":-0.18169976901759957,"121":-0.18965927249316877,"122":0.0075675455388498685,"123":0.12808941320845507,"124":0.16033570559161675,"125":-0.0872066923416155,"126":0.16235879913536402,"127":0.0648656041305445,"128":0.17211878483651338,"129":0.1279740281530216,"130":0.13107344214965255,"131":-0.20131247841816324,"132":-0.05986149111445797,"133":0.025838759822759058,"134":0.07291916970160976,"135":-0.01868540274827304,"136":-0.08371680259482987,"137":0.10719377277550309,"138":0.014961779832807245,"139":-0.0006908337042567798,"140":0.14016232958097963,"141":0.06476384887020438}},"25":{"bias":-0.09131561510773632,"weights":{"0":0.17147971422216038,"1":-0.16790855582561653,"2":0.1384604625366462,"3":0.18163237043764552,"4":0.0464037471606627,"5":0.060134201378594085,"6":0.2170078019069692,"7":0.08154684705545853,"8":0.10528581051550574,"9":0.04837887093631579,"10":-0.04473931532958435,"11":-0.14433772152722274,"12":0.17889626050924082,"13":-0.03425204100600872,"14":-0.04365773442518593,"15":0.009080712762033781,"16":0.15794431449165133,"17":0.1113260482266771,"18":0.04627589439198555,"19":0.03716433825291168,"20":0.1990088026773192,"21":0.0029744698001170277,"22":0.13906175564970255,"23":0.0327501391876599,"24":0.06512720105414543,"25":-0.04145398234675308,"26":0.10075868567304085,"27":-0.10885164756783283,"28":-0.008866009305280377,"29":0.21117546795084483,"30":0.1880979510809829,"31":-0.17509001094846569,"32":0.10595668129324325,"33":0.02117521380260459,"34":-0.17192878306412082,"35":-0.042973877255079514,"36":-0.08028848874850927,"37":-0.15749442900319485,"38":-0.06604596425339096,"39":-0.19282718809694022,"40":-0.0992436470375925,"41":0.13199317123103851,"42":0.12611266486661782,"43":0.09344505302388516,"44":0.04025015607789678,"45":-0.05105016136685905,"46":0.11876321882950736,"47":-0.1472947364925342,"48":-0.056950261786886856,"49":0.021514973600188884,"50":-0.05001252032827357,"51":0.11887824232320517,"52":0.18708701249787857,"53":-0.014658521638194979,"54":0.1269108317832427,"55":-0.20136872083490942,"56":0.0006898815088762902,"57":0.09751887166232559,"58":-0.19922804960024346,"59":0.1971381411850181,"60":0.09525506339689332,"61":-0.1083105227657771,"62":-0.2266994092103579,"63":-0.1284821633643192,"64":0.18947391651129702,"65":0.10913847835206725,"66":-0.01589572366283515,"67":0.14287686013686976,"68":-0.030072740050010524,"69":-0.15831242387986777,"70":-0.1303002735904244,"71":-0.08351655945080423,"72":0.13064923247465038,"73":-0.029532258659393674,"74":0.034105423545043104,"75":-0.07154453315945006,"76":-0.1913504039680156,"77":0.00215176803212431,"78":0.1609730375662004,"79":-0.02789894526777245,"80":0.14231537356607565,"81":-0.16720576783964036,"82":0.13134464866672224,"83":-0.14982091497280364,"84":0.13915084511450904,"85":-0.20088280164966754,"86":-0.17387874671544026,"87":-0.1479642223457617,"88":0.04154510444867807,"89":0.012427209208175416,"90":0.13380034983024736,"91":0.05611556251609174,"92":0.06414950649653542,"93":0.16785234254229509,"94":-0.1494900152589847,"95":-0.11024488196155229,"96":0.04103988662141981,"97":0.16456464860419762,"98":-0.19626147139395336,"99":-0.18086734222279555,"100":-0.038915467328353846,"101":0.006755869457619743,"102":0.033690862023213454,"103":-0.12634317120915048,"104":-0.11394272254797082,"105":-0.10374519806966402,"106":-0.053068616658662186,"107":0.018372469561162348,"108":0.03587101790473766,"109":-0.06447556182372174,"110":-0.09146888733535867,"111":-0.1147595551774381,"112":-0.1186091310950471,"113":0.013899900178745159,"114":-0.044085435148173174,"115":-0.12381464630304705,"116":0.11831436992824626,"117":0.11227767845174283,"118":-0.108244582567853,"119":-0.16410342225698302,"120":0.029246279532556933,"121":-0.011081990301908455,"122":-0.15357867928496682,"123":0.05356692677387157,"124":-0.010060128167029529,"125":-0.1856210427497183,"126":-0.15777896971061728,"127":-0.2359980266978316,"128":0.1414000353242621,"129":0.09455393300797872,"130":-0.09532523264079769,"131":0.09522691053397837,"132":0.01715479718113825,"133":0.09550780318515624,"134":-0.2114278488853239,"135":0.022318608779429948,"136":-0.057524959516642424,"137":0.07437526172512965,"138":-0.15992207403196718,"139":-0.15547902640963487,"140":0.10376007705851914,"141":-0.1608902111246572}},"26":{"bias":-0.04622484484541792,"weights":{"0":-0.17511841455713054,"1":-0.0329988411019027,"2":-0.07147218549372865,"3":-0.13257076254465122,"4":0.015992405671190545,"5":-0.24212064679573916,"6":-0.09124825585719998,"7":-0.17977450295392716,"8":0.08867521529785308,"9":-0.04513794507800887,"10":0.14668811110586805,"11":-0.15401420495114543,"12":-0.022864813743886964,"13":0.18271526621081985,"14":0.1518123209591018,"15":-0.20849415418830936,"16":-0.18283373799776292,"17":-0.004530282292194938,"18":-0.13082452673567022,"19":-0.17090612383186965,"20":-0.11061129739573307,"21":-0.019200937254846603,"22":0.13126897407679983,"23":0.053163252673617455,"24":0.025386348893549415,"25":-0.09873834127099329,"26":0.10104011651885732,"27":0.1898919344561597,"28":0.15507867645186849,"29":0.16005381194508603,"30":0.09674352400952518,"31":0.10238073200666253,"32":-0.05541210302593654,"33":0.04068975060464035,"34":-0.06190272023832827,"35":0.03830297432358608,"36":0.06203456119804492,"37":-0.07669357012938076,"38":0.01935670856280294,"39":0.11508390835321876,"40":0.10869391560421036,"41":-0.21831421170556256,"42":-0.217175320472907,"43":-0.04487824510407283,"44":0.20561671904281903,"45":0.13843955828964885,"46":-0.09780477454194893,"47":-0.12754421447743758,"48":0.003375037779546378,"49":0.17549336088259268,"50":0.16782529415024247,"51":-0.008703304461208572,"52":0.20659092255910602,"53":0.012628517879005716,"54":0.07010163338671509,"55":-0.11039233854996065,"56":-0.1296047635315721,"57":0.19086356109516386,"58":-0.1782079095746526,"59":-0.015748891653560738,"60":0.14860925131987154,"61":0.14922769695613844,"62":0.020340322278152974,"63":-0.0844130806268955,"64":0.030224926339337713,"65":0.04792326731475607,"66":0.0703663556274052,"67":-0.001541820474175531,"68":0.1605512338482604,"69":0.16893812838594993,"70":-0.02861931494529442,"71":-0.1443899563727207,"72":0.13617036831140744,"73":-0.16175348114516086,"74":0.09296320427801844,"75":0.2218684412240576,"76":0.1781614699969085,"77":-0.06501961128498603,"78":0.15353330314644034,"79":0.21762617321606173,"80":0.052971081441159584,"81":0.21454112878102144,"82":0.05514421864486918,"83":0.10332003523416645,"84":-0.009972328607487221,"85":0.17261902762404902,"86":0.14682005379064267,"87":0.1338498695022932,"88":0.13630433630100322,"89":-0.08911497521122222,"90":0.16570009510507228,"91":0.08509156848861206,"92":0.13540660379144207,"93":-0.055858018923230376,"94":0.13814161105504527,"95":0.09219724835457067,"96":-0.17817191393359566,"97":0.01673908662347791,"98":0.07655044228661424,"99":0.13122534167368202,"100":-0.13314579661352066,"101":-0.09580266724402324,