{"layers":[{"0":{},"1":{},"2":{},"3":{},"4":{},"5":{},"6":{},"7":{},"8":{},"9":{},"10":{},"11":{},"12":{},"13":{},"14":{},"15":{},"16":{},"17":{},"18":{},"19":{},"20":{},"21":{},"22":{},"23":{},"24":{},"25":{},"26":{},"27":{},"28":{},"29":{},"30":{},"31":{},"32":{},"33":{},"34":{},"35":{},"36":{},"37":{},"38":{},"39":{},"40":{},"41":{},"42":{},"43":{},"44":{},"45":{},"46":{},"47":{},"48":{},"49":{},"50":{},"51":{},"52":{},"53":{},"54":{},"55":{},"56":{},"57":{},"58":{},"59":{},"60":{},"61":{},"62":{},"63":{},"64":{},"65":{},"66":{},"67":{},"68":{},"69":{},"70":{},"71":{},"72":{},"73":{},"74":{},"75":{},"76":{},"77":{},"78":{},"79":{},"80":{},"81":{},"82":{},"83":{},"84":{},"85":{},"86":{},"87":{},"88":{},"89":{},"90":{},"91":{},"92":{},"93":{},"94":{},"95":{},"96":{},"97":{},"98":{},"99":{},"100":{},"101":{},"102":{},"103":{},"104":{},"105":{},"106":{},"107":{},"108":{},"109":{},"110":{},"111":{},"112":{},"113":{},"114":{},"115":{},"116":{},"117":{},"118":{},"119":{},"120":{},"121":{},"122":{},"123":{},"124":{},"125":{},"126":{},"127":{},"128":{},"129":{},"130":{},"131":{},"132":{},"133":{},"134":{},"135":{},"136":{},"137":{},"138":{},"139":{},"140":{},"141":{}},{"0":{"bias":-0.06672404319313681,"weights":{"0":-0.1097775458272025,"1":-0.05625647068339741,"2":-0.1062732038723122,"3":-0.07671715495008813,"4":0.01788601611685831,"5":0.02801280006393266,"6":-0.17992875149167903,"7":0.1268822093332615,"8":0.13451524821729247,"9":-0.18982922665780008,"10":-0.14656303067061968,"11":0.07851572549201401,"12":0.07402104365714894,"13":-0.04469607409203689,"14":0.08480109050611745,"15":0.12131034083659752,"16":0.05821167466102568,"17":-0.09057502016996667,"18":-0.06653931451930385,"19":0.14957776411863888,"20":-0.09958930234524244,"21":0.05303444861293146,"22":-0.09837009360795938,"23":0.18362798312350018,"24":-0.06908190708377891,"25":-0.06678752854893012,"26":-0.01266817941524647,"27":0.1447293856944833,"28":0.142278598279904,"29":0.16309462561020602,"30":0.04193535299414406,"31":-0.1776485736314764,"32":0.0994465008218029,"33":0.16919605092928428,"34":-0.2096138561801949,"35":-0.12516246356066654,"36":-0.1313428398102699,"37":0.18706674588091474,"38":-0.1561809203289169,"39":0.06163812955987165,"40":-0.1030509747927611,"41":0.04360584969537038,"42":-0.16048010528215953,"43":0.03138565700327065,"44":-0.1518783446877754,"45":0.07031482545768894,"46":0.17957002373815245,"47":0.16851288160422212,"48":0.07101007907424636,"49":-0.052248657463951534,"50":0.19997362064950996,"51":0.0877227865392868,"52":-0.15632481136386442,"53":-0.16309403536924913,"54":0.15170120772316276,"55":-0.1931593472647488,"56":0.026469482544466565,"57":0.03871076513862369,"58":-0.050368632243817754,"59":0.04902504827326286,"60":-0.1481954817774052,"61":0.16940675565692748,"62":-0.1843246063661466,"63":0.04362126117066749,"64":-0.12250569836585888,"65":0.026727722757900082,"66":0.1338730137700739,"67":-0.04185267481346777,"68":-0.044744491536603814,"69":0.1323642067610062,"70":-0.09596954946269375,"71":0.06825974693339294,"72":-0.12295548164695609,"73":0.019083742209808623,"74":0.1871855538696754,"75":0.02735232855849007,"76":0.048518269088627816,"77":0.1803016732815827,"78":-0.09424996885837782,"79":-0.08777281771447142,"80":0.1220129309568765,"81":0.10550747688979646,"82":0.12735179286468362,"83":-0.09082903146300246,"84":0.1639003957031972,"85":0.17484749115701165,"86":-0.09254209282120356,"87":-0.007964744239322865,"88":0.07970921814943784,"89":0.14453943920320372,"90":-0.14586869072989905,"91":-0.18610422018341805,"92":0.1870500407259652,"93":0.020852955628593142,"94":-0.06191627502188889,"95":-0.16421135840232828,"96":0.17050481124293854,"97":-0.13556178103948652,"98":-0.13775030394729756,"99":-0.1870248499083514,"100":-0.06663774073038727,"101":0.09626118475429685,"102":0.16525413325147936,"103":0.10665404306588482,"104":-0.08759844695372111,"105":0.1177078296874663,"106":0.11546116573081057,"107":-0.09036339957106566,"108":0.0813379315109767,"109":-0.17704185321540966,"110":0.10856275448909591,"111":-0.16717844078622035,"112":0.003902365392911312,"113":-0.029178307886178197,"114":0.046545661205054635,"115":-0.14666478592987023,"116":-0.14314514769623637,"117":-0.11646588590637505,"118":0.18865733854586575,"119":0.03197019374223146,"120":-0.2044959316260429,"121":-0.052343887324228365,"122":-0.041891236999094604,"123":0.024927260145895334,"124":0.15068961990286187,"125":-0.16294794694464082,"126":0.031064504288301927,"127":-0.19594714515017717,"128":0.1513404651676166,"129":0.023258036610935427,"130":0.11201230278240164,"131":0.10954123250421226,"132":-0.06614134697481912,"133":-0.061740780910709274,"134":0.0724502269937533,"135":-0.1596760788496248,"136":-0.0015926532392027803,"137":0.10198009372455667,"138":-0.13003490002846246,"139":0.012689568932700892,"140":0.08317644976055837,"141":0.05660886886219685}},"1":{"bias":0.03759272905408121,"weights":{"0":-0.23756192235269244,"1":0.021827932103532725,"2":0.15519237333020836,"3":-0.2643705734581968,"4":0.11376502316683673,"5":0.01241609020718692,"6":-0.07908759173105034,"7":-0.003275400805106718,"8":-0.09967228421884952,"9":-0.14243669912067988,"10":0.14020572708844697,"11":0.036388793153087504,"12":0.10575588751959955,"13":-0.20734567687542524,"14":0.0417728462039332,"15":-0.09900013626088783,"16":0.05460985085899108,"17":-0.1969752675792617,"18":-0.02095320648826021,"19":-0.12845688628162766,"20":0.07616770710004278,"21":-0.04450953049447324,"22":-0.10443239782569814,"23":0.025567139754212705,"24":-0.05095609893673259,"25":-0.17602561409528314,"26":-0.09717244291104195,"27":-0.16938060293618015,"28":-0.12354302871951477,"29":0.09088625707423036,"30":-0.12863567388050423,"31":0.12236762871434316,"32":-0.05994282797501139,"33":-0.156926936680726,"34":0.06920388787877006,"35":-0.19090611765753715,"36":-0.008176827413980719,"37":0.14883978836950293,"38":0.03954199706682703,"39":-0.138469485264976,"40":0.012587967860203355,"41":0.15015314021292617,"42":0.18623636589352663,"43":-0.1917387438737978,"44":-0.14482639288590696,"45":-0.2022523116645238,"46":0.13662782285626773,"47":0.15729861661452993,"48":0.05287254057957154,"49":-0.14446373669711013,"50":0.003578758113545427,"51":-0.09261855581425057,"52":-0.06740319578952743,"53":-0.1395175394615023,"54":-0.14343200440634646,"55":-0.04295028009373385,"56":0.1406953444362205,"57":-0.07273414958194485,"58":0.14798733533920888,"59":-0.07666770673570217,"60":-0.0745693295197192,"61":-0.0727301949280055,"62":0.162195941732167,"63":0.04725799970355894,"64":0.11854152416724975,"65":-0.1113993770915102,"66":-0.2392477326514642,"67":-0.12464393592237998,"68":0.07372987653808835,"69":-0.042041493217343726,"70":-0.24087998808438055,"71":-0.10653882267312607,"72":0.2233301802881877,"73":0.16328534472847547,"74":0.13826199269812878,"75":0.11491208370016831,"76":-0.24540120851574618,"77":-0.04550965766261807,"78":0.0872862607524282,"79":-0.16105506325426805,"80":0.13280784328481202,"81":-0.1437424448259049,"82":0.16788618823045035,"83":0.03196850988865452,"84":-0.022497898183444023,"85":-0.03275569128012472,"86":-0.1702548119647274,"87":0.010303394512330324,"88":0.12442077670611572,"89":0.10281211963268899,"90":0.17909039011516883,"91":0.09047991633035674,"92":-0.025322878004279455,"93":-0.14765499320828526,"94":-0.04112660899663803,"95":0.18827138694345355,"96":-0.19059808480303259,"97":-0.18512811411669391,"98":0.12323420652977655,"99":0.12992057718007347,"100":-0.0487448667512308,"101":0.1706404393636087,"102":0.07506748227332094,"103":-0.1936098078994534,"104":-0.08873906848185897,"105":0.156439067726974,"106":0.17717777672530968,"107":0.0749350085749882,"108":0.1155940053625304,"109":-0.13651452140810696,"110":0.10767122139424323,"111":0.21857942500176303,"112":0.18160289441338726,"113":-0.027770057216899607,"114":0.19311429327459737,"115":0.16283027994647417,"116":-0.0032707124625193907,"117":0.023657014656158548,"118":0.17554573880410682,"119":-0.011823860553724072,"120":0.05719944271868406,"121":0.0541856630684452,"122":-0.058890660247513445,"123":-0.003595255085437325,"124":0.19609274600419935,"125":0.13829610159014227,"126":0.12684038998687974,"127":-0.08787402761166904,"128":-0.05738028201783247,"129":0.026021979749981508,"130":0.23071043157722143,"131":-0.11596415057781519,"132":0.2311886332565426,"133":0.06754767374551279,"134":0.16717767096675362,"135":0.01505662870908613,"136":-0.1365001547297019,"137":0.07894347891697118,"138":-0.10329473228668382,"139":-0.08395550370331759,"140":-0.12546549553939104,"141":0.19783858579010538}},"2":{"bias":-0.1564766019878506,"weights":{"0":-0.2295543188363016,"1":-0.07305049058117723,"2":-0.10972744681810284,"3":-0.005328611716584852,"4":0.15572274674511488,"5":-0.11459833343874676,"6":-0.10392478130975809,"7":0.06317386841222034,"8":-0.22003618754483786,"9":0.0634074797451373,"10":0.09468341717388376,"11":-0.0650018764029483,"12":-0.10021756963604572,"13":-0.09917327406575537,"14":0.16894566032668074,"15":-0.044750329988035964,"16":0.17142509493366942,"17":-0.05672351113824978,"18":-0.2014838663282165,"19":-0.17422891359290538,"20":0.06840307309441046,"21":-0.1549065705571558,"22":-0.19349732556149887,"23":-0.20313709770361707,"24":-0.03032765422798837,"25":-0.10483576038916477,"26":0.03301066527021945,"27":0.12223842641213654,"28":-0.09540862267953823,"29":0.12961428488104118,"30":-0.08464757776573584,"31":0.054357438777975886,"32":-0.15410511611802138,"33":-0.12942596891558775,"34":-0.019798558617206675,"35":0.02295056388793834,"36":-0.13304052167921568,"37":-0.0647484751345499,"38":0.04239425004430829,"39":0.040636345335683034,"40":0.16203872758628987,"41":0.1080625989710291,"42":0.1570705646284902,"43":-0.0470884497035642,"44":0.11722836583832179,"45":-0.1225445392716855,"46":-0.15731202415975695,"47":-0.013713424595668341,"48":0.0039226575167299535,"49":0.10827181314026134,"50":-0.08709343900116213,"51":0.16165221116194897,"52":0.10821707602361412,"53":0.11331346089493186,"54":-0.012800363258303856,"55":-0.07814817067735048,"56":-0.008604252714995849,"57":-0.07844384966889902,"58":-0.1292217318343236,"59":0.07707595667972093,"60":-0.010074900395002669,"61":0.09133358186799072,"62":0.08008618794476739,"63":-0.18152369908711463,"64":-0.11075771493239657,"65":0.020542947197060187,"66":0.0444810519915125,"67":0.005047887104060945,"68":0.18339129308835175,"69":0.04788991451441639,"70":0.15943295115870762,"71":-0.16258058051647006,"72":0.24367218471202895,"73":0.04647807787637853,"74":-0.14892663735996814,"75":-0.05590411295736445,"76":0.1964270552785666,"77":0.1209282710462974,"78":0.09489189129743765,"79":-0.1478777654369147,"80":-0.1224225471627973,"81":0.08143014014769344,"82":-0.1090455674508964,"83":0.03355163875202428,"84":0.13631865713728508,"85":-0.1214911544785932,"86":0.11662204308285494,"87":0.08681296829878186,"88":0.14194329145348294,"89":0.15628407862141624,"90":-0.03489449543491495,"91":0.1596511558700177,"92":0.14624249182922294,"93":-0.057028804984994214,"94":-0.1098681129609377,"95":-0.041568875972427935,"96":-0.1458130813626895,"97":-0.15331261638375876,"98":-0.018971045973765824,"99":-0.18135131982477248,"100":-0.02377409039238817,"101":-0.10772286741783454,"102":0.0694109639271188,"103":0.051984928291415655,"104":-0.09957214503281749,"105":-0.0700753859214616,"106":0.09898829062529883,"107":-0.00488686402027767,"108":-0.11949088880754095,"109":0.0492225706495681,"110":-0.12504029532274408,"111":0.09003891818647722,"112":-0.13966988955781665,"113":0.1302424771915259,"114":-0.0070872485835721455,"115":0.19891911959108277,"116":-0.024629083692382495,"117":0.13863711530872597,"118":-0.1829287914526446,"119":0.04268038275444437,"120":-0.14464977352406383,"121":0.09085754018427662,"122":-0.03853327300235426,"123":0.04075111391883282,"124":0.07242867374639496,"125":0.16824473856871372,"126":0.19409040861735458,"127":0.11509261054859099,"128":0.06825890870106542,"129":-0.01706287989844621,"130":-0.1055073533691653,"131":-0.038832397287068915,"132":-0.18291911362894625,"133":-0.1636389002742533,"134":-0.07282000864767833,"135":-0.09521160322438053,"136":-0.02870997818987262,"137":-0.14416013651305365,"138":0.12708937029423972,"139":0.06240656611699167,"140":0.04134776041029687,"141":-0.11786173664261482}},"3":{"bias":-0.0664314132021733,"weights":{"0":-0.17559073462290495,"1":-0.18205693549894408,"2":-0.008080499620234305,"3":-0.1652539263468699,"4":0.04080237054356806,"5":-0.18816556809214594,"6":0.01327301136932626,"7":0.09107661624202436,"8":-0.1484443047289885,"9":-0.038073204187751244,"10":0.1452637878101309,"11":0.009141388719724223,"12":0.1722326059720359,"13":0.16531024723894164,"14":0.18448274534190676,"15":-0.09652078656669115,"16":-0.1338468720958851,"17":0.1255642675862728,"18":0.16711036659658376,"19":0.14797949544154712,"20":-0.08865861829513652,"21":0.18830351630460082,"22":0.09539735611306867,"23":-0.16527888418056064,"24":0.04116960362197876,"25":-0.10302206846963356,"26":0.17432154629299054,"27":-0.2134831425372713,"28":0.029681297053808963,"29":-0.006657101713140819,"30":0.07888186298503726,"31":-0.09833710464861416,"32":-0.20342116579266853,"33":-0.11666034851912514,"34":0.09316062332229642,"35":0.017320623456827985,"36":-0.11547428382130964,"37":-0.10429724594072565,"38":-0.03249855181134082,"39":-0.18362815865749185,"40":0.1085450722878021,"41":0.08548676114354621,"42":-0.02610154769733218,"43":0.14935999239240164,"44":0.11798139472953234,"45":0.014084973231786776,"46":0.0655221115197406,"47":0.1645673023995416,"48":0.021379058437414878,"49":-0.20028029445556805,"50":-0.028458336852805365,"51":0.06133220815833161,"52":-0.1525955928145535,"53":0.11710258066091933,"54":0.16197637667524126,"55":-0.014390573941432012,"56":-0.16084248552448094,"57":0.014910602017424786,"58":-0.18250596389623544,"59":0.17362431838567843,"60":-0.18954471226890693,"61":0.19034286084360352,"62":0.07608135006518146,"63":0.1863288217063942,"64":0.0008668012388376952,"65":-0.19524833768627062,"66":0.17997047858295426,"67":0.17033098698538385,"68":-0.18757621712705322,"69":-0.2143759624054601,"70":-0.18987965521100145,"71":-0.032325773321294854,"72":-0.09117347254627473,"73":-0.006532885827137129,"74":-0.06512294542885017,"75":-0.02714697865389716,"76":0.13218369416596054,"77":0.031818503542066744,"78":0.03173534481719272,"79":0.1613267129333916,"80":0.10760670230786358,"81":0.1918610347008611,"82":0.19285664237469788,"83":0.17754934360869148,"84":0.03738198560538134,"85":0.13600919131005815,"86":0.19722106000003678,"87":0.10768246881915784,"88":0.19126281726608932,"89":-0.043120688184179766,"90":-0.03886624877804031,"91":-0.10176976298346718,"92":-0.12915564280014388,"93":-0.13680642042141689,"94":-0.16997433285422991,"95":0.13202982369976954,"96":0.10525644920562229,"97":0.12070438006311247,"98":-0.031799994066536406,"99":0.0492815828428411,"100":0.15798913313975713,"101":0.08621929798895803,"102":0.16767901458448672,"103":-0.08423483875550797,"104":-0.0752857329126264,"105":-0.04231197655759388,"106":-0.024356590254385448,"107":0.02665958734589257,"108":-0.16811644283121077,"109":0.19904771747154346,"110":0.1680187125298502,"111":0.2773729543613744,"112":-0.17966764699986598,"113":0.17077610076689353,"114":0.17272840632571423,"115":-0.12563493870372722,"116":0.03847380400728556,"117":-0.07005693592624361,"118":0.18625571348306313,"119":0.14002241743426508,"120":0.03616204473902842,"121":0.11750171995777306,"122":-0.0416446145636698,"123":-0.16789203442030495,"124":0.04084518437298679,"125":0.001688702292226779,"126":-0.041631371245856176,"127":0.025077668375208802,"128":0.14339656124695085,"129":-0.08653859881456047,"130":-0.13694379297715062,"131":-0.0447845356764925,"132":-0.0010622606230458692,"133":-0.16394845838837274,"134":-0.12086600648800302,"135":0.12667624286229023,"136":0.1975584624892504,"137":0.04383097405473175,"138":0.17964815212356666,"139":0.13994207187426988,"140":-0.15408064216590178,"141":0.030461328645390653}},"4":{"bias":-0.11975063197840988,"weights":{"0":-0.07483648883429948,"1":-0.195488549798296,"2":0.14580191893419156,"3":-0.0726435948694156,"4":0.14804293307897676,"5":0.08008997053896647,"6":0.11485776716687307,"7":-0.19445549370729837,"8":-0.18402884591917534,"9":0.11871526209090069,"10":0.1514259049118874,"11":0.014866841317112939,"12":0.05482634331378172,"13":0.08903000854625889,"14":0.12198454089577057,"15":0.19409732541709768,"16":-0.11861608339681656,"17":0.07184734637018639,"18":-0.13547315939465843,"19":-0.06820119178227635,"20":0.09092601760865435,"21":-0.14247435386351126,"22":-0.05682069399800636,"23":0.09809066657717698,"24":0.03578438473251464,"25":-0.09994592365908371,"26":-0.014206813766503698,"27":0.1826459303520866,"28":-0.028271829713636554,"29":0.011595903168290884,"30":-0.08496115736881531,"31":0.0032031247984075873,"32":-0.15811061612766625,"33":0.14743914396833258,"34":-0.024507310818682727,"35":-0.1625098127780551,"36":-0.016709585091954162,"37":-0.0020916717664342973,"38":0.06349271797057345,"39":0.19787237942913732,"40":-0.18701048209482085,"41":0.15254486786118493,"42":-0.12806355704672992,"43":0.03741537821779171,"44":0.10388197475098838,"45":0.00565810587725249,"46":-0.05824118857018472,"47":-0.06614037385419659,"48":-0.13054313514909138,"49":-0.1414756484011577,"50":-0.020645576398901123,"51":-0.11177703519425627,"52":0.019350247033634426,"53":0.10100220617963197,"54":-0.04099519647604625,"55":0.19181469406947882,"56":0.17271037114185528,"57":0.04247588740171841,"58":-0.0390462121246332,"59":0.0910646033611998,"60":0.04180696319923326,"61":0.1485930611923299,"62":0.0763892123327165,"63":-0.04561706074340442,"64":0.0422441065250735,"65":-0.03982429234331654,"66":-0.18728882029558908,"67":-0.12981310324362016,"68":-0.024713154005341617,"69":0.16885488888550693,"70":-0.004139136782932943,"71":-0.10243995844732193,"72":-0.16943759671131373,"73":0.06189109245570333,"74":-0.06601558985368705,"75":0.0600087150425032,"76":0.012931811180445882,"77":0.01768700618837671,"78":-0.1071689679004397,"79":-0.11451990391170581,"80":0.12234812608033445,"81":-0.14991565495567657,"82":-0.14500920369519765,"83":0.19061748625206254,"84":-0.1943421223329998,"85":-0.15876205848948344,"86":-0.12293876506089896,"87":0.13206625211054002,"88":0.1264629279148138,"89":0.06624590630863857,"90":0.1330130737133725,"91":-0.19521744172253996,"92":-0.1355785178573246,"93":0.14902033059090292,"94":-0.10323962692076862,"95":0.1280714004208936,"96":-0.02719494655960712,"97":0.142808967061611,"98":-0.17608479337078314,"99":0.19437530371877776,"100":-0.16549848574795958,"101":-0.14519488091582217,"102":0.12028220104284486,"103":-0.0750003278960525,"104":0.0064679808619014295,"105":0.024348579091728707,"106":-0.017973321297326966,"107":-0.009725473665547763,"108":-0.1607701155894069,"109":0.1593081532597574,"110":-0.15749180402238433,"111":-0.06941921029899474,"112":0.002539469230410418,"113":0.03306470290197854,"114":-0.0669549411262341,"115":-0.05161400536964831,"116":-0.0873821983794467,"117":0.02769680032365577,"118":-0.1632297538124887,"119":-0.1482749055502612,"120":0.18367426860872416,"121":0.10362851152591818,"122":-0.08833452400168053,"123":0.19211939695539113,"124":-0.006558776165705664,"125":0.1862637432441159,"126":0.012844428110682647,"127":-0.0610056251354285,"128":-0.019716399707697386,"129":-0.0747182159711635,"130":0.15982757722574822,"131":0.06381650826925071,"132":0.1049817677355469,"133":0.04861806563459905,"134":0.021799125718851436,"135":-0.1855407162909194,"136":0.07641667315297597,"137":0.14682751123664065,"138":-0.06628945354104727,"139":0.1856091648573541,"140":-0.005099587930517838,"141":0.01978982500059469}},"5":{"bias":-0.18425019726066005,"weights":{"0":0.0029869566572299205,"1":0.2378444491310602,"2":0.029691008371249435,"3":-0.0674615277715861,"4":0.13163588482498584,"5":0.01734734142779932,"6":-0.020275585180558053,"7":-0.02905394663592488,"8":-0.05864083926827992,"9":0.012373996753095622,"10":0.10815827482784578,"11":0.1586354179887686,"12":-0.11578297356115455,"13":-0.14474382413381168,"14":0.12793342240303077,"15":-0.11439843754133479,"16":0.16010182587335928,"17":-0.041294232286824134,"18":0.0353093764249965,"19":0.009096577739409188,"20":-0.06255130191167094,"21":-0.07354913614389874,"22":-0.02034412203199196,"23":0.1691570681215052,"24":-0.05874487750942796,"25":-0.17118143292672566,"26":0.18531306269241446,"27":0.07483691475764954,"28":0.19982926846621388,"29":0.11185440853666254,"30":0.09313414811600987,"31":0.19069602841454256,"32":0.11682062369208493,"33":0.09395036050786365,"34":0.12312418853092291,"35":0.14827220512508446,"36":0.1649709001703686,"37":-0.07636500065854493,"38":0.1882766731533275,"39":0.032964110142599104,"40":0.12528645733642577,"41":0.16325075128748703,"42":0.10384923033344842,"43":0.056929652545768566,"44":0.0238255365379331,"45":-0.08401173136343001,"46":0.1432333859914095,"47":0.032984203548876524,"48":-0.19218112663445797,"49":0.1647255547109039,"50":0.05815028552946349,"51":0.03474962603950361,"52":0.04792477748649374,"53":-0.18324519987747823,"54":-0.1838717912980398,"55":-0.06247612680958161,"56":0.13511135073266983,"57":-0.05814201269490809,"58":-0.06519405324748746,"59":-0.08220619362432485,"60":0.025218075424838456,"61":0.06903291702056485,"62":-0.1451998454661373,"63":-0.0007297610653829888,"64":0.05996248233312225,"65":0.16890434388053974,"66":0.0766033446728252,"67":-0.1204576243296439,"68":0.059232335844391165,"69":-0.21163888443642764,"70":-0.09354324620808063,"71":-0.09557067811033504,"72":0.05961563139954757,"73":-0.20368758665991385,"74":-0.09976639727963149,"75":-0.0671685549571991,"76":-0.019930297582206314,"77":-0.1484069821202329,"78":-0.20193517550165402,"79":-0.14507356602817562,"80":0.002895944850998301,"81":0.09875991749032526,"82":0.06436636630704151,"83":-0.02612425876313494,"84":-0.10467884186654108,"85":-0.11056277547227339,"86":-0.05283083244540966,"87":-0.054168710158202585,"88":-0.1535315543112371,"89":-0.17096188565904927,"90":-0.12838505616443963,"91":-0.11269806021131401,"92":0.10640190823928752,"93":0.14051809589621167,"94":-0.11620535276455628,"95":-0.09811856067586679,"96":-0.026023671112428606,"97":-0.0832518531016645,"98":0.004530117338644546,"99":-0.05118895138451442,"100":-0.09122146116879619,"101":-0.15249911567916904,"102":-0.09691746750659129,"103":0.0013201084305808333,"104":-0.09608335324941472,"105":0.06681769856714664,"106":0.06953715510531855,"107":-0.009510541546381049,"108":-0.010949262562450393,"109":-0.16631765731168713,"110":-0.007052813920990573,"111":-0.1954610260837793,"112":-0.023295950803896442,"113":0.1551216753809793,"114":-0.16181245884375764,"115":0.007121603902531886,"116":0.030397707450903515,"117":0.08293420122728695,"118":-0.14128056084386767,"119":-0.1490748052400282,"120":-0.06804720846805563,"121":0.16427883273754568,"122":0.03764612393717816,"123":0.058801583150832594,"124":0.07144895792864403,"125":0.10817529496398359,"126":0.036597819424554756,"127":-0.025560403921397943,"128":-0.1329008941392145,"129":0.10947005532664594,"130":-0.08756836777383317,"131":-0.05505087609441291,"132":-0.09765768395631148,"133":-0.14022418088999444,"134":-0.19999988376507807,"135":-0.18042816007698054,"136":-0.008204164401421271,"137":-0.19716190607291956,"138":-0.13749350868926813,"139":0.04414926635026934,"140":-0.0839086938055385,"141":-0.19283508472067679}},"6":{"bias":0.1264145005510215,"weights":{"0":-0.06472621512873396,"1":-0.11040826412449593,"2":0.07929194938583402,"3":0.05957140592238924,"4":0.0029051436272050733,"5":-0.08721261542965311,"6":0.10323419201672245,"7":0.14949060360190322,"8":-0.1694261357981172,"9":-0.2222521882466639,"10":-0.18950731132523466,"11":-0.10042476245080058,"12":-0.04972684330179203,"13":-0.09852530471378466,"14":-0.18329639465843744,"15":-0.10506095063063112,"16":-0.09126607553778517,"17":0.06876421237959215,"18":0.07602029202467422,"19":-0.15922967345141328,"20":-0.10623351741514649,"21":-0.1293426414220378,"22":-0.03709757781390304,"23":0.09537299637683408,"24":-0.0836509189884323,"25":0.025012922983720712,"26":-0.1942102360035361,"27":0.1705384371566881,"28":-0.14938077260597205,"29":0.16829668147829296,"30":-0.03271091165263685,"31":0.024528021657571012,"32":0.1308248173270713,"33":0.13098301108640872,"34":-0.10625103499640245,"35":0.03395280379779013,"36":0.02649954810084523,"37":-0.20671934674038994,"38":-0.05374016009806866,"39":-0.03869204189950908,"40":-0.13614443026246442,"41":0.003134955104994109,"42":-0.027390761902245004,"43":0.038167012604573516,"44":-0.0705064954605191,"45":-0.16863669469853612,"46":0.1319269842315508,"47":-0.18179265563573296,"48":-0.15982896001569213,"49":0.11270202186538665,"50":-0.14814889495470207,"51":-0.05131723227096444,"52":0.07538103322788355,"53":-0.01511682018295849,"54":0.059891971220812974,"55":0.15476095954090324,"56":0.11288145530820144,"57":0.02604049311964186,"58":-0.16602000409265316,"59":-0.1781004945166075,"60":0.12654316604561866,"61":0.05025793102871764,"62":-0.11885545464382909,"63":-0.12549004373156972,"64":0.06910906513806404,"65":0.08277969915996194,"66":0.007542819977863991,"67":0.025260320266382422,"68":-0.07185428599407935,"69":0.19463960645041162,"70":0.02902106331668144,"71":0.009138010985843914,"72":-0.15820112036061773,"73":0.0895546442571495,"74":0.002843330069543404,"75":0.008468536984994172,"76":0.08550807808636693,"77":-0.03811384625012803,"78":-0.014761366985336588,"79":0.14248343207221198,"80":-0.16926492414863473,"81":0.11733687103399525,"82":-0.13886744553456407,"83":0.007467778987439594,"84":-0.01739268183018069,"85":-0.046037458747379016,"86":-0.11608534726338879,"87":0.06988550306569861,"88":-0.08281263560047626,"89":0.016780614243745037,"90":0.09149892456572832,"91":-0.1598901179739737,"92":-0.037987331105013976,"93":-0.06698956135897456,"94":-0.1627021457136873,"95":-0.015695820895586212,"96":0.06705516851568105,"97":-0.1694020305390192,"98":0.021917484085313247,"99":-0.14220540620628488,"100":0.19704067481844073,"101":-0.16582665493733012,"102":-0.18510865488450173,"103":-0.05808626063810217,"104":-0.09928009761770919,"105":-0.041693851761155774,"106":0.15316628723449238,"107":0.04141050540908257,"108":0.1336161689951228,"109":-0.1571243359577846,"110":-0.09962134651122057,"111":-0.10391998369078068,"112":0.18073922418628469,"113":-0.012937568277435151,"114":0.10056181065175226,"115":0.0925384866366887,"116":0.024227214688494474,"117":0.03189079419312403,"118":0.06878832952522221,"119":-0.0785792844121653,"120":-0.06898344058291012,"121":0.18135026111695718,"122":-0.02714930841483466,"123":0.20163714586716008,"124":-0.0013608442715451361,"125":0.04198460013024323,"126":-0.09876712019207262,"127":0.10146863793672473,"128":0.012699889368089268,"129":0.16252936792926742,"130":0.0027709526745695987,"131":-0.08680806575310795,"132":0.022360221805087063,"133":-0.1360776496525722,"134":0.0780021337227656,"135":0.017631815340907516,"136":0.19521244257738007,"137":0.1768768437629603,"138":0.19606550877677803,"139":-0.1184536632194947,"140":-0.13134385231052081,"141":0.11028989883762824}},"7":{"bias":-0.2237140991074864,"weights":{"0":0.1764265416209605,"1":-0.09783133029722914,"2":0.04257964377255009,"3":-0.17054354826625062,"4":-0.06801639067394968,"5":0.06606441282819732,"6":0.20503574360538057,"7":0.15054374195954034,"8":0.1111203561268264,"9":-0.071055431955431,"10":0.08537768993709874,"11":0.1253977968144547,"12":-0.16921687427000262,"13":0.0049538011246464345,"14":-0.08110898446432147,"15":-0.1912670981431098,"16":-0.11647448626038127,"17":-0.03520087060183442,"18":-0.007787336158490456,"19":-0.002684781329952622,"20":-0.14982078720094452,"21":-0.0640534974898531,"22":0.1845965508066799,"23":0.19076606214194153,"24":0.12152585321608853,"25":0.18422779975994896,"26":0.0007241134343019238,"27":0.1907042326492751,"28":0.01641236790184967,"29":-0.11955752180659576,"30":-0.15421337115307843,"31":0.1693785504465426,"32":-0.028220783298663836,"33":0.1414959999477075,"34":0.03591384089387668,"35":-0.18215137889379138,"36":-0.05796448058628133,"37":0.058952678616306334,"38":0.03615884139332272,"39":0.08417078699121987,"40":0.19349040715980026,"41":0.147727439075112,"42":0.1620791846886913,"43":0.12319073387368587,"44":0.024965451500726488,"45":-0.08653742548811334,"46":-0.05510492210991054,"47":-0.09556418756813465,"48":0.12058807148859019,"49":-0.03767213278124573,"50":0.09284771450434642,"51":0.14183866867623188,"52":0.2049682566843959,"53":0.2339436692001804,"54":0.12403826323833908,"55":-0.035830266622389695,"56":0.06111046879329857,"57":-0.11145016967809593,"58":0.0635223126347362,"59":0.08846334503942938,"60":0.17699492688201068,"61":-0.1712994134607142,"62":-0.15011493487850416,"63":-0.048405653082859185,"64":0.1494275960634051,"65":-0.09612646548614934,"66":-0.04256755996783844,"67":0.025775935986543718,"68":0.19914503747480877,"69":0.2307244152757939,"70":0.24411671829527357,"71":0.2083519364067258,"72":0.10480960257707915,"73":-0.038222604985158025,"74":-0.025901398295846288,"75":0.06811805577149178,"76":-0.09027687991975177,"77":0.13900205612002803,"78":-0.07564373133046547,"79":0.08011166764235679,"80":-0.036495032781906814,"81":-0.05868214896144351,"82":0.055972786817349476,"83":0.14958906831145288,"84":0.171078907553005,"85":-0.0412489886344309,"86":-0.10872774326835624,"87":-0.008620998038283983,"88":0.004371183731771218,"89":-0.010684436700139783,"90":0.008087596218859731,"91":0.20203060117874508,"92":-0.07433412057752727,"93":-0.02150603995905926,"94":-0.01919992147888417,"95":-0.0780674225603676,"96":-0.020093052547458946,"97":-0.00007653247726294652,"98":0.03948284124542003,"99":0.19050090681010542,"100":-0.13935980945507656,"101":0.12011665523354147,"102":-0.10607193666415421,"103":0.10188162255634672,"104":-0.18116091956244357,"105":0.18462391226095962,"106":0.01614038250755608,"107":-0.07317900103676352,"108":0.018009540518277342,"109":0.03352228915238508,"110":-0.05494545735219476,"111":-0.41909568476279196,"112":-0.10460117552070974,"113":-0.10606270910218682,"114":-0.17079260490824572,"115":-0.084968578229021,"116":0.08385635886525747,"117":0.015684744294059236,"118":-0.13628350281418958,"119":0.07683317790962838,"120":0.08507041954697525,"121":-0.044728782511065136,"122":-0.14003328765812936,"123":0.08178015931937399,"124":-0.21008956855436567,"125":-0.14468727533993264,"126":-0.10195739022503648,"127":-0.1734914672951819,"128":-0.17107974680340093,"129":0.0838483898465576,"130":0.15171218037429807,"131":-0.16334038990996094,"132":-0.09141526226404045,"133":0.1246268770801701,"134":-0.07121291729939223,"135":-0.06850520472196402,"136":0.019764465183115483,"137":-0.1627841206067329,"138":0.1498704468858662,"139":-0.07685642030156485,"140":-0.19195579955727066,"141":0.14510575589021596}},"8":{"bias":-0.13956189164388275,"weights":{"0":0.04432437187452563,"1":-0.1723142624060136,"2":0.16308030260867348,"3":-0.1648725943002409,"4":-0.12464425733628949,"5":-0.11825866322417662,"6":0.1100739556916891,"7":-0.10198054829047969,"8":0.1166112643213613,"9":0.0716310505468874,"10":-0.09511113300721225,"11":-0.18571548793533957,"12":-0.0649980034681409,"13":0.1926123217837945,"14":0.17146763862264697,"15":0.12495415179756539,"16":-0.1232242258941809,"17":-0.07877725212982355,"18":0.1321841495915113,"19":0.09595165372762879,"20":-0.15321852697369542,"21":-0.08439620910713422,"22":-0.12548721481528413,"23":0.11632117856282208,"24":-0.13270204063030755,"25":-0.06054258823534607,"26":-0.06142608995073053,"27":0.017538862248689766,"28":0.10860419768698153,"29":-0.1784353782396633,"30":0.02039330848620253,"31":-0.16855108834779545,"32":0.19048698507668554,"33":-0.03672592588764578,"34":0.04895947885203011,"35":0.0997455709634678,"36":0.01476495421232248,"37":-0.005752867074611964,"38":-0.0884982341067765,"39":-0.033611746137285264,"40":0.022463105655024247,"41":0.14536960742398947,"42":-0.06515574791773175,"43":0.05212832057286081,"44":-0.09600332337738657,"45":-0.14206181143176302,"46":-0.045618339211287155,"47":0.11153790038701603,"48":0.17747560467520454,"49":0.06284294957933748,"50":-0.15019230337526915,"51":-0.10226124830725411,"52":0.03341284672546017,"53":-0.1356680364223977,"54":0.05531916462979049,"55":-0.13681957816179638,"56":-0.0796348203256127,"57":-0.11384445320494543,"58":-0.20665998129316496,"59":-0.07581104902643027,"60":-0.19360337749327025,"61":-0.12553877003054736,"62":0.05694486290335565,"63":0.10792652411196216,"64":0.11424905248816294,"65":-0.1465999217461976,"66":-0.0943536932423157,"67":0.04922796262972214,"68":-0.0713569547605883,"69":-0.11302195878244291,"70":0.04394337125659992,"71":-0.1612393238918173,"72":-0.16768942532304756,"73":-0.07486357497057809,"74":0.08114509988770906,"75":-0.1528809390878023,"76":0.024998469253177304,"77":0.001739438610802606,"78":-0.18049324596432742,"79":0.0005144417056157335,"80":0.18979942740143063,"81":-0.05694079589139339,"82":0.07298659509254082,"83":0.12500950872130762,"84":0.18915757188399385,"85":0.1352524399379667,"86":-0.17549907107361856,"87":-0.1457265918332255,"88":0.1311228126711247,"89":-0.052939577939422805,"90":0.16964102966380984,"91":0.12327950711654202,"92":-0.09878145266691418,"93":-0.15184408630899018,"94":0.1644986912576341,"95":-0.17585822582811597,"96":0.07982888487023512,"97":-0.07580822796494968,"98":-0.16462095203138097,"99":-0.042086444800608275,"100":-0.1218050802940183,"101":0.19978061505381572,"102":0.10412306493947701,"103":0.11794289839075922,"104":0.19082483492297825,"105":0.09466716329069821,"106":-0.1934349474697063,"107":0.07960107192248492,"108":0.09116325198708289,"109":0.05075074591753784,"110":0.06231345432120667,"111":-0.06606091221490833,"112":0.15236724364106424,"113":-0.16253960955724744,"114":0.14872620966345568,"115":0.14618931324740586,"116":-0.18074402400408143,"117":0.1936980877410861,"118":0.15448944203780884,"119":-0.09973261840696122,"120":-0.05188309274820462,"121":0.14524885763064024,"122":-0.024265837447725407,"123":-0.012107001852667994,"124":0.033363454186571606,"125":0.16363208703250523,"126":-0.0641250330602704,"127":0.06559537872410443,"128":0.133884250344821,"129":0.06880885938337727,"130":-0.04663456187562828,"131":-0.14285839952979765,"132":0.15331792913021133,"133":0.17214334320099808,"134":0.059720948271313454,"135":-0.1256106259978685,"136":0.11362328151557177,"137":-0.11323845026401688,"138":0.04414710879121256,"139":0.17122498228916228,"140":-0.08008610130890609,"141":0.04610881489835092}},"9":{"bias":0.04212740801728994,"weights":{"0":0.10006500055808755,"1":-0.008949941420693415,"2":-0.0927461356513318,"3":-0.1678205348127275,"4":0.0069715858339696865,"5":-0.06977820946068729,"6":0.1049807521413618,"7":0.060184640469734034,"8":-0.012374142672733115,"9":0.19894806698242204,"10":-0.14788990425227838,"11":-0.14994204009551915,"12":-0.04124793574534267,"13":-0.13104054659264677,"14":-0.12419672632201445,"15":-0.1522846000442765,"16":0.16993128017769912,"17":0.13951418520055267,"18":0.10094007863617796,"19":-0.16612850284997704,"20":0.18798130294974172,"21":0.030724657115706256,"22":-0.08974512882646425,"23":-0.1259484024140707,"24":-0.11734363493833026,"25":0.07556503792564616,"26":-0.13410243121018067,"27":-0.11660672657431942,"28":-0.191054671841983,"29":0.17166576611984075,"30":0.11476583176196396,"31":0.07808459466653277,"32":0.049245760830663184,"33":0.21491853148803386,"34":0.0025384401034113636,"35":0.19869067983627342,"36":-0.1632497091978466,"37":0.16795605330983587,"38":-0.13059719213744414,"39":0.1535612722613685,"40":0.0805740352244622,"41":0.11664142887120875,"42":0.15984338419525296,"43":-0.11725010842481522,"44":0.057851437130204325,"45":-0.15856446560132803,"46":0.013604940080934927,"47":-0.17791801738395033,"48":0.15873417528363046,"49":0.12769877163784063,"50":-0.0499777916552777,"51":-0.03814923784611241,"52":0.13159742799588067,"53":0.10088932705325478,"54":-0.042720670973590225,"55":-0.1162446156879863,"56":-0.16279258857494627,"57":-0.0862562224679178,"58":0.1378347239854427,"59":0.18423560493346033,"60":0.19331180758199304,"61":-0.16105831985729788,"62":0.04217362584444551,"63":-0.1449718065810638,"64":-0.08597277590659909,"65":-0.01703554457081548,"66":0.06895449615786772,"67":-0.14188259702062225,"68":0.05036920275979088,"69":0.12663178293339314,"70":0.05760238862503495,"71":0.10935001206645209,"72":0.18159503851320935,"73":0.09340597275046959,"74":0.06475828789001513,"75":-0.0414292506058832,"76":-0.11790404340036624,"77":0.027575019003755648,"78":0.06151808149655522,"79":0.04940541381784928,"80":0.15215643489154684,"81":-0.06839558511143216,"82":0.09113189318400784,"83":-0.07523591661669642,"84":0.014779782919295981,"85":-0.04612952578720764,"86":0.006871624329489709,"87":0.10395650771898958,"88":-0.15502528147596772,"89":-0.08846795110098216,"90":-0.0771895085338498,"91":-0.11159726399946657,"92":0.008736081691055882,"93":0.13754105764215713,"94":0.1615286528025709,"95":0.01732554929418338,"96":-0.1719920640777324,"97":0.05653627999102476,"98":0.12089375718495728,"99":0.06467175823125475,"100":0.1760705292494672,"101":-0.13314060513537315,"102":-0.1883455364923471,"103":0.14099240941436722,"104":-0.17566393152729626,"105":0.20015451100849208,"106":0.1383057404464167,"107":0.012645403901277651,"108":0.007617611316492276,"109":0.0657562684803078,"110":0.05449381512755648,"111":-0.04697858771343795,"112":-0.006038824705179338,"113":0.1726886448013281,"114":0.00780846751891174,"115":-0.0005512484879825014,"116":-0.028081462495639496,"117":-0.11460173569925466,"118":0.1156499672748259,"119":-0.0647937112399662,"120":-0.038750016204863943,"121":-0.1920383604907172,"122":-0.15049861523842795,"123":0.12277752704843758,"124":-0.03282106548923221,"125":0.09171995267174164,"126":-0.05235660818494693,"127":-0.03265996895793056,"128":0.0875074352740715,"129":-0.15167411747019313,"130":-0.08548033592866346,"131":-0.13195955198960935,"132":-0.046297637859673176,"133":-0.022928698480235783,"134":-0.21257936056828997,"135":-0.002332897142237287,"136":-0.19077108295569198,"137":-0.08262452049566907,"138":-0.03524704811749827,"139":-0.03743697318330791,"140":-0.07703167768377409,"141":0.08036893324384414}},"10":{"bias":0.15530664036134706,"weights":{"0":-0.09106581844044914,"1":0.1270003413364814,"2":0.06905093797855029,"3":0.020068764226289348,"4":-0.09114874192664243,"5":0.07806825689365461,"6":-0.19000829958978066,"7":0.047787709297581284,"8":-0.14108860614396346,"9":0.020928624494508847,"10":0.018097691106276573,"11":0.054119619363417165,"12":0.04460789923324787,"13":-0.11707624332034468,"14":-0.1422372797320431,"15":-0.1713124456142287,"16":-0.20179788832610512,"17":0.16855599699219054,"18":0.17344419665802208,"19":0.013884496090297644,"20":0.14904295286381725,"21":-0.06646216043638661,"22":0.07065208978870537,"23":-0.16216985400876738,"24":0.127967616775253,"25":-0.117493468591383,"26":0.04994840425482436,"27":0.05742958635902201,"28":0.016077683251778063,"29":0.015549583268298008,"30":-0.16435847303896553,"31":-0.09945935471177138,"32":0.12464678561598075,"33":-0.10368085953270975,"34":0.13632523519051878,"35":-0.049783428555108,"36":0.036788938809377454,"37":0.03108383452265621,"38":0.1546097200828229,"39":0.082088650438038,"40":-0.04443190176255626,"41":-0.14122751390615332,"42":0.07709573849346486,"43":0.06127868919668397,"44":-0.1105567664169675,"45":-0.12088256735418215,"46":-0.19080256967709722,"47":0.03964421429263966,"48":0.13611626017142414,"49":-0.10401267533633236,"50":0.2031482932574475,"51":0.031798619515718954,"52":0.131391947322116,"53":0.10845753456677958,"54":-0.06346829303301514,"55":0.014797147740839837,"56":-0.03260898619680598,"57":0.14974680389568035,"58":-0.05431557085937812,"59":-0.06890134481258449,"60":-0.07700283883585711,"61":0.0995748434661591,"62":0.1055925183468467,"63":0.12349294883033608,"64":0.1771295072420438,"65":-0.04126244013831023,"66":-0.10284378066400532,"67":0.14055741500046012,"68":-0.07577728164042022,"69":0.03480511596648776,"70":0.1574970007078706,"71":0.11305262854238965,"72":-0.009724400557944225,"73":-0.17565621453071634,"74":0.20565393051191377,"75":-0.18534202362576377,"76":0.07013344460706529,"77":0.07817488195705793,"78":0.006519726280092798,"79":0.2097266155504635,"80":0.20514931327878608,"81":0.18868319856043855,"82":-0.17994988093441383,"83":0.14614346957519378,"84":0.1459673148032751,"85":-0.053378402609233086,"86":-0.14157339125137114,"87":0.13839756858394184,"88":-0.0932814178868424,"89":-0.05979908279164927,"90":-0.04090089295841491,"91":0.0028584458378914453,"92":-0.1903997648453551,"93":0.1193418579601958,"94":0.08416263267826589,"95":0.008054914975959237,"96":-0.15909709072638503,"97":-0.02017962665009593,"98":0.14298181329877355,"99":0.10949149837584381,"100":0.1502283785762262,"101":0.1813105019077929,"102":0.09949535276686071,"103":-0.15445194758441907,"104":0.13455037345701307,"105":-0.17036229448007145,"106":0.1656357112180701,"107":0.08993613919348574,"108":0.03217168684882666,"109":-0.16290153404596197,"110":0.16121756269468557,"111":-0.02292420850382575,"112":0.04019146369549557,"113":-0.1979819263979714,"114":-0.1490427742455847,"115":-0.03982792407777246,"116":0.08276522739997288,"117":0.16022746772948748,"118":-0.18761175639239985,"119":-0.0721643979985889,"120":0.16400483029844024,"121":0.031038766241175943,"122":-0.13896572628077739,"123":0.07029141452440797,"124":-0.189813996721571,"125":0.008735193822668,"126":-0.09829887887031273,"127":-0.09295819593531601,"128":-0.047211213565647135,"129":0.06826733990641921,"130":0.1750194098818033,"131":0.0046724905897477026,"132":0.12672883106215563,"133":-0.12614606164693165,"134":0.1302624657807408,"135":-0.12970123698311817,"136":0.055392876070515885,"137":0.11445273697590679,"138":-0.1500683592060736,"139":-0.1872668155565746,"140":-0.0426384011180976,"141":0.0914313217065627}},"11":{"bias":-0.03635365602541043,"weights":{"0":0.1263935134515862,"1":0.10384006548404741,"2":-0.13871243955637083,"3":-0.11511834224313981,"4":0.1164892530896,"5":0.20422918136318724,"6":0.035979950642297524,"7":-0.11954125432687114,"8":-0.1702375907114788,"9":0.10890902761308191,"10":0.124883478525025,"11":0.07633566027114234,"12":0.1881530229276581,"13":0.026657918213825734,"14":0.09431793140370222,"15":0.0012075979726761444,"16":-0.06269751010977538,"17":0.12774419800079695,"18":0.049908791114097344,"19":0.19659642918987172,"20":0.1757793810863207,"21":0.1601050515636477,"22":0.15248352157977904,"23":-0.05060906903983675,"24":-0.09449936076435644,"25":0.17029335541369045,"26":0.00538380803895471,"27":-0.05562847076562921,"28":-0.10423839141817733,"29":-0.15813742055456542,"30":0.17955037675248947,"31":0.15908081186505335,"32":0.0960216415265635,"33":-0.0858603086379757,"34":0.05639283333450809,"35":0.143631074630291,"36":-0.1082321326018475,"37":-0.06631277305086887,"38":-0.1643867702004037,"39":-0.14625716442717643,"40":-0.0170504597362228,"41":-0.140236273279938,"42":0.03465478757446037,"43":0.06688772667654218,"44":-0.05608898761609055,"45":0.17515450158270818,"46":0.15074328081549324,"47":0.008782950294243894,"48":0.12055994054145744,"49":0.020400173045257302,"50":-0.1789675121468909,"51":0.02465285243072591,"52":0.13034146403865224,"53":0.11214036224355994,"54":0.13702120136409215,"55":0.10139360398302619,"56":0.032421290767736526,"57":-0.008225792636169625,"58":0.1853081404067092,"59":-0.15974803821283998,"60":-0.008086212504639532,"61":-0.1699828769667429,"62":0.03885615915460488,"63":-0.19638027518626094,"64":0.11509814203955601,"65":-0.008042486624597663,"66":-0.06359689463198828,"67":-0.12208098904033368,"68":0.10494718640050092,"69":0.06440859495276817,"70":-0.11759147256445626,"71":-0.183955787727929,"72":-0.055675766247944555,"73":-0.1418107453007893,"74":-0.1922307818485465,"75":0.11650200540756725,"76":0.08392273711013831,"77":0.1804972655407339,"78":-0.06202563816629723,"79":-0.1865167655930622,"80":-0.061403100807672306,"81":0.007787964775744803,"82":-0.16490543426702864,"83":-0.12204434413907193,"84":-0.11406548704986216,"85":0.07146521328815154,"86":-0.11320819897826566,"87":0.05503521402885364,"88":-0.05642631967337655,"89":-0.1508255167016668,"90":-0.15896601888515507,"91":-0.16393522776473848,"92":0.17484504686380667,"93":-0.10926143560968476,"94":-0.1417381818663485,"95":0.1120035097791547,"96":0.14064686104320592,"97":-0.1029129726189169,"98":-0.09049730870165411,"99":-0.13972067180937095,"100":-0.19451165808061202,"101":0.1308814537536358,"102":-0.05818363452468808,"103":0.07217940947932117,"104":0.16614576950450718,"105":-0.0536410631714114,"106":0.05505568027758756,"107":0.08247948037220999,"108":-0.0638449183002225,"109":-0.08659140288722757,"110":-0.11289990496033946,"111":-0.22835056083722957,"112":-0.08091627554606173,"113":0.10802823280403104,"114":-0.1484240385610892,"115":-0.05871528860508405,"116":-0.021727305479355464,"117":-0.08016636985470357,"118":-0.009734987768971332,"119":-0.18163169582987554,"120":-0.13739276728167185,"121":0.0593114543067158,"122":-0.018977790058206725,"123":-0.0909682597600595,"124":-0.11880139227775947,"125":0.07657058010101207,"126":0.023722204385688988,"127":0.05170545710533483,"128":0.15550328180873949,"129":-0.14007607880407294,"130":0.16425254113120166,"131":-0.11722558466958495,"132":-0.20316626821749095,"133":0.15844526088791902,"134":-0.15159065433891802,"135":-0.12325885818306602,"136":-0.06633213797880956,"137":0.12254803605947384,"138":-0.10122765864388397,"139":-0.13505459697082553,"140":-0.018500680081338587,"141":0.006463471029745266}},"12":{"bias":-0.11292707712636979,"weights":{"0":0.4236908091165473,"1":0.011272316500291953,"2":-0.08954975028324484,"3":0.08726714636396812,"4":0.22922879397240536,"5":-0.11945326456631795,"6":-0.05116355367982802,"7":0.07542317368122306,"8":-0.04959695464765798,"9":0.059704804016124276,"10":-0.053140358576094254,"11":0.14031824593361553,"12":0.0776589771910594,"13":0.11493038842732094,"14":-0.08981495351163955,"15":-0.09307052963607816,"16":0.1621405439701293,"17":-0.15379946247470247,"18":-0.09009118936443573,"19":-0.1474624399779381,"20":-0.15412847554949657,"21":0.09547147751129546,"22":0.01905619834378032,"23":-0.1668395153445846,"24":0.22296359128967266,"25":0.08571104005976167,"26":-0.05350913838013024,"27":0.052786252564840944,"28":-0.1429267603335617,"29":-0.14859218732332538,"30":0.08214674863604532,"31":0.179584491050876,"32":0.12463087869010339,"33":-0.14526078035692996,"34":-0.02818525207886148,"35":0.17175593102629824,"36":0.059592443149991424,"37":0.08145410492543892,"38":-0.05450159339465296,"39":-0.2046159953535816,"40":0.05921910345503322,"41":0.06785204474512829,"42":-0.11882922052661621,"43":-0.05114120037324945,"44":-0.18868671687165772,"45":0.08453549202298316,"46":0.1731452775589847,"47":0.11584914581537657,"48":0.19042375235189232,"49":-0.03154291423760932,"50":-0.05625165299787567,"51":-0.08516320297419998,"52":-0.1540987677294933,"53":-0.12589825889230896,"54":0.014612608038235766,"55":0.14152378443361166,"56":-0.11742449826529179,"57":-0.1492397701911289,"58":-0.17240733850469556,"59":0.16501795781496856,"60":0.11357969388680687,"61":0.15302650341895238,"62":-0.216499375050703,"63":0.11933345699699659,"64":0.055426418484437676,"65":0.010016593247288196,"66":-0.029028782482736146,"67":-0.13658876071321804,"68":-0.00751922484477137,"69":-0.02923499413683451,"70":0.08311814755938737,"71":-0.09944368442610532,"72":-0.1639125732174258,"73":-0.1613175065404345,"74":-0.011317236753904376,"75":-0.07071395476382455,"76":-0.13318192384450353,"77":-0.02933166435671216,"78":-0.14688507399491932,"79":0.1617119269499985,"80":-0.059748272826170096,"81":-0.17685685995970657,"82":-0.12905220377491,"83":0.13673456390464417,"84":0.1301629738898457,"85":-0.13259295489424694,"86":0.12894490961686417,"87":-0.1680160147201315,"88":0.18480440023873312,"89":-0.09979867418314123,"90":-0.15163389898458374,"91":-0.047929907094034885,"92":-0.15518915012287948,"93":0.1402945679397724,"94":-0.07537245520481148,"95":0.15333030679639592,"96":-0.07383011617574188,"97":-0.0540026468062611,"98":-0.16457131211290854,"99":-0.015324414511501037,"100":-0.16363567291410785,"101":-0.16813876630306726,"102":0.1069905056755386,"103":0.09292654162568387,"104":-0.1993091815520417,"105":0.04283986812074678,"106":0.12210441412873359,"107":0.08740925808540408,"108":0.07680979914893911,"109":-0.052119298504225225,"110":-0.18190824321853682,"111":-0.10180075977190442,"112":-0.16313603731408938,"113":0.11360201901413072,"114":-0.03714929380357331,"115":0.00814536450974752,"116":0.06703700099482722,"117":-0.2079534418091275,"118":-0.13200013211902817,"119":-0.21940723488958377,"120":-0.13701660948157024,"121":0.12587430953825698,"122":-0.16593367396900247,"123":-0.06620752343266284,"124":-0.17310522115129143,"125":-0.018437895557777795,"126":-0.2001886255967346,"127":0.10910099445621639,"128":-0.16104794037690048,"129":0.06860456328178809,"130":-0.12405553847946406,"131":-0.14383854041629449,"132":0.03276344238958149,"133":-0.09700569567068408,"134":0.11121276765962691,"135":-0.13671582860179,"136":0.09695136938743618,"137":-0.005192636392752249,"138":-0.22085212444075208,"139":0.08952527765541188,"140":-0.1016829530791797,"141":0.12374804179550054}},"13":{"bias":-0.10412013197850083,"weights":{"0":-0.21893022403661427,"1":-0.1879703813950976,"2":-0.11467499809592416,"3":-0.02592529773885959,"4":0.13578454968812756,"5":0.025787597182156237,"6":-0.008139534392418787,"7":-0.09074699069108995,"8":0.01287100625988294,"9":-0.0699184182183597,"10":0.13096599372445647,"11":0.12866590818965482,"12":-0.1945713928401984,"13":-0.030908933873900826,"14":0.06151975438391872,"15":-0.0684577704746173,"16":0.179682307356172,"17":0.06696440313086442,"18":0.06555411280265998,"19":-0.018587641013439307,"20":-0.1152652290302323,"21":-0.10080404970594699,"22":0.12005159694525186,"23":-0.16213920479840083,"24":-0.0989482895092463,"25":-0.15635004383838277,"26":0.11590770779546888,"27":-0.0706542616822668,"28":-0.08461531696709726,"29":-0.14910423379518412,"30":-0.10668771005155736,"31":-0.062053479313595776,"32":0.11740625093136142,"33":-0.1205725784306421,"34":-0.11607114377318073,"35":0.07760513768298677,"36":-0.14388967562059085,"37":-0.041978406480985574,"38":0.17285853625859138,"39":-0.04007570035154864,"40":0.08761882116939496,"41":-0.19959097486154154,"42":-0.06322027122024296,"43":-0.18778541064139476,"44":-0.03964216750164963,"45":0.10171942375563361,"46":-0.13877627240771698,"47":-0.009811114349975612,"48":0.07134153477712422,"49":0.11476238468901116,"50":0.18075095118779932,"51":0.16917133091714434,"52":0.008054853411324578,"53":0.06302530825053382,"54":-0.012721834169208898,"55":0.19497497820267856,"56":-0.051335669029380714,"57":-0.1987469455240397,"58":0.16718833669303707,"59":-0.16905594573855046,"60":0.10913654305709312,"61":0.018771776619055297,"62":-0.03860948819078143,"63":0.08820314617096157,"64":0.09976888729277954,"65":0.042191939930256515,"66":0.03044446609031257,"67":-0.17120960451249978,"68":0.2147231678538938,"69":0.0458322871244019,"70":0.14489826916428916,"71":-0.11601935719025744,"72":0.10796312746177272,"73":-0.14144375052024918,"74":0.11939881397322007,"75":0.14684709766997345,"76":-0.05581996104398627,"77":0.11772332905443518,"78":0.011824215584506227,"79":0.12254017083349857,"80":-0.11567580568634107,"81":-0.07847587656943977,"82":-0.03036593074095573,"83":0.16150209899002022,"84":-0.16567073853533124,"85":0.017804088327162227,"86":0.102000188693808,"87":-0.10772765302810665,"88":0.05129000312889463,"89":0.09980854254317845,"90":0.023049808505026453,"91":-0.11339087142407837,"92":0.15031286211746964,"93":0.1967931584090712,"94":0.06979045323172128,"95":-0.058019871306208906,"96":0.10392348248078137,"97":0.1367700586134497,"98":-0.14574857971445215,"99":0.17198806149975449,"100":0.19048625847630835,"101":0.16823654594481713,"102":0.05275023860604981,"103":0.0537683768293248,"104":0.14613163868163503,"105":-0.03775826133541556,"106":-0.058415615860381506,"107":0.04044874306288414,"108":0.05769600304838417,"109":0.09444152253555771,"110":0.18244195978901626,"111":0.06376163946928588,"112":0.057941353825362626,"113":0.031385331816031425,"114":-0.11878658574128434,"115":-0.08726877788944648,"116":0.029057505847311225,"117":-0.15617903802794883,"118":0.18243596823509128,"119":0.06862331302130077,"120":0.24991456333739778,"121":0.18805293784261576,"122":0.15065525135209915,"123":-0.12584065549081316,"124":0.09259761931964333,"125":0.024410893377107744,"126":-0.13605900541808824,"127":-0.02202547576012803,"128":0.12722081863781445,"129":0.09490596935637464,"130":0.1445716545016474,"131":0.1502628173111805,"132":-0.09978269716518379,"133":0.15097412636243296,"134":0.1985936056754444,"135":0.009384968399052205,"136":0.14665861818225678,"137":0.12780923948924386,"138":0.05190516308273189,"139":-0.15721686951890032,"140":-0.021114089108946788,"141":-0.13186198774731736}},"14":{"bias":-0.003730406344089583,"weights":{"0":-0.23522365905015527,"1":0.09479295211625949,"2":0.03335346721565795,"3":-0.17436945345996552,"4":0.11650097235846073,"5":-0.06975974133603616,"6":0.08936779453770664,"7":0.08502893986291793,"8":-0.22008875271794953,"9":-0.1150055320158756,"10":0.17951477958150186,"11":0.17719596892609174,"12":-0.152762609789166,"13":-0.1835977602341937,"14":-0.18258671917316116,"15":-0.06143883857070876,"16":0.06518839232181027,"17":-0.09224571171916125,"18":0.1376700662725451,"19":-0.12873583323945134,"20":0.06644710590139484,"21":-0.15155276404513582,"22":0.16345094783259148,"23":-0.20340888971375015,"24":-0.034673292145253706,"25":0.031077559641511657,"26":0.20271799379241054,"27":-0.17879816590950415,"28":-0.10953838176690003,"29":-0.12943125665116245,"30":-0.17360688277018332,"31":-0.010351269266773908,"32":0.02651565054695543,"33":0.0369209983694267,"34":0.06009131675013512,"35":0.049728124368458845,"36":0.13788900777777485,"37":0.16696640899810933,"38":0.12538788039913368,"39":0.15824467954842053,"40":-0.0574392148024294,"41":0.09461385785640786,"42":0.1449356646132764,"43":0.15158764942806185,"44":0.04277870409213278,"45":-0.13582303226947434,"46":0.00900619394233926,"47":0.0879537189669449,"48":0.18867178900529397,"49":0.02218188401682458,"50":0.14199970941382895,"51":0.019303387210390047,"52":-0.1926739587716283,"53":0.027255036933649245,"54":-0.214140288712301,"55":-0.005309608490286975,"56":0.17537765896963503,"57":-0.024026177087278836,"58":-0.007775518891361996,"59":0.058433623678459376,"60":-0.1908566273629806,"61":-0.012679461475048307,"62":-0.1645661339625351,"63":-0.026638008454493104,"64":-0.09162828847124596,"65":0.13303041974572963,"66":0.1842013209305647,"67":0.06046556803964077,"68":-0.10215758689266027,"69":-0.21509272126396495,"70":0.04986458830363767,"71":-0.1870211818588373,"72":-0.049376081013634866,"73":-0.0814968151447838,"74":0.16203322763072955,"75":0.17497305430340968,"76":-0.04290213357514086,"77":0.09989914535272375,"78":-0.1325972468457554,"79":-0.1640749491293446,"80":-0.05734869722421986,"81":0.16711688121321466,"82":0.011267766679052799,"83":0.07884856726202494,"84":-0.16974691268634962,"85":-0.17266932670308746,"86":0.05932596937560775,"87":-0.15172820809323137,"88":-0.1513020078944123,"89":0.09091983123276187,"90":-0.09710840368498296,"91":0.1491635302723902,"92":0.1043489690626585,"93":-0.08751964525678846,"94":0.013406008983359169,"95":0.12177637908058186,"96":0.18504543318081662,"97":0.07117604476879102,"98":-0.018933340584859897,"99":0.18948898396267821,"100":-0.07453244292728364,"101":-0.04827717925237905,"102":0.004698463540012448,"103":-0.12681881751098995,"104":0.11449121035130566,"105":-0.014584178594550357,"106":-0.1001511732720528,"107":0.07027723355365711,"108":-0.04004238870988574,"109":0.1510258141761444,"110":0.01189210764571231,"111":0.2736929526980289,"112":-0.0785009068765565,"113":-0.15048624154983056,"114":-0.17344332623925582,"115":0.17213030770498675,"116":0.17754650681794878,"117":0.049609210730675896,"118":-0.02029517471962602,"119":-0.14063662101231808,"120":0.22770916991902676,"121":0.017648852208079366,"122":0.0039651825045450085,"123":0.12296047852609161,"124":0.16433588230915838,"125":-0.08136697010904721,"126":0.1326232642313076,"127":-0.1198114546769723,"128":0.13492985629348947,"129":-0.13566373302205856,"130":-0.005376159399729077,"131":-0.0015564210804719654,"132":0.14172330666895733,"133":-0.14944978980011212,"134":0.00034250107468719945,"135":-0.003776029904075056,"136":0.05633314177611586,"137":0.0761105042931825,"138":-0.10063820475801506,"139":0.14988618562712874,"140":-0.15019502821996877,"141":-0.059633282157058966}},"15":{"bias":-0.023299073119170143,"weights":{"0":-0.3130441569282025,"1":0.12015183423783136,"2":-0.04538325442238888,"3":-0.1716747020141076,"4":-0.10391053835715336,"5":-0.2361218919765924,"6":-0.1476519402203072,"7":0.033771290945388555,"8":-0.23492594525500995,"9":0.11249786896834982,"10":-0.11961591793342999,"11":-0.14839801648919335,"12":-0.14998831075783997,"13":0.08391197126696913,"14":0.13123133284061375,"15":-0.0350392028107696,"16":-0.014208611997874918,"17":-0.1829028801867064,"18":-0.013042887885883193,"19":0.11080576080990308,"20":-0.19645525551454715,"21":0.06352673915238659,"22":-0.0610659838179136,"23":0.11918283612677762,"24":0.14865901633786407,"25":-0.1339478975825969,"26":-0.025196339933608303,"27":-0.039758769901919275,"28":0.12407108520797921,"29":-0.00886306078364419,"30":0.13135079167977728,"31":0.02435842435916162,"32":-0.02998875799766048,"33":-0.19967973557244414,"34":-0.18338196144867358,"35":0.021795924088289793,"36":0.0988476977716078,"37":0.039713314989614015,"38":-0.00721846853856204,"39":-0.05277936653933482,"40":-0.0872206864021177,"41":0.03189061350158674,"42":0.08053257492432055,"43":0.07910349157772208,"44":-0.010330329270552845,"45":0.014138899636236931,"46":0.07325921038604663,"47":-0.1526877096552202,"48":-0.032143367445912466,"49":-0.14641833135767268,"50":-0.15632643286123235,"51":-0.013482620087269234,"52":0.04180655163015932,"53":0.008793216112013617,"54":-0.10887771996958856,"55":-0.09186643905169588,"56":-0.08735862015794184,"57":0.0799213235371263,"58":-0.026100931649159415,"59":0.0844711658743739,"60":-0.10840326312224915,"61":-0.10519130508291477,"62":-0.1153506154705193,"63":0.06048545191032604,"64":0.02742441731919662,"65":-0.09907010258659751,"66":0.07400621075254823,"67":-0.0404835103175025,"68":-0.03557688427298926,"69":0.12389323315043241,"70":-0.20960873366843205,"71":-0.09142370580301942,"72":0.14841805218456378,"73":0.059510830061719804,"74":0.03707222926152933,"75":0.10052029261669979,"76":0.18921385448048833,"77":-0.1998557599404735,"78":0.07093191223768461,"79":-0.04650607122304412,"80":0.03610058710350304,"81":0.06628950846375035,"82":0.10613802503486967,"83":-0.0905668449734103,"84":-0.054522258497058204,"85":-0.028817800071767558,"86":-0.054305048162073,"87":0.11663990880423157,"88":-0.08218874174434208,"89":0.05688819717851461,"90":0.014216493449086912,"91":0.16089907968281442,"92":-0.14982012796554658,"93":0.16637569139814207,"94":0.047408956453339354,"95":-0.1380446858169327,"96":0.016827740810090596,"97":0.10914406385475682,"98":0.02139227280373075,"99":0.053288429872821216,"100":-0.11861703728684206,"101":0.09372822735976327,"102":-0.0006661884403865556,"103":-0.0925940392615172,"104":-0.036061352095456814,"105":0.02115376887532323,"106":0.03322853936160268,"107":-0.13878893000530557,"108":-0.1961068815657135,"109":-0.10067573187864867,"110":0.27165735824669934,"111":0.21861772529624574,"112":0.19509344799794762,"113":0.04797099217588529,"114":0.01815413908282439,"115":0.1932617021104562,"116":0.19147834900331226,"117":-0.009259410916601072,"118":0.24062429406583005,"119":0.12349179451889136,"120":0.1329945475383714,"121":-0.03471305162600645,"122":-0.04747493217820331,"123":0.2325155318297005,"124":0.15896125322348667,"125":0.22681307211870447,"126":0.008993787004593797,"127":0.14392940949664224,"128":0.08178049200077166,"129":-0.061351665125426925,"130":0.21309133857987136,"131":0.1301649578289483,"132":0.15475344874319646,"133":0.18223818654302473,"134":-0.09054879776748519,"135":-0.016214895263073868,"136":-0.05293853056539234,"137":0.011651169248962773,"138":0.18667672465714347,"139":0.2018171696202704,"140":0.09717978863486419,"141":-0.09554238100189967}},"16":{"bias":-0.1770875855344795,"weights":{"0":0.1775955211243108,"1":0.13078601240803223,"2":0.15888940922971906,"3":0.22761847876015523,"4":0.018538480647838557,"5":0.018826971282400545,"6":-0.05446985753035329,"7":0.10942470544756297,"8":-0.08629578730080674,"9":0.028103736914703005,"10":0.1864496740225713,"11":0.026591954372536766,"12":0.13390032920806852,"13":0.16091309604604595,"14":-0.07592926734280152,"15":-0.10125880584910806,"16":0.22155476323499138,"17":-0.11593700488000526,"18":0.04742987407246973,"19":-0.004994050226464889,"20":0.13265190306283692,"21":-0.07280885047046538,"22":0.1969188318178717,"23":-0.11561389254574819,"24":-0.0354450883302223,"25":0.16625643108206178,"26":0.19469806373162024,"27":-0.26420961264896814,"28":-0.06902778197340383,"29":0.06796953341951885,"30":-0.02920863588287836,"31":-0.02881714840584367,"32":0.17490999085667863,"33":0.10807974313250747,"34":0.06174945747941289,"35":-0.025225413421198186,"36":0.0976968925311113,"37":0.16724887026035135,"38":0.029701060730085337,"39":0.17200302937574785,"40":0.11972560011919248,"41":-0.12713925225198958,"42":0.0495557557267167,"43":0.21928748005621884,"44":-0.346404328210961,"45":0.09886290227795887,"46":-0.22670028323602634,"47":-0.09346145993995925,"48":0.05880972403635102,"49":-0.15021144677157017,"50":-0.11271384888677073,"51":-0.055589656646132385,"52":-0.054885997556005116,"53":-0.13974437554069916,"54":-0.23071955813995168,"55":0.08165221618978655,"56":0.008074543816268742,"57":-0.0286029986801426,"58":0.03536900003770652,"59":-0.05726548743567252,"60":0.008787798607201277,"61":-0.007180080105245473,"62":0.16614912774936194,"63":-0.19298230112191012,"64":0.03504680997854507,"65":0.12591230309374712,"66":-0.16471447752658028,"67":-0.16987709060061087,"68":-0.20958621279888634,"69":-0.02530976069597915,"70":0.10383895203776936,"71":-0.12307162863657956,"72":0.023020180271642907,"73":0.08578725601556117,"74":0.1007438527319429,"75":-0.11323071256669837,"76":-0.1352941808331586,"77":-0.18929991087697823,"78":-0.16540232174720101,"79":0.11111127659850871,"80":0.18028695615486978,"81":-0.010682731218819333,"82":-0.02141789399435153,"83":-0.16915864595004876,"84":-0.07999081602768286,"85":-0.0010396640672565647,"86":-0.006479049296627243,"87":0.06376497355916645,"88":0.008104111702342293,"89":-0.05396610944474157,"90":0.01351973564692044,"91":0.15498089352636252,"92":-0.12189329486333778,"93":0.12375984967061815,"94":0.14046559167863376,"95":0.03890825972488623,"96":0.10455877191601627,"97":0.14517409115157054,"98":-0.1978423464503008,"99":0.08457367763318192,"100":-0.10013467632901217,"101":0.048173705339392255,"102":-0.1742653625953339,"103":-0.19268741860141292,"104":-0.13553656451382834,"105":0.12449538589766736,"106":0.020365094727731188,"107":0.09674797718311202,"108":-0.14066933598586168,"109":-0.1366202818803802,"110":-0.13598442850331888,"111":-0.21970122111870444,"112":0.006391703380138924,"113":0.0030566890590759516,"114":-0.13550862098967403,"115":-0.13246007495762213,"116":-0.056562542010065726,"117":-0.1069457255551097,"118":0.09884553117893521,"119":-0.034977053730416804,"120":-0.06990150522066853,"121":-0.08753437283238844,"122":0.07890885091507635,"123":0.13912979467577397,"124":-0.11888976889852479,"125":-0.11210361355445442,"126":0.058374347115761206,"127":0.13895489692427002,"128":-0.007760183451395897,"129":0.11692394771556394,"130":-0.08377812439722843,"131":0.1830525030883332,"132":0.08733709523190272,"133":-0.07819248927145286,"134":0.00019808029087894046,"135":0.1424826113445095,"136":-0.0919709172121015,"137":-0.13813084211712634,"138":0.03938671082004979,"139":-0.024323119419451072,"140":0.16686043830736946,"141":0.025942519092211947}},"17":{"bias":0.15975336159063516,"weights":{"0":0.12963368384613272,"1":0.08742146171834717,"2":0.04356315926775165,"3":0.028808843395201424,"4":-0.07941561901449991,"5":-0.1544904481082213,"6":-0.12525128333637928,"7":0.03165819828122405,"8":-0.07125793542688177,"9":-0.1342399562758009,"10":0.1843937854484098,"11":0.013271364930414227,"12":-0.038884295302035986,"13":0.038273518588678265,"14":-0.02617860176326493,"15":-0.07056478772120124,"16":0.004490291629833753,"17":-0.0001793721813482443,"18":0.1770617808229189,"19":0.04118516222216888,"20":0.16452688519425612,"21":0.18877385919548723,"22":0.13023809697010252,"23":0.18321068356802073,"24":-0.1616539778972711,"25":0.05851454517431694,"26":-0.09224393528710027,"27":0.24180659588163844,"28":-0.05313901095262889,"29":0.15710152758477636,"30":-0.1906209013871509,"31":-0.021926682295928986,"32":-0.03646042355915234,"33":-0.08826353946458454,"34":0.08964249740374734,"35":-0.12605932583646368,"36":0.1300701182779222,"37":0.05737869635127653,"38":-0.08427557646823915,"39":0.0196022677930564,"40":-0.16261526603002532,"41":0.11770387952485471,"42":0.15004518522359006,"43":-0.036438423027129255,"44":-0.03489989327056207,"45":-0.1407326107224859,"46":0.11271847205631921,"47":-0.1198717465696258,"48":0.00665058304354362,"49":0.1396923658499931,"50":-0.07885695952906902,"51":0.044709867965253176,"52":0.20919267628026075,"53":0.06878422009122566,"54":0.19439761626808885,"55":-0.19041697828194049,"56":-0.11757017313443613,"57":-0.18716906250460288,"58":0.040486737846289034,"59":-0.13631713542953663,"60":0.19942304954712395,"61":0.17357586273068745,"62":0.04120380604775883,"63":-0.07845838793825022,"64":0.07270106464222678,"65":0.1988622000303112,"66":0.031254876554437976,"67":-0.009979238568154587,"68":-0.04959068281794216,"69":-0.024321436809431895,"70":0.06568547276650522,"71":-0.11957883932119226,"72":-0.08959602516619,"73":0.0027947256424154633,"74":-0.06949691871782068,"75":-0.03420324645313373,"76":0.007354103100197267,"77":-0.003535201341038777,"78":0.18931255407555797,"79":-0.02313151598622019,"80":0.012628840019949652,"81":-0.10377922442278001,"82":0.17067602420215872,"83":0.04581574672150196,"84":-0.18004199149162795,"85":-0.1690917311212049,"86":-0.13339806467015594,"87":0.012285628224548453,"88":0.02998727742834026,"89":-0.14980002398825915,"90":-0.1083097417324012,"91":0.07795755574390413,"92":0.08472553228035991,"93":-0.00509169612326559,"94":-0.1115662838241671,"95":-0.03227921984775292,"96":0.16734348112875647,"97":-0.021850447270128553,"98":0.0626786991543617,"99":0.20209873334528555,"100":0.14506900169947062,"101":0.05116900125971826,"102":0.06029366503881617,"103":0.04005582843064392,"104":0.026047057137361135,"105":-0.010124935978785114,"106":-0.08219509794344891,"107":-0.15374053824416195,"108":0.1232576342827786,"109":-0.17653655129963797,"110":-0.18290395883266053,"111":-0.1762203434115976,"112":-0.005319231986455805,"113":-0.005094763619401552,"114":-0.11685060522107166,"115":-0.12366662191058958,"116":-0.1479758910601355,"117":0.04218784079063828,"118":0.13105700439398932,"119":-0.20821368363096113,"120":0.10200934963862167,"121":-0.05300153983617617,"122":-0.18306836478400362,"123":0.05925320953966185,"124":0.06655326708044901,"125":-0.16579464958509732,"126":0.1231604944653533,"127":0.03200813212446317,"128":-0.0644564901836262,"129":-0.13108090314178297,"130":-0.14388821401734173,"131":-0.21610697413637375,"132":0.026847442095236703,"133":-0.21767701099506204,"134":-0.14036928869046061,"135":-0.15619736617909052,"136":-0.07638517445476081,"137":-0.16635506621571947,"138":0.023586825820288194,"139":0.09295697885192264,"140":-0.09127637341378525,"141":-0.12010097073675599}},"18":{"bias":0.024332919896407703,"weights":{"0":-0.23192775568759924,"1":0.15387589358474005,"2":-0.09677663595859803,"3":-0.16582357588439375,"4":-0.09007732941344103,"5":0.14945333637726918,"6":0.07759068566650067,"7":0.13496328538835162,"8":0.1819195937775531,"9":0.1229722583178414,"10":-0.05154153199170485,"11":-0.0996845989442722,"12":-0.07994777682634098,"13":0.019696083931508353,"14":0.13238548946156617,"15":0.11332239445318049,"16":-0.15196454397978984,"17":0.10986546517207102,"18":-0.06398584356428152,"19":-0.184974011094699,"20":0.17952642747790923,"21":-0.14301883693163794,"22":-0.1674321295412807,"23":-0.07182077505538183,"24":-0.16506785662764475,"25":0.1263488033968359,"26":0.13655559770926715,"27":-0.12835360428339168,"28":0.11801276249058261,"29":-0.1981617647860802,"30":0.007466121743630979,"31":0.06009159372563775,"32":0.1446881318738385,"33":0.1985211555104042,"34":0.022902052233623096,"35":0.009713761195031452,"36":-0.0051586717887705065,"37":-0.10653004628191563,"38":0.0960510393098107,"39":-0.1395487027738032,"40":-0.1438607011168625,"41":0.18842483861735926,"42":-0.16968679110758136,"43":-0.06713703894293564,"44":-0.00484717209489996,"45":-0.0475553985349478,"46":-0.015350044421058983,"47":0.022888190843604793,"48":-0.104550488123702,"49":0.14200520587541715,"50":-0.16606487384597665,"51":-0.05404660657252576,"52":-0.017994856466660943,"53":-0.11090495919021855,"54":0.10640751291716895,"55":-0.08863580471203343,"56":-0.10444514624088189,"57":-0.12135743965722426,"58":0.02494709887170273,"59":0.13344508295697705,"60":-0.1918834226607249,"61":0.11134944208036532,"62":-0.1162072647826594,"63":0.05377752773622599,"64":0.041998399037984635,"65":-0.06628187037168397,"66":0.17116349963538977,"67":0.08394473897456621,"68":-0.06633226967884012,"69":-0.16284452497500104,"70":0.013258317268485564,"71":0.2089327475248536,"72":-0.1202135944893225,"73":0.13490181618866562,"74":0.013180272555381876,"75":0.07329467966501536,"76":0.05715213671362831,"77":-0.011672195248258492,"78":0.1391082200410291,"79":0.16842076685502586,"80":0.02819339908939801,"81":0.19225479270459228,"82":-0.06464024495423416,"83":-0.0615258780305051,"84":0.1344873774115664,"85":0.046012237392953535,"86":0.11956238312272623,"87":0.17978575994179535,"88":0.0802900553616513,"89":0.0971991988239297,"90":-0.04384402617873998,"91":0.0785966821230716,"92":0.021729097347517587,"93":0.052017697205441575,"94":-0.022557911809053935,"95":-0.15041066362231595,"96":0.13667946172390616,"97":0.09703397233223605,"98":-0.08368877050468747,"99":0.061717170074795484,"100":0.06511545942666089,"101":0.13828748139065172,"102":0.05363215950097713,"103":0.004976240652144897,"104":-0.03463772078619396,"105":-0.17718663181071254,"106":-0.020674415823746753,"107":0.171915978227756,"108":-0.12855019135845003,"109":0.022810326299592135,"110":-0.19814379955704284,"111":-0.07483963055654265,"112":-0.14056180953017564,"113":-0.08485215439579119,"114":0.0680909794739819,"115":-0.08939319995368264,"116":-0.11848577276191911,"117":-0.014546803036996146,"118":0.15337563661146716,"119":-0.01595278126843006,"120":-0.1847135121000931,"121":-0.12645157144017954,"122":0.08402192723122275,"123":0.19156368421339673,"124":0.10284055137356828,"125":-0.07840782883450013,"126":-0.12620448134162712,"127":0.0699656571732429,"128":0.1320951242180952,"129":-0.1930095983695211,"130":-0.003953126265602342,"131":0.11325182505918917,"132":0.15042238407665345,"133":0.018199063675112086,"134":0.08264775969427278,"135":-0.13960942373274496,"136":-0.192539186656144,"137":-0.07332331290204956,"138":-0.11591874412585752,"139":0.14313617402699305,"140":-0.08696890937466467,"141":-0.17034827268879466}},"19":{"bias":-0.10145650765672753,"weights":{"0":-0.05229916060508369,"1":-0.21578709030214363,"2":-0.07430582887645933,"3":-0.15537604539626573,"4":0.06701978670975545,"5":-0.15216139459377148,"6":-0.16870854412102745,"7":-0.09439917526304652,"8":0.10238368200297102,"9":0.09284667410950047,"10":-0.0007861083977611515,"11":-0.013618816311450834,"12":-0.02803499652306805,"13":-0.02611041463479478,"14":-0.16915449085528952,"15":-0.013913238996933959,"16":-0.20944663309299905,"17":0.06934715217654057,"18":0.14780348599224988,"19":0.06619428946682963,"20":0.1814941202993355,"21":0.03257427087149543,"22":-0.1765207445170217,"23":0.09667312900295785,"24":-0.19364705949521774,"25":0.06357413726328212,"26":0.07139526310920385,"27":-0.21153993626788448,"28":0.0847448823043083,"29":0.16994401485903046,"30":-0.14396926748538608,"31":-0.13020664849664768,"32":-0.051674588141379506,"33":-0.2123351523097038,"34":-0.18466838828939966,"35":-0.025507156461920477,"36":-0.07935739581116,"37":-0.11187067191766029,"38":-0.021572876675668512,"39":0.02552615510105662,"40":0.15547564722100118,"41":0.01692163966453314,"42":-0.07890463395109967,"43":0.05690921147212944,"44":-0.2359368218381995,"45":0.12159885308102308,"46":-0.10375674436186155,"47":-0.19944935981578135,"48":0.049118136682910075,"49":0.023162108939659524,"50":0.03639898531796596,"51":-0.1235211698944952,"52":0.10884059418690845,"53":0.03102037007976605,"54":0.09994776612907139,"55":-0.16130380270542014,"56":-0.15568700215361234,"57":-0.16597218446657555,"58":-0.1018140941851321,"59":0.06993796253255546,"60":0.16551863450954132,"61":0.07536098109793399,"62":0.12062808787154737,"63":-0.03597939725394796,"64":-0.13710902682834877,"65":-0.08838797256232911,"66":-0.0365397933225831,"67":-0.06842367451795763,"68":0.146176373135847,"69":-0.20182090946100292,"70":-0.03994119002670379,"71":-0.01723442674397194,"72":0.07390507723842417,"73":-0.11764432157510336,"74":0.031988721528875365,"75":-0.16128244262619706,"76":0.06498964536092816,"77":-0.08962294816031682,"78":-0.0010247281734125943,"79":-0.17809480427802804,"80":-0.15302904876531548,"81":0.17282932886948268,"82":-0.1273790294450961,"83":0.0861765150689182,"84":0.17443184639591827,"85":0.07349616460645823,"86":-0.08619159231562705,"87":0.12228203398852446,"88":-0.06617446843065856,"89":-0.12003277545930553,"90":0.0352089154380204,"91":-0.15678749212455895,"92":-0.19793171004193072,"93":-0.04844621604288433,"94":-0.19872983122687796,"95":-0.20596969700792644,"96":0.14428815245431328,"97":-0.06726249645207424,"98":-0.1616728870498683,"99":-0.07211897933300367,"100":0.1605167356079845,"101":0.2485872831224913,"102":-0.13303825381450504,"103":0.0918557698307456,"104":0.01820473434181107,"105":0.11822890425309118,"106":-0.12039185727193581,"107":-0.10776984917032674,"108":-0.1210113734891377,"109":0.005590620520603532,"110":0.1016883282276292,"111":0.4154816283181682,"112":0.0018832778080297011,"113":0.008916884398965692,"114":0.09280272167905261,"115":0.2197742368952254,"116":0.2006447829272079,"117":0.06600398704749907,"118":0.003919731417065904,"119":-0.03138022263393206,"120":-0.0478791066082639,"121":0.09644993260515662,"122":-0.13267744162208342,"123":-0.07894691589851945,"124":0.09658243399966472,"125":-0.031190767647853432,"126":0.12229004152396508,"127":0.28582647456465177,"128":-0.06212796463291538,"129":0.22934619525778088,"130":-0.09744666828599498,"131":-0.045913664535115,"132":-0.015154089655056416,"133":0.07614809462227935,"134":-0.013904060622446566,"135":0.16720818398908846,"136":-0.08981150156176591,"137":-0.0859513091686834,"138":0.0829457055020974,"139":0.003742815656566248,"140":0.18893051676678627,"141":-0.04204337920103896}},"20":{"bias":-0.15201084813946789,"weights":{"0":0.06662460892362042,"1":0.004189776624434637,"2":-0.11509057935032178,"3":-0.07133161297629738,"4":-0.025457796585128027,"5":0.1499113676900587,"6":0.18049939652895503,"7":-0.021585158971010925,"8":0.11093121962562824,"9":0.04672923403582464,"10":0.06022455062227489,"11":-0.10077639361353001,"12":-0.029268747781088227,"13":-0.08264301241520816,"14":-0.10955825025965069,"15":-0.18986056714452695,"16":-0.048120752396303264,"17":0.05499842290733122,"18":-0.11887886047811876,"19":0.14462395274954098,"20":0.20206902060728216,"21":0.019848246720318995,"22":0.0582393226404628,"23":-0.12680644533536328,"24":0.14453482395983297,"25":0.05519742629379439,"26":0.18523387936894653,"27":-0.1429233978113517,"28":0.15687944091298356,"29":-0.15338492869777004,"30":0.17379688942368537,"31":0.15185380946626903,"32":0.10641551562817285,"33":-0.012619287767581673,"34":-0.00129102189785746,"35":0.12422415331843882,"36":-0.18852277094549302,"37":-0.16096766917590638,"38":0.1067870297783413,"39":-0.16975294603038704,"40":0.04560127962955542,"41":-0.02646083501311628,"42":-0.05591189156625259,"43":0.14803438534556534,"44":-0.07762187901816392,"45":-0.11958451068402318,"46":-0.1409520755969349,"47":0.11550271247422358,"48":0.002854483307948734,"49":0.0246345838404763,"50":-0.08208860106321156,"51":0.18206276722512182,"52":0.008304279953941418,"53":-0.17318338880065784,"54":0.09544151484582533,"55":-0.14459209849726556,"56":0.01901886042571073,"57":0.1993339508587708,"58":0.09945169838373011,"59":0.1309167661028753,"60":0.08872367894071179,"61":-0.07560762470333338,"62":0.04882462214583033,"63":0.04933275057884617,"64":-0.14638145857090112,"65":-0.1855633845683003,"66":0.03818384469875941,"67":-0.14795878778813443,"68":-0.054220713372092964,"69":-0.06748847271117883,"70":0.031934588436565665,"71":-0.059675785943410754,"72":0.044631492827742654,"73":0.15942781660694696,"74":0.09987523858602067,"75":-0.08073770572186989,"76":-0.10795767874717371,"77":-0.046197771496110436,"78":0.10518463388267392,"79":0.1823917682056995,"80":-0.06242109281961162,"81":-0.1262126257741549,"82":-0.17477825686362863,"83":-0.17730896036589855,"84":-0.07486407991352606,"85":-0.14837189900244982,"86":-0.04551014519213087,"87":-0.13895413875929694,"88":-0.17233314142577158,"89":-0.18800455502447305,"90":-0.1644805670470889,"91":-0.016891134844812344,"92":-0.18109535024132004,"93":-0.14458226958237608,"94":-0.0008726613622684315,"95":0.10559555120904301,"96":0.18015999524140594,"97":0.09863325173945275,"98":-0.07491883680840722,"99":0.08589118669291612,"100":-0.10709911733734061,"101":0.002532623779315079,"102":0.0783353772142148,"103":0.16976347039960182,"104":-0.09255529354369955,"105":-0.1648597050364695,"106":-0.17864681575995894,"107":0.062033453459731686,"108":-0.14841632739168417,"109":0.06363604977672205,"110":-0.1960969632202496,"111":-0.20906861779917252,"112":-0.14885783968072205,"113":-0.13715015006847736,"114":0.06197641113212996,"115":-0.09085913043527967,"116":0.03434533461793389,"117":-0.03442153158042732,"118":0.12588180427625495,"119":-0.04077740171156899,"120":-0.22880246553283584,"121":-0.06374859557806563,"122":-0.12230852660767996,"123":0.0036104582221197145,"124":0.055064899716769526,"125":0.0989422189223292,"126":0.13738489070477325,"127":-0.1940136449299492,"128":-0.06937753229953182,"129":0.11730778714341687,"130":-0.020252469087651742,"131":-0.14744970955876446,"132":-0.2224275886387725,"133":0.16785172613109323,"134":0.1304031882235877,"135":0.030601132968095066,"136":0.03696456250670668,"137":-0.06183583687440272,"138":0.12108544409579523,"139":-0.003303201810382201,"140":-0.08947950417133475,"141":-0.060479720604210585}},"21":{"bias":-0.11310334501930729,"weights":{"0":-0.13920778607352963,"1":0.17746905236618263,"2":0.11307694514947716,"3":0.1685084014055368,"4":0.11856554825707691,"5":0.08192959995357577,"6":-0.12524526344803263,"7":0.09337866143146617,"8":0.0893302306588555,"9":0.023247620155064715,"10":-0.09098749374828663,"11":0.1489544945359266,"12":-0.08967319489910568,"13":0.11628158316811268,"14":-0.014410262575974194,"15":-0.18621203335235925,"16":-0.05690207208932279,"17":0.15368067689674586,"18":-0.062375649459965064,"19":0.1824974769351138,"20":0.13021634776586494,"21":0.1743259461725532,"22":-0.1991084566653045,"23":-0.13886343829117842,"24":-0.1971671764728186,"25":0.033471011816716925,"26":-0.1821769237271546,"27":-0.013348200324768683,"28":-0.07941958117787712,"29":-0.18189264457167015,"30":-0.04483689325766822,"31":-0.03412280932486074,"32":-0.07157699802680197,"33":0.10917466369477039,"34":0.049639677216049685,"35":0.024090825185605153,"36":-0.12284095105614852,"37":0.18631616230610637,"38":-0.03645248080169897,"39":-0.05273652103999588,"40":-0.08862789479112948,"41":-0.0022927588849266725,"42":0.04480439738153254,"43":-0.11768813743465817,"44":0.2819152283056897,"45":0.0846979032963601,"46":-0.08316851660566497,"47":-0.009340744836163603,"48":-0.07093802432561251,"49":-0.11349323180195128,"50":0.205425416057862,"51":0.09784523416092909,"52":-0.08594967542029466,"53":0.004477140373489217,"54":0.1369318321342617,"55":-0.04546536187825812,"56":0.07810092622151589,"57":0.13218248093701224,"58":0.18081452194040673,"59":-0.04682923274365073,"60":0.00768781963172181,"61":0.15342051295859846,"62":0.05858165950116378,"63":-0.08512217988698788,"64":-0.13421237410732687,"65":0.23609882693230985,"66":0.14533461270926362,"67":0.00037097666751219506,"68":-0.106558757537757,"69":0.10682707955312548,"70":0.11116327814830651,"71":0.12025806589223959,"72":-0.15709345011530845,"73":0.1933306916471868,"74":-0.023320762450352233,"75":-0.06004760043473012,"76":0.22539221571221024,"77":-0.12156827138267866,"78":-0.014191180948464678,"79":0.11067485883097,"80":-0.05329815287691462,"81":-0.06345796885213634,"82":0.05035762053714398,"83":-0.06511808851732143,"84":-0.03193638726880808,"85":0.10175658730393512,"86":-0.015409532606862326,"87":0.15848652972297064,"88":0.10978581393581667,"89":0.1330893411282736,"90":0.10885951500652603,"91":-0.15373737435608612,"92":-0.05953986105553456,"93":-0.1290296770963457,"94":0.14469331209815114,"95":-0.14058503355657906,"96":0.009694757920179627,"97":-0.1105734852255693,"98":0.16285311891587115,"99":0.09491857201541522,"100":0.014709527706786163,"101":-0.09025428352411127,"102":0.10212248117443491,"103":0.10070174461716307,"104":-0.07787613815205491,"105":-0.1818527115275779,"106":0.02729615591142944,"107":0.17002377890894296,"108":-0.06119071795237825,"109":0.09570784144813217,"110":0.09805049367881079,"111":0.022986297825580967,"112":-0.18663762599702688,"113":-0.15179789109054426,"114":0.014494998679575587,"115":-0.12132278633170995,"116":0.04697855266955215,"117":-0.19896335296702758,"118":-0.16884570421504408,"119":0.03548876483006446,"120":-0.159445726392763,"121":-0.0921360520307334,"122":0.1723365113446931,"123":-0.2020024848926768,"124":0.007610500027569755,"125":-0.2107234107692063,"126":-0.11675474845663246,"127":0.09416411875506255,"128":0.06619150302786093,"129":-0.07302463925570991,"130":0.16042720997224483,"131":-0.06427488036604273,"132":0.017822378118012135,"133":-0.08201392267709763,"134":-0.10175553343909902,"135":0.1413080365211116,"136":-0.10995680640902494,"137":-0.13502484606787632,"138":0.039984761852255093,"139":-0.15548126332507226,"140":-0.031715709506182674,"141":-0.10918059250017428}},"22":{"bias":-0.18272449653066133,"weights":{"0":0.08552284974631295,"1":-0.14758839015535583,"2":-0.10197131269190718,"3":-0.16000749707184383,"4":-0.18896855676070584,"5":0.09815486390801428,"6":0.16680894138633398,"7":0.02405902332812423,"8":-0.11028516599979382,"9":0.17896619897473837,"10":0.07818241590214849,"11":0.1099020138508316,"12":0.13776745879235416,"13":-0.03950433383116429,"14":-0.0902036387534658,"15":0.12699252981256529,"16":0.14648010872839118,"17":-0.16884311033569793,"18":-0.032085454407092304,"19":0.04417162310938742,"20":0.08332904853552699,"21":0.008144522415710707,"22":0.060347198923938375,"23":0.07789986453020911,"24":0.1534737484792726,"25":0.11861919859103418,"26":0.16039356273626154,"27":-0.03733151422442679,"28":0.13843083779488213,"29":0.16645715855098553,"30":0.0019154172468632076,"31":-0.06918790782980352,"32":-0.17904752452848094,"33":0.014854273577133004,"34":0.19156495728644296,"35":-0.005685148889287163,"36":-0.058036843716404184,"37":0.05420163910186949,"38":0.08327598452694882,"39":0.14038966764261968,"40":0.04558155749139218,"41":0.13860393184785175,"42":-0.08725079604472062,"43":-0.13464622860219033,"44":0.028242674584752325,"45":-0.1299325735146696,"46":-0.0573974077536172,"47":-0.1720444908093313,"48":0.09268157116091001,"49":0.16791537642607737,"50":-0.17439620777614306,"51":0.1153322955971486,"52":-0.21161345264376777,"53":0.1476289943285963,"54":0.04690702550640179,"55":0.12187253667209437,"56":-0.08233157746218804,"57":0.09184435117829308,"58":-0.08638548292797353,"59":-0.13014006984008805,"60":0.14909908935232832,"61":0.11007922305948253,"62":-0.06870355366076464,"63":-0.002839731631126219,"64":0.14878710499797546,"65":-0.13174523554661574,"66":0.09864865881815026,"67":-0.13694746214322134,"68":-0.0701175452087425,"69":0.03654399976797936,"70":-0.06159097018579054,"71":-0.020104523028349693,"72":0.0006295160291688301,"73":-0.13831389649361828,"74":-0.000041729772790511,"75":-0.13923303300497816,"76":0.10438199693274335,"77":-0.11111344795887017,"78":0.03341753760973304,"79":-0.15196013639435424,"80":0.011307482603655218,"81":-0.15175675775362943,"82":-0.19190857179468063,"83":-0.20788139282430154,"84":-0.0635406980617018,"85":-0.14355764356084483,"86":-0.08860398613900405,"87":0.15011214404503803,"88":0.16450332091937347,"89":-0.16513390654098237,"90":-0.15568470450733485,"91":0.03883194368603579,"92":-0.13597039674378925,"93":-0.20103036939077373,"94":-0.008026147334043795,"95":-0.06302990059665706,"96":-0.07868473090689329,"97":-0.1714681531274667,"98":0.18730362863090072,"99":0.0020672488592579138,"100":0.17061550518331747,"101":0.06515732663824332,"102":0.07538934140552511,"103":-0.01769682722266888,"104":-0.20017920317808024,"105":0.020541579048782503,"106":0.16589724793147897,"107":0.03376721559274068,"108":0.1636566565447713,"109":0.1857789350361077,"110":0.04167887287472363,"111":-0.044819640545501915,"112":0.10229407452932696,"113":-0.16223120366067303,"114":-0.1028364983486042,"115":-0.03401511004841016,"116":-0.17832583980331437,"117":-0.07762251635288557,"118":0.19509689399433397,"119":0.13613758031807519,"120":0.10456069126280557,"121":0.09043245594331872,"122":0.11993461452871884,"123":-0.05116740936065166,"124":0.07305695907439841,"125":-0.05587704679420212,"126":0.010700156977279603,"127":-0.13246054563861084,"128":0.12709135752396564,"129":-0.19374559192992963,"130":0.02406325447313801,"131":0.04592681844400344,"132":-0.13396913841021513,"133":-0.05445102659481239,"134":-0.021646421434231258,"135":0.1263723923676018,"136":0.005842518917373757,"137":-0.004126270375770537,"138":-0.029724535915923854,"139":0.1714407306054536,"140":0.07701441925537587,"141":0.07612880308490576}},"23":{"bias":-0.05800090995053058,"weights":{"0":-0.17699138965912622,"1":-0.07365338741653349,"2":-0.0028443663559125417,"3":-0.06838915185540205,"4":0.007441738007961807,"5":0.14409961058395104,"6":0.018487728872944056,"7":0.16263000448343065,"8":-0.17712320432900935,"9":-0.14840354132557135,"10":0.010496939381541818,"11":0.11204421041572148,"12":0.17897813180334468,"13":-0.09712994065949537,"14":-0.18771391833049655,"15":0.1500963105062266,"16":-0.04776611612391354,"17":-0.10857916513754459,"18":0.10526898772105699,"19":-0.04078174790944297,"20":0.08288868021758407,"21":-0.10859744228996972,"22":-0.08636339481485246,"23":0.07442666835584036,"24":-0.022430439655894103,"25":0.15257643127980836,"26":-0.17268099557567793,"27":0.22233651443781363,"28":-0.015218488403599918,"29":0.08152263274547242,"30":0.060649983870543905,"31":-0.10524572835343943,"32":0.1637231778487369,"33":0.11972533233067492,"34":-0.0997599646235592,"35":-0.10003921955215814,"36":-0.1840579147148333,"37":-0.11660641613209567,"38":0.15221784298086527,"39":-0.09052626234813618,"40":-0.011771490683130445,"41":-0.1618721558379279,"42":0.10939035853641835,"43":-0.2094116129062049,"44":0.19971350112880806,"45":0.1497763960547707,"46":0.14273918486429757,"47":0.12917415967015447,"48":0.07443868549094158,"49":-0.09170564501360905,"50":0.14627303792618238,"51":0.08478028208220661,"52":-0.16373858628683055,"53":0.11007432361352752,"54":-0.03783519534375301,"55":-0.07201402322166135,"56":-0.1659612749201985,"57":0.08054311832470752,"58":-0.08614266367838573,"59":-0.09768464582895263,"60":0.06037628958915564,"61":-0.10909492401836107,"62":0.11605640363937461,"63":-0.066088179203716,"64":0.014320169533289968,"65":-0.13066236810083834,"66":-0.0812780963909458,"67":-0.10291991297995205,"68":0.13109386059638,"69":0.07568384893092094,"70":-0.07699146526191603,"71":-0.14017515158084257,"72":-0.028848063128400377,"73":-0.1392561414265477,"74":0.17097098510200906,"75":0.07591687378312585,"76":0.2328924072735216,"77":0.22936414533617908,"78":0.1422492305377667,"79":0.16014211980531493,"80":0.15080718055861647,"81":-0.12064522612338172,"82":0.17567716982224862,"83":0.2085869490476942,"84":-0.17907039187377494,"85":0.039040474071444946,"86":0.20602402889341714,"87":0.13925262450365172,"88":-0.179768714337516,"89":-0.009844094839799136,"90":-0.10356533935961884,"91":-0.10548020927766028,"92":0.18386260027205814,"93":-0.1610948551636167,"94":0.14408898595681952,"95":-0.12653571566879057,"96":0.133806708682725,"97":0.010728997176609124,"98":-0.1523504166356517,"99":0.046939784318526155,"100":-0.04463673820604986,"101":0.12173524088963443,"102":0.11593682301336056,"103":-0.1047815106120759,"104":-0.010762711467962668,"105":-0.07069150946732207,"106":0.11872101593250844,"107":0.19989677126031735,"108":-0.15411945618173425,"109":-0.07589299057031686,"110":0.0011515065362128275,"111":-0.2066686472415598,"112":0.11961166836596392,"113":0.04952388921304977,"114":0.015628386448083353,"115":-0.029170495066562156,"116":0.09074246135923386,"117":0.17087323833094112,"118":-0.02967312425700882,"119":0.15355027454784728,"120":-0.2069883652149165,"121":0.05294155598469163,"122":0.06152565538715471,"123":-0.15333892738888238,"124":-0.11289371589976824,"125":0.07628037123161846,"126":-0.20157235479256924,"127":0.04701851545806587,"128":-0.11696643397834895,"129":0.11412352097549833,"130":0.004248650559746783,"131":0.03979232885313793,"132":-0.04807612205560683,"133":0.16212525245799234,"134":0.04426803879204077,"135":-0.1999004699647808,"136":0.11593738510527636,"137":-0.06475975355424064,"138":-0.11180559776757708,"139":-0.13200917025010608,"140":-0.04347331970631129,"141":0.10644628053085699}},"24":{"bias":-0.007828879283218869,"weights":{"0":0.19249548702745697,"1":-0.030539508349531574,"2":0.028049588595701468,"3":0.19365763925654303,"4":0.08012099311037901,"5":0.09668242120106481,"6":-0.10334807806364178,"7":-0.04363387301184214,"8":-0.025262604740182534,"9":0.15318402834771552,"10":0.09097780649547194,"11":-0.04241713940834966,"12":0.2137367040941557,"13":-0.0025551699906296173,"14":-0.1494138538876691,"15":-0.14687292548506706,"16":0.11844004478765363,"17":-0.05526110117148029,"18":0.10512242776484887,"19":0.04841140960170067,"20":0.11908035016092644,"21":0.12297067239959492,"22":0.061742908196313194,"23":0.036478710938096896,"24":0.1886831821227833,"25":-0.1637149080598841,"26":-0.1066801234057336,"27":-0.12939356609463934,"28":0.21395040994897208,"29":-0.042128810514304844,"30":-0.05015495551184202,"31":0.09979348548251961,"32":-0.1539755892279736,"33":-0.18697474884418516,"34":0.19708563767651277,"35":-0.03410672593920553,"36":-0.13522247746917376,"37":0.20109520372344647,"38":0.05525807419044596,"39":0.1065823317052574,"40":0.17592842105759432,"41":-0.09250477997965546,"42":0.12319170363381728,"43":-0.0705479198705759,"44":0.016710145022017592,"45":-0.027993042362225218,"46":-0.029495097262565568,"47":-0.09307233834369988,"48":-0.02575515242135103,"49":-0.006370492093792041,"50":-0.10301182338026738,"51":0.03313974128652488,"52":0.18694507212484085,"53":-0.04902773736271287,"54":-0.156079179081474,"55":-0.01747745486604418,"56":0.019102941317007193,"57":-0.06625363916004443,"58":0.10826724313574336,"59":-0.13583195468187081,"60":-0.18499806386824796,"61":0.0661316886363018,"62":-0.06381647901544955,"63":-0.05070971196913078,"64":-0.16832844462800453,"65":-0.04274388573582452,"66":-0.21641611505646105,"67":-0.20251946477467664,"68":0.04190759722892525,"69":-0.01967397989652088,"70":-0.14949685523740097,"71":-0.015743186914099885,"72":-0.17071636299827284,"73":0.007646694787972346,"74":-0.2308553164387608,"75":0.023362694582037446,"76":0.06802065965553541,"77":0.04751820705048997,"78":0.08003814772423187,"79":-0.15131641154669392,"80":-0.12753678393900814,"81":-0.13935364814220663,"82":0.04780538964966301,"83":0.020890194040232138,"84":0.006739788327341062,"85":0.11142782709254673,"86":0.13623247820582418,"87":0.022379086876626438,"88":0.11826342682579395,"89":0.0876316282261489,"90":0.17555193745486908,"91":-0.0029728509777876256,"92":-0.13898537892998886,"93":-0.06775130255720412,"94":-0.09905823810196746,"95":-0.14431275073285305,"96":-0.09660666372300561,"97":0.16379920606272202,"98":-0.09095032712208245,"99":-0.07222700089317959,"100":-0.13151202719008323,"101":0.1649699394610045,"102":-0.17712572357511971,"103":-0.1206807186773735,"104":-0.1613661033273584,"105":0.011116411686254433,"106":0.0651611212429884,"107":-0.1614538182912511,"108":0.15079477093297577,"109":0.0759918787108767,"110":-0.1981986423728087,"111":0.17586521353570628,"112":0.19045798713964593,"113":0.05384744834149177,"114":-0.06559802849992147,"115":0.17274750222806798,"116":0.1657777836072767,"117":0.014364250321246308,"118":-0.03183812136265717,"119":-0.15036455609812824,"120":-0.0014827343702018747,"121":-0.0533825735792881,"122":0.17056214678151344,"123":-0.17274261667700672,"124":-0.14202195080806096,"125":0.06088278608993502,"126":-0.02908321979527171,"127":-0.09348983282300202,"128":-0.13388985929506825,"129":-0.15500380714148318,"130":0.19067296876294815,"131":-0.08397150677642004,"132":0.12503656323214157,"133":-0.19977613465099464,"134":-0.15969923151398138,"135":-0.0841061058941972,"136":-0.14088476292510102,"137":-0.17009014196468525,"138":-0.028872206505133925,"139":-0.06155844497548565,"140":-0.060361809121773434,"141":-0.06544085621541407}},"25":{"bias":-0.11749970975349834,"weights":{"0":-0.2135773617751351,"1":0.1194276054884272,"2":0.07830981826218633,"3":-0.1889420541241953,"4":-0.24581546000054003,"5":0.10226982314924986,"6":0.03949683923816378,"7":-0.15204171141893885,"8":-0.08254369814047503,"9":-0.19139577037991015,"10":0.12930194063533526,"11":-0.15548969816638095,"12":-0.1991177465476304,"13":0.0642418459809255,"14":-0.024235851550295444,"15":-0.19426384008798814,"16":0.10736846732335295,"17":-0.2008996735700792,"18":-0.10659187973568231,"19":0.15841727292234686,"20":0.029596824608298797,"21":-0.011291306404552686,"22":-0.11024418666311603,"23":-0.16018592612752497,"24":-0.10070342496916143,"25":-0.12624084591434054,"26":-0.024025809449032376,"27":0.059151738079602924,"28":-0.181268883141584,"29":-0.008019162553490437,"30":-0.008778645984714416,"31":-0.016378688143620593,"32":0.10418709458289613,"33":-0.269366794646927,"34":-0.018899248383332304,"35":0.16467260884500323,"36":0.15885920314464974,"37":0.05654802510411063,"38":-0.17121253836115305,"39":0.2361878139820357,"40":0.032716380108351414,"41":0.03253706659847745,"42":-0.03138169289785443,"43":-0.1879397554628099,"44":-0.2311371312905006,"45":-0.011430235747582418,"46":0.09454404552645548,"47":0.0887088329294318,"48":0.17103483551102253,"49":-0.12333357584790841,"50":-0.012108672735368307,"51":0.05981595266485095,"52":-0.021531596136742343,"53":-0.21957787202975657,"54":-0.15405861985212982,"55":0.01568297585948598,"56":-0.06581079471215527,"57":-0.018490041059963314,"58":-0.11146534421033286,"59":-0.19915114577962156,"60":0.16546688778568866,"61":0.1107062986055403,"62":0.029246135196281792,"63":-0.08115582034523533,"64":-0.15091348566740675,"65":0.08516237463787092,"66":-0.21535655556889974,"67":-0.08354501457163421,"68":-0.0048521569066514655,"69":-0.20799428483512508,"70":0.14353407117287093,"71":0.01042783847667803,"72":0.17224504976754218,"73":0.03570281182642043,"74":-0.11754545898830414,"75":-0.10297083569320083,"76":0.0036737259622235414,"77":-0.24377185539233429,"78":-0.16042005931818074,"79":0.09832779066356383,"80":-0.14326486179810102,"81":-0.043155825989579275,"82":-0.10661265583398288,"83":-0.16125136379094146,"84":-0.2066615001218739,"85":-0.20065911168145756,"86":0.12825030650729197,"87":-0.18020602181252648,"88":-0.14113657490049641,"89":0.1398044693778493,"90":-0.07870732813857707,"91":0.18468332717610414,"92":0.10523097231333593,"93":0.06056169002199173,"94":0.10458214090812938,"95":-0.0718654683617969,"96":0.10536617082665838,"97":-0.14980423905702192,"98":-0.060245295400368895,"99":-0.17574861199691827,"100":0.13002705705126177,"101":-0.1388419484858186,"102":0.03822254755228409,"103":-0.03328294801495108,"104":-0.1701370567114712,"105":-0.03847671409261667,"106":-0.06980206510950411,"107":-0.06846709377572666,"108":0.18289601945247885,"109":-0.13455758660685818,"110":0.1824635142644055,"111":0.33255390297043197,"112":0.10499024376438118,"113":0.218826395344036,"114":0.21524307678682583,"115":-0.0671628947263162,"116":-0.0109959027690993,"117":0.16599126272662432,"118":0.17419045562789734,"119":0.15181017036933314,"120":-0.05516966771370415,"121":0.1347902217366393,"122":0.15591086704581872,"123":0.24781114964410084,"124":0.0014125488150553839,"125":0.20212559520925966,"126":0.1492843313573991,"127":0.2641319907498042,"128":-0.01619594119597414,"129":0.04302546041272662,"130":0.13871845464556762,"131":0.02782958647843595,"132":0.05281275503898098,"133":0.07361712151769072,"134":0.07930411837559849,"135":0.23763138506514503,"136":0.11209932685776103,"137":0.21774048667055773,"138":-0.031128997144481047,"139":0.14153712024808413,"140":-0.09101703848712284,"141":0.21847089489918142}},"26":{"bias":-0.12325377611035704,"weights":{"0":0.07843729616624331,"1":0.058098743127708165,"2":-0.01944134157213775,"3":0.19955828686750654,"4":0.12913954610418826,"5":-0.07501078535991011,"6":-0.009931651289733782,"7":0.02183156959373039,"8":-0.019080748974550702,"9":0.22102736256640224,"10":-0.11867601958475585,"11":-0.1305578789810731,"12":-0.02537433559686119,"13":0.0807988325979578,"14":-0.04857207645831254,"15":0.0761205976693887,"16":0.07879505777007038,"17":0.1861786636673212,"18":-0.15977659420745016,"19":0.07952672826073935,"20":-0.11409409980777621,"21":-0.0964675264271134,"22":-0.0586705255419673,"23":0.22354753504389396,"24":0.10172999323622565,"25":0.027068199308566403,"26":-0.01992384602426541,"27":-0.11047081628210134,"28":-0.07847668418766157,"29":-0.11665294515143662,"30":0.16588934209734352,"31":0.19349912752556858,"32":0.06670342155723491,"33":0.10239578716911284,"34":0.137021491068731,"35":-0.11507994638933781,"36":0.0036744918030706354,"37":-0.0019282962671222353,"38":-0.09859372269546565,"39":0.12872887928705404,"40":-0.1388665319654701,"41":-0.002515816500371833,"42":0.07821754467073297,"43":0.0755148600829668,"44":0.044329023582837475,"45":0.15055451779227313,"46":-0.015530666903093812,"47":-0.03871721405132837,"48":-0.04587690449578728,"49":-0.18206420433249149,"50":0.007696625748122499,"51":0.011961458009087276,"52":-0.19411706680031665,"53":-0.06879792493671241,"54":-0.21948828939595508,"55":-0.20083514721690882,"56":0.12025033351599687,"57":-0.16631625329977634,"58":-0.02086921397339894,"59":-0.0625117754918868,"60":-0.13287726737932176,"61":-0.11155908091057015,"62":0.09038676054601426,"63":-0.05966539920638324,"64":-0.13018394967270022,"65":-0.1293223562671798,"66":0.10260067435835268,"67":0.05949802997264352,"68":-0.0687260789685702,"69":-0.13742714221239022,"70":0.11703657286715122,"71":-0.02761126028859213,"72":-0.004418004953502926,"73":0.009072483990398703,"74":0.08261573319358895,"75":-0.1787403241613367,"76":-0.060767841275579826,"77":0.12743464416702405,"78":0.04859752256016183,"79":-0.09907254791209089,"80":0.10167396917782968,"81":0.1673739407426322,"82":0.002108037054988744,"83":-0.15547400979999357,"84":-0.18430454308305524,"85":0.1890965996523096,"86":-0.1480366187009541,"87":0.06882366337655478,"88":-0.0071218337321012634,"89":0.14186960410398233,"90":-0.1636138872976363,"91":0.060049688361367086,"92":-0.042915403026570716,"93":0.11033732041286155,"94":-0.06565876588451242,"95":0.06127062527225863,"96":0.04887223171477766,"97":0.1847921500944373,"98":0.0017616360914606286,"99":0.10400844024496643,"100":0.11371089321179641,"101":0.019707037020982206,"102":-0.14615184113629584,"103":-0.12596776930905226,